FANN_FLO_2.1
num_layers=3
learning_rate=0.700000
connection_rate=1.000000
network_type=0
learning_momentum=0.400000
training_algorithm=0
train_error_function=1
train_stop_function=0
cascade_output_change_fraction=0.010000
quickprop_decay=-0.000100
quickprop_mu=1.750000
rprop_increase_factor=1.200000
rprop_decrease_factor=0.500000
rprop_delta_min=0.000000
rprop_delta_max=50.000000
rprop_delta_zero=0.100000
cascade_output_stagnation_epochs=12
cascade_candidate_change_fraction=0.010000
cascade_candidate_stagnation_epochs=12
cascade_max_out_epochs=150
cascade_min_out_epochs=50
cascade_max_cand_epochs=150
cascade_min_cand_epochs=50
cascade_num_candidate_groups=2
bit_fail_limit=3.49999994039535522461e-01
cascade_candidate_limit=1.00000000000000000000e+03
cascade_weight_multiplier=4.00000005960464477539e-01
cascade_activation_functions_count=10
cascade_activation_functions=3 5 7 8 10 11 14 15 16 17 
cascade_activation_steepnesses_count=4
cascade_activation_steepnesses=2.50000000000000000000e-01 5.00000000000000000000e-01 7.50000000000000000000e-01 1.00000000000000000000e+00 
layer_sizes=341 6 5 
scale_included=0
neurons (num_inputs, activation_function, activation_steepness)=(0, 0, 0.00000000000000000000e+00) (0, 0, 0.00000000000000000000e+00) (0, 0, 0.00000000000000000000e+00) (0, 0, 0.00000000000000000000e+00) (0, 0, 0.00000000000000000000e+00) (0, 0, 0.00000000000000000000e+00) (0, 0, 0.00000000000000000000e+00) (0, 0, 0.00000000000000000000e+00) (0, 0, 0.00000000000000000000e+00) (0, 0, 0.00000000000000000000e+00) (0, 0, 0.00000000000000000000e+00) (0, 0, 0.00000000000000000000e+00) (0, 0, 0.00000000000000000000e+00) (0, 0, 0.00000000000000000000e+00) (0, 0, 0.00000000000000000000e+00) (0, 0, 0.00000000000000000000e+00) (0, 0, 0.00000000000000000000e+00) (0, 0, 0.00000000000000000000e+00) (0, 0, 0.00000000000000000000e+00) (0, 0, 0.00000000000000000000e+00) (0, 0, 0.00000000000000000000e+00) (0, 0, 0.00000000000000000000e+00) (0, 0, 0.00000000000000000000e+00) (0, 0, 0.00000000000000000000e+00) (0, 0, 0.00000000000000000000e+00) (0, 0, 0.00000000000000000000e+00) (0, 0, 0.00000000000000000000e+00) (0, 0, 0.00000000000000000000e+00) (0, 0, 0.00000000000000000000e+00) (0, 0, 0.00000000000000000000e+00) (0, 0, 0.00000000000000000000e+00) (0, 0, 0.00000000000000000000e+00) (0, 0, 0.00000000000000000000e+00) (0, 0, 0.00000000000000000000e+00) (0, 0, 0.00000000000000000000e+00) (0, 0, 0.00000000000000000000e+00) (0, 0, 0.00000000000000000000e+00) (0, 0, 0.00000000000000000000e+00) (0, 0, 0.00000000000000000000e+00) (0, 0, 0.00000000000000000000e+00) (0, 0, 0.00000000000000000000e+00) (0, 0, 0.00000000000000000000e+00) (0, 0, 0.00000000000000000000e+00) (0, 0, 0.00000000000000000000e+00) (0, 0, 0.00000000000000000000e+00) (0, 0, 0.00000000000000000000e+00) (0, 0, 0.00000000000000000000e+00) (0, 0, 0.00000000000000000000e+00) (0, 0, 0.00000000000000000000e+00) (0, 0, 0.00000000000000000000e+00) (0, 0, 0.00000000000000000000e+00) (0, 0, 0.00000000000000000000e+00) (0, 0, 0.00000000000000000000e+00) (0, 0, 0.00000000000000000000e+00) (0, 0, 0.00000000000000000000e+00) (0, 0, 0.00000000000000000000e+00) (0, 0, 0.00000000000000000000e+00) (0, 0, 0.00000000000000000000e+00) (0, 0, 0.00000000000000000000e+00) (0, 0, 0.00000000000000000000e+00) (0, 0, 0.00000000000000000000e+00) (0, 0, 0.00000000000000000000e+00) (0, 0, 0.00000000000000000000e+00) (0, 0, 0.00000000000000000000e+00) (0, 0, 0.00000000000000000000e+00) (0, 0, 0.00000000000000000000e+00) (0, 0, 0.00000000000000000000e+00) (0, 0, 0.00000000000000000000e+00) (0, 0, 0.00000000000000000000e+00) (0, 0, 0.00000000000000000000e+00) (0, 0, 0.00000000000000000000e+00) (0, 0, 0.00000000000000000000e+00) (0, 0, 0.00000000000000000000e+00) (0, 0, 0.00000000000000000000e+00) (0, 0, 0.00000000000000000000e+00) (0, 0, 0.00000000000000000000e+00) (0, 0, 0.00000000000000000000e+00) (0, 0, 0.00000000000000000000e+00) (0, 0, 0.00000000000000000000e+00) (0, 0, 0.00000000000000000000e+00) (0, 0, 0.00000000000000000000e+00) (0, 0, 0.00000000000000000000e+00) (0, 0, 0.00000000000000000000e+00) (0, 0, 0.00000000000000000000e+00) (0, 0, 0.00000000000000000000e+00) (0, 0, 0.00000000000000000000e+00) (0, 0, 0.00000000000000000000e+00) (0, 0, 0.00000000000000000000e+00) (0, 0, 0.00000000000000000000e+00) (0, 0, 0.00000000000000000000e+00) (0, 0, 0.00000000000000000000e+00) (0, 0, 0.00000000000000000000e+00) (0, 0, 0.00000000000000000000e+00) (0, 0, 0.00000000000000000000e+00) (0, 0, 0.00000000000000000000e+00) (0, 0, 0.00000000000000000000e+00) (0, 0, 0.00000000000000000000e+00) (0, 0, 0.00000000000000000000e+00) (0, 0, 0.00000000000000000000e+00) (0, 0, 0.00000000000000000000e+00) (0, 0, 0.00000000000000000000e+00) (0, 0, 0.00000000000000000000e+00) (0, 0, 0.00000000000000000000e+00) (0, 0, 0.00000000000000000000e+00) (0, 0, 0.00000000000000000000e+00) (0, 0, 0.00000000000000000000e+00) (0, 0, 0.00000000000000000000e+00) (0, 0, 0.00000000000000000000e+00) (0, 0, 0.00000000000000000000e+00) (0, 0, 0.00000000000000000000e+00) (0, 0, 0.00000000000000000000e+00) (0, 0, 0.00000000000000000000e+00) (0, 0, 0.00000000000000000000e+00) (0, 0, 0.00000000000000000000e+00) (0, 0, 0.00000000000000000000e+00) (0, 0, 0.00000000000000000000e+00) (0, 0, 0.00000000000000000000e+00) (0, 0, 0.00000000000000000000e+00) (0, 0, 0.00000000000000000000e+00) (0, 0, 0.00000000000000000000e+00) (0, 0, 0.00000000000000000000e+00) (0, 0, 0.00000000000000000000e+00) (0, 0, 0.00000000000000000000e+00) (0, 0, 0.00000000000000000000e+00) (0, 0, 0.00000000000000000000e+00) (0, 0, 0.00000000000000000000e+00) (0, 0, 0.00000000000000000000e+00) (0, 0, 0.00000000000000000000e+00) (0, 0, 0.00000000000000000000e+00) (0, 0, 0.00000000000000000000e+00) (0, 0, 0.00000000000000000000e+00) (0, 0, 0.00000000000000000000e+00) (0, 0, 0.00000000000000000000e+00) (0, 0, 0.00000000000000000000e+00) (0, 0, 0.00000000000000000000e+00) (0, 0, 0.00000000000000000000e+00) (0, 0, 0.00000000000000000000e+00) (0, 0, 0.00000000000000000000e+00) (0, 0, 0.00000000000000000000e+00) (0, 0, 0.00000000000000000000e+00) (0, 0, 0.00000000000000000000e+00) (0, 0, 0.00000000000000000000e+00) (0, 0, 0.00000000000000000000e+00) (0, 0, 0.00000000000000000000e+00) (0, 0, 0.00000000000000000000e+00) (0, 0, 0.00000000000000000000e+00) (0, 0, 0.00000000000000000000e+00) (0, 0, 0.00000000000000000000e+00) (0, 0, 0.00000000000000000000e+00) (0, 0, 0.00000000000000000000e+00) (0, 0, 0.00000000000000000000e+00) (0, 0, 0.00000000000000000000e+00) (0, 0, 0.00000000000000000000e+00) (0, 0, 0.00000000000000000000e+00) (0, 0, 0.00000000000000000000e+00) (0, 0, 0.00000000000000000000e+00) (0, 0, 0.00000000000000000000e+00) (0, 0, 0.00000000000000000000e+00) (0, 0, 0.00000000000000000000e+00) (0, 0, 0.00000000000000000000e+00) (0, 0, 0.00000000000000000000e+00) (0, 0, 0.00000000000000000000e+00) (0, 0, 0.00000000000000000000e+00) (0, 0, 0.00000000000000000000e+00) (0, 0, 0.00000000000000000000e+00) (0, 0, 0.00000000000000000000e+00) (0, 0, 0.00000000000000000000e+00) (0, 0, 0.00000000000000000000e+00) (0, 0, 0.00000000000000000000e+00) (0, 0, 0.00000000000000000000e+00) (0, 0, 0.00000000000000000000e+00) (0, 0, 0.00000000000000000000e+00) (0, 0, 0.00000000000000000000e+00) (0, 0, 0.00000000000000000000e+00) (0, 0, 0.00000000000000000000e+00) (0, 0, 0.00000000000000000000e+00) (0, 0, 0.00000000000000000000e+00) (0, 0, 0.00000000000000000000e+00) (0, 0, 0.00000000000000000000e+00) (0, 0, 0.00000000000000000000e+00) (0, 0, 0.00000000000000000000e+00) (0, 0, 0.00000000000000000000e+00) (0, 0, 0.00000000000000000000e+00) (0, 0, 0.00000000000000000000e+00) (0, 0, 0.00000000000000000000e+00) (0, 0, 0.00000000000000000000e+00) (0, 0, 0.00000000000000000000e+00) (0, 0, 0.00000000000000000000e+00) (0, 0, 0.00000000000000000000e+00) (0, 0, 0.00000000000000000000e+00) (0, 0, 0.00000000000000000000e+00) (0, 0, 0.00000000000000000000e+00) (0, 0, 0.00000000000000000000e+00) (0, 0, 0.00000000000000000000e+00) (0, 0, 0.00000000000000000000e+00) (0, 0, 0.00000000000000000000e+00) (0, 0, 0.00000000000000000000e+00) (0, 0, 0.00000000000000000000e+00) (0, 0, 0.00000000000000000000e+00) (0, 0, 0.00000000000000000000e+00) (0, 0, 0.00000000000000000000e+00) (0, 0, 0.00000000000000000000e+00) (0, 0, 0.00000000000000000000e+00) (0, 0, 0.00000000000000000000e+00) (0, 0, 0.00000000000000000000e+00) (0, 0, 0.00000000000000000000e+00) (0, 0, 0.00000000000000000000e+00) (0, 0, 0.00000000000000000000e+00) (0, 0, 0.00000000000000000000e+00) (0, 0, 0.00000000000000000000e+00) (0, 0, 0.00000000000000000000e+00) (0, 0, 0.00000000000000000000e+00) (0, 0, 0.00000000000000000000e+00) (0, 0, 0.00000000000000000000e+00) (0, 0, 0.00000000000000000000e+00) (0, 0, 0.00000000000000000000e+00) (0, 0, 0.00000000000000000000e+00) (0, 0, 0.00000000000000000000e+00) (0, 0, 0.00000000000000000000e+00) (0, 0, 0.00000000000000000000e+00) (0, 0, 0.00000000000000000000e+00) (0, 0, 0.00000000000000000000e+00) (0, 0, 0.00000000000000000000e+00) (0, 0, 0.00000000000000000000e+00) (0, 0, 0.00000000000000000000e+00) (0, 0, 0.00000000000000000000e+00) (0, 0, 0.00000000000000000000e+00) (0, 0, 0.00000000000000000000e+00) (0, 0, 0.00000000000000000000e+00) (0, 0, 0.00000000000000000000e+00) (0, 0, 0.00000000000000000000e+00) (0, 0, 0.00000000000000000000e+00) (0, 0, 0.00000000000000000000e+00) (0, 0, 0.00000000000000000000e+00) (0, 0, 0.00000000000000000000e+00) (0, 0, 0.00000000000000000000e+00) (0, 0, 0.00000000000000000000e+00) (0, 0, 0.00000000000000000000e+00) (0, 0, 0.00000000000000000000e+00) (0, 0, 0.00000000000000000000e+00) (0, 0, 0.00000000000000000000e+00) (0, 0, 0.00000000000000000000e+00) (0, 0, 0.00000000000000000000e+00) (0, 0, 0.00000000000000000000e+00) (0, 0, 0.00000000000000000000e+00) (0, 0, 0.00000000000000000000e+00) (0, 0, 0.00000000000000000000e+00) (0, 0, 0.00000000000000000000e+00) (0, 0, 0.00000000000000000000e+00) (0, 0, 0.00000000000000000000e+00) (0, 0, 0.00000000000000000000e+00) (0, 0, 0.00000000000000000000e+00) (0, 0, 0.00000000000000000000e+00) (0, 0, 0.00000000000000000000e+00) (0, 0, 0.00000000000000000000e+00) (0, 0, 0.00000000000000000000e+00) (0, 0, 0.00000000000000000000e+00) (0, 0, 0.00000000000000000000e+00) (0, 0, 0.00000000000000000000e+00) (0, 0, 0.00000000000000000000e+00) (0, 0, 0.00000000000000000000e+00) (0, 0, 0.00000000000000000000e+00) (0, 0, 0.00000000000000000000e+00) (0, 0, 0.00000000000000000000e+00) (0, 0, 0.00000000000000000000e+00) (0, 0, 0.00000000000000000000e+00) (0, 0, 0.00000000000000000000e+00) (0, 0, 0.00000000000000000000e+00) (0, 0, 0.00000000000000000000e+00) (0, 0, 0.00000000000000000000e+00) (0, 0, 0.00000000000000000000e+00) (0, 0, 0.00000000000000000000e+00) (0, 0, 0.00000000000000000000e+00) (0, 0, 0.00000000000000000000e+00) (0, 0, 0.00000000000000000000e+00) (0, 0, 0.00000000000000000000e+00) (0, 0, 0.00000000000000000000e+00) (0, 0, 0.00000000000000000000e+00) (0, 0, 0.00000000000000000000e+00) (0, 0, 0.00000000000000000000e+00) (0, 0, 0.00000000000000000000e+00) (0, 0, 0.00000000000000000000e+00) (0, 0, 0.00000000000000000000e+00) (0, 0, 0.00000000000000000000e+00) (0, 0, 0.00000000000000000000e+00) (0, 0, 0.00000000000000000000e+00) (0, 0, 0.00000000000000000000e+00) (0, 0, 0.00000000000000000000e+00) (0, 0, 0.00000000000000000000e+00) (0, 0, 0.00000000000000000000e+00) (0, 0, 0.00000000000000000000e+00) (0, 0, 0.00000000000000000000e+00) (0, 0, 0.00000000000000000000e+00) (0, 0, 0.00000000000000000000e+00) (0, 0, 0.00000000000000000000e+00) (0, 0, 0.00000000000000000000e+00) (0, 0, 0.00000000000000000000e+00) (0, 0, 0.00000000000000000000e+00) (0, 0, 0.00000000000000000000e+00) (0, 0, 0.00000000000000000000e+00) (0, 0, 0.00000000000000000000e+00) (0, 0, 0.00000000000000000000e+00) (0, 0, 0.00000000000000000000e+00) (0, 0, 0.00000000000000000000e+00) (0, 0, 0.00000000000000000000e+00) (0, 0, 0.00000000000000000000e+00) (0, 0, 0.00000000000000000000e+00) (0, 0, 0.00000000000000000000e+00) (0, 0, 0.00000000000000000000e+00) (0, 0, 0.00000000000000000000e+00) (0, 0, 0.00000000000000000000e+00) (0, 0, 0.00000000000000000000e+00) (0, 0, 0.00000000000000000000e+00) (0, 0, 0.00000000000000000000e+00) (0, 0, 0.00000000000000000000e+00) (0, 0, 0.00000000000000000000e+00) (0, 0, 0.00000000000000000000e+00) (0, 0, 0.00000000000000000000e+00) (0, 0, 0.00000000000000000000e+00) (0, 0, 0.00000000000000000000e+00) (0, 0, 0.00000000000000000000e+00) (0, 0, 0.00000000000000000000e+00) (0, 0, 0.00000000000000000000e+00) (0, 0, 0.00000000000000000000e+00) (0, 0, 0.00000000000000000000e+00) (0, 0, 0.00000000000000000000e+00) (0, 0, 0.00000000000000000000e+00) (0, 0, 0.00000000000000000000e+00) (0, 0, 0.00000000000000000000e+00) (0, 0, 0.00000000000000000000e+00) (0, 0, 0.00000000000000000000e+00) (0, 0, 0.00000000000000000000e+00) (0, 0, 0.00000000000000000000e+00) (0, 0, 0.00000000000000000000e+00) (0, 0, 0.00000000000000000000e+00) (0, 0, 0.00000000000000000000e+00) (0, 0, 0.00000000000000000000e+00) (0, 0, 0.00000000000000000000e+00) (0, 0, 0.00000000000000000000e+00) (0, 0, 0.00000000000000000000e+00) (0, 0, 0.00000000000000000000e+00) (341, 4, 5.00000000000000000000e-01) (341, 4, 5.00000000000000000000e-01) (341, 4, 5.00000000000000000000e-01) (341, 4, 5.00000000000000000000e-01) (341, 4, 5.00000000000000000000e-01) (0, 0, 0.00000000000000000000e+00) (6, 4, 5.00000000000000000000e-01) (6, 4, 5.00000000000000000000e-01) (6, 4, 5.00000000000000000000e-01) (6, 4, 5.00000000000000000000e-01) (0, 0, 0.00000000000000000000e+00) 
connections (connected_to_neuron, weight)=(0, -3.52972396649420261383e-03) (1, -9.46464762091636657715e-02) (2, -3.60719151794910430908e-02) (3, -6.00725263357162475586e-02) (4, 2.51719579100608825684e-02) (5, -1.01311907172203063965e-01) (6, -1.35963326320052146912e-02) (7, -7.74032087065279483795e-04) (8, -1.08396477997303009033e-01) (9, 7.82643780112266540527e-02) (10, -2.31679677963256835938e-02) (11, -7.14721232652664184570e-02) (12, 2.59573385119438171387e-02) (13, 1.22869469225406646729e-01) (14, -5.05776517093181610107e-02) (15, -8.42725299298763275146e-03) (16, 5.85292726755142211914e-02) (17, 5.36287501454353332520e-02) (18, -7.55267664790153503418e-02) (19, -2.91132777929306030273e-01) (20, -1.53603911399841308594e-01) (21, -1.15561828017234802246e-01) (22, 2.50011403113603591919e-02) (23, -1.30257442593574523926e-01) (24, 8.30892398953437805176e-02) (25, 9.91871356964111328125e-02) (26, -1.56744122505187988281e-02) (27, -6.57533761113882064819e-03) (28, -3.71267693117260932922e-03) (29, -1.37744590640068054199e-01) (30, 9.14752110838890075684e-02) (31, 1.79018750786781311035e-02) (32, 3.56439501047134399414e-02) (33, 8.57150778174400329590e-02) (34, -7.92940035462379455566e-02) (35, 5.66241852939128875732e-02) (36, -4.48284894227981567383e-02) (37, 7.86827355623245239258e-02) (38, -4.87151965498924255371e-02) (39, -3.54825370013713836670e-02) (40, -4.34891097247600555420e-02) (41, 8.75433627516031265259e-03) (42, -4.62756073102355003357e-03) (43, -3.16602811217308044434e-02) (44, 8.88574197888374328613e-02) (45, 7.91040901094675064087e-03) (46, -1.21513962745666503906e-01) (47, 8.46891626715660095215e-02) (48, -7.00432434678077697754e-02) (49, -1.68456032872200012207e-01) (50, -6.02685175836086273193e-02) (51, 7.54362195730209350586e-02) (52, 3.67580801248550415039e-02) (53, 6.13983944058418273926e-02) (54, -2.71701682358980178833e-02) (55, 8.89272801578044891357e-03) (56, -2.41246949881315231323e-02) (57, 7.83019363880157470703e-02) (58, 1.29085630178451538086e-01) (59, -8.78441706299781799316e-02) (60, 8.83967131376266479492e-02) (61, -3.67908552289009094238e-02) (62, 7.77333006262779235840e-02) (63, 9.02817100286483764648e-02) (64, -4.67784181237220764160e-02) (65, -4.54303063452243804932e-02) (66, -9.41243618726730346680e-02) (67, -1.79433450102806091309e-02) (68, 9.01036262512207031250e-02) (69, -1.48359239101409912109e-01) (70, -5.99536523222923278809e-02) (71, -5.80979362130165100098e-02) (72, -1.09969392418861389160e-01) (73, -2.78647337108850479126e-02) (74, -8.94104763865470886230e-02) (75, -1.67327105998992919922e-01) (76, 3.71316149830818176270e-02) (77, -5.33030070364475250244e-02) (78, 5.70821911096572875977e-02) (79, -1.81670948863029479980e-01) (80, 9.67388674616813659668e-02) (81, -1.69379487633705139160e-01) (82, 1.96202900260686874390e-02) (83, -3.25626097619533538818e-02) (84, 4.82191964983940124512e-02) (85, -9.09792110323905944824e-02) (86, -2.09335252642631530762e-01) (87, -9.54581648111343383789e-02) (88, 7.37742558121681213379e-02) (89, -1.61227986216545104980e-01) (90, -1.06270767748355865479e-01) (91, -9.02926325798034667969e-02) (92, -7.60453268885612487793e-02) (93, 9.08209234476089477539e-02) (94, 1.55776411294937133789e-01) (95, -1.47837743163108825684e-01) (96, -1.32446974515914916992e-01) (97, 1.35398246347904205322e-02) (98, -1.65526345372200012207e-02) (99, -1.08288630843162536621e-01) (100, 1.03008612990379333496e-01) (101, -1.14800542593002319336e-01) (102, -6.25658258795738220215e-02) (103, 4.87751811742782592773e-02) (104, -9.05938446521759033203e-02) (105, -7.92280659079551696777e-02) (106, 3.92944626510143280029e-02) (107, 2.34529707086039707065e-05) (108, 1.66867777705192565918e-01) (109, 6.23558796942234039307e-02) (110, -3.99078249931335449219e-01) (111, -1.66228681802749633789e-01) (112, 9.46255102753639221191e-02) (113, -1.95098612457513809204e-02) (114, -1.09251081943511962891e-01) (115, 2.61090719141066074371e-03) (116, 1.65028169751167297363e-01) (117, -3.61402146518230438232e-02) (118, 8.82930904626846313477e-02) (119, -1.98849469423294067383e-01) (120, -8.31452980637550354004e-02) (121, -2.70971804857254028320e-01) (122, -9.04182121157646179199e-02) (123, -1.35517805814743041992e-01) (124, -5.66022209823131561279e-02) (125, 4.85748015344142913818e-02) (126, 6.52270540595054626465e-02) (127, -1.59015044569969177246e-01) (128, 1.40400409698486328125e-01) (129, -1.36819601058959960938e-01) (130, -9.55256596207618713379e-02) (131, -2.11065337061882019043e-02) (132, 2.85930559039115905762e-02) (133, 1.75531640648841857910e-01) (134, 3.47480573691427707672e-03) (135, -1.79861932992935180664e-01) (136, 3.10752936638891696930e-03) (137, -3.31756775267422199249e-04) (138, -5.74329569935798645020e-02) (139, -2.30863124132156372070e-01) (140, 3.01876850426197052002e-02) (141, -1.36164635419845581055e-01) (142, -8.38171243667602539062e-02) (143, -5.90404309332370758057e-02) (144, 7.19935372471809387207e-02) (145, 4.82809841632843017578e-02) (146, 1.29346534609794616699e-01) (147, -2.02173024415969848633e-01) (148, 7.46285691857337951660e-02) (149, -1.26401022076606750488e-01) (150, -3.32641869783401489258e-01) (151, 1.14497439935803413391e-02) (152, 8.22427794337272644043e-02) (153, 6.93622156977653503418e-02) (154, -1.08885362744331359863e-01) (155, 9.02789756655693054199e-02) (156, 6.89442455768585205078e-02) (157, -2.55902782082557678223e-02) (158, 2.28792224079370498657e-02) (159, -1.20268769562244415283e-01) (160, -1.88026979565620422363e-01) (161, 4.10143584012985229492e-02) (162, -9.88797023892402648926e-02) (163, -1.36728808283805847168e-01) (164, 2.50735655426979064941e-02) (165, 7.27249905467033386230e-02) (166, -1.14478312432765960693e-01) (167, -4.34590220451354980469e-01) (168, 2.95696314424276351929e-02) (169, -6.72744140028953552246e-02) (170, -1.57486006617546081543e-01) (171, 4.56388555467128753662e-02) (172, 1.35711640119552612305e-01) (173, 2.98255160450935363770e-02) (174, -1.50102362036705017090e-01) (175, 1.71630494296550750732e-02) (176, -1.14198692142963409424e-01) (177, -1.00866153836250305176e-01) (178, -8.73898342251777648926e-02) (179, -7.73608833551406860352e-02) (180, -2.56201118230819702148e-01) (181, 7.19083398580551147461e-02) (182, -9.76048037409782409668e-02) (183, -2.64565438032150268555e-01) (184, 2.36690044403076171875e-02) (185, -5.18361702561378479004e-02) (186, -2.23914727568626403809e-01) (187, -3.35467159748077392578e-01) (188, -4.23813983798027038574e-02) (189, -8.82485210895538330078e-02) (190, 6.12155883572995662689e-04) (191, 1.13320671021938323975e-01) (192, -3.34481857717037200928e-02) (193, 1.22633986175060272217e-01) (194, -4.06656935811042785645e-02) (195, -1.40655681490898132324e-01) (196, -2.15873822569847106934e-01) (197, 4.16048020124435424805e-02) (198, -6.25070258975028991699e-02) (199, 1.24456509947776794434e-01) (200, -1.86698794364929199219e-01) (201, 6.19522742927074432373e-02) (202, 1.93846113979816436768e-02) (203, -3.08723121881484985352e-01) (204, -7.57730603218078613281e-02) (205, -5.68512268364429473877e-02) (206, -1.98809698224067687988e-01) (207, -2.00070217251777648926e-01) (208, 1.67062297463417053223e-01) (209, -1.17202945053577423096e-01) (210, -6.07871897518634796143e-02) (211, 3.55499424040317535400e-02) (212, -7.83491581678390502930e-02) (213, -8.16786382347345352173e-03) (214, -2.73006502538919448853e-02) (215, 2.16602701693773269653e-02) (216, -1.34801074862480163574e-01) (217, 1.84712726622819900513e-02) (218, -1.84006970375776290894e-02) (219, 1.13880202174186706543e-01) (220, -1.88301086425781250000e-01) (221, 1.56216830015182495117e-01) (222, 2.06195916980504989624e-02) (223, -7.72104114294052124023e-02) (224, 6.26347586512565612793e-02) (225, -2.40435957908630371094e-01) (226, -2.98500388860702514648e-01) (227, -1.28291204571723937988e-01) (228, 1.37206465005874633789e-01) (229, -9.53441187739372253418e-02) (230, -5.40435872972011566162e-02) (231, 7.05822706222534179688e-02) (232, -1.42544172704219818115e-02) (233, -5.27195706963539123535e-02) (234, -6.75332397222518920898e-02) (235, 5.81992901861667633057e-02) (236, -1.66748791933059692383e-01) (237, -3.84347103536128997803e-02) (238, 2.41899639368057250977e-02) (239, 1.12806595861911773682e-01) (240, -1.99817538261413574219e-01) (241, -1.56134990975260734558e-02) (242, -1.46238058805465698242e-01) (243, -1.95650890469551086426e-01) (244, -7.20236450433731079102e-02) (245, 7.74827226996421813965e-02) (246, -3.79551112651824951172e-01) (247, -2.67122406512498855591e-02) (248, 8.16644728183746337891e-02) (249, -1.37323796749114990234e-01) (250, -5.81250712275505065918e-02) (251, -6.74003735184669494629e-02) (252, 1.73875782638788223267e-02) (253, -6.10872954130172729492e-02) (254, 2.31956001371145248413e-02) (255, -5.76260499656200408936e-02) (256, -6.98675587773323059082e-02) (257, -6.28573969006538391113e-02) (258, 1.45159624516963958740e-02) (259, -3.28285470604896545410e-02) (260, -2.56694167852401733398e-01) (261, -1.00792594254016876221e-01) (262, -9.78408232331275939941e-02) (263, -3.79678010940551757812e-02) (264, -4.67850752174854278564e-02) (265, 1.68105423450469970703e-01) (266, -4.12726283073425292969e-01) (267, -4.54741194844245910645e-02) (268, 6.02365247905254364014e-02) (269, -1.24790512025356292725e-01) (270, 2.55436655133962631226e-02) (271, -1.36060327291488647461e-01) (272, -8.76927077770233154297e-02) (273, -1.46036788821220397949e-01) (274, -5.46497926115989685059e-02) (275, -7.19900429248809814453e-02) (276, -1.04781137779355049133e-02) (277, -5.66445775330066680908e-02) (278, 7.66846314072608947754e-02) (279, -1.63173958659172058105e-01) (280, -2.11595833301544189453e-01) (281, 1.56283810734748840332e-01) (282, -8.04452896118164062500e-02) (283, 8.81296247243881225586e-02) (284, 9.78018119931221008301e-02) (285, -7.85411894321441650391e-03) (286, -1.81499898433685302734e-01) (287, -7.36876651644706726074e-02) (288, -4.15760539472103118896e-02) (289, -1.04660600423812866211e-01) (290, -6.17750361561775207520e-02) (291, 1.61541551351547241211e-01) (292, 5.08779548108577728271e-02) (293, -1.36180132627487182617e-01) (294, -3.63307930529117584229e-02) (295, -2.05767288804054260254e-01) (296, 1.66298691183328628540e-02) (297, -8.02263170480728149414e-02) (298, 7.67501816153526306152e-02) (299, -2.41018697619438171387e-01) (300, 7.85723999142646789551e-02) (301, 9.09920781850814819336e-02) (302, -8.98457467555999755859e-02) (303, 1.11551269888877868652e-01) (304, 7.78889134526252746582e-02) (305, 4.30539138615131378174e-02) (306, -1.38173937797546386719e-01) (307, -9.39054563641548156738e-02) (308, 4.42127883434295654297e-02) (309, -2.43655052036046981812e-02) (310, 6.40141144394874572754e-02) (311, 8.70259627699851989746e-02) (312, -4.26100455224514007568e-02) (313, -1.90862461924552917480e-01) (314, -4.33314479887485504150e-02) (315, -2.56102085113525390625e-01) (316, 2.44867950677871704102e-02) (317, 2.53090318292379379272e-02) (318, 1.04719616472721099854e-01) (319, -3.27777385711669921875e-01) (320, 6.68937049340456724167e-04) (321, 9.83867868781089782715e-02) (322, -4.01102891191840171814e-03) (323, 1.09442239627242088318e-02) (324, -4.16960902512073516846e-02) (325, -7.00668841600418090820e-02) (326, -6.10038936138153076172e-02) (327, -1.72515660524368286133e-01) (328, 5.18444983754307031631e-04) (329, -1.39391928911209106445e-01) (330, -1.36445045471191406250e-01) (331, 8.38308967649936676025e-03) (332, 2.34312023967504501343e-02) (333, -9.82592403888702392578e-02) (334, -2.45850551873445510864e-02) (335, -3.35428833961486816406e-01) (336, 1.11977070569992065430e-01) (337, 2.63956580311059951782e-02) (338, 3.57356779277324676514e-02) (339, -3.24652254581451416016e-01) (340, -1.08914089202880859375e+00) (0, -9.84795019030570983887e-03) (1, 1.51692137122154235840e-01) (2, 3.34557369351387023926e-02) (3, -5.24813635274767875671e-03) (4, -3.32162603735923767090e-02) (5, -2.85442650318145751953e-01) (6, -3.41239094734191894531e-01) (7, -2.43818201124668121338e-02) (8, 4.30447280406951904297e-01) (9, -8.35314169526100158691e-02) (10, 5.47597706317901611328e-01) (11, 2.16298237442970275879e-01) (12, 9.66400727629661560059e-02) (13, 3.41515094041824340820e-01) (14, -5.98601341247558593750e-01) (15, 5.48413157463073730469e-01) (16, -5.84592446684837341309e-02) (17, -3.38686779141426086426e-02) (18, -5.31636551022529602051e-02) (19, -5.87156653404235839844e-01) (20, -2.65272557735443115234e-01) (21, 9.24481451511383056641e-02) (22, 1.49665534496307373047e-01) (23, 5.03239184617996215820e-02) (24, -8.32753032445907592773e-02) (25, 3.77897210419178009033e-02) (26, -3.81410986185073852539e-01) (27, -4.12814378738403320312e-01) (28, 2.03765809535980224609e-01) (29, -7.58523404598236083984e-01) (30, 9.86750841140747070312e-01) (31, 3.17294329404830932617e-01) (32, -4.80634011328220367432e-02) (33, 3.06900709867477416992e-01) (34, -5.12843191623687744141e-01) (35, 8.29138338565826416016e-01) (36, -2.72057622671127319336e-01) (37, 4.43977743387222290039e-01) (38, 2.44490113109350204468e-02) (39, 3.06148976087570190430e-01) (40, -3.29870462417602539062e-01) (41, 2.66869783401489257812e-01) (42, 1.91457420587539672852e-01) (43, -2.80117601156234741211e-01) (44, -2.93876975774765014648e-02) (45, 3.26064437627792358398e-01) (46, -2.06942483782768249512e-01) (47, -1.81726589798927307129e-01) (48, 4.66545999050140380859e-01) (49, -4.52165871858596801758e-01) (50, 3.47810745239257812500e-01) (51, 4.67758297920227050781e-01) (52, -2.45080158114433288574e-01) (53, 2.04118862748146057129e-01) (54, -4.74079191684722900391e-01) (55, 6.48605167865753173828e-01) (56, -2.99325138330459594727e-01) (57, 5.52130341529846191406e-01) (58, 1.94911569356918334961e-01) (59, -3.95167261362075805664e-01) (60, 8.97567093372344970703e-01) (61, 4.22401279211044311523e-01) (62, 1.17728285491466522217e-01) (63, -4.76949475705623626709e-02) (64, -4.48477156460285186768e-02) (65, 5.67271888256072998047e-01) (66, -4.18307989835739135742e-01) (67, -4.70697492361068725586e-01) (68, 4.00259166955947875977e-01) (69, -4.43230777978897094727e-01) (70, -2.16408655047416687012e-01) (71, 7.53008842468261718750e-01) (72, -1.75202295184135437012e-01) (73, 2.76066094636917114258e-01) (74, -5.34273266792297363281e-01) (75, 6.86356574296951293945e-02) (76, -2.24927589297294616699e-01) (77, 3.67361336946487426758e-01) (78, 2.42016091942787170410e-01) (79, -1.24348616600036621094e+00) (80, 7.34722554683685302734e-01) (81, 1.01189613342285156250e-02) (82, -3.05611014366149902344e-01) (83, -4.83838655054569244385e-02) (84, -8.78504812717437744141e-02) (85, 3.99252206087112426758e-01) (86, -5.19667267799377441406e-01) (87, 1.32460832595825195312e-01) (88, 4.96812701225280761719e-01) (89, -6.16503179073333740234e-01) (90, -3.09958010911941528320e-02) (91, 2.96543240547180175781e-01) (92, -9.41866561770439147949e-02) (93, 3.16594302654266357422e-01) (94, 1.66195064783096313477e-01) (95, 2.52777069807052612305e-01) (96, -2.89081782102584838867e-01) (97, 3.88763219118118286133e-01) (98, 8.50812196731567382812e-02) (99, -4.72133308649063110352e-01) (100, 5.08829534053802490234e-01) (101, -1.93487673997879028320e-01) (102, -2.90084719657897949219e-01) (103, -7.07054808735847473145e-02) (104, -7.33916461467742919922e-03) (105, 3.42854261398315429688e-01) (106, 4.35960084199905395508e-01) (107, 1.49992838501930236816e-01) (108, 6.19916558265686035156e-01) (109, -8.85489732027053833008e-02) (110, -5.81808209419250488281e-01) (111, -3.52676391601562500000e-01) (112, 1.53305560350418090820e-01) (113, 3.99583727121353149414e-01) (114, -6.65567219257354736328e-02) (115, -1.01902022957801818848e-01) (116, 4.71266150474548339844e-01) (117, 3.99979799985885620117e-01) (118, -2.85242088139057159424e-02) (119, -1.03061044216156005859e+00) (120, 5.82934141159057617188e-01) (121, -4.54193979501724243164e-01) (122, -4.58536326885223388672e-01) (123, -3.32565546035766601562e-01) (124, 2.07679867744445800781e-02) (125, 3.82998228073120117188e-01) (126, 9.18611168861389160156e-01) (127, -4.52578216791152954102e-01) (128, 3.86298358440399169922e-01) (129, -1.46101549267768859863e-01) (130, -2.88672775030136108398e-01) (131, 4.45145070552825927734e-01) (132, 2.74587243795394897461e-01) (133, 3.38984489440917968750e-01) (134, -5.34539669752120971680e-02) (135, -4.58761602640151977539e-01) (136, 4.92697328329086303711e-01) (137, 3.22935760021209716797e-01) (138, 9.18994173407554626465e-02) (139, -5.15115022659301757812e-01) (140, 5.47305464744567871094e-01) (141, -1.80860623717308044434e-01) (142, -5.73850810527801513672e-01) (143, -5.51081359386444091797e-01) (144, -4.94991242885589599609e-02) (145, 4.41425621509552001953e-01) (146, 8.31810772418975830078e-01) (147, -4.60214555263519287109e-01) (148, 2.46888101100921630859e-01) (149, 5.18531464040279388428e-02) (150, -3.88630867004394531250e-01) (151, 8.79387974739074707031e-01) (152, 1.72122299671173095703e-01) (153, 4.01544898748397827148e-01) (154, -8.01668822765350341797e-01) (155, 3.94125320017337799072e-02) (156, 4.43834125995635986328e-01) (157, 4.69727516174316406250e-01) (158, 2.71377682685852050781e-01) (159, -5.68222463130950927734e-01) (160, 1.79178357124328613281e-01) (161, 2.53891855478286743164e-01) (162, 1.36349722743034362793e-01) (163, -1.40407061576843261719e+00) (164, 4.33561950922012329102e-03) (165, 3.37739646434783935547e-01) (166, 1.06894922256469726562e+00) (167, -1.25565183162689208984e+00) (168, 2.94371694326400756836e-01) (169, 3.58224838972091674805e-01) (170, 7.34849646687507629395e-02) (171, 6.09897077083587646484e-01) (172, 4.44055199623107910156e-02) (173, 4.45507913827896118164e-01) (174, -5.45994937419891357422e-01) (175, 7.88415297865867614746e-02) (176, 3.48859697580337524414e-01) (177, 4.68490391969680786133e-01) (178, 1.95584371685981750488e-01) (179, -4.72833923995494842529e-02) (180, -9.04156565666198730469e-01) (181, 8.36925745010375976562e-01) (182, 7.55411013960838317871e-02) (183, -1.34956204891204833984e+00) (184, 4.15437743067741394043e-02) (185, -4.78822365403175354004e-02) (186, 1.12283957004547119141e+00) (187, -1.11961734294891357422e+00) (188, 5.35945177078247070312e-01) (189, 1.74965396523475646973e-01) (190, 3.61797541379928588867e-01) (191, 1.35502886772155761719e+00) (192, 2.91024502366781234741e-02) (193, 2.07456886768341064453e-01) (194, -4.75591957569122314453e-01) (195, -2.33808517456054687500e-01) (196, -3.26895266771316528320e-01) (197, 1.69810473918914794922e-01) (198, 2.41015236824750900269e-02) (199, 7.63444840908050537109e-01) (200, -4.63669300079345703125e-01) (201, 6.47405147552490234375e-01) (202, -5.62373511493206024170e-02) (203, -8.16962778568267822266e-01) (204, -9.65235829353332519531e-02) (205, -1.42907798290252685547e-01) (206, 3.11539694666862487793e-02) (207, -5.56462883949279785156e-01) (208, 7.96299755573272705078e-01) (209, -1.26286655664443969727e-01) (210, 2.62576103210449218750e-01) (211, 5.02883791923522949219e-01) (212, 9.31037068367004394531e-02) (213, 5.08206188678741455078e-01) (214, -5.13584196567535400391e-01) (215, 3.24540942907333374023e-01) (216, -3.88281762599945068359e-01) (217, 2.34482750296592712402e-01) (218, 5.96260540187358856201e-02) (219, 9.23687577247619628906e-01) (220, -8.54314088821411132812e-01) (221, 3.84212315082550048828e-01) (222, 1.13044120371341705322e-01) (223, -7.47877478599548339844e-01) (224, 1.92537680268287658691e-02) (225, -1.13240487873554229736e-01) (226, 2.40747109055519104004e-01) (227, -2.12094366550445556641e-01) (228, 6.32295310497283935547e-01) (229, 1.16535149514675140381e-01) (230, 6.20826005935668945312e-01) (231, 6.09966635704040527344e-01) (232, -4.84176203608512878418e-02) (233, 9.59608517587184906006e-03) (234, -5.65393388271331787109e-01) (235, 4.11129355430603027344e-01) (236, -1.00345000624656677246e-01) (237, 2.62870907783508300781e-01) (238, 1.32436081767082214355e-01) (239, 7.06474781036376953125e-01) (240, -5.25216400623321533203e-01) (241, 4.48848843574523925781e-01) (242, -7.60458588600158691406e-01) (243, -7.83153593540191650391e-01) (244, 9.49062407016754150391e-03) (245, -7.07915604114532470703e-01) (246, 3.20168226957321166992e-01) (247, 4.01888489723205566406e-01) (248, 7.45853304862976074219e-01) (249, -7.17163905501365661621e-02) (250, 8.13258945941925048828e-01) (251, 4.40403968095779418945e-01) (252, 4.27213497459888458252e-02) (253, 7.25429803133010864258e-02) (254, 1.07615999877452850342e-01) (255, 5.25035679340362548828e-01) (256, -1.45366355776786804199e-01) (257, 4.57418486475944519043e-02) (258, 9.83854532241821289062e-02) (259, 3.13061118125915527344e-01) (260, -3.32111179828643798828e-01) (261, 4.17412132024765014648e-01) (262, -6.59386038780212402344e-01) (263, 1.78060144186019897461e-01) (264, -1.77186131477355957031e-02) (265, 9.44287031888961791992e-02) (266, -7.45146751403808593750e-01) (267, 5.53813457489013671875e-01) (268, 5.81480085849761962891e-01) (269, 1.90049648284912109375e-01) (270, 2.59833186864852905273e-01) (271, 3.15764620900154113770e-02) (272, 7.96962231397628784180e-02) (273, 2.37724736332893371582e-01) (274, 8.44299197196960449219e-02) (275, 5.82427680492401123047e-01) (276, 2.32446148991584777832e-01) (277, 1.19984515011310577393e-01) (278, 1.28374665975570678711e-01) (279, -2.49980956315994262695e-01) (280, 2.45257481932640075684e-01) (281, 3.10655027627944946289e-01) (282, -5.58018088340759277344e-01) (283, 2.07088753581047058105e-01) (284, -4.04281131923198699951e-02) (285, 6.95706382393836975098e-02) (286, 5.23553006350994110107e-02) (287, 7.16531038284301757812e-01) (288, 5.96995532512664794922e-01) (289, 2.72622823715209960938e-01) (290, -1.51408687233924865723e-01) (291, 7.23468601703643798828e-01) (292, 8.56386199593544006348e-02) (293, -8.92704203724861145020e-02) (294, 1.14933744072914123535e-01) (295, -4.76336963474750518799e-02) (296, 9.91847142577171325684e-02) (297, 8.10403674840927124023e-02) (298, 2.06526279449462890625e-01) (299, -1.47564911842346191406e+00) (300, 1.24760377407073974609e+00) (301, 4.51694577932357788086e-01) (302, -6.62456870079040527344e-01) (303, 5.80878853797912597656e-01) (304, 5.84406927227973937988e-02) (305, 5.39149157702922821045e-02) (306, 3.60637843608856201172e-01) (307, -1.12103119492530822754e-01) (308, 7.19550624489784240723e-02) (309, 2.10400179028511047363e-01) (310, 2.39629179239273071289e-01) (311, 1.99831783771514892578e-01) (312, 1.24836429953575134277e-01) (313, -1.09674833714962005615e-01) (314, 4.59263436496257781982e-02) (315, 1.51705266907811164856e-02) (316, 2.61480778455734252930e-01) (317, 8.81483927369117736816e-02) (318, -2.14220327325165271759e-03) (319, -1.61389350891113281250e+00) (320, 4.82488572597503662109e-01) (321, 2.71946340799331665039e-01) (322, -1.04923024773597717285e-01) (323, 3.88977169990539550781e-01) (324, 5.79525008797645568848e-02) (325, 1.57301828265190124512e-01) (326, -5.18266335129737854004e-02) (327, 2.38109022378921508789e-01) (328, 3.10842487961053848267e-02) (329, -9.63242948055267333984e-02) (330, 3.51806730031967163086e-01) (331, 2.44725272059440612793e-01) (332, 1.15592218935489654541e-01) (333, 5.62880754470825195312e-01) (334, 2.56750971078872680664e-01) (335, -2.72779971361160278320e-01) (336, 1.97370663285255432129e-01) (337, 2.04222664237022399902e-01) (338, 2.26666126400232315063e-02) (339, -1.37706208229064941406e+00) (340, 1.33695745468139648438e+00) (0, -1.40951886773109436035e-01) (1, -4.00860756635665893555e-01) (2, -9.46939438581466674805e-02) (3, -5.89380115270614624023e-02) (4, -6.46062716841697692871e-02) (5, -8.27793598175048828125e-01) (6, -2.22633078694343566895e-01) (7, -1.48946687579154968262e-01) (8, 8.63219350576400756836e-02) (9, -9.88752916455268859863e-02) (10, -1.01164555549621582031e+00) (11, 2.01175175607204437256e-02) (12, 3.95917817950248718262e-02) (13, 3.76901447772979736328e-01) (14, -1.17923244833946228027e-01) (15, 3.43294948339462280273e-01) (16, -2.99913823604583740234e-01) (17, -8.20187926292419433594e-02) (18, 6.79499134421348571777e-02) (19, 2.58315205574035644531e-01) (20, 4.96879033744335174561e-02) (21, 4.19004112482070922852e-02) (22, 1.82451456785202026367e-02) (23, -3.57517004013061523438e-01) (24, -6.55088573694229125977e-03) (25, -1.37704586982727050781e+00) (26, -6.34284853935241699219e-01) (27, -5.00312805175781250000e-01) (28, 3.48064839839935302734e-01) (29, 8.61394107341766357422e-02) (30, -1.00641369819641113281e+00) (31, -9.58203002810478210449e-02) (32, -1.82054772973060607910e-01) (33, 2.61247336864471435547e-01) (34, -2.72474706172943115234e-01) (35, 9.09784972667694091797e-01) (36, -1.79891869425773620605e-01) (37, 2.38427639007568359375e-01) (38, -8.64685028791427612305e-02) (39, 2.79537051916122436523e-01) (40, -1.92138865590095520020e-01) (41, 1.45751237869262695312e-01) (42, -1.72274693846702575684e-01) (43, -2.77011215686798095703e-01) (44, -9.04008150100708007812e-02) (45, -1.45935940742492675781e+00) (46, -2.40363832563161849976e-02) (47, -3.48952054977416992188e-01) (48, 2.28585854172706604004e-01) (49, 2.49566972255706787109e-01) (50, -1.12704479694366455078e+00) (51, 9.23334062099456787109e-01) (52, 2.22613494843244552612e-02) (53, 6.42575100064277648926e-02) (54, -2.61979848146438598633e-01) (55, 8.21724534034729003906e-01) (56, -2.44433004409074783325e-02) (57, 4.21940088272094726562e-01) (58, -1.91271200776100158691e-01) (59, -4.17182534933090209961e-01) (60, -5.78281998634338378906e-01) (61, 3.66846978664398193359e-01) (62, -4.80928830802440643311e-02) (63, -5.00179231166839599609e-02) (64, 4.01143506169319152832e-02) (65, -1.40387094020843505859e+00) (66, 1.83743700385093688965e-01) (67, -7.92772054672241210938e-01) (68, 3.68560433387756347656e-01) (69, 5.22922933101654052734e-01) (70, -1.11260616779327392578e+00) (71, 9.61712539196014404297e-01) (72, -1.60165771842002868652e-01) (73, -2.15961057692766189575e-02) (74, -4.99493271112442016602e-01) (75, 9.26215589046478271484e-01) (76, -1.99852004647254943848e-01) (77, 6.76233112812042236328e-01) (78, 3.01995456218719482422e-01) (79, -7.79210150241851806641e-01) (80, -4.00832980871200561523e-01) (81, 7.11756289005279541016e-01) (82, 3.52781504392623901367e-01) (83, -1.97598546743392944336e-01) (84, -4.19783703982830047607e-02) (85, -1.27469336986541748047e+00) (86, 5.08804738521575927734e-01) (87, -9.79006946086883544922e-01) (88, -2.48064786195755004883e-01) (89, 2.28116527199745178223e-01) (90, -4.50105965137481689453e-01) (91, 8.63566100597381591797e-01) (92, -2.71926850080490112305e-01) (93, 1.34228289127349853516e-01) (94, -9.79414522647857666016e-01) (95, 1.11885654926300048828e+00) (96, 9.24523547291755676270e-03) (97, 5.72395026683807373047e-01) (98, 1.12394586205482482910e-01) (99, -1.00912642478942871094e+00) (100, -1.89453303813934326172e-01) (101, 3.15671086311340332031e-01) (102, 2.01915010809898376465e-01) (103, -1.73123523592948913574e-01) (104, 3.51940914988517761230e-02) (105, -6.36782109737396240234e-01) (106, 7.70595133304595947266e-01) (107, -1.28629612922668457031e+00) (108, -1.63155168294906616211e-01) (109, -1.21613509953022003174e-01) (110, -5.74132442474365234375e-01) (111, 8.57212543487548828125e-01) (112, -2.97761082649230957031e-01) (113, 6.93673372268676757812e-01) (114, -5.75271129608154296875e-01) (115, 2.21586942672729492188e-01) (116, 1.65637060999870300293e-01) (117, 4.22016918659210205078e-01) (118, 6.67122527956962585449e-02) (119, -6.75092637538909912109e-01) (120, -1.96824237704277038574e-01) (121, 5.29318332672119140625e-01) (122, 3.39193344116210937500e-01) (123, -3.46940070390701293945e-01) (124, 7.32596963644027709961e-03) (125, -6.83912709355354309082e-02) (126, 4.43290680646896362305e-01) (127, -1.22476100921630859375e+00) (128, 2.87785492837429046631e-02) (129, -2.16755509376525878906e-01) (130, -8.34262430667877197266e-01) (131, 5.61111927032470703125e-01) (132, -1.50464177131652832031e-01) (133, 2.21649155020713806152e-01) (134, -7.85577654838562011719e-01) (135, 9.09236133098602294922e-01) (136, 1.43712520599365234375e-01) (137, 5.10037839412689208984e-01) (138, -8.90053659677505493164e-02) (139, -5.55479347705841064453e-01) (140, -4.43573713302612304688e-01) (141, 8.13192307949066162109e-01) (142, 2.96473294496536254883e-01) (143, -5.56876897811889648438e-01) (144, -5.97767531871795654297e-02) (145, -4.92958188056945800781e-01) (146, 3.88205587863922119141e-01) (147, -7.33643412590026855469e-01) (148, -2.21910297870635986328e-01) (149, -6.44501298666000366211e-02) (150, -9.78946208953857421875e-01) (151, 1.13601028919219970703e+00) (152, -6.81056901812553405762e-02) (153, 8.67420434951782226562e-02) (154, -1.55375897884368896484e-01) (155, 3.77407044172286987305e-01) (156, 2.60788947343826293945e-01) (157, 3.80699962377548217773e-01) (158, 2.50076442956924438477e-01) (159, -3.45073699951171875000e-01) (160, -4.88484293222427368164e-01) (161, 6.04780435562133789062e-01) (162, -1.14497371017932891846e-01) (163, -4.45597290992736816406e-01) (164, 9.30055007338523864746e-02) (165, -4.78257924318313598633e-01) (166, 1.00745630264282226562e+00) (167, -2.40066677331924438477e-01) (168, -3.17019641399383544922e-01) (169, 1.44673556089401245117e-01) (170, -3.21688801050186157227e-01) (171, 5.32609283924102783203e-01) (172, -3.04831981658935546875e-01) (173, 1.09727289527654647827e-02) (174, -6.15079045295715332031e-01) (175, 5.81610083580017089844e-01) (176, 8.18417668342590332031e-02) (177, 5.72433352470397949219e-01) (178, 4.85386371612548828125e-01) (179, -8.41663658618927001953e-01) (180, -2.60212212800979614258e-01) (181, 3.79132241010665893555e-01) (182, -5.98361827433109283447e-02) (183, -6.18352591991424560547e-01) (184, -4.66560907661914825439e-02) (185, -2.13001802563667297363e-01) (186, 9.03909146785736083984e-01) (187, 4.16570574045181274414e-01) (188, 6.90992295742034912109e-01) (189, 1.75686389207839965820e-01) (190, -2.99632430076599121094e-01) (191, 4.62841659784317016602e-01) (192, -2.47047826647758483887e-01) (193, 3.48949223756790161133e-01) (194, -6.54450356960296630859e-01) (195, 5.15168488025665283203e-01) (196, 1.59438580274581909180e-01) (197, -1.00292429327964782715e-01) (198, -4.99606102705001831055e-01) (199, -1.01925981044769287109e+00) (200, -4.28758770227432250977e-01) (201, 7.40099251270294189453e-01) (202, -6.46653771400451660156e-02) (203, -7.17783153057098388672e-01) (204, -4.51239943504333496094e-03) (205, -1.58820107579231262207e-01) (206, 1.39889061450958251953e+00) (207, 1.21406845748424530029e-01) (208, 1.57802402973175048828e-01) (209, -1.83886662125587463379e-01) (210, 3.40041488409042358398e-01) (211, 5.43823480606079101562e-01) (212, -2.85885989665985107422e-01) (213, 5.19007682800292968750e-01) (214, -8.31753730773925781250e-01) (215, 5.83220899105072021484e-01) (216, 5.64794391393661499023e-02) (217, 5.09021524339914321899e-03) (218, -4.33969944715499877930e-01) (219, -1.25283610820770263672e+00) (220, -7.75005340576171875000e-01) (221, 4.43160444498062133789e-01) (222, -1.33121147751808166504e-01) (223, -8.54198396205902099609e-01) (224, -9.43841263651847839355e-02) (225, -3.18246603012084960938e-01) (226, 1.26970255374908447266e+00) (227, -2.20261484384536743164e-01) (228, 4.77304458618164062500e-01) (229, 2.39105924963951110840e-01) (230, 5.53126484155654907227e-02) (231, 7.26512551307678222656e-01) (232, -2.67664015293121337891e-01) (233, 7.49332249164581298828e-01) (234, -6.84189140796661376953e-01) (235, 5.99383115768432617188e-01) (236, -5.33640533685684204102e-02) (237, -6.75953477621078491211e-02) (238, -2.88642734289169311523e-01) (239, -1.25434994697570800781e+00) (240, -9.30993378162384033203e-01) (241, 3.79840940237045288086e-01) (242, 1.12483473494648933411e-02) (243, -6.02468550205230712891e-01) (244, -4.97373417019844055176e-02) (245, 6.74582362174987792969e-01) (246, 8.68630588054656982422e-01) (247, -5.39633512496948242188e-01) (248, 2.34060660004615783691e-02) (249, 1.73061966896057128906e-01) (250, -3.03226057440042495728e-02) (251, -3.68337817490100860596e-02) (252, -4.18098092079162597656e-01) (253, 1.06950592994689941406e+00) (254, -7.07832157611846923828e-01) (255, 4.72419083118438720703e-01) (256, 6.95372074842453002930e-02) (257, 1.97515729814767837524e-02) (258, -8.18589329719543457031e-02) (259, -5.01611948013305664062e-01) (260, -4.90216314792633056641e-01) (261, 3.92321079969406127930e-01) (262, -1.78536802530288696289e-01) (263, -4.72750276327133178711e-01) (264, 4.22577038407325744629e-02) (265, 4.00543779134750366211e-01) (266, 9.43333864212036132812e-01) (267, -2.14764028787612915039e-01) (268, 9.13554877042770385742e-02) (269, 3.94043684005737304688e-01) (270, 1.09314709901809692383e-01) (271, -7.97783210873603820801e-02) (272, -3.33127140998840332031e-01) (273, 7.02581703662872314453e-01) (274, -7.96359062194824218750e-01) (275, 5.93625724315643310547e-01) (276, -7.45958745479583740234e-01) (277, -1.53010696172714233398e-01) (278, -7.46805295348167419434e-02) (279, 1.63700193166732788086e-01) (280, -5.97111403942108154297e-01) (281, -3.09535115957260131836e-01) (282, 1.66938584297895431519e-02) (283, -3.81822258234024047852e-01) (284, -1.25977098941802978516e-02) (285, 4.60462749004364013672e-01) (286, 1.29525160789489746094e+00) (287, 8.64695534110069274902e-02) (288, 2.26742655038833618164e-01) (289, 2.98937112092971801758e-01) (290, -5.87641596794128417969e-01) (291, -5.43406009674072265625e-01) (292, -3.10153782367706298828e-01) (293, 7.99371957778930664062e-01) (294, -8.84199738502502441406e-01) (295, 6.80302500724792480469e-01) (296, -4.65050607919692993164e-01) (297, -4.18320670723915100098e-02) (298, -2.09494397044181823730e-01) (299, 6.41511499881744384766e-01) (300, -1.54093861579895019531e-01) (301, -2.44182392954826354980e-01) (302, -1.50253981351852416992e-01) (303, -7.63107180595397949219e-01) (304, 8.28346535563468933105e-02) (305, 8.66339862346649169922e-01) (306, 5.47830343246459960938e-01) (307, 2.84510612487792968750e-01) (308, 3.48674595355987548828e-01) (309, 4.31737393140792846680e-01) (310, -6.81193113327026367188e-01) (311, -9.79704335331916809082e-02) (312, -2.05654039978981018066e-01) (313, 7.20012247562408447266e-01) (314, -7.62812852859497070312e-01) (315, 4.66510027647018432617e-01) (316, -7.00081348419189453125e-01) (317, -1.55012622475624084473e-01) (318, -1.03103786706924438477e-01) (319, 4.43119943141937255859e-01) (320, 2.28796511888504028320e-01) (321, -3.05451422929763793945e-01) (322, -5.04670083522796630859e-01) (323, -6.19502484798431396484e-01) (324, 8.68661180138587951660e-02) (325, 7.89162039756774902344e-01) (326, 2.42587581276893615723e-01) (327, 3.98955523967742919922e-01) (328, 2.94276595115661621094e-01) (329, -5.29711022973060607910e-02) (330, -8.31105232238769531250e-01) (331, -3.13797056674957275391e-01) (332, -8.16682130098342895508e-02) (333, 7.30044186115264892578e-01) (334, -1.43880605697631835938e-01) (335, 6.91694796085357666016e-01) (336, -3.54606270790100097656e-01) (337, -2.60895252227783203125e-01) (338, -2.16110069304704666138e-02) (339, 2.57017880678176879883e-01) (340, 2.19423100352287292480e-02) (0, -1.04029417037963867188e+00) (1, 3.70227247476577758789e-01) (2, 2.30222493410110473633e-01) (3, -2.06012800335884094238e-02) (4, -9.49015766382217407227e-02) (5, -9.30892899632453918457e-02) (6, 9.02402877807617187500e-01) (7, -4.60793733596801757812e-01) (8, -1.54529392719268798828e-01) (9, -1.70531064271926879883e-01) (10, 1.78749775886535644531e+00) (11, -7.59667873382568359375e-01) (12, 5.58887943625450134277e-02) (13, -8.65423738956451416016e-01) (14, -3.82016710937023162842e-02) (15, 3.38870406150817871094e-01) (16, 1.21950912475585937500e+00) (17, 3.57943475246429443359e-01) (18, 9.47487413883209228516e-01) (19, -1.52510595321655273438e+00) (20, -1.64839160442352294922e+00) (21, 1.25465667247772216797e+00) (22, 6.31509125232696533203e-01) (23, 2.44653329253196716309e-01) (24, -1.35437697172164916992e-02) (25, 4.61414724588394165039e-01) (26, 3.37699592113494873047e-01) (27, -2.71267741918563842773e-01) (28, -3.11082273721694946289e-01) (29, -1.08681464195251464844e+00) (30, 7.46391057968139648438e-01) (31, -4.40045744180679321289e-01) (32, 5.61586499214172363281e-01) (33, -8.59677910804748535156e-01) (34, 4.79809381067752838135e-03) (35, -4.25222754478454589844e-01) (36, 1.12309753894805908203e+00) (37, -1.67727380990982055664e-01) (38, 3.57231318950653076172e-01) (39, -4.51083868741989135742e-01) (40, -1.64135670661926269531e+00) (41, 1.19785046577453613281e+00) (42, 6.21371209621429443359e-01) (43, -1.03301942348480224609e-01) (44, 6.59286454319953918457e-02) (45, -4.41200852394104003906e-01) (46, -7.07935914397239685059e-02) (47, -2.48041585087776184082e-01) (48, 1.11701071262359619141e+00) (49, -2.47631654143333435059e-01) (50, -5.40523864328861236572e-02) (51, 7.82422840595245361328e-01) (52, 3.95908772945404052734e-01) (53, -6.63159340620040893555e-02) (54, -9.53834235668182373047e-01) (55, -5.23899793624877929688e-01) (56, 5.23442089557647705078e-01) (57, -4.48908731341361999512e-02) (58, -5.89339613914489746094e-01) (59, -2.21014663577079772949e-01) (60, 7.37838506698608398438e-01) (61, -3.93705636262893676758e-01) (62, 5.14025926589965820312e-01) (63, -2.65192180871963500977e-01) (64, -6.23978339135646820068e-02) (65, 1.40923738479614257812e-01) (66, -2.78619825839996337891e-01) (67, 3.32154721021652221680e-01) (68, 6.73028528690338134766e-01) (69, -7.23123788833618164062e-01) (70, 6.24411523342132568359e-01) (71, 6.49760186672210693359e-01) (72, 8.22084903717041015625e-01) (73, -1.07001714408397674561e-01) (74, -8.20881307125091552734e-01) (75, -9.91493165493011474609e-01) (76, -8.16066712141036987305e-02) (77, -7.84771516919136047363e-02) (78, -1.23478925228118896484e+00) (79, 2.34419822692871093750e-01) (80, -6.27140641212463378906e-01) (81, -7.35814869403839111328e-01) (82, -7.20354914665222167969e-01) (83, -2.61201951652765274048e-02) (84, 6.72084763646125793457e-02) (85, 6.14451587200164794922e-01) (86, -5.79465687274932861328e-01) (87, 1.29981148242950439453e+00) (88, 4.22041714191436767578e-01) (89, -5.82826852798461914062e-01) (90, 3.69425326585769653320e-01) (91, 4.64926928281784057617e-01) (92, 6.01332247257232666016e-01) (93, 5.61694204807281494141e-01) (94, -5.30423820018768310547e-01) (95, -9.88184630870819091797e-01) (96, -5.46586573123931884766e-01) (97, -1.55195593833923339844e-01) (98, -8.93414914608001708984e-01) (99, 1.87590515613555908203e+00) (100, -4.67133998870849609375e-01) (101, -2.98730939626693725586e-01) (102, -4.31922525167465209961e-01) (103, -2.56721168756484985352e-01) (104, -5.62751069664955139160e-02) (105, 5.58371007442474365234e-01) (106, -2.83934175968170166016e-01) (107, 7.44962811470031738281e-01) (108, 5.02624928951263427734e-01) (109, -1.67648762464523315430e-01) (110, -2.34388545155525207520e-01) (111, -6.24353110790252685547e-01) (112, 3.38146798312664031982e-02) (113, -1.08657792210578918457e-01) (114, -1.59733429551124572754e-01) (115, 5.32182157039642333984e-01) (116, -2.99028277397155761719e-01) (117, -1.73654556274414062500e-01) (118, -1.04468929767608642578e+00) (119, 1.26453340053558349609e+00) (120, 6.64346158504486083984e-01) (121, 8.41054022312164306641e-02) (122, -3.72032880783081054688e-01) (123, 1.18694603443145751953e+00) (124, -3.41532006859779357910e-02) (125, 3.95770639181137084961e-01) (126, 6.14194333553314208984e-01) (127, -5.06046056747436523438e-01) (128, -2.51862466335296630859e-01) (129, 2.72816359996795654297e-01) (130, -6.20246887207031250000e-01) (131, -1.39307677745819091797e+00) (132, -3.52529823780059814453e-01) (133, -8.02557826042175292969e-01) (134, 5.28453230857849121094e-01) (135, -6.78977370262145996094e-01) (136, -2.69383221864700317383e-01) (137, -3.40619742870330810547e-01) (138, -8.79107475280761718750e-01) (139, 1.66652655601501464844e+00) (140, 1.57092928886413574219e+00) (141, -7.00490117073059082031e-01) (142, -4.22642886638641357422e-01) (143, 1.48781883716583251953e+00) (144, -7.67503306269645690918e-02) (145, 2.81308710575103759766e-01) (146, 1.54823541641235351562e-01) (147, -9.91523146629333496094e-01) (148, -1.43891260027885437012e-01) (149, -9.29984390735626220703e-01) (150, -3.24650496244430541992e-01) (151, -7.54439890384674072266e-01) (152, -8.71348679065704345703e-01) (153, -3.87461066246032714844e-01) (154, 7.65015959739685058594e-01) (155, -1.51870101690292358398e-01) (156, -4.80116665363311767578e-01) (157, -2.27121546864509582520e-01) (158, -1.00392353534698486328e+00) (159, 1.48612713813781738281e+00) (160, 1.19558250904083251953e+00) (161, -1.21345579624176025391e+00) (162, 6.04744374752044677734e-01) (163, 1.29354178905487060547e+00) (164, 5.27600720524787902832e-02) (165, 4.30988013744354248047e-01) (166, -1.00121013820171356201e-01) (167, -9.61155593395233154297e-01) (168, 8.89246352016925811768e-03) (169, -3.59258770942687988281e-01) (170, -1.65018856525421142578e+00) (171, 2.73174524307250976562e-01) (172, -7.42412030696868896484e-01) (173, -3.59580099582672119141e-01) (174, 1.22509551048278808594e+00) (175, -1.72832936048507690430e-01) (176, -4.17251467704772949219e-01) (177, -4.32490527629852294922e-01) (178, -1.17041718959808349609e+00) (179, 1.52699387073516845703e+00) (180, 8.63046586513519287109e-01) (181, -8.03147673606872558594e-01) (182, 5.04866719245910644531e-01) (183, 1.76831245422363281250e+00) (184, -6.91190809011459350586e-02) (185, -6.35400474071502685547e-01) (186, 2.94306635856628417969e-01) (187, -3.86558502912521362305e-01) (188, -8.65552723407745361328e-01) (189, -1.15236496925354003906e+00) (190, -2.64712423086166381836e-01) (191, 5.58937668800354003906e-01) (192, -7.46020734310150146484e-01) (193, 2.04169660806655883789e-01) (194, 8.13373386859893798828e-01) (195, -6.71477377414703369141e-01) (196, -1.47302937507629394531e+00) (197, 5.36518096923828125000e-01) (198, 3.73947620391845703125e-01) (199, 1.14938393235206604004e-01) (200, 6.14052057266235351562e-01) (201, -9.09336686134338378906e-01) (202, 4.87132817506790161133e-01) (203, 1.29889476299285888672e+00) (204, -6.94203078746795654297e-02) (205, 5.76625205576419830322e-02) (206, -1.23045504093170166016e+00) (207, 1.32073402404785156250e-01) (208, -1.52711665630340576172e+00) (209, 6.21495246887207031250e-01) (210, 8.98398533463478088379e-02) (211, 4.83096957206726074219e-01) (212, -6.72099292278289794922e-01) (213, 7.92835429310798645020e-02) (214, 2.64176994562149047852e-01) (215, 2.79400944709777832031e-01) (216, -8.64820539951324462891e-01) (217, 4.13855731487274169922e-01) (218, -4.77500736713409423828e-01) (219, -1.21651165187358856201e-01) (220, -1.36190667748451232910e-01) (221, 1.36065021157264709473e-01) (222, 5.32069385051727294922e-01) (223, 2.33813133090734481812e-02) (224, 1.00785270333290100098e-02) (225, 1.14755475521087646484e+00) (226, -1.22528684139251708984e+00) (227, 3.30058276653289794922e-01) (228, -1.52612292766571044922e+00) (229, 8.49124044179916381836e-02) (230, 1.00748109817504882812e+00) (231, 3.00246298313140869141e-01) (232, -6.96827948093414306641e-01) (233, -8.34561228752136230469e-01) (234, 1.18660800158977508545e-01) (235, -1.30069553852081298828e-01) (236, -9.83765006065368652344e-01) (237, 4.61602121591567993164e-01) (238, 3.19918423891067504883e-01) (239, 1.88194438815116882324e-02) (240, 4.18903440237045288086e-01) (241, 8.14780369400978088379e-02) (242, -4.65574651956558227539e-01) (243, -8.02738845348358154297e-01) (244, -3.83242145180702209473e-02) (245, -7.92467117309570312500e-01) (246, -1.18047440052032470703e+00) (247, 8.48283171653747558594e-01) (248, -1.29446458816528320312e+00) (249, 3.56656134128570556641e-01) (250, 8.05853307247161865234e-01) (251, 1.31256496906280517578e+00) (252, -3.72254908084869384766e-01) (253, -1.32967126369476318359e+00) (254, -4.43955719470977783203e-01) (255, 3.28996062278747558594e-01) (256, -1.47404879331588745117e-01) (257, 4.00047779083251953125e-01) (258, 3.57087343931198120117e-01) (259, 9.48525071144104003906e-01) (260, -1.58889830112457275391e+00) (261, -1.44330337643623352051e-01) (262, -8.78437608480453491211e-02) (263, -1.02308106422424316406e+00) (264, -8.43340456485748291016e-02) (265, -4.59170401096343994141e-01) (266, -6.26423776149749755859e-01) (267, 8.01398217678070068359e-01) (268, 1.28794267773628234863e-01) (269, -4.98274296522140502930e-01) (270, 4.01058048009872436523e-01) (271, 1.25412270426750183105e-01) (272, -4.40551906824111938477e-01) (273, -4.60585206747055053711e-01) (274, 4.45466369390487670898e-01) (275, 2.45554167777299880981e-02) (276, 7.55380570888519287109e-01) (277, 4.56630796194076538086e-01) (278, 2.86571979522705078125e-01) (279, 1.02278268337249755859e+00) (280, 1.00976422429084777832e-01) (281, 3.61416697502136230469e-01) (282, -3.18700551986694335938e-01) (283, -4.82634186744689941406e-01) (284, -6.61930441856384277344e-02) (285, -8.70199128985404968262e-02) (286, -1.17004370689392089844e+00) (287, -2.67956018447875976562e-01) (288, 1.30525127053260803223e-01) (289, -5.72261095046997070312e-01) (290, 6.58466070890426635742e-02) (291, 4.11988168954849243164e-01) (292, 3.18507850170135498047e-01) (293, -8.36663424968719482422e-01) (294, -1.72137439250946044922e-01) (295, 4.02406990528106689453e-01) (296, 3.72737675905227661133e-01) (297, 1.78930222988128662109e-01) (298, 9.92640733718872070312e-01) (299, -6.21985912322998046875e-01) (300, 1.14247715473175048828e+00) (301, -3.51023934781551361084e-02) (302, -5.19387796521186828613e-02) (303, -6.66283428668975830078e-01) (304, -6.43792301416397094727e-02) (305, -1.17029547691345214844e+00) (306, 1.12074702978134155273e-01) (307, 5.24583756923675537109e-01) (308, 1.81482106447219848633e-01) (309, -1.01128482818603515625e+00) (310, 4.92260456085205078125e-02) (311, 3.22812408208847045898e-01) (312, 4.53829735517501831055e-01) (313, -1.09910011291503906250e+00) (314, 1.10352194309234619141e+00) (315, -6.68111562728881835938e-01) (316, 9.91145849227905273438e-01) (317, -5.89020788669586181641e-01) (318, 1.76692068576812744141e-01) (319, -5.84794461727142333984e-01) (320, 1.52805328369140625000e+00) (321, -1.40466141700744628906e+00) (322, 2.65547656454145908356e-04) (323, -1.05343818664550781250e+00) (324, -6.89082965254783630371e-02) (325, -9.90284204483032226562e-01) (326, 7.35859334468841552734e-01) (327, 7.48759865760803222656e-01) (328, -7.17297792434692382812e-02) (329, 6.10919892787933349609e-01) (330, 6.21711552143096923828e-01) (331, -3.46014797687530517578e-01) (332, 2.65289902687072753906e-01) (333, -6.86755359172821044922e-01) (334, 5.31289801001548767090e-02) (335, -7.76824831962585449219e-01) (336, 8.60348820686340332031e-01) (337, -7.34922468662261962891e-01) (338, 1.90547615289688110352e-01) (339, -1.91428557038307189941e-01) (340, -1.06531488895416259766e+00) (0, -3.87339740991592407227e-01) (1, 2.18537032604217529297e-01) (2, 1.26462429761886596680e-01) (3, -5.86298778653144836426e-02) (4, -8.77906233072280883789e-02) (5, -4.40436363220214843750e-01) (6, -2.68858283758163452148e-01) (7, -2.06111371517181396484e-01) (8, 1.64110630750656127930e-01) (9, -3.05257719010114669800e-02) (10, 3.38835269212722778320e-01) (11, -1.57363831996917724609e-01) (12, 6.16352632641792297363e-02) (13, -1.38209208846092224121e-01) (14, 3.94833646714687347412e-02) (15, 2.47918143868446350098e-01) (16, 2.95984596014022827148e-01) (17, 1.80464778095483779907e-02) (18, 3.89815688133239746094e-01) (19, -4.19172823429107666016e-01) (20, -4.36925590038299560547e-01) (21, 2.40651994943618774414e-01) (22, 1.85910806059837341309e-01) (23, -1.00228957831859588623e-01) (24, 4.25045415759086608887e-02) (25, -4.17360872030258178711e-01) (26, -6.32492750883102416992e-02) (27, -2.30642959475517272949e-01) (28, 1.07066780328750610352e-01) (29, -3.01909059286117553711e-01) (30, -1.07453837990760803223e-02) (31, -8.36703777313232421875e-02) (32, 1.68916523456573486328e-01) (33, 3.46755459904670715332e-02) (34, -1.39396702870726585388e-02) (35, 3.15584152936935424805e-01) (36, 2.21379905939102172852e-01) (37, 1.97810932993888854980e-01) (38, 2.22629904747009277344e-01) (39, -1.82711929082870483398e-01) (40, -2.21674248576164245605e-01) (41, 3.42587411403656005859e-01) (42, 1.15451976656913757324e-01) (43, -9.61804538965225219727e-02) (44, -5.47038279473781585693e-02) (45, -6.66015982627868652344e-01) (46, -1.21512599289417266846e-01) (47, -2.70296514034271240234e-01) (48, 4.78740543127059936523e-01) (49, 6.94089829921722412109e-02) (50, -3.73240649700164794922e-01) (51, 3.87068420648574829102e-01) (52, 8.37452858686447143555e-02) (53, -1.61443988326936960220e-03) (54, -4.70015466213226318359e-01) (55, 2.84545660018920898438e-01) (56, 9.23366546630859375000e-02) (57, 2.43857204914093017578e-01) (58, -1.91074758768081665039e-01) (59, -4.41721558570861816406e-01) (60, 2.38521680235862731934e-01) (61, 1.30997776985168457031e-01) (62, 9.69229042530059814453e-02) (63, -1.13061510026454925537e-01) (64, -3.25156897306442260742e-02) (65, -3.65782439708709716797e-01) (66, -6.58458173274993896484e-02) (67, -2.98909634351730346680e-01) (68, 3.43630313873291015625e-01) (69, 4.86035794019699096680e-02) (70, -2.37790092825889587402e-01) (71, 4.96595740318298339844e-01) (72, 3.16818535327911376953e-01) (73, 1.17390558123588562012e-01) (74, -3.09142142534255981445e-01) (75, 1.02004207670688629150e-01) (76, -2.08711549639701843262e-01) (77, 7.00493752956390380859e-02) (78, -1.25447884202003479004e-01) (79, -5.58401226997375488281e-01) (80, -4.46099601686000823975e-02) (81, 1.03994175791740417480e-01) (82, -8.76924544572830200195e-02) (83, -2.40430802106857299805e-01) (84, -7.69336596131324768066e-02) (85, -1.73939704895019531250e-01) (86, 1.21224462985992431641e-01) (87, -2.27475389838218688965e-01) (88, 9.15863588452339172363e-02) (89, 1.86252534389495849609e-01) (90, 8.15512314438819885254e-02) (91, 1.88800305128097534180e-01) (92, 2.16314926743507385254e-01) (93, 3.33209693431854248047e-01) (94, -4.14252221584320068359e-01) (95, 1.36666461825370788574e-01) (96, -1.61534816026687622070e-01) (97, 1.71539500355720520020e-01) (98, -1.30368471145629882812e-01) (99, 2.15349569916725158691e-02) (100, -2.42557138204574584961e-01) (101, 1.25986203551292419434e-01) (102, -4.94483262300491333008e-02) (103, -2.42661759257316589355e-01) (104, -8.21504741907119750977e-02) (105, 1.45364940166473388672e-01) (106, 4.23065483570098876953e-01) (107, -3.57605367898941040039e-01) (108, 7.21801221370697021484e-02) (109, -1.35308457538485527039e-02) (110, -3.02311450242996215820e-01) (111, 5.03271818161010742188e-02) (112, -1.41583636403083801270e-01) (113, 3.57417643070220947266e-01) (114, -2.15435907244682312012e-01) (115, 4.72013562917709350586e-01) (116, 3.22600564686581492424e-04) (117, 1.53272032737731933594e-01) (118, -2.53329664468765258789e-01) (119, 7.21720233559608459473e-02) (120, 2.13771492242813110352e-01) (121, 2.80308634042739868164e-01) (122, -1.15069419145584106445e-01) (123, 2.26720988750457763672e-01) (124, 8.45031812787055969238e-02) (125, 2.42796212434768676758e-01) (126, 5.13872504234313964844e-01) (127, -7.19260632991790771484e-01) (128, 1.32306218147277832031e-01) (129, -4.20076847076416015625e-02) (130, -7.66134202480316162109e-01) (131, -4.43157367408275604248e-02) (132, -2.58844941854476928711e-01) (133, -1.77098978310823440552e-02) (134, 2.98108346760272979736e-02) (135, 1.41470357775688171387e-01) (136, -6.86473101377487182617e-02) (137, 5.46452999114990234375e-02) (138, -2.82565593719482421875e-01) (139, 3.22362184524536132812e-01) (140, 4.05438870191574096680e-01) (141, 3.94160211086273193359e-01) (142, 4.52046804130077362061e-02) (143, 1.62532776594161987305e-01) (144, -1.50313526391983032227e-02) (145, -2.65547037124633789062e-01) (146, 3.75171512365341186523e-01) (147, -4.49909240007400512695e-01) (148, 4.97987493872642517090e-02) (149, -3.27824622392654418945e-01) (150, -6.81063294410705566406e-01) (151, 2.80732691287994384766e-01) (152, -2.36461013555526733398e-01) (153, -8.40148851275444030762e-02) (154, -1.67408719658851623535e-01) (155, 1.97436615824699401855e-01) (156, -1.78982183337211608887e-01) (157, 2.09068372845649719238e-01) (158, -2.64047861099243164062e-01) (159, 3.01090121269226074219e-01) (160, 1.58247485756874084473e-01) (161, 1.32352486252784729004e-01) (162, 1.39285147190093994141e-01) (163, -8.51991772651672363281e-02) (164, 6.79861009120941162109e-03) (165, 1.58596709370613098145e-01) (166, 5.85128843784332275391e-01) (167, -4.23651248216629028320e-01) (168, -9.05403867363929748535e-02) (169, 1.16532705724239349365e-01) (170, -5.40951073169708251953e-01) (171, 3.94809484481811523438e-01) (172, -3.07735502719879150391e-01) (173, -4.81128767132759094238e-02) (174, -7.30138421058654785156e-02) (175, 1.03562518954277038574e-01) (176, -1.10487625002861022949e-01) (177, 5.36324381828308105469e-02) (178, -1.30932420492172241211e-01) (179, 2.43558853864669799805e-01) (180, -3.27064812183380126953e-01) (181, -9.23518165946006774902e-02) (182, 1.97541564702987670898e-01) (183, -1.31397442892193794250e-02) (184, 8.00232961773872375488e-02) (185, -2.21868082880973815918e-01) (186, 6.68091654777526855469e-01) (187, 3.30923348665237426758e-02) (188, 7.19283670186996459961e-02) (189, 3.13974730670452117920e-02) (190, -6.40077516436576843262e-02) (191, 5.42648553848266601562e-01) (192, -2.58129358291625976562e-01) (193, 2.44787469506263732910e-01) (194, -1.06692072004079818726e-02) (195, 1.69077679514884948730e-01) (196, -4.83414232730865478516e-01) (197, 1.89412489533424377441e-01) (198, -9.83071625232696533203e-02) (199, -3.85259896516799926758e-01) (200, -3.68680447340011596680e-01) (201, 9.98651981353759765625e-02) (202, 8.33377912640571594238e-02) (203, 3.15716505050659179688e-01) (204, -1.71072781085968017578e-03) (205, 2.02677890658378601074e-01) (206, -3.62028181552886962891e-02) (207, -6.44067674875259399414e-02) (208, -2.66749769449234008789e-01) (209, 1.43876865506172180176e-01) (210, 2.65453517436981201172e-01) (211, 2.98699438571929931641e-01) (212, -2.39104166626930236816e-01) (213, 2.73976296186447143555e-01) (214, -2.19401329755783081055e-01) (215, 5.90433418750762939453e-01) (216, -3.57254683971405029297e-01) (217, 5.55319301784038543701e-02) (218, -2.88384497165679931641e-01) (219, -5.39807319641113281250e-01) (220, -3.24750900268554687500e-01) (221, 3.93282145261764526367e-01) (222, 4.12952005863189697266e-02) (223, -4.07016366720199584961e-01) (224, 9.86351817846298217773e-03) (225, 1.95687785744667053223e-01) (226, -2.93931718915700912476e-02) (227, 2.21061289310455322266e-01) (228, -2.66006201505661010742e-01) (229, 2.36061424016952514648e-01) (230, 6.00699603557586669922e-01) (231, 3.16975086927413940430e-01) (232, -3.86801123619079589844e-01) (233, -1.35808676481246948242e-01) (234, -2.55022913217544555664e-01) (235, 2.02605441212654113770e-01) (236, -2.76287525892257690430e-01) (237, 9.85839590430259704590e-02) (238, 7.74657577276229858398e-02) (239, -2.10893288254737854004e-01) (240, -3.19437831640243530273e-01) (241, 4.44122642278671264648e-01) (242, -2.28788003325462341309e-01) (243, -5.00619828701019287109e-01) (244, -5.11798709630966186523e-02) (245, -2.01999470591545104980e-01) (246, 2.09811583161354064941e-01) (247, -1.45615503191947937012e-01) (248, -2.53101825714111328125e-01) (249, 2.28497534990310668945e-01) (250, 3.42090785503387451172e-01) (251, 4.89603549242019653320e-01) (252, -3.43197017908096313477e-01) (253, -8.08431580662727355957e-02) (254, -2.52727627754211425781e-01) (255, 4.87690150737762451172e-01) (256, 6.32447674870491027832e-02) (257, 1.31129324436187744141e-01) (258, 7.82192349433898925781e-02) (259, 3.25691193342208862305e-01) (260, -6.20994627475738525391e-01) (261, 2.27404966950416564941e-01) (262, -8.31762552261352539062e-02) (263, -5.95328807830810546875e-01) (264, -1.64972543716430664062e-02) (265, -1.58485919237136840820e-01) (266, 5.13209551572799682617e-02) (267, 2.86267131567001342773e-01) (268, 2.32466980814933776855e-01) (269, 8.97340178489685058594e-02) (270, 1.36774405837059020996e-01) (271, 1.37900650501251220703e-01) (272, -3.86748284101486206055e-01) (273, 3.20242345333099365234e-02) (274, -2.26325213909149169922e-01) (275, 4.49112445116043090820e-01) (276, 3.75048555433750152588e-02) (277, 1.76674455404281616211e-01) (278, 1.64272800087928771973e-01) (279, 7.96135142445564270020e-02) (280, -1.88438817858695983887e-01) (281, 1.07876479625701904297e-01) (282, -9.08226892352104187012e-02) (283, -3.12302261590957641602e-01) (284, 1.52998715639114379883e-02) (285, 5.20352311432361602783e-02) (286, 1.16926103830337524414e-01) (287, 2.36258536577224731445e-01) (288, 1.93273246288299560547e-01) (289, 7.73754492402076721191e-02) (290, 4.60892170667648315430e-02) (291, -1.77950207144021987915e-02) (292, 2.02476419508457183838e-03) (293, -5.40111260488629341125e-03) (294, -1.66633293032646179199e-01) (295, 4.61371541023254394531e-01) (296, 6.09452128410339355469e-02) (297, 1.06508299708366394043e-01) (298, 1.74198329448699951172e-01) (299, -5.88613986968994140625e-01) (300, 2.54838407039642333984e-01) (301, -3.45520675182342529297e-02) (302, -5.74757307767868041992e-02) (303, -3.13829302787780761719e-01) (304, 6.41153007745742797852e-03) (305, -1.15180626511573791504e-01) (306, 3.58617007732391357422e-01) (307, 4.34879451990127563477e-01) (308, 1.06359750032424926758e-01) (309, -4.92006875574588775635e-02) (310, 5.17042875289916992188e-02) (311, -4.83834967017173767090e-02) (312, 2.51913964748382568359e-02) (313, 1.53850108385086059570e-01) (314, 9.56900119781494140625e-02) (315, 1.85234770178794860840e-01) (316, 1.45589616149663925171e-02) (317, -2.63062775135040283203e-01) (318, -4.84076887369155883789e-02) (319, -3.14508467912673950195e-01) (320, 5.23578643798828125000e-01) (321, -4.67880785465240478516e-01) (322, -1.67000502347946166992e-01) (323, -5.48639595508575439453e-01) (324, -9.24422293901443481445e-02) (325, -4.20600660145282745361e-02) (326, 2.85523474216461181641e-01) (327, 4.15063410997390747070e-01) (328, 1.28446996212005615234e-01) (329, 1.65495768189430236816e-01) (330, 1.10370203852653503418e-01) (331, -4.00013506412506103516e-01) (332, -2.51276083290576934814e-02) (333, 1.77409216761589050293e-01) (334, -2.19234954565763473511e-02) (335, -1.62999004125595092773e-01) (336, 2.63628333806991577148e-01) (337, -2.35345691442489624023e-01) (338, 9.09161344170570373535e-02) (339, -3.19935560226440429688e-01) (340, 1.92645072937011718750e-01) (341, -4.12325054407119750977e-01) (342, 3.19667482376098632812e+00) (343, 5.82961368560791015625e+00) (344, -3.83332133293151855469e+00) (345, 1.65925109386444091797e+00) (346, -6.52993965148925781250e+00) (341, 4.78986918926239013672e-01) (342, 3.95352149009704589844e+00) (343, -5.87356042861938476562e+00) (344, -5.12920141220092773438e+00) (345, -3.06975650787353515625e+00) (346, -2.21359655261039733887e-01) (341, -1.14115214347839355469e+00) (342, -7.23575115203857421875e+00) (343, 9.59990322589874267578e-01) (344, -2.96531772613525390625e+00) (345, -1.28003621101379394531e+00) (346, 3.23081231117248535156e+00) (341, -3.04017275571823120117e-01) (342, -2.29104816913604736328e-01) (343, -3.15820431709289550781e+00) (344, 7.48783445358276367188e+00) (345, 1.09021663665771484375e+00) (346, -3.29110026359558105469e+00) 
