FANN_FLO_2.1
num_layers=3
learning_rate=0.700000
connection_rate=1.000000
network_type=0
learning_momentum=0.000000
training_algorithm=0
train_error_function=1
train_stop_function=0
cascade_output_change_fraction=0.010000
quickprop_decay=-0.000100
quickprop_mu=1.750000
rprop_increase_factor=1.200000
rprop_decrease_factor=0.500000
rprop_delta_min=0.000000
rprop_delta_max=50.000000
rprop_delta_zero=0.100000
cascade_output_stagnation_epochs=12
cascade_candidate_change_fraction=0.010000
cascade_candidate_stagnation_epochs=12
cascade_max_out_epochs=150
cascade_min_out_epochs=50
cascade_max_cand_epochs=150
cascade_min_cand_epochs=50
cascade_num_candidate_groups=2
bit_fail_limit=3.49999994039535522461e-01
cascade_candidate_limit=1.00000000000000000000e+03
cascade_weight_multiplier=4.00000005960464477539e-01
cascade_activation_functions_count=10
cascade_activation_functions=3 5 7 8 10 11 14 15 16 17 
cascade_activation_steepnesses_count=4
cascade_activation_steepnesses=2.50000000000000000000e-01 5.00000000000000000000e-01 7.50000000000000000000e-01 1.00000000000000000000e+00 
layer_sizes=341 6 5 
scale_included=0
neurons (num_inputs, activation_function, activation_steepness)=(0, 0, 0.00000000000000000000e+00) (0, 0, 0.00000000000000000000e+00) (0, 0, 0.00000000000000000000e+00) (0, 0, 0.00000000000000000000e+00) (0, 0, 0.00000000000000000000e+00) (0, 0, 0.00000000000000000000e+00) (0, 0, 0.00000000000000000000e+00) (0, 0, 0.00000000000000000000e+00) (0, 0, 0.00000000000000000000e+00) (0, 0, 0.00000000000000000000e+00) (0, 0, 0.00000000000000000000e+00) (0, 0, 0.00000000000000000000e+00) (0, 0, 0.00000000000000000000e+00) (0, 0, 0.00000000000000000000e+00) (0, 0, 0.00000000000000000000e+00) (0, 0, 0.00000000000000000000e+00) (0, 0, 0.00000000000000000000e+00) (0, 0, 0.00000000000000000000e+00) (0, 0, 0.00000000000000000000e+00) (0, 0, 0.00000000000000000000e+00) (0, 0, 0.00000000000000000000e+00) (0, 0, 0.00000000000000000000e+00) (0, 0, 0.00000000000000000000e+00) (0, 0, 0.00000000000000000000e+00) (0, 0, 0.00000000000000000000e+00) (0, 0, 0.00000000000000000000e+00) (0, 0, 0.00000000000000000000e+00) (0, 0, 0.00000000000000000000e+00) (0, 0, 0.00000000000000000000e+00) (0, 0, 0.00000000000000000000e+00) (0, 0, 0.00000000000000000000e+00) (0, 0, 0.00000000000000000000e+00) (0, 0, 0.00000000000000000000e+00) (0, 0, 0.00000000000000000000e+00) (0, 0, 0.00000000000000000000e+00) (0, 0, 0.00000000000000000000e+00) (0, 0, 0.00000000000000000000e+00) (0, 0, 0.00000000000000000000e+00) (0, 0, 0.00000000000000000000e+00) (0, 0, 0.00000000000000000000e+00) (0, 0, 0.00000000000000000000e+00) (0, 0, 0.00000000000000000000e+00) (0, 0, 0.00000000000000000000e+00) (0, 0, 0.00000000000000000000e+00) (0, 0, 0.00000000000000000000e+00) (0, 0, 0.00000000000000000000e+00) (0, 0, 0.00000000000000000000e+00) (0, 0, 0.00000000000000000000e+00) (0, 0, 0.00000000000000000000e+00) (0, 0, 0.00000000000000000000e+00) (0, 0, 0.00000000000000000000e+00) (0, 0, 0.00000000000000000000e+00) (0, 0, 0.00000000000000000000e+00) (0, 0, 0.00000000000000000000e+00) (0, 0, 0.00000000000000000000e+00) (0, 0, 0.00000000000000000000e+00) (0, 0, 0.00000000000000000000e+00) (0, 0, 0.00000000000000000000e+00) (0, 0, 0.00000000000000000000e+00) (0, 0, 0.00000000000000000000e+00) (0, 0, 0.00000000000000000000e+00) (0, 0, 0.00000000000000000000e+00) (0, 0, 0.00000000000000000000e+00) (0, 0, 0.00000000000000000000e+00) (0, 0, 0.00000000000000000000e+00) (0, 0, 0.00000000000000000000e+00) (0, 0, 0.00000000000000000000e+00) (0, 0, 0.00000000000000000000e+00) (0, 0, 0.00000000000000000000e+00) (0, 0, 0.00000000000000000000e+00) (0, 0, 0.00000000000000000000e+00) (0, 0, 0.00000000000000000000e+00) (0, 0, 0.00000000000000000000e+00) (0, 0, 0.00000000000000000000e+00) (0, 0, 0.00000000000000000000e+00) (0, 0, 0.00000000000000000000e+00) (0, 0, 0.00000000000000000000e+00) (0, 0, 0.00000000000000000000e+00) (0, 0, 0.00000000000000000000e+00) (0, 0, 0.00000000000000000000e+00) (0, 0, 0.00000000000000000000e+00) (0, 0, 0.00000000000000000000e+00) (0, 0, 0.00000000000000000000e+00) (0, 0, 0.00000000000000000000e+00) (0, 0, 0.00000000000000000000e+00) (0, 0, 0.00000000000000000000e+00) (0, 0, 0.00000000000000000000e+00) (0, 0, 0.00000000000000000000e+00) (0, 0, 0.00000000000000000000e+00) (0, 0, 0.00000000000000000000e+00) (0, 0, 0.00000000000000000000e+00) (0, 0, 0.00000000000000000000e+00) (0, 0, 0.00000000000000000000e+00) (0, 0, 0.00000000000000000000e+00) (0, 0, 0.00000000000000000000e+00) (0, 0, 0.00000000000000000000e+00) (0, 0, 0.00000000000000000000e+00) (0, 0, 0.00000000000000000000e+00) (0, 0, 0.00000000000000000000e+00) (0, 0, 0.00000000000000000000e+00) (0, 0, 0.00000000000000000000e+00) (0, 0, 0.00000000000000000000e+00) (0, 0, 0.00000000000000000000e+00) (0, 0, 0.00000000000000000000e+00) (0, 0, 0.00000000000000000000e+00) (0, 0, 0.00000000000000000000e+00) (0, 0, 0.00000000000000000000e+00) (0, 0, 0.00000000000000000000e+00) (0, 0, 0.00000000000000000000e+00) (0, 0, 0.00000000000000000000e+00) (0, 0, 0.00000000000000000000e+00) (0, 0, 0.00000000000000000000e+00) (0, 0, 0.00000000000000000000e+00) (0, 0, 0.00000000000000000000e+00) (0, 0, 0.00000000000000000000e+00) (0, 0, 0.00000000000000000000e+00) (0, 0, 0.00000000000000000000e+00) (0, 0, 0.00000000000000000000e+00) (0, 0, 0.00000000000000000000e+00) (0, 0, 0.00000000000000000000e+00) (0, 0, 0.00000000000000000000e+00) (0, 0, 0.00000000000000000000e+00) (0, 0, 0.00000000000000000000e+00) (0, 0, 0.00000000000000000000e+00) (0, 0, 0.00000000000000000000e+00) (0, 0, 0.00000000000000000000e+00) (0, 0, 0.00000000000000000000e+00) (0, 0, 0.00000000000000000000e+00) (0, 0, 0.00000000000000000000e+00) (0, 0, 0.00000000000000000000e+00) (0, 0, 0.00000000000000000000e+00) (0, 0, 0.00000000000000000000e+00) (0, 0, 0.00000000000000000000e+00) (0, 0, 0.00000000000000000000e+00) (0, 0, 0.00000000000000000000e+00) (0, 0, 0.00000000000000000000e+00) (0, 0, 0.00000000000000000000e+00) (0, 0, 0.00000000000000000000e+00) (0, 0, 0.00000000000000000000e+00) (0, 0, 0.00000000000000000000e+00) (0, 0, 0.00000000000000000000e+00) (0, 0, 0.00000000000000000000e+00) (0, 0, 0.00000000000000000000e+00) (0, 0, 0.00000000000000000000e+00) (0, 0, 0.00000000000000000000e+00) (0, 0, 0.00000000000000000000e+00) (0, 0, 0.00000000000000000000e+00) (0, 0, 0.00000000000000000000e+00) (0, 0, 0.00000000000000000000e+00) (0, 0, 0.00000000000000000000e+00) (0, 0, 0.00000000000000000000e+00) (0, 0, 0.00000000000000000000e+00) (0, 0, 0.00000000000000000000e+00) (0, 0, 0.00000000000000000000e+00) (0, 0, 0.00000000000000000000e+00) (0, 0, 0.00000000000000000000e+00) (0, 0, 0.00000000000000000000e+00) (0, 0, 0.00000000000000000000e+00) (0, 0, 0.00000000000000000000e+00) (0, 0, 0.00000000000000000000e+00) (0, 0, 0.00000000000000000000e+00) (0, 0, 0.00000000000000000000e+00) (0, 0, 0.00000000000000000000e+00) (0, 0, 0.00000000000000000000e+00) (0, 0, 0.00000000000000000000e+00) (0, 0, 0.00000000000000000000e+00) (0, 0, 0.00000000000000000000e+00) (0, 0, 0.00000000000000000000e+00) (0, 0, 0.00000000000000000000e+00) (0, 0, 0.00000000000000000000e+00) (0, 0, 0.00000000000000000000e+00) (0, 0, 0.00000000000000000000e+00) (0, 0, 0.00000000000000000000e+00) (0, 0, 0.00000000000000000000e+00) (0, 0, 0.00000000000000000000e+00) (0, 0, 0.00000000000000000000e+00) (0, 0, 0.00000000000000000000e+00) (0, 0, 0.00000000000000000000e+00) (0, 0, 0.00000000000000000000e+00) (0, 0, 0.00000000000000000000e+00) (0, 0, 0.00000000000000000000e+00) (0, 0, 0.00000000000000000000e+00) (0, 0, 0.00000000000000000000e+00) (0, 0, 0.00000000000000000000e+00) (0, 0, 0.00000000000000000000e+00) (0, 0, 0.00000000000000000000e+00) (0, 0, 0.00000000000000000000e+00) (0, 0, 0.00000000000000000000e+00) (0, 0, 0.00000000000000000000e+00) (0, 0, 0.00000000000000000000e+00) (0, 0, 0.00000000000000000000e+00) (0, 0, 0.00000000000000000000e+00) (0, 0, 0.00000000000000000000e+00) (0, 0, 0.00000000000000000000e+00) (0, 0, 0.00000000000000000000e+00) (0, 0, 0.00000000000000000000e+00) (0, 0, 0.00000000000000000000e+00) (0, 0, 0.00000000000000000000e+00) (0, 0, 0.00000000000000000000e+00) (0, 0, 0.00000000000000000000e+00) (0, 0, 0.00000000000000000000e+00) (0, 0, 0.00000000000000000000e+00) (0, 0, 0.00000000000000000000e+00) (0, 0, 0.00000000000000000000e+00) (0, 0, 0.00000000000000000000e+00) (0, 0, 0.00000000000000000000e+00) (0, 0, 0.00000000000000000000e+00) (0, 0, 0.00000000000000000000e+00) (0, 0, 0.00000000000000000000e+00) (0, 0, 0.00000000000000000000e+00) (0, 0, 0.00000000000000000000e+00) (0, 0, 0.00000000000000000000e+00) (0, 0, 0.00000000000000000000e+00) (0, 0, 0.00000000000000000000e+00) (0, 0, 0.00000000000000000000e+00) (0, 0, 0.00000000000000000000e+00) (0, 0, 0.00000000000000000000e+00) (0, 0, 0.00000000000000000000e+00) (0, 0, 0.00000000000000000000e+00) (0, 0, 0.00000000000000000000e+00) (0, 0, 0.00000000000000000000e+00) (0, 0, 0.00000000000000000000e+00) (0, 0, 0.00000000000000000000e+00) (0, 0, 0.00000000000000000000e+00) (0, 0, 0.00000000000000000000e+00) (0, 0, 0.00000000000000000000e+00) (0, 0, 0.00000000000000000000e+00) (0, 0, 0.00000000000000000000e+00) (0, 0, 0.00000000000000000000e+00) (0, 0, 0.00000000000000000000e+00) (0, 0, 0.00000000000000000000e+00) (0, 0, 0.00000000000000000000e+00) (0, 0, 0.00000000000000000000e+00) (0, 0, 0.00000000000000000000e+00) (0, 0, 0.00000000000000000000e+00) (0, 0, 0.00000000000000000000e+00) (0, 0, 0.00000000000000000000e+00) (0, 0, 0.00000000000000000000e+00) (0, 0, 0.00000000000000000000e+00) (0, 0, 0.00000000000000000000e+00) (0, 0, 0.00000000000000000000e+00) (0, 0, 0.00000000000000000000e+00) (0, 0, 0.00000000000000000000e+00) (0, 0, 0.00000000000000000000e+00) (0, 0, 0.00000000000000000000e+00) (0, 0, 0.00000000000000000000e+00) (0, 0, 0.00000000000000000000e+00) (0, 0, 0.00000000000000000000e+00) (0, 0, 0.00000000000000000000e+00) (0, 0, 0.00000000000000000000e+00) (0, 0, 0.00000000000000000000e+00) (0, 0, 0.00000000000000000000e+00) (0, 0, 0.00000000000000000000e+00) (0, 0, 0.00000000000000000000e+00) (0, 0, 0.00000000000000000000e+00) (0, 0, 0.00000000000000000000e+00) (0, 0, 0.00000000000000000000e+00) (0, 0, 0.00000000000000000000e+00) (0, 0, 0.00000000000000000000e+00) (0, 0, 0.00000000000000000000e+00) (0, 0, 0.00000000000000000000e+00) (0, 0, 0.00000000000000000000e+00) (0, 0, 0.00000000000000000000e+00) (0, 0, 0.00000000000000000000e+00) (0, 0, 0.00000000000000000000e+00) (0, 0, 0.00000000000000000000e+00) (0, 0, 0.00000000000000000000e+00) (0, 0, 0.00000000000000000000e+00) (0, 0, 0.00000000000000000000e+00) (0, 0, 0.00000000000000000000e+00) (0, 0, 0.00000000000000000000e+00) (0, 0, 0.00000000000000000000e+00) (0, 0, 0.00000000000000000000e+00) (0, 0, 0.00000000000000000000e+00) (0, 0, 0.00000000000000000000e+00) (0, 0, 0.00000000000000000000e+00) (0, 0, 0.00000000000000000000e+00) (0, 0, 0.00000000000000000000e+00) (0, 0, 0.00000000000000000000e+00) (0, 0, 0.00000000000000000000e+00) (0, 0, 0.00000000000000000000e+00) (0, 0, 0.00000000000000000000e+00) (0, 0, 0.00000000000000000000e+00) (0, 0, 0.00000000000000000000e+00) (0, 0, 0.00000000000000000000e+00) (0, 0, 0.00000000000000000000e+00) (0, 0, 0.00000000000000000000e+00) (0, 0, 0.00000000000000000000e+00) (0, 0, 0.00000000000000000000e+00) (0, 0, 0.00000000000000000000e+00) (0, 0, 0.00000000000000000000e+00) (0, 0, 0.00000000000000000000e+00) (0, 0, 0.00000000000000000000e+00) (0, 0, 0.00000000000000000000e+00) (0, 0, 0.00000000000000000000e+00) (0, 0, 0.00000000000000000000e+00) (0, 0, 0.00000000000000000000e+00) (0, 0, 0.00000000000000000000e+00) (0, 0, 0.00000000000000000000e+00) (0, 0, 0.00000000000000000000e+00) (0, 0, 0.00000000000000000000e+00) (0, 0, 0.00000000000000000000e+00) (0, 0, 0.00000000000000000000e+00) (0, 0, 0.00000000000000000000e+00) (0, 0, 0.00000000000000000000e+00) (0, 0, 0.00000000000000000000e+00) (0, 0, 0.00000000000000000000e+00) (0, 0, 0.00000000000000000000e+00) (0, 0, 0.00000000000000000000e+00) (0, 0, 0.00000000000000000000e+00) (0, 0, 0.00000000000000000000e+00) (0, 0, 0.00000000000000000000e+00) (0, 0, 0.00000000000000000000e+00) (0, 0, 0.00000000000000000000e+00) (0, 0, 0.00000000000000000000e+00) (0, 0, 0.00000000000000000000e+00) (0, 0, 0.00000000000000000000e+00) (0, 0, 0.00000000000000000000e+00) (0, 0, 0.00000000000000000000e+00) (0, 0, 0.00000000000000000000e+00) (0, 0, 0.00000000000000000000e+00) (0, 0, 0.00000000000000000000e+00) (0, 0, 0.00000000000000000000e+00) (0, 0, 0.00000000000000000000e+00) (0, 0, 0.00000000000000000000e+00) (0, 0, 0.00000000000000000000e+00) (0, 0, 0.00000000000000000000e+00) (0, 0, 0.00000000000000000000e+00) (0, 0, 0.00000000000000000000e+00) (0, 0, 0.00000000000000000000e+00) (0, 0, 0.00000000000000000000e+00) (0, 0, 0.00000000000000000000e+00) (0, 0, 0.00000000000000000000e+00) (0, 0, 0.00000000000000000000e+00) (0, 0, 0.00000000000000000000e+00) (0, 0, 0.00000000000000000000e+00) (0, 0, 0.00000000000000000000e+00) (0, 0, 0.00000000000000000000e+00) (0, 0, 0.00000000000000000000e+00) (0, 0, 0.00000000000000000000e+00) (0, 0, 0.00000000000000000000e+00) (341, 4, 5.00000000000000000000e-01) (341, 4, 5.00000000000000000000e-01) (341, 4, 5.00000000000000000000e-01) (341, 4, 5.00000000000000000000e-01) (341, 4, 5.00000000000000000000e-01) (0, 0, 0.00000000000000000000e+00) (6, 4, 5.00000000000000000000e-01) (6, 4, 5.00000000000000000000e-01) (6, 4, 5.00000000000000000000e-01) (6, 4, 5.00000000000000000000e-01) (0, 0, 0.00000000000000000000e+00) 
connections (connected_to_neuron, weight)=(0, 4.80486011505126953125e+00) (1, 5.22434616088867187500e+01) (2, 2.30576682090759277344e+00) (3, -1.27889640808105468750e+02) (4, -5.35488739013671875000e+01) (5, -8.72485580444335937500e+01) (6, 1.45262832641601562500e+01) (7, -9.78284263610839843750e+00) (8, -8.45178146362304687500e+01) (9, -4.79481506347656250000e+01) (10, -2.99845485687255859375e+01) (11, 6.87847213745117187500e+01) (12, 1.20271053314208984375e+01) (13, 2.07016716003417968750e+01) (14, -2.97115859985351562500e+01) (15, -6.56035003662109375000e+01) (16, -1.42112594604492187500e+02) (17, 3.59219474792480468750e+01) (18, -1.03219661712646484375e+01) (19, -1.23427551269531250000e+02) (20, -2.99605102539062500000e+01) (21, -7.78832550048828125000e+01) (22, 1.69287700653076171875e+01) (23, 1.40208082199096679688e+01) (24, -5.67140617370605468750e+01) (25, 2.59105949401855468750e+01) (26, 4.09466133117675781250e+01) (27, 6.24116706848144531250e+01) (28, -1.39116201400756835938e+01) (29, -4.18222770690917968750e+01) (30, -1.24858770370483398438e+01) (31, 1.07924545288085937500e+02) (32, -1.10463264465332031250e+02) (33, 6.50551910400390625000e+01) (34, 4.87506484985351562500e+01) (35, -5.04698219299316406250e+01) (36, 4.28126487731933593750e+01) (37, -2.68275787353515625000e+02) (38, -1.22817163467407226562e+01) (39, -1.51549636840820312500e+02) (40, 2.77746820449829101562e+00) (41, -1.25204200744628906250e+02) (42, -6.14900922775268554688e+00) (43, 6.46633453369140625000e+01) (44, -1.45386764526367187500e+02) (45, 5.15063934326171875000e+01) (46, 4.88088912963867187500e+01) (47, 1.08949905395507812500e+02) (48, 1.46278533935546875000e+02) (49, -5.92975997924804687500e+01) (50, -9.15165481567382812500e+01) (51, 8.12892303466796875000e+01) (52, -2.08474540710449218750e+01) (53, -7.10225296020507812500e+01) (54, 3.06827487945556640625e+01) (55, -4.72120933532714843750e+01) (56, -2.77017765045166015625e+01) (57, -9.20940856933593750000e+01) (58, -5.89825439453125000000e+01) (59, -6.68094711303710937500e+01) (60, 9.45682376623153686523e-02) (61, -1.29305709838867187500e+02) (62, 4.08133316040039062500e+01) (63, -1.82405681610107421875e+01) (64, -1.42187622070312500000e+02) (65, 4.03231201171875000000e+01) (66, 5.45338287353515625000e+01) (67, 1.02658439636230468750e+02) (68, 7.41682052612304687500e+01) (69, -1.87487769126892089844e+00) (70, -6.10606918334960937500e+01) (71, 7.66438598632812500000e+01) (72, -1.50568237304687500000e+02) (73, 1.59864783287048339844e-01) (74, 1.11383514404296875000e+02) (75, -2.73432636260986328125e+01) (76, 2.11168746948242187500e+01) (77, -1.46502914428710937500e+02) (78, -4.21665840148925781250e+01) (79, -7.69303054809570312500e+01) (80, 2.12098369598388671875e+01) (81, -9.14544372558593750000e+01) (82, 2.86206531524658203125e+01) (83, 1.73903217315673828125e+01) (84, -1.49190078735351562500e+02) (85, -6.63326873779296875000e+01) (86, -2.57046470642089843750e+01) (87, 2.02403472900390625000e+02) (88, 1.13967109680175781250e+02) (89, 1.21253499984741210938e+01) (90, -1.73727436065673828125e+01) (91, 1.06802558898925781250e+02) (92, -7.99058685302734375000e+01) (93, 7.42319564819335937500e+01) (94, 1.67503936767578125000e+02) (95, 1.88494415283203125000e+01) (96, -1.88580684661865234375e+01) (97, 1.41924850463867187500e+02) (98, -6.38898696899414062500e+01) (99, -5.75145835876464843750e+01) (100, 6.82765426635742187500e+01) (101, -1.79451385498046875000e+02) (102, -1.08202705383300781250e+02) (103, -8.03420028686523437500e+01) (104, 2.09067211151123046875e+01) (105, 1.77520065307617187500e+01) (106, -6.76757049560546875000e+01) (107, 2.11241775512695312500e+02) (108, 5.98318328857421875000e+01) (109, 3.49229545593261718750e+01) (110, 2.80199584960937500000e+01) (111, 1.50065200805664062500e+02) (112, -6.97253189086914062500e+01) (113, 1.62545623779296875000e+02) (114, -5.17947502136230468750e+01) (115, 4.53768005371093750000e+01) (116, 3.23691825866699218750e+01) (117, 1.75385894775390625000e+01) (118, -2.42707705497741699219e+00) (119, 1.26272155761718750000e+02) (120, 3.81516075134277343750e+01) (121, 1.16768283843994140625e+01) (122, -1.69565368652343750000e+02) (123, -2.18966705322265625000e+02) (124, 1.55708923339843750000e+02) (125, -1.22435638427734375000e+02) (126, -1.37356658935546875000e+02) (127, 1.81231750488281250000e+02) (128, 1.35181617736816406250e+01) (129, 5.38862686157226562500e+01) (130, 5.85341606140136718750e+01) (131, 5.19817886352539062500e+01) (132, 1.98107509613037109375e+01) (133, 1.43707199096679687500e+02) (134, 6.11761808395385742188e+00) (135, -3.23837318420410156250e+01) (136, -1.90944442749023437500e+02) (137, -4.83204793930053710938e+00) (138, -2.80229415893554687500e+01) (139, 2.58008666992187500000e+02) (140, -8.16340789794921875000e+01) (141, -1.27362747192382812500e+02) (142, -8.51364212036132812500e+01) (143, -3.98819000244140625000e+02) (144, 1.79147476196289062500e+02) (145, -8.48563919067382812500e+01) (146, -8.87841873168945312500e+01) (147, -4.18160974979400634766e-01) (148, 3.10317726135253906250e+01) (149, 1.21968528747558593750e+02) (150, 1.41759948730468750000e+02) (151, -8.61775283813476562500e+01) (152, 8.72978496551513671875e+00) (153, 2.60442260742187500000e+02) (154, -7.17618637084960937500e+01) (155, -1.18674270629882812500e+02) (156, 3.12586641311645507812e+00) (157, 1.37080856323242187500e+02) (158, -6.32570075988769531250e+00) (159, 2.64628356933593750000e+02) (160, -1.38678222656250000000e+02) (161, -1.33869155883789062500e+02) (162, -1.97943237304687500000e+02) (163, -2.74949645996093750000e+02) (164, 1.86173492431640625000e+02) (165, -1.38960937500000000000e+02) (166, -1.52718353271484375000e+02) (167, -1.98777114868164062500e+02) (168, -1.38732128143310546875e+01) (169, 2.05085784912109375000e+02) (170, 1.19374900817871093750e+02) (171, -1.93038589477539062500e+02) (172, 9.00734252929687500000e+01) (173, 2.15021850585937500000e+02) (174, -1.61154724121093750000e+02) (175, -1.12439682006835937500e+02) (176, 7.27471694946289062500e+01) (177, 1.71381820678710937500e+02) (178, 7.08978652954101562500e+01) (179, 2.47312149047851562500e+02) (180, -5.74415664672851562500e+01) (181, -9.36627197265625000000e+01) (182, -6.74752197265625000000e+01) (183, -2.41353027343750000000e+02) (184, 5.50508384704589843750e+01) (185, -1.04431777954101562500e+02) (186, -1.35007217407226562500e+02) (187, -2.94251892089843750000e+02) (188, -5.42700958251953125000e+01) (189, 2.63558715820312500000e+02) (190, 9.77990188598632812500e+01) (191, -1.56276798248291015625e+01) (192, -4.31058883666992187500e+01) (193, 2.13081558227539062500e+02) (194, -1.42746515274047851562e+01) (195, -4.29236793518066406250e+01) (196, -3.03798809051513671875e+01) (197, 2.27330429077148437500e+02) (198, 3.00877895355224609375e+01) (199, 2.30384933471679687500e+02) (200, -1.17313858032226562500e+02) (201, -6.91964111328125000000e+01) (202, -1.08957778930664062500e+02) (203, -6.75316162109375000000e+01) (204, 2.09509765625000000000e+02) (205, -7.54679718017578125000e+01) (206, -1.13243881225585937500e+02) (207, -1.49381683349609375000e+02) (208, -1.35216201782226562500e+02) (209, 2.58347686767578125000e+02) (210, 3.34485397338867187500e+01) (211, -6.17825584411621093750e+01) (212, 4.94053459167480468750e+00) (213, 1.26091461181640625000e+02) (214, 7.43684387207031250000e+01) (215, 2.54630041122436523438e+00) (216, -8.02701492309570312500e+01) (217, 1.62068511962890625000e+02) (218, -4.09778289794921875000e+01) (219, 2.26963485717773437500e+02) (220, -1.06768775939941406250e+02) (221, 4.67407369613647460938e+00) (222, 1.94915237426757812500e+01) (223, 3.00890045166015625000e+01) (224, 2.91639385223388671875e+01) (225, 4.27673988342285156250e+01) (226, -2.52716522216796875000e+01) (227, -4.24963111877441406250e+01) (228, -1.56749069213867187500e+02) (229, 1.78588714599609375000e+02) (230, -1.98623123168945312500e+01) (231, -9.11570835113525390625e+00) (232, 6.15628280639648437500e+01) (233, 1.16075575351715087891e+00) (234, 1.11760818481445312500e+02) (235, 2.10699629783630371094e+00) (236, -9.43471374511718750000e+01) (237, 1.52491359710693359375e+01) (238, -6.50490570068359375000e+01) (239, 9.05579528808593750000e+01) (240, -4.00872001647949218750e+01) (241, -1.72129268646240234375e+01) (242, 9.38988037109375000000e+01) (243, 1.61651248931884765625e+01) (244, 1.53415054321289062500e+02) (245, -5.79435653686523437500e+01) (246, 5.10119533538818359375e+00) (247, 1.91656436920166015625e+01) (248, -7.63972778320312500000e+01) (249, 4.16572723388671875000e+01) (250, -5.49279861450195312500e+01) (251, 6.95687866210937500000e+00) (252, 9.53085803985595703125e+00) (253, -1.04994369506835937500e+02) (254, 9.26631851196289062500e+01) (255, 1.09464241027832031250e+02) (256, -1.39036071777343750000e+02) (257, -1.01099288940429687500e+02) (258, -5.37948951721191406250e+01) (259, 1.37161819458007812500e+02) (260, -1.00622604370117187500e+02) (261, -2.19030590057373046875e+01) (262, 2.06499595642089843750e+01) (263, 1.21132049560546875000e+02) (264, -2.99583663940429687500e+01) (265, 8.33498458862304687500e+01) (266, -2.46971340179443359375e+01) (267, 3.77614173889160156250e+01) (268, -2.10177173614501953125e+01) (269, 2.70298194885253906250e+00) (270, -9.28072357177734375000e+01) (271, -3.09550571441650390625e+01) (272, -7.35417251586914062500e+01) (273, -8.90426330566406250000e+01) (274, 1.15199974060058593750e+02) (275, 1.82401237487792968750e+01) (276, -6.43986282348632812500e+01) (277, 6.69447708129882812500e+01) (278, -2.66333179473876953125e+01) (279, 6.13686981201171875000e+01) (280, -9.46829910278320312500e+01) (281, 9.02526168823242187500e+01) (282, 7.16490173339843750000e+01) (283, -1.79589347839355468750e+01) (284, -1.11341972351074218750e+01) (285, 6.74593734741210937500e+01) (286, -1.49444169998168945312e+01) (287, 4.74426994323730468750e+01) (288, -1.34650711059570312500e+02) (289, -4.48048830032348632812e+00) (290, -1.18603286743164062500e+02) (291, -3.66048507690429687500e+01) (292, -8.78053741455078125000e+01) (293, -1.14335609436035156250e+02) (294, 6.06891860961914062500e+01) (295, 5.62903900146484375000e+01) (296, 2.31556034088134765625e+01) (297, -1.32062026977539062500e+02) (298, -4.63805885314941406250e+01) (299, -1.40537815093994140625e+01) (300, -8.25016784667968750000e+01) (301, 1.02953781127929687500e+02) (302, 1.12705734252929687500e+02) (303, -7.89873809814453125000e+01) (304, -2.15919475555419921875e+01) (305, 1.05211725234985351562e+01) (306, 6.53102159500122070312e+00) (307, -3.93401031494140625000e+01) (308, -5.86150741577148437500e+01) (309, -1.14441200256347656250e+02) (310, -1.43573150634765625000e+02) (311, -1.00421516418457031250e+02) (312, -1.19088180541992187500e+02) (313, -4.42542953491210937500e+01) (314, 9.71436233520507812500e+01) (315, 8.22354431152343750000e+01) (316, 8.85572204589843750000e+01) (317, -1.04254241943359375000e+02) (318, -1.35918258666992187500e+02) (319, 3.53824653625488281250e+01) (320, -8.18872604370117187500e+01) (321, -3.42220458984375000000e+01) (322, 1.81079025268554687500e+01) (323, -6.99808120727539062500e+01) (324, -1.37131942749023437500e+02) (325, 4.28073081970214843750e+01) (326, -1.07139511108398437500e+02) (327, -9.69430828094482421875e+00) (328, 2.88223857879638671875e+01) (329, -1.51065158843994140625e+01) (330, -2.72108879089355468750e+01) (331, -3.01499805450439453125e+01) (332, -1.10081230163574218750e+02) (333, -1.68180084228515625000e+02) (334, 7.82867202758789062500e+01) (335, 8.88724517822265625000e+00) (336, 3.68128814697265625000e+01) (337, -3.50364532470703125000e+01) (338, 2.41976222991943359375e+01) (339, -1.20035835266113281250e+02) (340, -3.37689422607421875000e+02) (0, 8.69511413574218750000e+01) (1, 6.11447486877441406250e+01) (2, -5.32471752166748046875e+00) (3, 2.60567779541015625000e+01) (4, 1.21833572387695312500e+02) (5, 3.24421005249023437500e+01) (6, -1.06183677673339843750e+02) (7, -1.05216112136840820312e+01) (8, -2.28266658782958984375e+01) (9, 3.39276237487792968750e+01) (10, 5.01674804687500000000e+01) (11, -2.43643970489501953125e+01) (12, 9.19478683471679687500e+01) (13, 1.16077766418457031250e+01) (14, 1.35859823226928710938e+01) (15, 1.60773525238037109375e+01) (16, 4.91213951110839843750e+01) (17, 7.94573736190795898438e+00) (18, 1.05261184692382812500e+02) (19, -1.34653854370117187500e+01) (20, -1.20107908248901367188e+01) (21, -1.06947355270385742188e+01) (22, 1.13436279296875000000e+02) (23, 1.06886550903320312500e+02) (24, -1.10766277313232421875e+01) (25, 8.81778182983398437500e+01) (26, -9.13875274658203125000e+01) (27, -5.02507591247558593750e+01) (28, -1.15053443908691406250e+01) (29, 1.67643127441406250000e+01) (30, -6.07396316528320312500e+01) (31, 3.76016960144042968750e+01) (32, 2.65667247772216796875e+01) (33, 1.67699947357177734375e+01) (34, 5.99050559997558593750e+01) (35, 2.96156740188598632812e+00) (36, 8.33408050537109375000e+01) (37, 1.96594543457031250000e+01) (38, 4.85033950805664062500e+01) (39, -5.90007133483886718750e+01) (40, -5.81134910583496093750e+01) (41, -2.86067123413085937500e+01) (42, 1.71432525634765625000e+02) (43, 4.25334396362304687500e+01) (44, 7.68787765502929687500e+01) (45, 5.73690719604492187500e+01) (46, 6.08177795410156250000e+01) (47, -1.66868896484375000000e+02) (48, 8.31605453491210937500e+01) (49, -8.80753631591796875000e+01) (50, -1.40054367065429687500e+02) (51, 4.41543998718261718750e+01) (52, 3.45144882202148437500e+01) (53, 5.53702087402343750000e+01) (54, 1.77192268371582031250e+01) (55, 4.05661487579345703125e+00) (56, 6.40484924316406250000e+01) (57, 5.11281318664550781250e+01) (58, -5.60191841125488281250e+01) (59, -2.36923484802246093750e+01) (60, 1.22746635437011718750e+02) (61, 2.90450878143310546875e+01) (62, 1.74913940429687500000e+02) (63, 1.24571046829223632812e+01) (64, 2.95126914978027343750e+01) (65, 6.16452789306640625000e+01) (66, 1.28757705688476562500e+02) (67, -9.95348892211914062500e+01) (68, 4.24057044982910156250e+01) (69, 4.28280220031738281250e+01) (70, -5.99566078186035156250e+01) (71, 1.14949554443359375000e+02) (72, 2.35151729583740234375e+01) (73, 4.56329383850097656250e+01) (74, 5.33992996215820312500e+01) (75, 9.00084686279296875000e+01) (76, 9.97854156494140625000e+01) (77, -4.54563827514648437500e+01) (78, -9.34522933959960937500e+01) (79, 8.07415485382080078125e+00) (80, 2.01817825317382812500e+02) (81, 3.65147995948791503906e+00) (82, 1.27115097045898437500e+02) (83, 2.34284133911132812500e+01) (84, 5.45482521057128906250e+01) (85, 5.47340087890625000000e+01) (86, 7.92626953125000000000e+01) (87, -1.07951065063476562500e+02) (88, 3.58371086120605468750e+01) (89, 1.13905441284179687500e+02) (90, 1.45948028564453125000e+01) (91, 1.16141754150390625000e+02) (92, 4.37518196105957031250e+01) (93, 1.35329467773437500000e+02) (94, 1.58623552322387695312e+01) (95, 4.84132270812988281250e+01) (96, 3.69049720764160156250e+01) (97, -2.21023925781250000000e+02) (98, 8.59992027282714843750e+00) (99, 1.86559486389160156250e+01) (100, 1.88279754638671875000e+02) (101, 3.76887016296386718750e+01) (102, -3.73756446838378906250e+01) (103, 9.11576614379882812500e+01) (104, -8.10439910888671875000e+01) (105, 8.35424652099609375000e+01) (106, 5.63993911743164062500e+01) (107, -1.39911483764648437500e+02) (108, -3.47430763244628906250e+01) (109, 1.23403900146484375000e+02) (110, 8.82661972045898437500e+01) (111, 8.02162780761718750000e+01) (112, 1.28271835327148437500e+02) (113, 1.83123512268066406250e+01) (114, -1.12049207687377929688e+01) (115, 7.18446655273437500000e+01) (116, 3.79641838073730468750e+01) (117, 8.30246429443359375000e+01) (118, 1.12369213104248046875e+01) (119, 1.45790510177612304688e+01) (120, 2.82784667968750000000e+02) (121, 1.31316192626953125000e+02) (122, 2.76543641090393066406e+00) (123, -4.55279884338378906250e+01) (124, -5.60226593017578125000e+01) (125, 1.30262252807617187500e+02) (126, 5.59818954467773437500e+01) (127, -2.69580322265625000000e+02) (128, -3.56283950805664062500e+01) (129, 3.15540370941162109375e+01) (130, 8.42157440185546875000e+01) (131, -4.62050169706344604492e-01) (132, 2.23495162963867187500e+02) (133, 6.66191635131835937500e+01) (134, -3.09301052093505859375e+01) (135, 1.16983041763305664062e+01) (136, -1.26000967025756835938e+01) (137, 7.28572034835815429688e+00) (138, 9.94539260864257812500e+01) (139, 3.16494388580322265625e+01) (140, 2.32046798706054687500e+02) (141, 7.72139053344726562500e+01) (142, 6.40721797943115234375e+00) (143, -1.26489865779876708984e+00) (144, 1.37227447509765625000e+02) (145, 2.20751861572265625000e+02) (146, 1.64542236328125000000e+02) (147, -4.66102416992187500000e+02) (148, 2.61595706939697265625e+01) (149, -1.81817741394042968750e+01) (150, 1.44160003662109375000e+01) (151, -9.36942367553710937500e+01) (152, 1.19213508605957031250e+02) (153, 2.73934631347656250000e+01) (154, -1.56428787231445312500e+02) (155, -7.04843444824218750000e+01) (156, -8.20974960327148437500e+01) (157, 6.21037597656250000000e+01) (158, -1.41915636062622070312e+01) (159, 1.35519540309906005859e+00) (160, 2.46587646484375000000e+02) (161, 9.81092681884765625000e+01) (162, -4.85046081542968750000e+01) (163, -1.66826507568359375000e+02) (164, -9.05541534423828125000e+01) (165, 1.69213928222656250000e+02) (166, 7.96054840087890625000e+01) (167, -6.09525634765625000000e+02) (168, -1.35753067016601562500e+02) (169, 7.67217330932617187500e+01) (170, 9.43704528808593750000e+01) (171, -1.44085321426391601562e+01) (172, 2.47997512817382812500e+02) (173, 7.06744232177734375000e+01) (174, -2.05772430419921875000e+02) (175, -1.73442321777343750000e+02) (176, -2.09912200927734375000e+02) (177, 6.00252676010131835938e+00) (178, 4.32573204040527343750e+01) (179, -8.40596389770507812500e+01) (180, 2.43303894042968750000e+02) (181, 2.39285491943359375000e+02) (182, 7.92647018432617187500e+01) (183, -4.36458930969238281250e+01) (184, -1.33137237548828125000e+02) (185, 1.87908905029296875000e+02) (186, 7.85591812133789062500e+01) (187, -3.84099090576171875000e+02) (188, 7.11027860641479492188e+00) (189, 5.93899116516113281250e+01) (190, 1.97484283447265625000e+02) (191, 4.64125823974609375000e+01) (192, 3.08931640625000000000e+02) (193, 1.37116060256958007812e+01) (194, -4.16781158447265625000e+02) (195, -1.14390808105468750000e+02) (196, -5.26835746765136718750e+01) (197, -1.71684890747070312500e+02) (198, 6.62835235595703125000e+01) (199, -4.76574554443359375000e+01) (200, 2.60093872070312500000e+02) (201, 1.12386421203613281250e+02) (202, 7.91286163330078125000e+01) (203, -9.33336105346679687500e+01) (204, -6.23955202102661132812e+00) (205, 7.03455047607421875000e+01) (206, 9.09198760986328125000e+01) (207, -2.31278182983398437500e+02) (208, -4.59972229003906250000e+01) (209, 1.57648239135742187500e+02) (210, 1.63874343872070312500e+02) (211, 1.09492767333984375000e+02) (212, 2.17537506103515625000e+02) (213, 4.80975112915039062500e+01) (214, -4.63700927734375000000e+02) (215, -9.47816085815429687500e+01) (216, 7.90143508911132812500e+01) (217, -1.28086029052734375000e+02) (218, 2.93954391479492187500e+01) (219, -8.54239940643310546875e+00) (220, 2.38206253051757812500e+02) (221, 1.45197784423828125000e+02) (222, 1.52776794433593750000e+02) (223, -2.13307861328125000000e+02) (224, 9.45391387939453125000e+01) (225, 4.85247039794921875000e+01) (226, 1.00938560485839843750e+02) (227, -1.22251152038574218750e+02) (228, -3.06371474266052246094e+00) (229, 5.08287353515625000000e+01) (230, 1.75236358642578125000e+02) (231, 1.15690155029296875000e+02) (232, 2.01388854980468750000e+02) (233, 8.13841018676757812500e+01) (234, -7.24544799804687500000e+02) (235, -4.89831581115722656250e+01) (236, -5.49798507690429687500e+01) (237, -8.38860931396484375000e+01) (238, -2.30969314575195312500e+01) (239, -1.22345077514648437500e+02) (240, 1.51571426391601562500e+02) (241, 1.53091934204101562500e+02) (242, 3.54371147155761718750e+01) (243, -9.11758422851562500000e+01) (244, 1.12270355224609375000e+01) (245, -6.45836334228515625000e+01) (246, 9.99998016357421875000e+01) (247, -9.90090713500976562500e+01) (248, 3.90541076660156250000e+01) (249, -2.20990371704101562500e+01) (250, 1.32207412719726562500e+02) (251, 1.16235359191894531250e+02) (252, 1.98476119995117187500e+02) (253, -7.31350784301757812500e+01) (254, -3.68819702148437500000e+02) (255, -6.35963296890258789062e+00) (256, -8.13653259277343750000e+01) (257, -1.09287223815917968750e+02) (258, 5.26555557250976562500e+01) (259, -1.09532051086425781250e+02) (260, 5.56883125305175781250e+01) (261, 1.04955696105957031250e+02) (262, -3.55568695068359375000e+01) (263, -8.57298889160156250000e+01) (264, 2.68346061706542968750e+01) (265, -3.48547096252441406250e+01) (266, 1.53132104873657226562e+01) (267, -5.03587150573730468750e+00) (268, 1.94165496826171875000e+01) (269, -1.11624565124511718750e+01) (270, 9.63337478637695312500e+01) (271, 1.27169197082519531250e+02) (272, 9.36409225463867187500e+01) (273, 1.21471481323242187500e+01) (274, -2.67585876464843750000e+02) (275, -5.82476119995117187500e+01) (276, -4.18680648803710937500e+01) (277, 4.95465507507324218750e+01) (278, 3.60092811584472656250e+01) (279, -4.55709266662597656250e+01) (280, 9.51692657470703125000e+01) (281, 3.91888732910156250000e+01) (282, 3.60981674194335937500e+01) (283, -1.19213638305664062500e+02) (284, -2.15697377920150756836e-01) (285, -2.02634143829345703125e+01) (286, -6.92528762817382812500e+01) (287, 1.96656417846679687500e+00) (288, -1.04409523010253906250e+02) (289, 2.60880928039550781250e+01) (290, 1.10163299560546875000e+02) (291, 8.88647232055664062500e+01) (292, 1.26366096496582031250e+02) (293, 2.04434165954589843750e+01) (294, -1.09202720642089843750e+02) (295, -5.42548942565917968750e+01) (296, -1.21507392883300781250e+02) (297, -4.17606582641601562500e+01) (298, 8.85697021484375000000e+01) (299, 4.86719970703125000000e+01) (300, 8.52879257202148437500e+01) (301, 1.18453865051269531250e+02) (302, -3.82430505752563476562e+00) (303, -2.80467014312744140625e+01) (304, -4.28116836547851562500e+01) (305, -1.69890098571777343750e+01) (306, 8.78946075439453125000e+01) (307, 6.60763702392578125000e+01) (308, -8.89841537475585937500e+01) (309, 1.27815351486206054688e+01) (310, 4.92491607666015625000e+01) (311, 1.17820838928222656250e+02) (312, 1.99428882598876953125e+01) (313, -1.03036046028137207031e+00) (314, -1.92641204833984375000e+02) (315, -2.01473178863525390625e+01) (316, -1.14217437744140625000e+02) (317, 6.19811668395996093750e+01) (318, -4.85408401489257812500e+01) (319, 1.42379150390625000000e+02) (320, 9.53440551757812500000e+01) (321, 1.04739555358886718750e+02) (322, 1.69997043609619140625e+01) (323, -1.04094497680664062500e+02) (324, 1.06624542236328125000e+02) (325, -1.26519560813903808594e+00) (326, -3.90631561279296875000e+01) (327, 2.97583618164062500000e+01) (328, 5.98571548461914062500e+01) (329, 1.02811500549316406250e+02) (330, -1.07339296340942382812e+01) (331, 1.49226882934570312500e+02) (332, 5.30902938842773437500e+01) (333, 2.14649333953857421875e+01) (334, -8.60738220214843750000e+01) (335, -9.45023345947265625000e+01) (336, -1.31148147583007812500e+02) (337, -9.43265914916992187500e+00) (338, -1.93093895912170410156e+00) (339, 1.12649620056152343750e+02) (340, -6.09345642089843750000e+02) (0, 4.42836647033691406250e+01) (1, 1.89284915924072265625e+01) (2, 3.56886482238769531250e+01) (3, 6.88637771606445312500e+01) (4, -1.13985740661621093750e+02) (5, -2.50672473907470703125e+01) (6, 7.39611892700195312500e+01) (7, 2.61331920623779296875e+01) (8, 6.23685646057128906250e+01) (9, 9.56136226654052734375e+00) (10, -7.07300415039062500000e+01) (11, -7.10397005081176757812e+00) (12, 3.97658691406250000000e+01) (13, 2.22659511566162109375e+01) (14, 3.26245002746582031250e+01) (15, 8.99238014221191406250e+00) (16, 3.48165512084960937500e+01) (17, -1.52487396240234375000e+02) (18, -5.53779363632202148438e+00) (19, 3.36871719360351562500e+01) (20, 7.61085205078125000000e+01) (21, 3.70646286010742187500e+01) (22, 5.73757410049438476562e+00) (23, -8.36017990112304687500e+00) (24, -1.87276744842529296875e+01) (25, -3.75305404663085937500e+01) (26, 7.32515182495117187500e+01) (27, -1.39434528350830078125e+01) (28, -1.66448326110839843750e+01) (29, 5.26951503753662109375e+00) (30, 1.68197405338287353516e+00) (31, -4.32554702758789062500e+01) (32, 4.13272132873535156250e+01) (33, 3.92003479003906250000e+01) (34, -3.31763572692871093750e+01) (35, 8.45095252990722656250e+00) (36, 6.58518142700195312500e+01) (37, -3.53577194213867187500e+01) (38, 5.19419784545898437500e+01) (39, 9.56212639808654785156e-01) (40, 8.26329803466796875000e+01) (41, 3.35169944763183593750e+01) (42, 1.08641052246093750000e+01) (43, 1.12940502166748046875e+00) (44, -6.88571929931640625000e+01) (45, 4.32375831604003906250e+01) (46, 8.34736633300781250000e+01) (47, -2.18243961334228515625e+01) (48, -3.24827995300292968750e+01) (49, -2.00404376983642578125e+01) (50, 1.86142883300781250000e+01) (51, 2.11702251434326171875e+00) (52, 5.21765899658203125000e+00) (53, 4.44149246215820312500e+01) (54, -1.12984018325805664062e+01) (55, 2.45118808746337890625e+00) (56, 5.38028411865234375000e+01) (57, -5.83316764831542968750e+01) (58, 1.09242391586303710938e+01) (59, 3.98041992187500000000e+01) (60, 5.97655334472656250000e+01) (61, 5.03217935562133789062e+00) (62, -2.57806682586669921875e+01) (63, 8.72100830078125000000e+00) (64, -1.04324979782104492188e+01) (65, 3.18943538665771484375e+01) (66, 7.84347248077392578125e+00) (67, 4.03014755249023437500e+01) (68, -2.66910495758056640625e+01) (69, 6.90015697479248046875e+00) (70, 6.07736625671386718750e+01) (71, 1.96378517150878906250e+01) (72, 9.12759933471679687500e+01) (73, 2.80132884979248046875e+01) (74, -3.16300945281982421875e+01) (75, 6.77114334106445312500e+01) (76, 6.80830078125000000000e+01) (77, 2.45784397125244140625e+01) (78, 6.06503791809082031250e+01) (79, 7.63335876464843750000e+01) (80, -1.35997333526611328125e+01) (81, 7.20830078125000000000e+01) (82, 2.36823844909667968750e+01) (83, -1.85365829467773437500e+01) (84, 6.17085380554199218750e+01) (85, 7.32309265136718750000e+01) (86, 4.33287582397460937500e+01) (87, 6.63299407958984375000e+01) (88, -4.01598854064941406250e+01) (89, 1.97455329895019531250e+01) (90, 3.32340812683105468750e+01) (91, 2.79543647766113281250e+01) (92, 6.80230865478515625000e+01) (93, 7.45663452148437500000e+01) (94, -6.69324111938476562500e+00) (95, 8.18319396972656250000e+01) (96, 9.28714370727539062500e+01) (97, -8.46391677856445312500e+00) (98, 3.31962013244628906250e+01) (99, 6.96483993530273437500e+01) (100, -1.37683887481689453125e+01) (101, 9.84613265991210937500e+01) (102, 2.66982383728027343750e+01) (103, -5.89893569946289062500e+01) (104, 1.41311981201171875000e+02) (105, 3.94482574462890625000e+01) (106, 5.22841072082519531250e+00) (107, 2.25138816833496093750e+01) (108, 3.80183029174804687500e+01) (109, 7.02624940872192382812e+00) (110, 6.10861320495605468750e+01) (111, 1.32012677192687988281e+00) (112, 8.42960052490234375000e+01) (113, 9.71679763793945312500e+01) (114, -4.60711441040039062500e+01) (115, 5.36848354339599609375e+00) (116, 7.65578918457031250000e+01) (117, 4.43176956176757812500e+01) (118, 9.20177383422851562500e+01) (119, 3.80224571228027343750e+01) (120, -1.53633558750152587891e+00) (121, 2.62791366577148437500e+01) (122, -6.86439285278320312500e+01) (123, -3.09316215515136718750e+01) (124, 1.73258193969726562500e+02) (125, 6.29216804504394531250e+01) (126, -1.75850734710693359375e+01) (127, -6.31173667907714843750e+01) (128, 1.79946556091308593750e+01) (129, 1.06092010498046875000e+02) (130, 1.27278526306152343750e+02) (131, 2.46697406768798828125e+01) (132, 4.42717018127441406250e+01) (133, 3.91979217529296875000e+01) (134, -1.43505401611328125000e+02) (135, -7.41575927734375000000e+01) (136, 3.47127456665039062500e+01) (137, 2.47582031250000000000e+02) (138, 2.75136699676513671875e+01) (139, 4.45459480285644531250e+01) (140, 1.55425701141357421875e+01) (141, 3.80450592041015625000e+01) (142, -8.47620468139648437500e+01) (143, -1.16038841247558593750e+02) (144, 2.15524444580078125000e+01) (145, -2.02106132507324218750e+01) (146, -3.33109397888183593750e+01) (147, -1.73498931884765625000e+02) (148, 1.10143432617187500000e+01) (149, 8.22328262329101562500e+01) (150, 1.41842819213867187500e+02) (151, 2.74097957611083984375e+01) (152, 1.15796821594238281250e+02) (153, 5.36067504882812500000e+01) (154, -1.91418609619140625000e+02) (155, -1.06533065795898437500e+02) (156, 3.31074180603027343750e+01) (157, 1.71490188598632812500e+02) (158, 6.71391448974609375000e+01) (159, 3.80262832641601562500e+01) (160, -1.36961879730224609375e+01) (161, 1.26287088394165039062e+01) (162, -2.26281509399414062500e+02) (163, -1.60984588623046875000e+02) (164, 4.85863456726074218750e+01) (165, -4.61329364776611328125e+00) (166, -5.18464469909667968750e+01) (167, -3.58481903076171875000e+02) (168, 6.90879898071289062500e+01) (169, 9.42247161865234375000e+01) (170, 1.37883270263671875000e+02) (171, -2.28461861610412597656e+00) (172, 6.74540786743164062500e+01) (173, 4.36275634765625000000e+01) (174, -2.26245910644531250000e+02) (175, -1.10619216918945312500e+02) (176, 8.30093479156494140625e+00) (177, 3.86865653991699218750e+01) (178, 9.15976257324218750000e+01) (179, 7.42798309326171875000e+01) (180, 5.01952629089355468750e+01) (181, 1.71514911651611328125e+01) (182, -1.18316841125488281250e+02) (183, -1.17876930236816406250e+02) (184, 3.90248680114746093750e+01) (185, 9.32835865020751953125e+00) (186, -1.33236513137817382812e+01) (187, -2.20837173461914062500e+02) (188, 1.23023567199707031250e+02) (189, 1.40629577636718750000e+02) (190, 1.52890304565429687500e+02) (191, -2.50857257843017578125e+01) (192, 3.66562347412109375000e+01) (193, 1.21572227478027343750e+01) (194, -2.81950073242187500000e+02) (195, -7.43288574218750000000e+01) (196, 4.22154197692871093750e+01) (197, 1.24887619018554687500e+02) (198, 1.64957107543945312500e+02) (199, 8.83034286499023437500e+01) (200, 2.31369018554687500000e+01) (201, 6.18124389648437500000e+01) (202, -5.84657745361328125000e+01) (203, -1.30005752563476562500e+02) (204, -8.48866729736328125000e+01) (205, 4.44510955810546875000e+01) (206, -2.04197425842285156250e+01) (207, -9.33622055053710937500e+01) (208, 1.65759567260742187500e+02) (209, 8.07890548706054687500e+01) (210, 1.53791458129882812500e+02) (211, 1.44001102447509765625e+01) (212, 6.61279678344726562500e+01) (213, 4.56240577697753906250e+01) (214, -1.21335144042968750000e+02) (215, -8.13864593505859375000e+01) (216, 2.01607513427734375000e+01) (217, 1.36732187271118164062e+01) (218, 1.26914878845214843750e+02) (219, 3.91479644775390625000e+01) (220, 3.38598251342773437500e+01) (221, 3.11860332489013671875e+01) (222, -5.81733932495117187500e+01) (223, -3.81840705871582031250e+01) (224, 6.42672836780548095703e-01) (225, -8.52831172943115234375e+00) (226, -3.68016853332519531250e+01) (227, 5.01387166976928710938e+00) (228, 1.32188186645507812500e+02) (229, 1.45804199218750000000e+02) (230, 1.12066299438476562500e+02) (231, 2.02505970001220703125e+01) (232, 8.42964630126953125000e+01) (233, 6.17641944885253906250e+01) (234, -1.04195686340332031250e+02) (235, -6.45445632934570312500e+01) (236, -1.18453216552734375000e+00) (237, -2.03015155792236328125e+01) (238, 1.12466140747070312500e+02) (239, 8.12811279296875000000e+01) (240, 4.31245994567871093750e+01) (241, -5.04335355758666992188e+00) (242, -4.05287742614746093750e+01) (243, -1.71020812988281250000e+01) (244, -4.71632194519042968750e+01) (245, 5.05630302429199218750e+01) (246, -2.58063030242919921875e+01) (247, -2.91600012779235839844e+00) (248, 1.02222793579101562500e+02) (249, 1.03482910156250000000e+02) (250, 7.57408828735351562500e+01) (251, 3.09459075927734375000e+01) (252, 2.94446964263916015625e+01) (253, 7.31755447387695312500e+01) (254, -1.16585388183593750000e+02) (255, -1.39173765182495117188e+01) (256, 3.60291633605957031250e+01) (257, -2.01309070587158203125e+01) (258, 6.36731872558593750000e+01) (259, 5.06634864807128906250e+01) (260, 6.68467178344726562500e+01) (261, 1.58594446182250976562e+01) (262, 3.36447501182556152344e+00) (263, 3.57874107360839843750e+01) (264, -2.73039512634277343750e+01) (265, 5.31223068237304687500e+01) (266, -1.07608118057250976562e+01) (267, 3.11371059417724609375e+01) (268, 9.76968002319335937500e+01) (269, 9.30043106079101562500e+01) (270, 6.39586677551269531250e+01) (271, 4.45396804809570312500e+01) (272, 2.29068355560302734375e+01) (273, 1.06368316650390625000e+02) (274, -1.81622612476348876953e+00) (275, 5.39032554626464843750e+01) (276, -5.94649581909179687500e+01) (277, -7.17714004516601562500e+01) (278, -4.38132286071777343750e+01) (279, 5.43141212463378906250e+01) (280, 6.42254562377929687500e+01) (281, 4.56517448425292968750e+01) (282, 2.11705112457275390625e+01) (283, 2.64322452545166015625e+01) (284, -5.74607324600219726562e+00) (285, 6.98881225585937500000e+01) (286, -3.49347686767578125000e+01) (287, -1.93279898166656494141e+00) (288, 8.46642761230468750000e+01) (289, 6.27244796752929687500e+01) (290, 4.73335647583007812500e+01) (291, 4.12586860656738281250e+01) (292, -8.01886215209960937500e+01) (293, 7.81982040405273437500e+01) (294, -6.65664863586425781250e+00) (295, 1.25733137130737304688e+01) (296, -7.65499305725097656250e+00) (297, -1.02437438964843750000e+01) (298, 5.59314041137695312500e+01) (299, -1.36160078048706054688e+01) (300, 6.99855184555053710938e+00) (301, 6.78873825073242187500e+01) (302, 1.01852583885192871094e+00) (303, 3.11916522979736328125e+01) (304, 8.68681550025939941406e-01) (305, 2.20629653930664062500e+01) (306, -3.47539787292480468750e+01) (307, 4.35705490112304687500e+01) (308, -4.49035987854003906250e+01) (309, 4.71366882324218750000e+00) (310, 1.80259056091308593750e+01) (311, 4.15425376892089843750e+01) (312, 2.25767173767089843750e+01) (313, 6.18978118896484375000e+01) (314, 5.50959825515747070312e+00) (315, 4.04951095581054687500e+01) (316, -6.56744337081909179688e+00) (317, 5.74810743331909179688e+00) (318, 7.86748504638671875000e+01) (319, -3.33952026367187500000e+01) (320, 5.01269102096557617188e+00) (321, 9.31121597290039062500e+01) (322, 9.78185653686523437500e+00) (323, 9.71159667968750000000e+01) (324, -3.49192695617675781250e+01) (325, 1.62937355041503906250e+01) (326, 5.42201766967773437500e+01) (327, 4.02673625946044921875e+00) (328, -5.65309028625488281250e+01) (329, -3.97170867919921875000e+01) (330, 1.07697153091430664062e+01) (331, 9.30260543823242187500e+01) (332, 2.01340885162353515625e+01) (333, 2.23573093414306640625e+01) (334, -4.36339950561523437500e+01) (335, 1.58614215850830078125e+01) (336, 2.50037117004394531250e+01) (337, 4.39627304077148437500e+01) (338, -4.99527702331542968750e+01) (339, -7.00808258056640625000e+01) (340, -4.68921905517578125000e+02) (0, -2.79001903533935546875e+00) (1, -1.21763906478881835938e+01) (2, -6.64957475662231445312e+00) (3, -3.68425598144531250000e+01) (4, -8.60088229179382324219e-01) (5, -2.75195236206054687500e+01) (6, -9.17185592651367187500e+00) (7, -4.37687492370605468750e+01) (8, -2.94857406616210937500e+01) (9, -6.29397821426391601562e+00) (10, -1.53096933364868164062e+01) (11, -9.52066230773925781250e+00) (12, -8.51094627380371093750e+00) (13, 7.62838077545166015625e+00) (14, -1.04526424407958984375e+01) (15, 1.09454956054687500000e+01) (16, -2.34767627716064453125e+01) (17, -1.87795467376708984375e+01) (18, -4.32833290100097656250e+00) (19, 1.34409179687500000000e+01) (20, -4.81460273265838623047e-01) (21, -1.99022426605224609375e+01) (22, 1.04004592895507812500e+01) (23, -3.82769489288330078125e+00) (24, -2.05762138366699218750e+01) (25, 5.33376550674438476562e+00) (26, -3.12464408874511718750e+01) (27, -1.24866151809692382812e+01) (28, -1.71043801307678222656e+00) (29, -2.38059101104736328125e+01) (30, 8.76116633415222167969e-01) (31, 3.77454566955566406250e+00) (32, -1.05455207824707031250e+01) (33, 1.08936462402343750000e+01) (34, 5.12647405266761779785e-02) (35, 1.54478178024291992188e+01) (36, -6.45188331604003906250e+00) (37, -1.10255432128906250000e+01) (38, 7.23683853149414062500e+01) (39, 1.83259410858154296875e+01) (40, -3.15823726654052734375e+01) (41, -3.06997432708740234375e+01) (42, -3.33647727966308593750e+01) (43, -3.90597190856933593750e+01) (44, -1.88175272941589355469e+00) (45, 1.38529129028320312500e+01) (46, 1.03965120315551757812e+01) (47, -4.36491012573242187500e+01) (48, 2.01705894470214843750e+01) (49, -1.58704557418823242188e+01) (50, -1.42397880554199218750e+01) (51, -1.53127450942993164062e+01) (52, -4.51840057373046875000e+01) (53, -5.81795644760131835938e+00) (54, -5.73533096313476562500e+01) (55, 1.19324378669261932373e-01) (56, -2.44102554321289062500e+01) (57, -4.24392623901367187500e+01) (58, -2.02806816101074218750e+01) (59, -7.58075189590454101562e+00) (60, -7.07188987731933593750e+00) (61, -1.23623352050781250000e+01) (62, -5.21697006225585937500e+01) (63, -2.17552585601806640625e+01) (64, 3.03221492767333984375e+01) (65, 1.38162393569946289062e+01) (66, -2.80162448883056640625e+01) (67, -3.25257301330566406250e+01) (68, -5.97299098968505859375e+00) (69, -2.54731731414794921875e+01) (70, 5.18597030639648437500e+00) (71, 2.89337997436523437500e+01) (72, -1.98181390762329101562e+00) (73, 3.70681810379028320312e+00) (74, -1.34538640975952148438e+01) (75, 9.41894149780273437500e+00) (76, -2.16426467895507812500e+01) (77, -3.19843506813049316406e+00) (78, -2.28249626159667968750e+01) (79, 5.91159486770629882812e+00) (80, -6.22459411621093750000e+01) (81, -2.89878501892089843750e+01) (82, -5.43495903015136718750e+01) (83, -4.14517974853515625000e+01) (84, -1.13218231201171875000e+01) (85, -3.94752120971679687500e+01) (86, -3.80459403991699218750e+01) (87, -4.99118766784667968750e+01) (88, -3.27587699890136718750e+01) (89, -4.75411987304687500000e+01) (90, -3.18221187591552734375e+01) (91, -3.94826431274414062500e+01) (92, -2.16149005889892578125e+01) (93, -3.56235923767089843750e+01) (94, -4.72865142822265625000e+01) (95, -2.43265247344970703125e+01) (96, -6.97833023071289062500e+01) (97, -6.56308975219726562500e+01) (98, -7.57953872680664062500e+01) (99, -4.11972961425781250000e+01) (100, -8.09706649780273437500e+01) (101, -2.30010948181152343750e+01) (102, -8.76073379516601562500e+01) (103, -5.31287727355957031250e+01) (104, -3.95651206970214843750e+01) (105, -2.80161838531494140625e+01) (106, -2.95546817779541015625e+01) (107, -2.74266033172607421875e+01) (108, -3.46280097961425781250e+01) (109, -4.95687179565429687500e+01) (110, -5.81223869323730468750e+01) (111, -1.33717594146728515625e+01) (112, -4.85490684509277343750e+01) (113, -3.85223159790039062500e+01) (114, -2.56443920135498046875e+01) (115, -4.20246582031250000000e+01) (116, -8.60652236938476562500e+01) (117, -7.48096847534179687500e+01) (118, -7.22823867797851562500e+01) (119, -5.31379432678222656250e+01) (120, -6.06853179931640625000e+01) (121, -2.04978237152099609375e+01) (122, -5.08984909057617187500e+01) (123, -2.64602584838867187500e+01) (124, -5.03198394775390625000e+01) (125, -2.55002365112304687500e+01) (126, -5.33528480529785156250e+01) (127, 9.07298084348440170288e-03) (128, -2.50456352233886718750e+01) (129, -5.75771903991699218750e+01) (130, -7.12649612426757812500e+01) (131, -1.28715944290161132812e+01) (132, -6.50357589721679687500e+01) (133, -4.82847251892089843750e+01) (134, -7.82905883789062500000e+01) (135, -6.43070449829101562500e+01) (136, -8.08721847534179687500e+01) (137, -6.87200927734375000000e+01) (138, -7.67290649414062500000e+01) (139, -9.01624984741210937500e+01) (140, -5.34959411621093750000e+01) (141, -1.22117366790771484375e+01) (142, 5.07943916320800781250e+00) (143, -1.16243667602539062500e+01) (144, -2.81811923980712890625e+01) (145, -1.11504240036010742188e+01) (146, -8.74225139617919921875e+00) (147, 3.50705795288085937500e+01) (148, -4.14428634643554687500e+01) (149, -5.65987586975097656250e+01) (150, -5.61190948486328125000e+01) (151, -5.29829368591308593750e+01) (152, -3.35964088439941406250e+01) (153, -3.74505386352539062500e+01) (154, -2.72475481033325195312e+00) (155, -5.27254753112792968750e+01) (156, -3.16314430236816406250e+01) (157, -8.07480010986328125000e+01) (158, -6.40974884033203125000e+01) (159, -3.75947723388671875000e+01) (160, -2.11034870147705078125e+01) (161, 4.95683059692382812500e+01) (162, 6.01303825378417968750e+01) (163, 6.13873977661132812500e+01) (164, 1.28309526443481445312e+01) (165, 1.19958648681640625000e+01) (166, -3.94809799194335937500e+01) (167, 7.02801666259765625000e+01) (168, 2.28023719787597656250e+01) (169, -3.75430297851562500000e+01) (170, -2.42973022460937500000e+01) (171, 2.25984439849853515625e+01) (172, -1.15784702301025390625e+01) (173, 2.06374502182006835938e+00) (174, 1.14492965698242187500e+02) (175, 3.80426864624023437500e+01) (176, 3.72836761474609375000e+01) (177, -7.89406814575195312500e+01) (178, 2.77159614562988281250e+01) (179, -3.37746162414550781250e+01) (180, -4.08076019287109375000e+01) (181, -5.02936267852783203125e+00) (182, -2.27351341247558593750e+01) (183, -1.29331245422363281250e+01) (184, -6.03249549865722656250e+01) (185, -4.97973251342773437500e+01) (186, -1.14917297363281250000e+02) (187, -9.22229690551757812500e+01) (188, 2.54762649536132812500e+00) (189, -5.56177368164062500000e+01) (190, -9.31346054077148437500e+01) (191, -4.50512809753417968750e+01) (192, -5.90677680969238281250e+01) (193, -9.06531677246093750000e+01) (194, 1.12121315002441406250e+02) (195, -7.91799316406250000000e+01) (196, 1.87018549442291259766e+00) (197, -1.55809539794921875000e+02) (198, -2.81806049346923828125e+01) (199, -8.36259231567382812500e+01) (200, -4.78739700317382812500e+01) (201, -5.06365242004394531250e+01) (202, -1.88262615203857421875e+01) (203, 9.26517677307128906250e+00) (204, -1.95634708404541015625e+01) (205, -5.08234977722167968750e-01) (206, -6.25147361755371093750e+01) (207, -7.81626205444335937500e+01) (208, 1.94814014434814453125e+01) (209, -2.70747032165527343750e+01) (210, -1.15336662292480468750e+02) (211, -1.50641975402832031250e+01) (212, -2.65266761779785156250e+01) (213, -7.42782287597656250000e+01) (214, 5.63147315979003906250e+01) (215, -2.41581935882568359375e+01) (216, -4.86094236373901367188e+00) (217, -2.34395465850830078125e+01) (218, -8.24406890869140625000e+01) (219, -6.29652786254882812500e+01) (220, -4.13336982727050781250e+01) (221, -5.10974197387695312500e+01) (222, 1.94460506439208984375e+01) (223, -1.14282155036926269531e+00) (224, -2.57952709197998046875e+01) (225, 1.22174854278564453125e+01) (226, -9.05842018127441406250e+00) (227, -5.86553039550781250000e+01) (228, -2.66991653442382812500e+01) (229, -4.72120285034179687500e+01) (230, -6.50299072265625000000e+01) (231, -4.99496498107910156250e+01) (232, -5.48257713317871093750e+01) (233, -1.03757926940917968750e+02) (234, 4.78426599502563476562e+00) (235, -3.58634529113769531250e+01) (236, -1.72316417694091796875e+01) (237, -8.27360630035400390625e+00) (238, -4.01758155822753906250e+01) (239, -4.37543830871582031250e+01) (240, -4.76234741210937500000e+01) (241, -7.38474349975585937500e+01) (242, -4.49607696533203125000e+01) (243, 3.79093360900878906250e+00) (244, -4.78679580688476562500e+01) (245, -1.74048824310302734375e+01) (246, -1.95103111267089843750e+01) (247, -5.61952476501464843750e+01) (248, -1.03441276550292968750e+01) (249, -3.25231094360351562500e+01) (250, -8.09787673950195312500e+01) (251, -4.01222457885742187500e+01) (252, -6.81362533569335937500e+01) (253, -2.75444526672363281250e+01) (254, -1.79734020233154296875e+01) (255, -3.11755561828613281250e+01) (256, -2.33484325408935546875e+01) (257, 4.25509452819824218750e+00) (258, -4.41438674926757812500e+01) (259, -2.36100120544433593750e+01) (260, -5.37056083679199218750e+01) (261, -4.68154945373535156250e+01) (262, -2.28537693023681640625e+01) (263, 1.77775418758392333984e+00) (264, 7.97347068786621093750e+00) (265, -1.45353603363037109375e+01) (266, -4.68613505363464355469e-01) (267, -2.41140499114990234375e+01) (268, 1.55819101333618164062e+01) (269, -4.60554885864257812500e+01) (270, -5.04883041381835937500e+01) (271, -4.75292358398437500000e+01) (272, -5.38722229003906250000e+01) (273, 1.33752059936523437500e+01) (274, -6.43393769860267639160e-02) (275, -2.37523746490478515625e+01) (276, -1.93964481353759765625e+01) (277, 2.44456977844238281250e+01) (278, -7.51023101806640625000e+01) (279, -6.57154130935668945312e+00) (280, -6.34954214096069335938e+00) (281, -2.78987560272216796875e+01) (282, -3.27524375915527343750e+00) (283, 6.53487324714660644531e-01) (284, -1.40182342529296875000e+01) (285, -1.21173791885375976562e+01) (286, -3.33676490783691406250e+01) (287, -1.17836380004882812500e+01) (288, -2.88769989013671875000e+01) (289, -5.58102965354919433594e-01) (290, -3.03883552551269531250e+01) (291, -9.80102443695068359375e+00) (292, -2.21589603424072265625e+01) (293, -3.69095497131347656250e+01) (294, 1.05959510803222656250e+01) (295, -3.86395978927612304688e+00) (296, -2.68598880767822265625e+01) (297, -2.64962635040283203125e+01) (298, -2.84239673614501953125e+01) (299, 4.37626361846923828125e+00) (300, -2.12365365028381347656e+00) (301, -1.21746463775634765625e+01) (302, -5.49069929122924804688e+00) (303, -2.57295703887939453125e+01) (304, -2.04771614074707031250e+00) (305, -2.29332427978515625000e+01) (306, 1.80246410369873046875e+01) (307, 3.78067321777343750000e+01) (308, 3.57140312194824218750e+01) (309, -1.24140100479125976562e+01) (310, -3.95319366455078125000e+01) (311, -1.90406589508056640625e+01) (312, -3.30402984619140625000e+01) (313, 7.54467323422431945801e-02) (314, 4.75365304946899414062e+00) (315, -6.47316360473632812500e+00) (316, 9.82139015197753906250e+00) (317, -1.27710075378417968750e+01) (318, 1.31307792663574218750e+01) (319, 9.24129486083984375000e+00) (320, -7.25503110885620117188e+00) (321, 1.37188110351562500000e+01) (322, 8.18541717529296875000e+00) (323, 7.97277069091796875000e+00) (324, 1.75201244354248046875e+01) (325, 9.11865043640136718750e+00) (326, -1.61106338500976562500e+01) (327, 3.77417907714843750000e+01) (328, 2.11153841018676757812e+00) (329, -2.76627039909362792969e+00) (330, -2.25438618659973144531e+00) (331, 1.25288019180297851562e+01) (332, 7.46187782287597656250e+00) (333, -9.64670598506927490234e-01) (334, 3.49560661315917968750e+01) (335, -1.07102746963500976562e+01) (336, -7.15081405639648437500e+00) (337, -3.85170402526855468750e+01) (338, 1.74687690734863281250e+01) (339, 2.11853351593017578125e+01) (340, 2.84128845214843750000e+02) (0, -9.03558921813964843750e+00) (1, 4.07959127426147460938e+00) (2, -4.78832149505615234375e+00) (3, 4.54367332458496093750e+01) (4, -2.68067893981933593750e+01) (5, 7.47517919540405273438e+00) (6, 6.98640251159667968750e+00) (7, -5.55974292755126953125e+00) (8, 1.64806747436523437500e+01) (9, 3.00962877273559570312e+00) (10, 1.45161819458007812500e+00) (11, -2.59597282409667968750e+01) (12, 2.84945416450500488281e+00) (13, -9.32192623615264892578e-01) (14, 3.28809547424316406250e+01) (15, 1.37043857574462890625e+01) (16, 3.49841856956481933594e+00) (17, -2.75707607269287109375e+01) (18, 1.24422397613525390625e+01) (19, 2.80988349914550781250e+01) (20, -3.20212821960449218750e+01) (21, -2.21820297241210937500e+01) (22, -1.97391090393066406250e+01) (23, 2.36796932220458984375e+01) (24, -1.44766263961791992188e+01) (25, -1.34231166839599609375e+01) (26, -1.66099624633789062500e+01) (27, 2.20005226135253906250e+00) (28, -9.72421884536743164062e-01) (29, -5.51250171661376953125e+00) (30, -1.47785749435424804688e+01) (31, -3.09021587371826171875e+01) (32, 2.26044869422912597656e+00) (33, -3.65216598510742187500e+01) (34, 1.95115375518798828125e+01) (35, 1.20500364303588867188e+01) (36, -2.42797565460205078125e+01) (37, -3.93366432189941406250e+01) (38, -9.07118606567382812500e+00) (39, -3.14202606678009033203e-01) (40, -4.71219253540039062500e+01) (41, -3.36950564384460449219e+00) (42, -1.12730722427368164062e+01) (43, 7.89389657974243164062e+00) (44, 2.54634857177734375000e+01) (45, -1.40794239044189453125e+01) (46, -4.73184471130371093750e+01) (47, 1.05824446678161621094e+00) (48, -8.75699162483215332031e-01) (49, -8.09918403625488281250e+00) (50, -3.57488822937011718750e+01) (51, -2.61538257598876953125e+01) (52, -2.68916225433349609375e+01) (53, -2.51269302368164062500e+01) (54, 2.50156617164611816406e+00) (55, -5.93314021825790405273e-02) (56, -1.55129871368408203125e+01) (57, -3.25723953247070312500e+01) (58, -2.42985458374023437500e+01) (59, -8.44864463806152343750e+00) (60, -1.65820083618164062500e+01) (61, 1.32642068862915039062e+01) (62, -6.86235809326171875000e+00) (63, 1.71221389770507812500e+01) (64, 2.53042144775390625000e+01) (65, -2.30332851409912109375e+01) (66, 3.08625745773315429688e+00) (67, 4.72278594970703125000e+00) (68, 2.52786159515380859375e+01) (69, 1.96672935485839843750e+01) (70, -4.25377731323242187500e+01) (71, -2.24293079376220703125e+01) (72, -2.76962447166442871094e+00) (73, 3.63866567611694335938e+00) (74, 1.73554401397705078125e+01) (75, 1.76328678131103515625e+01) (76, -4.15169572830200195312e+00) (77, -1.88715839385986328125e+01) (78, -3.84782600402832031250e+01) (79, 6.37437820434570312500e+00) (80, -3.08296298980712890625e+00) (81, 3.69826912879943847656e+00) (82, 2.57548475265502929688e+00) (83, 2.50218143463134765625e+01) (84, 4.50793304443359375000e+01) (85, -1.64669036865234375000e+01) (86, -3.61810088157653808594e-01) (87, 1.24763545989990234375e+01) (88, 6.54458236694335937500e+00) (89, 2.58514537811279296875e+01) (90, -4.90473651885986328125e+00) (91, -8.12719535827636718750e+00) (92, -2.65144901275634765625e+01) (93, -5.71583700180053710938e+00) (94, -2.60546016693115234375e+01) (95, 2.31060390472412109375e+01) (96, -3.18181204795837402344e+00) (97, -2.88963680267333984375e+01) (98, -1.78087844848632812500e+01) (99, 1.54475717544555664062e+01) (100, -5.44699239730834960938e+00) (101, 1.80529677867889404297e+00) (102, 1.55547418594360351562e+01) (103, 4.53002471923828125000e+01) (104, 8.54946327209472656250e+00) (105, -9.91947841644287109375e+00) (106, 1.38933734893798828125e+01) (107, 2.41841068267822265625e+01) (108, 3.46863174438476562500e+01) (109, 4.41468696594238281250e+01) (110, 1.57155447006225585938e+01) (111, 1.21223392486572265625e+01) (112, -1.66279296875000000000e+01) (113, 3.09870433807373046875e+01) (114, -7.10408067703247070312e+00) (115, 2.78512039184570312500e+01) (116, 6.22203159332275390625e+00) (117, 5.95236434936523437500e+01) (118, 1.35163021087646484375e+01) (119, 4.05433235168457031250e+01) (120, -1.76853561401367187500e+01) (121, -9.20033836364746093750e+00) (122, 2.62067246437072753906e+00) (123, 1.65386915206909179688e+00) (124, 3.58036384582519531250e+01) (125, -3.50437278747558593750e+01) (126, 2.94451808929443359375e+00) (127, 9.09434223175048828125e+00) (128, 1.57827920913696289062e+01) (129, 5.17018852233886718750e+01) (130, 1.88697986602783203125e+01) (131, 1.28273367881774902344e+00) (132, -1.14657714962959289551e-01) (133, 3.90509719848632812500e+01) (134, -3.57012977600097656250e+01) (135, 1.00172386169433593750e+01) (136, 2.47220096588134765625e+01) (137, 2.54133815765380859375e+01) (138, 3.61370544433593750000e+01) (139, 2.59832286834716796875e+01) (140, 1.06958589553833007812e+01) (141, 1.15773506164550781250e+01) (142, -2.95610771179199218750e+01) (143, -6.14542245864868164062e-01) (144, 6.31623153686523437500e+01) (145, -1.40972204208374023438e+01) (146, 3.44946899414062500000e+01) (147, 7.42089605331420898438e+00) (148, 6.15572071075439453125e+00) (149, 7.37094116210937500000e+01) (150, 3.02537994384765625000e+01) (151, 2.67066287994384765625e+00) (152, 4.03255767822265625000e+01) (153, 3.88612403869628906250e+01) (154, -4.39563522338867187500e+01) (155, -8.17356884479522705078e-01) (156, 5.62996625900268554688e+00) (157, 5.54128074645996093750e+01) (158, 4.86436729431152343750e+01) (159, 6.89930725097656250000e+01) (160, 4.02311992645263671875e+00) (161, -1.30990743637084960938e+01) (162, -3.75794143676757812500e+01) (163, -4.18583374023437500000e+01) (164, 1.63784103393554687500e+01) (165, -5.22496147155761718750e+01) (166, -3.01175308227539062500e+00) (167, -1.01257390975952148438e+01) (168, 3.56617879867553710938e+00) (169, 5.12664794921875000000e+01) (170, 4.57492446899414062500e+00) (171, -1.03571486473083496094e+00) (172, -2.09279861450195312500e+01) (173, 1.91493282318115234375e+01) (174, -5.24394073486328125000e+01) (175, -1.61930637359619140625e+01) (176, -3.59471778869628906250e+01) (177, 2.77265701293945312500e+01) (178, 2.09622268676757812500e+01) (179, 4.45508995056152343750e+01) (180, 1.17856540679931640625e+01) (181, 1.73094215393066406250e+01) (182, 1.37077054977416992188e+01) (183, 1.22996437549591064453e+00) (184, 3.85566787719726562500e+01) (185, -3.19391250610351562500e+01) (186, 2.15562149882316589355e-01) (187, 1.02189559936523437500e+01) (188, -6.59300518035888671875e+00) (189, 3.88268928527832031250e+01) (190, 2.91222190856933593750e+01) (191, -5.98409032821655273438e+00) (192, 3.07032966613769531250e+01) (193, 3.92081413269042968750e+01) (194, -4.12085571289062500000e+01) (195, 3.20125961303710937500e+00) (196, -1.30882894992828369141e+00) (197, 1.43281440734863281250e+01) (198, 5.22510528564453125000e+01) (199, 6.36118164062500000000e+01) (200, 1.16026382446289062500e+01) (201, -2.78931093215942382812e+00) (202, 8.71091270446777343750e+00) (203, 2.59392127990722656250e+01) (204, 2.04096984863281250000e+01) (205, -3.11986827850341796875e+01) (206, 1.05391540527343750000e+01) (207, 1.59637384414672851562e+01) (208, -3.95730584859848022461e-01) (209, 3.80622520446777343750e+01) (210, 1.91914546489715576172e+00) (211, -1.83268737792968750000e+01) (212, -1.83145751953125000000e+01) (213, 1.81989860534667968750e+01) (214, 1.86081829071044921875e+01) (215, 2.28189697265625000000e+01) (216, -5.99052286148071289062e+00) (217, 2.19850502014160156250e+01) (218, 2.61549339294433593750e+01) (219, 2.94674358367919921875e+01) (220, -5.75163602828979492188e+00) (221, -6.13186883926391601562e+00) (222, 1.61178359985351562500e+01) (223, 2.06544513702392578125e+01) (224, 2.22826766967773437500e+01) (225, -6.75980806350708007812e+00) (226, -4.70247364044189453125e+00) (227, 1.88014354705810546875e+01) (228, 5.42756986618041992188e+00) (229, -5.41216468811035156250e+00) (230, 1.64585895538330078125e+01) (231, -1.87769126892089843750e+01) (232, -4.01194534301757812500e+01) (233, 8.06658267974853515625e+00) (234, 2.73903503417968750000e+01) (235, 3.10436229705810546875e+01) (236, 3.98190468549728393555e-01) (237, 1.46643486022949218750e+01) (238, -1.37501058578491210938e+01) (239, 2.36014461517333984375e+01) (240, -2.93486423492431640625e+01) (241, -1.09214143753051757812e+01) (242, -8.40943050384521484375e+00) (243, 1.32089309692382812500e+01) (244, 8.01864528656005859375e+00) (245, -1.87148399353027343750e+01) (246, 1.39339189529418945312e+01) (247, 2.18168468475341796875e+01) (248, -8.51860237121582031250e+00) (249, -1.38680958747863769531e+00) (250, -9.84482192993164062500e+00) (251, -3.18089523315429687500e+01) (252, -2.91491317749023437500e+01) (253, -1.39379940032958984375e+01) (254, 2.51144733428955078125e+01) (255, 8.74288082122802734375e+00) (256, -6.83911514282226562500e+00) (257, -8.10878372192382812500e+00) (258, -1.75586280822753906250e+01) (259, -1.74707126617431640625e+01) (260, 1.54753375053405761719e+00) (261, 1.36975049972534179688e+01) (262, 2.26855773925781250000e+01) (263, 1.39445190429687500000e+01) (264, 6.28319597244262695312e+00) (265, -1.67565650939941406250e+01) (266, 1.45866546630859375000e+01) (267, 3.27184486389160156250e+01) (268, 9.00972843170166015625e+00) (269, 7.87997484207153320312e+00) (270, 6.16857862472534179688e+00) (271, -1.89158458709716796875e+01) (272, 1.81128273010253906250e+01) (273, 6.40514278411865234375e+00) (274, 2.06870727539062500000e+01) (275, 2.98151950836181640625e+01) (276, 3.73256034851074218750e+01) (277, -1.70912322998046875000e+01) (278, 5.90822458267211914062e+00) (279, -1.16062850952148437500e+01) (280, 9.76696777343750000000e+00) (281, -1.22815961837768554688e+01) (282, 3.86805367469787597656e+00) (283, 1.80785484313964843750e+01) (284, -5.17621421813964843750e+01) (285, -1.52592620849609375000e+01) (286, 7.03967618942260742188e+00) (287, 3.34069404602050781250e+01) (288, 9.75375115871429443359e-01) (289, -5.56136798858642578125e+00) (290, 1.16411275863647460938e+01) (291, -2.23600749969482421875e+01) (292, 2.25098514556884765625e+01) (293, 1.01164360046386718750e+01) (294, 2.54269294738769531250e+01) (295, 1.40278797149658203125e+01) (296, 1.59195222854614257812e+01) (297, -1.53335390090942382812e+01) (298, 1.37123107910156250000e+01) (299, 1.95538330078125000000e+01) (300, -1.77038459777832031250e+01) (301, -2.94468631744384765625e+01) (302, -2.70885658264160156250e+01) (303, 1.46081666946411132812e+01) (304, -2.76176071166992187500e+01) (305, -3.34099998474121093750e+01) (306, -1.08117651939392089844e+00) (307, 5.63443660736083984375e+00) (308, -1.45753297805786132812e+01) (309, -1.19696273803710937500e+01) (310, -8.54689693450927734375e+00) (311, -1.27147984504699707031e+00) (312, -2.03807735443115234375e+00) (313, -9.11240005493164062500e+00) (314, -7.02192497253417968750e+00) (315, -4.60270643234252929688e+00) (316, -8.57617378234863281250e+00) (317, -2.24460067749023437500e+01) (318, -3.10767841339111328125e+01) (319, -1.49056529998779296875e+01) (320, -2.08151359558105468750e+01) (321, -2.39312839508056640625e+01) (322, -1.11737098693847656250e+01) (323, -2.02067146301269531250e+01) (324, -2.34978713989257812500e+01) (325, -3.81539916992187500000e+01) (326, -3.00121707916259765625e+01) (327, -7.59577512741088867188e+00) (328, -3.18056545257568359375e+01) (329, -1.24023504257202148438e+01) (330, -1.46680831909179687500e+01) (331, -1.41996440887451171875e+01) (332, -6.28359436988830566406e-01) (333, 1.49840965270996093750e+01) (334, -8.69717788696289062500e+00) (335, -1.69941005706787109375e+01) (336, -1.90470428466796875000e+01) (337, -3.62131958007812500000e+01) (338, -1.20847454071044921875e+01) (339, 9.71373271942138671875e+00) (340, -9.25953826904296875000e+01) (341, -1.88446795940399169922e+00) (342, 3.98929309844970703125e+00) (343, 1.90202677249908447266e+00) (344, -1.72341895103454589844e+00) (345, -1.13575816154479980469e+00) (346, 2.20900803804397583008e-01) (341, 2.27003121376037597656e+00) (342, -3.13847923278808593750e+00) (343, 1.22868132591247558594e+00) (344, -9.93376374244689941406e-01) (345, 1.21243131160736083984e+00) (346, -3.75941586494445800781e+00) (341, -1.33266973495483398438e+00) (342, -1.78999817371368408203e+00) (343, -2.04361391067504882812e+00) (344, -3.68061959743499755859e-01) (345, -1.37046909332275390625e+00) (346, -8.45737636089324951172e-01) (341, -1.36366975307464599609e+00) (342, -1.73710882663726806641e+00) (343, -2.91000747680664062500e+00) (344, 7.76822984218597412109e-01) (345, -1.45165562629699707031e-01) (346, -8.49829614162445068359e-01) 
