FANN_FLO_2.1
num_layers=3
learning_rate=0.700000
connection_rate=1.000000
network_type=0
learning_momentum=0.400000
training_algorithm=0
train_error_function=1
train_stop_function=0
cascade_output_change_fraction=0.010000
quickprop_decay=-0.000100
quickprop_mu=1.750000
rprop_increase_factor=1.200000
rprop_decrease_factor=0.500000
rprop_delta_min=0.000000
rprop_delta_max=50.000000
rprop_delta_zero=0.100000
cascade_output_stagnation_epochs=12
cascade_candidate_change_fraction=0.010000
cascade_candidate_stagnation_epochs=12
cascade_max_out_epochs=150
cascade_min_out_epochs=50
cascade_max_cand_epochs=150
cascade_min_cand_epochs=50
cascade_num_candidate_groups=2
bit_fail_limit=3.49999994039535522461e-01
cascade_candidate_limit=1.00000000000000000000e+03
cascade_weight_multiplier=4.00000005960464477539e-01
cascade_activation_functions_count=10
cascade_activation_functions=3 5 7 8 10 11 14 15 16 17 
cascade_activation_steepnesses_count=4
cascade_activation_steepnesses=2.50000000000000000000e-01 5.00000000000000000000e-01 7.50000000000000000000e-01 1.00000000000000000000e+00 
layer_sizes=341 6 5 
scale_included=0
neurons (num_inputs, activation_function, activation_steepness)=(0, 0, 0.00000000000000000000e+00) (0, 0, 0.00000000000000000000e+00) (0, 0, 0.00000000000000000000e+00) (0, 0, 0.00000000000000000000e+00) (0, 0, 0.00000000000000000000e+00) (0, 0, 0.00000000000000000000e+00) (0, 0, 0.00000000000000000000e+00) (0, 0, 0.00000000000000000000e+00) (0, 0, 0.00000000000000000000e+00) (0, 0, 0.00000000000000000000e+00) (0, 0, 0.00000000000000000000e+00) (0, 0, 0.00000000000000000000e+00) (0, 0, 0.00000000000000000000e+00) (0, 0, 0.00000000000000000000e+00) (0, 0, 0.00000000000000000000e+00) (0, 0, 0.00000000000000000000e+00) (0, 0, 0.00000000000000000000e+00) (0, 0, 0.00000000000000000000e+00) (0, 0, 0.00000000000000000000e+00) (0, 0, 0.00000000000000000000e+00) (0, 0, 0.00000000000000000000e+00) (0, 0, 0.00000000000000000000e+00) (0, 0, 0.00000000000000000000e+00) (0, 0, 0.00000000000000000000e+00) (0, 0, 0.00000000000000000000e+00) (0, 0, 0.00000000000000000000e+00) (0, 0, 0.00000000000000000000e+00) (0, 0, 0.00000000000000000000e+00) (0, 0, 0.00000000000000000000e+00) (0, 0, 0.00000000000000000000e+00) (0, 0, 0.00000000000000000000e+00) (0, 0, 0.00000000000000000000e+00) (0, 0, 0.00000000000000000000e+00) (0, 0, 0.00000000000000000000e+00) (0, 0, 0.00000000000000000000e+00) (0, 0, 0.00000000000000000000e+00) (0, 0, 0.00000000000000000000e+00) (0, 0, 0.00000000000000000000e+00) (0, 0, 0.00000000000000000000e+00) (0, 0, 0.00000000000000000000e+00) (0, 0, 0.00000000000000000000e+00) (0, 0, 0.00000000000000000000e+00) (0, 0, 0.00000000000000000000e+00) (0, 0, 0.00000000000000000000e+00) (0, 0, 0.00000000000000000000e+00) (0, 0, 0.00000000000000000000e+00) (0, 0, 0.00000000000000000000e+00) (0, 0, 0.00000000000000000000e+00) (0, 0, 0.00000000000000000000e+00) (0, 0, 0.00000000000000000000e+00) (0, 0, 0.00000000000000000000e+00) (0, 0, 0.00000000000000000000e+00) (0, 0, 0.00000000000000000000e+00) (0, 0, 0.00000000000000000000e+00) (0, 0, 0.00000000000000000000e+00) (0, 0, 0.00000000000000000000e+00) (0, 0, 0.00000000000000000000e+00) (0, 0, 0.00000000000000000000e+00) (0, 0, 0.00000000000000000000e+00) (0, 0, 0.00000000000000000000e+00) (0, 0, 0.00000000000000000000e+00) (0, 0, 0.00000000000000000000e+00) (0, 0, 0.00000000000000000000e+00) (0, 0, 0.00000000000000000000e+00) (0, 0, 0.00000000000000000000e+00) (0, 0, 0.00000000000000000000e+00) (0, 0, 0.00000000000000000000e+00) (0, 0, 0.00000000000000000000e+00) (0, 0, 0.00000000000000000000e+00) (0, 0, 0.00000000000000000000e+00) (0, 0, 0.00000000000000000000e+00) (0, 0, 0.00000000000000000000e+00) (0, 0, 0.00000000000000000000e+00) (0, 0, 0.00000000000000000000e+00) (0, 0, 0.00000000000000000000e+00) (0, 0, 0.00000000000000000000e+00) (0, 0, 0.00000000000000000000e+00) (0, 0, 0.00000000000000000000e+00) (0, 0, 0.00000000000000000000e+00) (0, 0, 0.00000000000000000000e+00) (0, 0, 0.00000000000000000000e+00) (0, 0, 0.00000000000000000000e+00) (0, 0, 0.00000000000000000000e+00) (0, 0, 0.00000000000000000000e+00) (0, 0, 0.00000000000000000000e+00) (0, 0, 0.00000000000000000000e+00) (0, 0, 0.00000000000000000000e+00) (0, 0, 0.00000000000000000000e+00) (0, 0, 0.00000000000000000000e+00) (0, 0, 0.00000000000000000000e+00) (0, 0, 0.00000000000000000000e+00) (0, 0, 0.00000000000000000000e+00) (0, 0, 0.00000000000000000000e+00) (0, 0, 0.00000000000000000000e+00) (0, 0, 0.00000000000000000000e+00) (0, 0, 0.00000000000000000000e+00) (0, 0, 0.00000000000000000000e+00) (0, 0, 0.00000000000000000000e+00) (0, 0, 0.00000000000000000000e+00) (0, 0, 0.00000000000000000000e+00) (0, 0, 0.00000000000000000000e+00) (0, 0, 0.00000000000000000000e+00) (0, 0, 0.00000000000000000000e+00) (0, 0, 0.00000000000000000000e+00) (0, 0, 0.00000000000000000000e+00) (0, 0, 0.00000000000000000000e+00) (0, 0, 0.00000000000000000000e+00) (0, 0, 0.00000000000000000000e+00) (0, 0, 0.00000000000000000000e+00) (0, 0, 0.00000000000000000000e+00) (0, 0, 0.00000000000000000000e+00) (0, 0, 0.00000000000000000000e+00) (0, 0, 0.00000000000000000000e+00) (0, 0, 0.00000000000000000000e+00) (0, 0, 0.00000000000000000000e+00) (0, 0, 0.00000000000000000000e+00) (0, 0, 0.00000000000000000000e+00) (0, 0, 0.00000000000000000000e+00) (0, 0, 0.00000000000000000000e+00) (0, 0, 0.00000000000000000000e+00) (0, 0, 0.00000000000000000000e+00) (0, 0, 0.00000000000000000000e+00) (0, 0, 0.00000000000000000000e+00) (0, 0, 0.00000000000000000000e+00) (0, 0, 0.00000000000000000000e+00) (0, 0, 0.00000000000000000000e+00) (0, 0, 0.00000000000000000000e+00) (0, 0, 0.00000000000000000000e+00) (0, 0, 0.00000000000000000000e+00) (0, 0, 0.00000000000000000000e+00) (0, 0, 0.00000000000000000000e+00) (0, 0, 0.00000000000000000000e+00) (0, 0, 0.00000000000000000000e+00) (0, 0, 0.00000000000000000000e+00) (0, 0, 0.00000000000000000000e+00) (0, 0, 0.00000000000000000000e+00) (0, 0, 0.00000000000000000000e+00) (0, 0, 0.00000000000000000000e+00) (0, 0, 0.00000000000000000000e+00) (0, 0, 0.00000000000000000000e+00) (0, 0, 0.00000000000000000000e+00) (0, 0, 0.00000000000000000000e+00) (0, 0, 0.00000000000000000000e+00) (0, 0, 0.00000000000000000000e+00) (0, 0, 0.00000000000000000000e+00) (0, 0, 0.00000000000000000000e+00) (0, 0, 0.00000000000000000000e+00) (0, 0, 0.00000000000000000000e+00) (0, 0, 0.00000000000000000000e+00) (0, 0, 0.00000000000000000000e+00) (0, 0, 0.00000000000000000000e+00) (0, 0, 0.00000000000000000000e+00) (0, 0, 0.00000000000000000000e+00) (0, 0, 0.00000000000000000000e+00) (0, 0, 0.00000000000000000000e+00) (0, 0, 0.00000000000000000000e+00) (0, 0, 0.00000000000000000000e+00) (0, 0, 0.00000000000000000000e+00) (0, 0, 0.00000000000000000000e+00) (0, 0, 0.00000000000000000000e+00) (0, 0, 0.00000000000000000000e+00) (0, 0, 0.00000000000000000000e+00) (0, 0, 0.00000000000000000000e+00) (0, 0, 0.00000000000000000000e+00) (0, 0, 0.00000000000000000000e+00) (0, 0, 0.00000000000000000000e+00) (0, 0, 0.00000000000000000000e+00) (0, 0, 0.00000000000000000000e+00) (0, 0, 0.00000000000000000000e+00) (0, 0, 0.00000000000000000000e+00) (0, 0, 0.00000000000000000000e+00) (0, 0, 0.00000000000000000000e+00) (0, 0, 0.00000000000000000000e+00) (0, 0, 0.00000000000000000000e+00) (0, 0, 0.00000000000000000000e+00) (0, 0, 0.00000000000000000000e+00) (0, 0, 0.00000000000000000000e+00) (0, 0, 0.00000000000000000000e+00) (0, 0, 0.00000000000000000000e+00) (0, 0, 0.00000000000000000000e+00) (0, 0, 0.00000000000000000000e+00) (0, 0, 0.00000000000000000000e+00) (0, 0, 0.00000000000000000000e+00) (0, 0, 0.00000000000000000000e+00) (0, 0, 0.00000000000000000000e+00) (0, 0, 0.00000000000000000000e+00) (0, 0, 0.00000000000000000000e+00) (0, 0, 0.00000000000000000000e+00) (0, 0, 0.00000000000000000000e+00) (0, 0, 0.00000000000000000000e+00) (0, 0, 0.00000000000000000000e+00) (0, 0, 0.00000000000000000000e+00) (0, 0, 0.00000000000000000000e+00) (0, 0, 0.00000000000000000000e+00) (0, 0, 0.00000000000000000000e+00) (0, 0, 0.00000000000000000000e+00) (0, 0, 0.00000000000000000000e+00) (0, 0, 0.00000000000000000000e+00) (0, 0, 0.00000000000000000000e+00) (0, 0, 0.00000000000000000000e+00) (0, 0, 0.00000000000000000000e+00) (0, 0, 0.00000000000000000000e+00) (0, 0, 0.00000000000000000000e+00) (0, 0, 0.00000000000000000000e+00) (0, 0, 0.00000000000000000000e+00) (0, 0, 0.00000000000000000000e+00) (0, 0, 0.00000000000000000000e+00) (0, 0, 0.00000000000000000000e+00) (0, 0, 0.00000000000000000000e+00) (0, 0, 0.00000000000000000000e+00) (0, 0, 0.00000000000000000000e+00) (0, 0, 0.00000000000000000000e+00) (0, 0, 0.00000000000000000000e+00) (0, 0, 0.00000000000000000000e+00) (0, 0, 0.00000000000000000000e+00) (0, 0, 0.00000000000000000000e+00) (0, 0, 0.00000000000000000000e+00) (0, 0, 0.00000000000000000000e+00) (0, 0, 0.00000000000000000000e+00) (0, 0, 0.00000000000000000000e+00) (0, 0, 0.00000000000000000000e+00) (0, 0, 0.00000000000000000000e+00) (0, 0, 0.00000000000000000000e+00) (0, 0, 0.00000000000000000000e+00) (0, 0, 0.00000000000000000000e+00) (0, 0, 0.00000000000000000000e+00) (0, 0, 0.00000000000000000000e+00) (0, 0, 0.00000000000000000000e+00) (0, 0, 0.00000000000000000000e+00) (0, 0, 0.00000000000000000000e+00) (0, 0, 0.00000000000000000000e+00) (0, 0, 0.00000000000000000000e+00) (0, 0, 0.00000000000000000000e+00) (0, 0, 0.00000000000000000000e+00) (0, 0, 0.00000000000000000000e+00) (0, 0, 0.00000000000000000000e+00) (0, 0, 0.00000000000000000000e+00) (0, 0, 0.00000000000000000000e+00) (0, 0, 0.00000000000000000000e+00) (0, 0, 0.00000000000000000000e+00) (0, 0, 0.00000000000000000000e+00) (0, 0, 0.00000000000000000000e+00) (0, 0, 0.00000000000000000000e+00) (0, 0, 0.00000000000000000000e+00) (0, 0, 0.00000000000000000000e+00) (0, 0, 0.00000000000000000000e+00) (0, 0, 0.00000000000000000000e+00) (0, 0, 0.00000000000000000000e+00) (0, 0, 0.00000000000000000000e+00) (0, 0, 0.00000000000000000000e+00) (0, 0, 0.00000000000000000000e+00) (0, 0, 0.00000000000000000000e+00) (0, 0, 0.00000000000000000000e+00) (0, 0, 0.00000000000000000000e+00) (0, 0, 0.00000000000000000000e+00) (0, 0, 0.00000000000000000000e+00) (0, 0, 0.00000000000000000000e+00) (0, 0, 0.00000000000000000000e+00) (0, 0, 0.00000000000000000000e+00) (0, 0, 0.00000000000000000000e+00) (0, 0, 0.00000000000000000000e+00) (0, 0, 0.00000000000000000000e+00) (0, 0, 0.00000000000000000000e+00) (0, 0, 0.00000000000000000000e+00) (0, 0, 0.00000000000000000000e+00) (0, 0, 0.00000000000000000000e+00) (0, 0, 0.00000000000000000000e+00) (0, 0, 0.00000000000000000000e+00) (0, 0, 0.00000000000000000000e+00) (0, 0, 0.00000000000000000000e+00) (0, 0, 0.00000000000000000000e+00) (0, 0, 0.00000000000000000000e+00) (0, 0, 0.00000000000000000000e+00) (0, 0, 0.00000000000000000000e+00) (0, 0, 0.00000000000000000000e+00) (0, 0, 0.00000000000000000000e+00) (0, 0, 0.00000000000000000000e+00) (0, 0, 0.00000000000000000000e+00) (0, 0, 0.00000000000000000000e+00) (0, 0, 0.00000000000000000000e+00) (0, 0, 0.00000000000000000000e+00) (0, 0, 0.00000000000000000000e+00) (0, 0, 0.00000000000000000000e+00) (0, 0, 0.00000000000000000000e+00) (0, 0, 0.00000000000000000000e+00) (0, 0, 0.00000000000000000000e+00) (0, 0, 0.00000000000000000000e+00) (0, 0, 0.00000000000000000000e+00) (0, 0, 0.00000000000000000000e+00) (0, 0, 0.00000000000000000000e+00) (0, 0, 0.00000000000000000000e+00) (0, 0, 0.00000000000000000000e+00) (0, 0, 0.00000000000000000000e+00) (0, 0, 0.00000000000000000000e+00) (0, 0, 0.00000000000000000000e+00) (0, 0, 0.00000000000000000000e+00) (0, 0, 0.00000000000000000000e+00) (0, 0, 0.00000000000000000000e+00) (0, 0, 0.00000000000000000000e+00) (0, 0, 0.00000000000000000000e+00) (0, 0, 0.00000000000000000000e+00) (0, 0, 0.00000000000000000000e+00) (0, 0, 0.00000000000000000000e+00) (0, 0, 0.00000000000000000000e+00) (0, 0, 0.00000000000000000000e+00) (0, 0, 0.00000000000000000000e+00) (0, 0, 0.00000000000000000000e+00) (0, 0, 0.00000000000000000000e+00) (0, 0, 0.00000000000000000000e+00) (0, 0, 0.00000000000000000000e+00) (0, 0, 0.00000000000000000000e+00) (0, 0, 0.00000000000000000000e+00) (0, 0, 0.00000000000000000000e+00) (0, 0, 0.00000000000000000000e+00) (0, 0, 0.00000000000000000000e+00) (0, 0, 0.00000000000000000000e+00) (0, 0, 0.00000000000000000000e+00) (0, 0, 0.00000000000000000000e+00) (0, 0, 0.00000000000000000000e+00) (0, 0, 0.00000000000000000000e+00) (0, 0, 0.00000000000000000000e+00) (0, 0, 0.00000000000000000000e+00) (0, 0, 0.00000000000000000000e+00) (0, 0, 0.00000000000000000000e+00) (0, 0, 0.00000000000000000000e+00) (0, 0, 0.00000000000000000000e+00) (0, 0, 0.00000000000000000000e+00) (0, 0, 0.00000000000000000000e+00) (0, 0, 0.00000000000000000000e+00) (0, 0, 0.00000000000000000000e+00) (0, 0, 0.00000000000000000000e+00) (0, 0, 0.00000000000000000000e+00) (0, 0, 0.00000000000000000000e+00) (0, 0, 0.00000000000000000000e+00) (0, 0, 0.00000000000000000000e+00) (0, 0, 0.00000000000000000000e+00) (0, 0, 0.00000000000000000000e+00) (0, 0, 0.00000000000000000000e+00) (0, 0, 0.00000000000000000000e+00) (0, 0, 0.00000000000000000000e+00) (0, 0, 0.00000000000000000000e+00) (341, 4, 5.00000000000000000000e-01) (341, 4, 5.00000000000000000000e-01) (341, 4, 5.00000000000000000000e-01) (341, 4, 5.00000000000000000000e-01) (341, 4, 5.00000000000000000000e-01) (0, 0, 0.00000000000000000000e+00) (6, 4, 5.00000000000000000000e-01) (6, 4, 5.00000000000000000000e-01) (6, 4, 5.00000000000000000000e-01) (6, 4, 5.00000000000000000000e-01) (0, 0, 0.00000000000000000000e+00) 
connections (connected_to_neuron, weight)=(0, 5.43078842163085937500e+01) (1, -6.14111137390136718750e+01) (2, 1.73323776245117187500e+02) (3, -1.53273101806640625000e+02) (4, 1.09333366394042968750e+02) (5, 4.14839515686035156250e+01) (6, -9.60565338134765625000e+01) (7, -8.19234619140625000000e+01) (8, -6.32779541015625000000e+01) (9, 1.64557914733886718750e+01) (10, -1.37513748168945312500e+02) (11, -1.18851455688476562500e+02) (12, 4.04975776672363281250e+01) (13, 8.66570739746093750000e+01) (14, -1.68169612884521484375e+01) (15, 1.70150508880615234375e+01) (16, -7.40218811035156250000e+01) (17, 2.32943450927734375000e+02) (18, 1.99710708618164062500e+02) (19, 2.65137329101562500000e+02) (20, 1.62677593231201171875e+01) (21, -1.43299424648284912109e+00) (22, 7.64914779663085937500e+01) (23, -8.30677490234375000000e+01) (24, 2.62374450683593750000e+02) (25, 4.55010490417480468750e+01) (26, -7.00474262237548828125e+00) (27, -9.94861755371093750000e+01) (28, -6.53204421997070312500e+01) (29, 1.75172531127929687500e+02) (30, -1.15520164489746093750e+02) (31, 4.80802574157714843750e+01) (32, 1.01196861267089843750e+02) (33, -1.04001907348632812500e+02) (34, -1.20244537353515625000e+02) (35, -5.49125480651855468750e+01) (36, -1.31428131103515625000e+02) (37, 1.36945938110351562500e+02) (38, -1.04417448043823242188e+01) (39, 1.35318695068359375000e+02) (40, 3.36558685302734375000e+01) (41, 2.62198734283447265625e+01) (42, 8.34120635986328125000e+01) (43, -5.55915260314941406250e+01) (44, 1.35719238281250000000e+02) (45, 1.62169372558593750000e+02) (46, -2.25402679443359375000e+01) (47, -8.59126434326171875000e+01) (48, 6.14387359619140625000e+01) (49, 4.84848594665527343750e+01) (50, -1.80108673095703125000e+02) (51, 1.52270980834960937500e+02) (52, 6.76848297119140625000e+01) (53, 2.55031814575195312500e+01) (54, -1.22758537292480468750e+02) (55, -7.19412536621093750000e+01) (56, 2.83263969421386718750e+01) (57, 1.22701095581054687500e+02) (58, 5.12376022338867187500e+01) (59, -1.27548782348632812500e+02) (60, 5.09540901184082031250e+01) (61, 7.60283508300781250000e+01) (62, 2.40146820068359375000e+02) (63, -2.15058837890625000000e+02) (64, 1.40791000366210937500e+02) (65, 4.99421234130859375000e+01) (66, 1.29359207153320312500e+02) (67, -1.00016654968261718750e+02) (68, -1.01438484191894531250e+02) (69, -1.52777969360351562500e+02) (70, -8.68904418945312500000e+01) (71, -4.66918230056762695312e+00) (72, 1.42452056884765625000e+02) (73, 3.24901504516601562500e+01) (74, 1.87474842071533203125e+01) (75, 1.77261962890625000000e+02) (76, -1.71999111175537109375e+01) (77, 1.71462841033935546875e+01) (78, -1.87365090847015380859e+00) (79, 7.05986862182617187500e+01) (80, -6.64574661254882812500e+01) (81, 9.24875793457031250000e+01) (82, 1.96287460327148437500e+02) (83, -1.20774902343750000000e+02) (84, 1.56339063644409179688e+01) (85, 2.95051300048828125000e+02) (86, 2.76408050537109375000e+02) (87, -2.30895324707031250000e+02) (88, -4.96152839660644531250e+01) (89, 5.64526176452636718750e+01) (90, 2.64008007049560546875e+01) (91, 6.70771484375000000000e+01) (92, 2.09922210693359375000e+02) (93, 1.25471672058105468750e+02) (94, 3.52985000610351562500e+01) (95, 1.60435302734375000000e+02) (96, 2.17669281005859375000e+02) (97, -3.00101684570312500000e+02) (98, 1.56387878417968750000e+02) (99, 8.47947235107421875000e+01) (100, -1.20109344482421875000e+02) (101, 7.38327789306640625000e+01) (102, 3.63847229003906250000e+02) (103, -9.74207305908203125000e+00) (104, 2.06197265625000000000e+02) (105, 4.20643554687500000000e+02) (106, -7.93018817901611328125e+00) (107, -2.39241760253906250000e+02) (108, 1.11253997802734375000e+02) (109, -7.96417465209960937500e+01) (110, 1.76563964843750000000e+02) (111, 1.98462112426757812500e+02) (112, 3.59534637451171875000e+02) (113, 1.98061538696289062500e+02) (114, -7.31990737915039062500e+01) (115, 1.24289337158203125000e+02) (116, 2.37029998779296875000e+02) (117, 4.52771873474121093750e+01) (118, 9.83756332397460937500e+01) (119, -1.28992813110351562500e+02) (120, -9.66994934082031250000e+01) (121, 2.10209472656250000000e+02) (122, 1.77554794311523437500e+02) (123, -1.87254238128662109375e+01) (124, 1.12276893615722656250e+02) (125, 2.86768859863281250000e+02) (126, 2.38487396240234375000e+02) (127, -6.36686096191406250000e+02) (128, 1.59573577880859375000e+02) (129, -7.75329437255859375000e+01) (130, 1.75672164916992187500e+02) (131, 7.79988632202148437500e+01) (132, 3.54503814697265625000e+02) (133, 1.35469161987304687500e+02) (134, -1.11321020126342773438e+01) (135, -4.43654870986938476562e+00) (136, 3.94988891601562500000e+02) (137, 2.05209075927734375000e+02) (138, 2.90630950927734375000e+02) (139, -1.59414093017578125000e+02) (140, 2.20977691650390625000e+02) (141, 9.15222473144531250000e+01) (142, 3.15777099609375000000e+02) (143, 1.64082687377929687500e+02) (144, -7.90096378326416015625e+00) (145, 3.47175598144531250000e+02) (146, 6.09501495361328125000e+01) (147, -9.44775878906250000000e+02) (148, 1.79892028808593750000e+02) (149, -1.81790542602539062500e+02) (150, 7.14926834106445312500e+01) (151, -1.10618103027343750000e+02) (152, -2.95509958267211914062e+00) (153, 3.09800510406494140625e+01) (154, -7.35741043090820312500e+01) (155, 9.08130073547363281250e+00) (156, 3.38614135742187500000e+02) (157, 1.07385845184326171875e+01) (158, 1.21005620956420898438e+01) (159, -8.02669906616210937500e+01) (160, 2.85155731201171875000e+02) (161, -3.17926387786865234375e+01) (162, -1.68966369628906250000e+02) (163, -1.06562004089355468750e+02) (164, -4.84407196044921875000e+01) (165, 2.97675506591796875000e+02) (166, 1.49635574340820312500e+02) (167, -5.88740722656250000000e+02) (168, -2.05380035400390625000e+02) (169, -1.78672882080078125000e+02) (170, 3.86476097106933593750e+01) (171, -1.72657180786132812500e+02) (172, 1.91426055908203125000e+02) (173, -1.33756500244140625000e+02) (174, -3.56272644042968750000e+02) (175, -3.04458038330078125000e+02) (176, -2.18233001708984375000e+02) (177, -5.89288520812988281250e+00) (178, -2.12432403564453125000e+02) (179, -3.01005039215087890625e+01) (180, 5.50665588378906250000e+02) (181, 6.74695861816406250000e+02) (182, 3.41067474365234375000e+02) (183, 2.26808135986328125000e+02) (184, 1.25843757629394531250e+02) (185, 6.72006164550781250000e+02) (186, 6.45239868164062500000e+02) (187, 2.98639617919921875000e+02) (188, 8.38365631103515625000e+01) (189, 4.06739990234375000000e+02) (190, 5.92343627929687500000e+02) (191, 4.89703704833984375000e+02) (192, 6.15748046875000000000e+02) (193, -1.00134269714355468750e+02) (194, -6.30140185546875000000e+03) (195, 4.39443084716796875000e+02) (196, 3.12757843017578125000e+02) (197, 1.68954101562500000000e+02) (198, 1.08344299316406250000e+02) (199, 2.39986251831054687500e+02) (200, 3.77386962890625000000e+02) (201, 1.72510025024414062500e+02) (202, 3.59638309478759765625e+00) (203, -6.26956520080566406250e+01) (204, 1.85066452026367187500e+02) (205, 3.31285308837890625000e+02) (206, 4.14385772705078125000e+02) (207, 1.48257965087890625000e+02) (208, 1.11429733276367187500e+02) (209, 2.12498245239257812500e+02) (210, 3.31435211181640625000e+02) (211, -1.15806794166564941406e+00) (212, 2.33801879882812500000e+02) (213, 1.26701713562011718750e+02) (214, -2.06441943359375000000e+03) (215, -2.85828170776367187500e+01) (216, 8.70381164550781250000e+01) (217, -5.23380699157714843750e+01) (218, 2.80295532226562500000e+02) (219, -1.03101852416992187500e+02) (220, 4.87400054931640625000e+02) (221, 1.97492111206054687500e+02) (222, 2.34020423889160156250e+01) (223, -1.98449951171875000000e+02) (224, -4.66842689514160156250e+01) (225, 1.55995111465454101562e+01) (226, 1.87433120727539062500e+02) (227, 2.13358886718750000000e+02) (228, 1.03722534179687500000e+01) (229, 1.34713592529296875000e+02) (230, 3.86033203125000000000e+02) (231, 1.24094161987304687500e+02) (232, 3.90362701416015625000e+02) (233, 4.74430618286132812500e+01) (234, -6.99745788574218750000e+02) (235, -3.44095947265625000000e+02) (236, -1.91370697021484375000e+01) (237, -1.46083999633789062500e+02) (238, 1.77881027221679687500e+02) (239, 1.98047256469726562500e+02) (240, 3.25797515869140625000e+02) (241, 2.77594909667968750000e+02) (242, 4.44472236633300781250e+01) (243, 1.08794708251953125000e+01) (244, -1.28117767333984375000e+02) (245, 5.51969070434570312500e+01) (246, 5.39313268661499023438e+00) (247, 8.59665985107421875000e+01) (248, -4.77083587646484375000e+01) (249, 1.59661926269531250000e+02) (250, 2.68818908691406250000e+02) (251, 9.11335525512695312500e+01) (252, 4.00830139160156250000e+02) (253, -1.15634822845458984375e+01) (254, -5.77771545410156250000e+02) (255, 2.33865857124328613281e+00) (256, -1.17754394531250000000e+02) (257, 7.25727157592773437500e+01) (258, 2.80442047119140625000e+02) (259, 1.84007301330566406250e+01) (260, 2.30410369873046875000e+02) (261, 1.14661018371582031250e+02) (262, -3.82003059387207031250e+01) (263, -4.49702606201171875000e+01) (264, -8.57767333984375000000e+01) (265, -2.61598186492919921875e+01) (266, -8.29020462036132812500e+01) (267, 6.29934883117675781250e+01) (268, 1.20140907287597656250e+02) (269, 2.13892669677734375000e+02) (270, -1.24422691345214843750e+02) (271, 1.50849639892578125000e+02) (272, 2.55481109619140625000e+02) (273, 2.00354568481445312500e+02) (274, -2.24284652709960937500e+02) (275, 9.38627624511718750000e+00) (276, 1.02691177368164062500e+02) (277, 6.33810539245605468750e+01) (278, 2.29639114379882812500e+02) (279, 1.65524368286132812500e+01) (280, 1.85815292358398437500e+02) (281, 3.98121871948242187500e+01) (282, -2.19577026367187500000e+02) (283, -3.73480148315429687500e+01) (284, 2.03170822143554687500e+02) (285, -8.52616653442382812500e+01) (286, 1.30688415527343750000e+02) (287, 7.31379852294921875000e+01) (288, 1.51691055297851562500e+02) (289, 1.75632369995117187500e+02) (290, 4.70049819946289062500e+01) (291, 5.97778320312500000000e+01) (292, 1.57498977661132812500e+02) (293, 7.44827499389648437500e+01) (294, -1.71944656372070312500e+02) (295, -3.82888145446777343750e+01) (296, 3.08966121673583984375e+01) (297, -6.11643075942993164062e+00) (298, 1.59168214797973632812e+01) (299, 1.55609451293945312500e+02) (300, -2.86747303009033203125e+01) (301, 2.17981613159179687500e+02) (302, -5.00605535507202148438e+00) (303, 2.26601623535156250000e+02) (304, 5.26239662170410156250e+01) (305, 1.13049644470214843750e+02) (306, -5.21983947753906250000e+01) (307, 1.36070007324218750000e+02) (308, -3.70690422058105468750e+01) (309, 6.25064086914062500000e+01) (310, 1.50997833251953125000e+02) (311, -5.56433334350585937500e+01) (312, 1.46275054931640625000e+02) (313, 1.83687301635742187500e+02) (314, -3.16822265625000000000e+02) (315, 1.10823829650878906250e+02) (316, -4.60222587585449218750e+01) (317, 9.10499954223632812500e+01) (318, -2.50283172607421875000e+02) (319, 8.18388977050781250000e+01) (320, 1.36706085205078125000e+02) (321, 9.44119720458984375000e+01) (322, -1.26386344909667968750e+02) (323, -1.23357210159301757812e+01) (324, 3.12593627929687500000e+02) (325, -1.14521354675292968750e+02) (326, 4.39432792663574218750e+01) (327, 1.94745903015136718750e+01) (328, 1.37180419921875000000e+02) (329, 2.56015930175781250000e+02) (330, -9.15105152130126953125e+00) (331, 8.56226196289062500000e+01) (332, 1.73176620483398437500e+02) (333, 7.64674758911132812500e+01) (334, -1.44513458251953125000e+02) (335, 1.90466575622558593750e+01) (336, -1.12161430358886718750e+02) (337, -6.71404037475585937500e+01) (338, 7.12299041748046875000e+01) (339, 1.74010757446289062500e+02) (340, -1.80660180664062500000e+03) (0, 2.03445419311523437500e+02) (1, 1.88409332275390625000e+02) (2, 1.95214141845703125000e+02) (3, 2.15658905029296875000e+02) (4, -3.47078216552734375000e+02) (5, 1.20831611633300781250e+02) (6, 4.18222007751464843750e+01) (7, 1.09287597656250000000e+02) (8, 1.17896034240722656250e+02) (9, -6.09016942977905273438e+00) (10, 6.34470291137695312500e+01) (11, 9.00527267456054687500e+01) (12, 2.99641075134277343750e+01) (13, -1.36344116210937500000e+02) (14, 3.16672698974609375000e+02) (15, -3.60675735473632812500e+01) (16, 1.27940834045410156250e+02) (17, -3.53374359130859375000e+02) (18, -2.08928634643554687500e+02) (19, -2.09718963623046875000e+02) (20, 2.02885192871093750000e+02) (21, -1.13776130676269531250e+02) (22, 1.03561622619628906250e+02) (23, 3.11980987548828125000e+02) (24, -2.08675796508789062500e+02) (25, 2.28923202514648437500e+02) (26, 1.14529792785644531250e+02) (27, 1.53572937011718750000e+02) (28, 5.46060943603515625000e+01) (29, 2.60412883758544921875e+01) (30, 2.83065204620361328125e+01) (31, -1.05977729797363281250e+02) (32, -6.78534927368164062500e+01) (33, 4.77500457763671875000e+01) (34, 1.09984649658203125000e+02) (35, 5.68037033081054687500e+01) (36, 1.86623779296875000000e+02) (37, -3.40830017089843750000e+02) (38, -8.40627746582031250000e+01) (39, -7.37161941528320312500e+01) (40, 5.17974510192871093750e+01) (41, -3.03263301849365234375e+01) (42, 4.08388595581054687500e+01) (43, 2.27434127807617187500e+02) (44, -9.54463577270507812500e+01) (45, 1.22742515563964843750e+02) (46, 1.32859237670898437500e+02) (47, 2.94338867187500000000e+02) (48, -1.09074913024902343750e+02) (49, -8.78552627563476562500e+00) (50, -1.46342941284179687500e+02) (51, 7.70924911499023437500e+01) (52, -9.27658557891845703125e+00) (53, -9.87341842651367187500e+01) (54, 1.36280838012695312500e+02) (55, 9.19182281494140625000e+01) (56, 1.42982055664062500000e+02) (57, -1.79206802368164062500e+02) (58, 8.61610641479492187500e+01) (59, -5.21254425048828125000e+01) (60, 9.44635543823242187500e+01) (61, -1.14116516113281250000e+01) (62, 3.79248123168945312500e+01) (63, 1.50868438720703125000e+02) (64, -1.86720794677734375000e+02) (65, 2.88584960937500000000e+02) (66, 3.50195426940917968750e+01) (67, 3.24497711181640625000e+02) (68, -2.74293637275695800781e+00) (69, 1.42610931396484375000e+01) (70, -4.12022819519042968750e+01) (71, 2.21633453369140625000e+02) (72, -1.25877029418945312500e+02) (73, -5.22576484680175781250e+01) (74, 1.69526763916015625000e+02) (75, 1.13929996490478515625e+01) (76, 2.11498519897460937500e+02) (77, -2.37227035522460937500e+02) (78, 2.89903283119201660156e+00) (79, -6.30555582046508789062e+00) (80, 1.20659294128417968750e+02) (81, 1.20670730590820312500e+02) (82, -2.97723350524902343750e+01) (83, 1.17081855773925781250e+02) (84, 3.33340187072753906250e+01) (85, 1.78496047973632812500e+02) (86, -4.77065086364746093750e+01) (87, 4.06926239013671875000e+02) (88, -2.52387466430664062500e+01) (89, 8.15775756835937500000e+01) (90, 4.16598396301269531250e+01) (91, 8.31336669921875000000e+01) (92, -1.33610534667968750000e+02) (93, 2.27936935424804687500e+02) (94, -2.08934040069580078125e+01) (95, 7.86992568969726562500e+01) (96, 2.02518997192382812500e+02) (97, -1.29636011123657226562e+01) (98, 2.20890487670898437500e+02) (99, 2.42400878906250000000e+02) (100, 1.32577911376953125000e+02) (101, 1.45728042602539062500e+02) (102, 9.95214462280273437500e+01) (103, 3.63047523498535156250e+01) (104, 2.35455352783203125000e+02) (105, 9.22531585693359375000e+01) (106, -4.49339065551757812500e+01) (107, 2.21565597534179687500e+02) (108, -6.61549453735351562500e+01) (109, 1.79622436523437500000e+02) (110, 2.19171752929687500000e+02) (111, 1.90259323120117187500e+01) (112, 1.25663101196289062500e+02) (113, 3.81977355957031250000e+02) (114, -3.67139053344726562500e+01) (115, 1.57226959228515625000e+02) (116, -6.56838302612304687500e+01) (117, 4.38703338623046875000e+02) (118, 5.65056657791137695312e+00) (119, 1.29046051025390625000e+02) (120, 5.68892478942871093750e+01) (121, 3.29843788146972656250e+01) (122, -1.58812988281250000000e+02) (123, -2.40882766723632812500e+02) (124, 5.84092224121093750000e+02) (125, 1.15936889648437500000e+01) (126, -7.21266326904296875000e+01) (127, -1.98277755737304687500e+02) (128, 7.81673479080200195312e+00) (129, 3.38412292480468750000e+02) (130, 3.31525543212890625000e+02) (131, -6.52667665481567382812e+00) (132, 2.11584716796875000000e+02) (133, 2.21450820922851562500e+02) (134, -3.57011718750000000000e+02) (135, -4.39726905822753906250e+01) (136, 1.09957702636718750000e+02) (137, 5.37904724121093750000e+02) (138, 3.11062286376953125000e+02) (139, 2.91103729248046875000e+02) (140, 1.46807693481445312500e+02) (141, 7.62714843750000000000e+01) (142, -3.06460357666015625000e+02) (143, -4.82041687011718750000e+02) (144, 5.10030273437500000000e+02) (145, 2.41183795928955078125e+01) (146, 5.47312622070312500000e+01) (147, -5.71125976562500000000e+02) (148, -1.61227111816406250000e+02) (149, 4.10407104492187500000e+02) (150, 4.77550842285156250000e+02) (151, -1.35778686523437500000e+02) (152, 4.35457344055175781250e+01) (153, 2.35673126220703125000e+02) (154, -5.09695251464843750000e+02) (155, -3.08171569824218750000e+02) (156, -1.68291645050048828125e+01) (157, 4.44511199951171875000e+02) (158, 3.27478942871093750000e+02) (159, 2.57189422607421875000e+02) (160, 1.22985671997070312500e+02) (161, -3.12790184020996093750e+01) (162, -5.10313446044921875000e+02) (163, -7.71111022949218750000e+02) (164, 7.81278381347656250000e+01) (165, -8.89718093872070312500e+01) (166, 1.74585742950439453125e+01) (167, -8.93340759277343750000e+02) (168, -1.28130004882812500000e+02) (169, 4.82996520996093750000e+02) (170, 4.24024444580078125000e+02) (171, -2.21091400146484375000e+02) (172, 2.64794189453125000000e+02) (173, 2.41368072509765625000e+02) (174, -1.37053613281250000000e+03) (175, -3.82130462646484375000e+02) (176, -1.88220474243164062500e+02) (177, 4.09843322753906250000e+02) (178, 3.99710083007812500000e+02) (179, 4.20210571289062500000e+02) (180, 4.24328186035156250000e+02) (181, 2.53498565673828125000e+02) (182, -1.05081161499023437500e+02) (183, -1.50719146728515625000e+02) (184, 4.48648498535156250000e+02) (185, 1.96553802490234375000e+02) (186, 1.28641784667968750000e+02) (187, -3.15810699462890625000e+02) (188, 3.13689392089843750000e+02) (189, 6.59411254882812500000e+02) (190, 6.62012451171875000000e+02) (191, 1.43917648315429687500e+02) (192, 3.71597259521484375000e+02) (193, 6.07306335449218750000e+02) (194, -4.70362109375000000000e+03) (195, -7.80589485168457031250e+00) (196, 6.02209739685058593750e+01) (197, 3.75044464111328125000e+02) (198, 7.03991271972656250000e+02) (199, 5.68087829589843750000e+02) (200, 2.39162216186523437500e+02) (201, 1.31908218383789062500e+02) (202, -4.29882850646972656250e+01) (203, -1.70142211914062500000e+02) (204, 2.98733856201171875000e+02) (205, 7.29329223632812500000e+01) (206, 1.52333755493164062500e+02) (207, -2.69497344970703125000e+02) (208, -4.24093475341796875000e+01) (209, 3.60677215576171875000e+02) (210, 2.13363311767578125000e+02) (211, -4.13994369506835937500e+01) (212, 1.92231979370117187500e+02) (213, 2.29636947631835937500e+02) (214, -6.53215393066406250000e+02) (215, -7.23473930358886718750e+00) (216, -3.23230819702148437500e+01) (217, 1.70874114990234375000e+02) (218, 4.90539428710937500000e+02) (219, 2.82331481933593750000e+02) (220, 3.67663917541503906250e+01) (221, 1.31698760986328125000e+02) (222, 2.62341098785400390625e+01) (223, -2.47882289886474609375e+01) (224, 4.13931671142578125000e+02) (225, -9.58424835205078125000e+01) (226, -2.77287464141845703125e+01) (227, 6.92531661987304687500e+01) (228, 2.15255065917968750000e+02) (229, 3.37495452880859375000e+02) (230, 3.20880035400390625000e+02) (231, 1.17371940612792968750e+02) (232, 3.69299163818359375000e+02) (233, 1.40326309204101562500e+02) (234, -3.55264312744140625000e+02) (235, -1.35147151947021484375e+01) (236, 4.72225990295410156250e+01) (237, -1.10609886169433593750e+02) (238, 2.25712005615234375000e+02) (239, 1.71975769042968750000e+02) (240, -8.31088638305664062500e+01) (241, 1.42963424682617187500e+02) (242, 2.49917083740234375000e+02) (243, 1.03746620178222656250e+02) (244, 1.97516769409179687500e+02) (245, -4.39906806945800781250e+01) (246, 8.32050857543945312500e+01) (247, 1.40615768432617187500e+02) (248, 9.20692977905273437500e+01) (249, 7.53065185546875000000e+01) (250, 1.40131134033203125000e+02) (251, 2.71262756347656250000e+02) (252, 3.15361846923828125000e+02) (253, 8.29690017700195312500e+01) (254, 2.00917491912841796875e+01) (255, 1.36159667968750000000e+01) (256, 6.75804595947265625000e+01) (257, -6.70318756103515625000e+01) (258, 9.11988162994384765625e+00) (259, 2.98492927551269531250e+01) (260, 2.39013481140136718750e+01) (261, 1.64438980102539062500e+02) (262, 3.41771362304687500000e+02) (263, 1.58418518066406250000e+02) (264, -7.37888793945312500000e+01) (265, 9.32823753356933593750e+00) (266, 3.18745746612548828125e+01) (267, 2.28090408325195312500e+02) (268, -6.29761159420013427734e-01) (269, 6.86663665771484375000e+01) (270, 1.77535614013671875000e+02) (271, 3.82034698486328125000e+02) (272, 5.57817888259887695312e+00) (273, -5.97037429809570312500e+01) (274, -1.69221328735351562500e+02) (275, 2.75524566650390625000e+02) (276, 4.48219375610351562500e+01) (277, -2.78841590881347656250e+01) (278, 9.90052642822265625000e+01) (279, 1.16664566040039062500e+02) (280, -1.08831081390380859375e+01) (281, 7.81600646972656250000e+01) (282, 2.45690093994140625000e+02) (283, 2.43982116699218750000e+02) (284, -2.92815521240234375000e+02) (285, 8.02429199218750000000e+01) (286, 1.20550605773925781250e+02) (287, 9.14754867553710937500e+01) (288, 1.44823974609375000000e+02) (289, 5.15926895141601562500e+01) (290, 2.82835754394531250000e+02) (291, 1.86199172973632812500e+02) (292, -2.77256195068359375000e+02) (293, 9.59780502319335937500e+01) (294, 5.99454307556152343750e+00) (295, 1.81397766113281250000e+02) (296, 2.35571937561035156250e+01) (297, 6.77009124755859375000e+01) (298, -1.96606731414794921875e+01) (299, -5.78849906921386718750e+01) (300, 7.37723312377929687500e+01) (301, 3.08283599853515625000e+02) (302, 1.54952911376953125000e+02) (303, 6.06128196716308593750e+01) (304, -1.37183120727539062500e+02) (305, -1.89295113086700439453e+00) (306, -1.60241203308105468750e+01) (307, 3.32831535339355468750e+01) (308, -1.10130546569824218750e+02) (309, 1.10123687744140625000e+02) (310, 2.66775695800781250000e+02) (311, 3.81785766601562500000e+02) (312, -9.80897750854492187500e+01) (313, 8.85489368438720703125e+00) (314, 4.51074409484863281250e+01) (315, 8.92065048217773437500e+01) (316, 6.30666122436523437500e+01) (317, -9.39219360351562500000e+01) (318, 1.06147403717041015625e+01) (319, -6.51171722412109375000e+01) (320, 1.14671211242675781250e+02) (321, 2.87763031005859375000e+02) (322, 1.26104942321777343750e+02) (323, 1.52529251098632812500e+02) (324, -1.23779945373535156250e+02) (325, -4.01221923828125000000e+01) (326, 9.81964645385742187500e+01) (327, -5.69648590087890625000e+01) (328, 1.05834999084472656250e+02) (329, -1.83072952270507812500e+02) (330, 1.73583984375000000000e+02) (331, 1.77475387573242187500e+02) (332, 7.13035430908203125000e+01) (333, 5.10137224197387695312e+00) (334, -1.08025573730468750000e+02) (335, 2.04202194213867187500e+01) (336, 1.96985244750976562500e+02) (337, 5.31587486267089843750e+01) (338, -1.17928016662597656250e+02) (339, 8.17881965637207031250e+00) (340, -1.74206213378906250000e+03) (0, 6.60227432250976562500e+01) (1, 1.53546279907226562500e+02) (2, -1.55284484863281250000e+02) (3, 9.54280014038085937500e+01) (4, 4.78858680725097656250e+01) (5, 1.25235080718994140625e+01) (6, -1.82511687278747558594e+00) (7, 1.11272697448730468750e+01) (8, 6.77202939987182617188e+00) (9, 2.48931560516357421875e+01) (10, 3.79586296081542968750e+01) (11, -3.33931770324707031250e+01) (12, 1.51418029785156250000e+02) (13, -1.66592132568359375000e+02) (14, 1.62647495269775390625e+01) (15, 3.59921035766601562500e+01) (16, 9.28647918701171875000e+01) (17, 6.53124666213989257812e+00) (18, -5.06134605407714843750e+01) (19, -1.40982437133789062500e+02) (20, -7.16193819046020507812e+00) (21, 1.44577209472656250000e+02) (22, 1.22864356994628906250e+02) (23, 5.05291900634765625000e+01) (24, 9.04907302856445312500e+01) (25, 4.26767234802246093750e+01) (26, -2.54235386848449707031e+00) (27, -4.72094230651855468750e+01) (28, -3.63427368164062500000e+02) (29, -5.91250228881835937500e+01) (30, -7.14882183074951171875e+00) (31, 6.93861846923828125000e+01) (32, -3.05347728729248046875e+01) (33, 5.37864151000976562500e+01) (34, 2.20795776367187500000e+02) (35, -2.99626770019531250000e+01) (36, 1.12647583007812500000e+02) (37, 2.87545318603515625000e+02) (38, -2.05039016723632812500e+02) (39, -1.19677749633789062500e+02) (40, 4.17894821166992187500e+01) (41, 5.98127746582031250000e+01) (42, 3.17916412353515625000e+02) (43, 4.17074089050292968750e+01) (44, 2.90347366333007812500e+01) (45, -8.70554885864257812500e+01) (46, 1.53444198608398437500e+02) (47, -1.39586853027343750000e+02) (48, -2.58296325683593750000e+02) (49, -1.14220436096191406250e+02) (50, 6.56825714111328125000e+01) (51, -5.58412094116210937500e+01) (52, 2.59994567871093750000e+02) (53, 8.57557678222656250000e+00) (54, 9.10822753906250000000e+01) (55, -5.56836051940917968750e+01) (56, 2.11340255737304687500e+01) (57, 1.26791175842285156250e+02) (58, -1.44348419189453125000e+02) (59, 3.73839759826660156250e+01) (60, 1.06488754272460937500e+02) (61, 1.90300025939941406250e+01) (62, 2.44930648803710937500e+02) (63, 8.21134490966796875000e+01) (64, 9.78381729125976562500e+01) (65, -4.56138648986816406250e+01) (66, -1.01635543823242187500e+02) (67, -1.29369400024414062500e+02) (68, -1.20443954467773437500e+02) (69, 5.24140472412109375000e+01) (70, -5.83321151733398437500e+01) (71, 3.81721615791320800781e+00) (72, 1.69788040161132812500e+02) (73, -1.15959854125976562500e+02) (74, 1.14235477447509765625e+01) (75, -1.00013244628906250000e+02) (76, 2.15264358520507812500e+01) (77, 8.55290451049804687500e+01) (78, -4.07306594848632812500e+01) (79, 4.54858398437500000000e+00) (80, 3.70534332275390625000e+02) (81, 6.32924079895019531250e+01) (82, 1.13901664733886718750e+02) (83, 1.33440216064453125000e+02) (84, -5.38516883850097656250e+01) (85, -1.38280878067016601562e+01) (86, 1.30286666870117187500e+02) (87, -1.47570510864257812500e+02) (88, -2.44741592407226562500e+02) (89, 1.32834289550781250000e+02) (90, 6.57081680297851562500e+01) (91, 1.43563827514648437500e+02) (92, 1.17216094970703125000e+02) (93, 4.58468399047851562500e+01) (94, 1.08390457153320312500e+02) (95, -4.66138839721679687500e+01) (96, -1.69651241302490234375e+01) (97, -7.66485824584960937500e+01) (98, -1.67209289550781250000e+02) (99, 1.16035671234130859375e+01) (100, 4.25280792236328125000e+02) (101, 1.40826843261718750000e+02) (102, 4.13500518798828125000e+01) (103, 1.59078735351562500000e+02) (104, 2.46396503448486328125e+01) (105, -7.79603652954101562500e+01) (106, 1.39893630981445312500e+02) (107, -3.42169769287109375000e+02) (108, -1.91982009887695312500e+02) (109, 1.90302886962890625000e+02) (110, 1.79069183349609375000e+02) (111, 4.69508476257324218750e+01) (112, 8.34530563354492187500e+01) (113, -3.56507720947265625000e+01) (114, -1.24106998443603515625e+01) (115, 3.05045776367187500000e+01) (116, -5.41446380615234375000e+01) (117, 1.08581726074218750000e+02) (118, 3.77967185974121093750e+01) (119, 9.19788131713867187500e+01) (120, 4.14918121337890625000e+02) (121, 1.59568237304687500000e+02) (122, -3.56632843017578125000e+01) (123, 1.92540084838867187500e+02) (124, -1.24926979064941406250e+02) (125, 9.32192840576171875000e+01) (126, 4.82465133666992187500e+01) (127, -1.43212799072265625000e+02) (128, -2.55860626220703125000e+02) (129, 1.36890136718750000000e+02) (130, 2.42995178222656250000e+02) (131, 1.11339103698730468750e+02) (132, 4.46820678710937500000e+02) (133, 1.09447555541992187500e+02) (134, 2.72722434997558593750e+01) (135, 1.35709976196289062500e+02) (136, -2.28945602416992187500e+02) (137, -4.58930549621582031250e+01) (138, -1.13165443420410156250e+02) (139, 2.28022308349609375000e+01) (140, 2.64739288330078125000e+02) (141, 1.31489868164062500000e+02) (142, -1.38259674072265625000e+02) (143, 9.43654327392578125000e+01) (144, -3.02564941406250000000e+02) (145, 2.28671096801757812500e+02) (146, 7.12849273681640625000e+01) (147, -4.13478393554687500000e+02) (148, 1.30814514160156250000e+02) (149, 1.83286895751953125000e+02) (150, -1.33163995742797851562e+01) (151, 1.56803115844726562500e+02) (152, 3.03087615966796875000e+02) (153, -8.98086242675781250000e+01) (154, -4.75963401794433593750e+01) (155, 1.56650421142578125000e+02) (156, -2.48937210083007812500e+02) (157, -9.51546630859375000000e+01) (158, -3.71262512207031250000e+01) (159, -5.96067581176757812500e+01) (160, 2.26629180908203125000e+02) (161, 1.19360284805297851562e+01) (162, -1.15389831542968750000e+02) (163, -6.86625061035156250000e+01) (164, -1.35905731201171875000e+02) (165, 1.62956100463867187500e+02) (166, 9.76520919799804687500e+01) (167, -6.66295532226562500000e+02) (168, -1.56488021850585937500e+02) (169, -9.43559169769287109375e+00) (170, 1.16561073303222656250e+02) (171, 1.92223800659179687500e+02) (172, 1.32024383544921875000e+02) (173, -7.29763793945312500000e+01) (174, -2.41598129272460937500e+02) (175, -8.82925415039062500000e+01) (176, -2.63168182373046875000e+02) (177, -5.90664100646972656250e+01) (178, -1.29101150512695312500e+02) (179, -1.71826721191406250000e+02) (180, 5.05923187255859375000e+02) (181, 2.44346466064453125000e+02) (182, 3.44407409667968750000e+02) (183, 1.86118133544921875000e+02) (184, -3.03445987701416015625e+01) (185, 4.66844116210937500000e+02) (186, 4.11649475097656250000e+02) (187, -3.92890095710754394531e+00) (188, 1.34908569335937500000e+02) (189, 2.85923431396484375000e+02) (190, 5.07948669433593750000e+02) (191, 4.55525115966796875000e+02) (192, 4.13668426513671875000e+02) (193, 3.24141204833984375000e+02) (194, -4.78987548828125000000e+03) (195, 1.48586975097656250000e+02) (196, 1.42938125610351562500e+02) (197, 1.56179321289062500000e+02) (198, 2.03589279174804687500e+02) (199, 1.10551719665527343750e+02) (200, 3.12934112548828125000e+02) (201, 1.56697525024414062500e+02) (202, 2.33603073120117187500e+02) (203, -1.52009689331054687500e+02) (204, 2.12254261970520019531e+00) (205, 2.06957656860351562500e+02) (206, 1.87523788452148437500e+02) (207, -1.14521102905273437500e+02) (208, -8.09297485351562500000e+01) (209, 1.06147682189941406250e+02) (210, 3.39234649658203125000e+02) (211, 3.39040618896484375000e+02) (212, 2.85150054931640625000e+02) (213, 2.45673019409179687500e+02) (214, -1.44598913574218750000e+03) (215, -8.83959350585937500000e+01) (216, 8.91309738159179687500e+01) (217, -1.87434997558593750000e+02) (218, 1.05036979675292968750e+02) (219, -1.46060543060302734375e+01) (220, 3.47422973632812500000e+02) (221, 2.08973022460937500000e+02) (222, 6.49061965942382812500e+01) (223, -1.08400115966796875000e+02) (224, 1.76963367462158203125e+01) (225, 4.05856323242187500000e+01) (226, 1.87103332519531250000e+02) (227, -2.24920520782470703125e+01) (228, 3.30738067626953125000e+01) (229, 1.43987136840820312500e+02) (230, 3.10924926757812500000e+02) (231, 3.06278900146484375000e+02) (232, 1.87317825317382812500e+02) (233, 1.63457855224609375000e+02) (234, -5.18091857910156250000e+02) (235, 1.39336685180664062500e+02) (236, -1.07181335449218750000e+02) (237, -1.50321014404296875000e+02) (238, 1.06546028137207031250e+02) (239, 7.93749570846557617188e+00) (240, 2.92754791259765625000e+02) (241, 1.17469352722167968750e+02) (242, -5.78008460998535156250e+01) (243, -1.11783920288085937500e+02) (244, 3.11452102661132812500e+01) (245, 3.59134979248046875000e+01) (246, 1.61120925903320312500e+02) (247, -4.64632987976074218750e+01) (248, 1.07579483032226562500e+02) (249, -1.31014251708984375000e+02) (250, 2.84704406738281250000e+02) (251, 5.42222862243652343750e+01) (252, 1.18519622802734375000e+02) (253, 1.74391983032226562500e+02) (254, -3.18469940185546875000e+02) (255, 2.26408843994140625000e+01) (256, -8.30239562988281250000e+01) (257, -2.99575683593750000000e+02) (258, 2.12629867553710937500e+02) (259, -8.72242660522460937500e+01) (260, 1.46275238037109375000e+02) (261, 1.11212738037109375000e+02) (262, 5.07293624877929687500e+01) (263, -1.37778915405273437500e+02) (264, 6.24791297912597656250e+01) (265, 3.06095619201660156250e+01) (266, -1.90789833068847656250e+01) (267, -6.73487930297851562500e+01) (268, 5.22262077331542968750e+01) (269, 4.00576934814453125000e+01) (270, 1.73003784179687500000e+02) (271, 3.65090675354003906250e+01) (272, 1.78105361938476562500e+02) (273, 1.01468788146972656250e+02) (274, -1.93319778442382812500e+02) (275, -6.91391754150390625000e+01) (276, -1.66116989135742187500e+02) (277, -1.86852890014648437500e+02) (278, 1.76087234497070312500e+02) (279, -9.72602767944335937500e+01) (280, 3.86937484741210937500e+01) (281, 9.74806365966796875000e+01) (282, -5.63509826660156250000e+01) (283, -1.15613807678222656250e+02) (284, 1.86111877441406250000e+02) (285, -4.40959205627441406250e+01) (286, -5.10838623046875000000e+01) (287, -6.01626014709472656250e+01) (288, -1.11168975830078125000e+02) (289, -8.08419876098632812500e+01) (290, 2.29200958251953125000e+02) (291, 1.16265213012695312500e+02) (292, 1.27238151550292968750e+02) (293, 1.73786621093750000000e+02) (294, -1.61159027099609375000e+02) (295, -2.05559417724609375000e+02) (296, -1.47860992431640625000e+02) (297, -1.81422162055969238281e+00) (298, 1.46251617431640625000e+02) (299, -5.16022071838378906250e+01) (300, 1.80526611328125000000e+02) (301, -8.78601837158203125000e+01) (302, -3.41506690979003906250e+01) (303, -4.46864509582519531250e+01) (304, 2.06525665283203125000e+02) (305, 2.16600208282470703125e+01) (306, 6.84598541259765625000e+01) (307, -2.60656986236572265625e+01) (308, 9.02724151611328125000e+01) (309, 6.30590858459472656250e+01) (310, 2.44748821258544921875e+01) (311, 6.36561584472656250000e+01) (312, 3.55582237243652343750e+01) (313, 2.42496109008789062500e+01) (314, -1.81240341186523437500e+02) (315, -2.01954940795898437500e+02) (316, -8.41982269287109375000e+01) (317, 3.31835937500000000000e+01) (318, 2.88556003570556640625e+01) (319, 3.97750205993652343750e+01) (320, 9.42786026000976562500e+01) (321, 7.97236442565917968750e-01) (322, 9.58316268920898437500e+01) (323, -2.74598022460937500000e+02) (324, -1.55815048217773437500e+01) (325, 1.16355237960815429688e+01) (326, 1.04252309799194335938e+01) (327, 1.55627126693725585938e+01) (328, 2.02377490997314453125e+01) (329, -4.26392555236816406250e+01) (330, 6.48894577026367187500e+01) (331, 6.58351211547851562500e+01) (332, 5.49920272827148437500e+01) (333, 7.74483337402343750000e+01) (334, -8.68231430053710937500e+01) (335, -8.20740737915039062500e+01) (336, -9.05794677734375000000e+01) (337, 1.53492355346679687500e+02) (338, -7.26918792724609375000e+01) (339, -2.66718444824218750000e+01) (340, -1.23889343261718750000e+03) (0, -1.91019775390625000000e+02) (1, 3.48328208923339843750e+01) (2, -2.12673049926757812500e+02) (3, 1.68181304931640625000e+02) (4, -3.53330749511718750000e+02) (5, -4.07835083007812500000e+01) (6, 1.26306571960449218750e+02) (7, -4.08192443847656250000e+01) (8, 1.99726287841796875000e+02) (9, -1.19952758789062500000e+02) (10, -2.03004333496093750000e+02) (11, 3.19965476989746093750e+01) (12, 1.24084014892578125000e+02) (13, -1.67015701293945312500e+02) (14, -4.77406167984008789062e+00) (15, -1.65379852294921875000e+02) (16, -2.61393859863281250000e+02) (17, -3.48111175537109375000e+02) (18, 3.65803222656250000000e+01) (19, 1.14152381896972656250e+02) (20, -2.26390731811523437500e+02) (21, 3.62902183532714843750e+01) (22, -1.75432739257812500000e+02) (23, 3.06550079345703125000e+02) (24, -2.23152694702148437500e+02) (25, -1.62476699829101562500e+02) (26, 3.60580657958984375000e+02) (27, 2.46512283325195312500e+02) (28, -4.23055305480957031250e+01) (29, -7.49184131622314453125e+00) (30, -3.38596130371093750000e+02) (31, 1.27819931030273437500e+02) (32, -1.70240249633789062500e+02) (33, -2.83217681884765625000e+02) (34, 4.07584014892578125000e+02) (35, -1.90055618286132812500e+02) (36, -1.13075042724609375000e+02) (37, -3.96576599121093750000e+02) (38, -4.49107116699218750000e+02) (39, -9.81050033569335937500e+01) (40, -2.04589981079101562500e+02) (41, 4.57514419555664062500e+01) (42, 1.45666748046875000000e+02) (43, 1.12216873168945312500e+02) (44, -2.06141921997070312500e+02) (45, 6.06260910034179687500e+01) (46, -9.70068283081054687500e+01) (47, 2.09242523193359375000e+02) (48, 1.02971366882324218750e+02) (49, -5.55178146362304687500e+01) (50, -3.83377410888671875000e+02) (51, -5.70640716552734375000e+01) (52, 3.04266052246093750000e+01) (53, -2.36498168945312500000e+02) (54, 1.37255203247070312500e+02) (55, -2.70759429931640625000e+02) (56, -1.47553283691406250000e+02) (57, -8.44340667724609375000e+01) (58, -2.79512664794921875000e+02) (59, -1.12109992980957031250e+02) (60, -1.66751617431640625000e+02) (61, 2.49880264282226562500e+02) (62, 1.97992935180664062500e+02) (63, 1.79970306396484375000e+02) (64, -3.47298034667968750000e+02) (65, -4.36239715576171875000e+02) (66, 1.20084238052368164062e+01) (67, 6.62508010864257812500e+01) (68, 1.76279861450195312500e+02) (69, 2.66907623291015625000e+02) (70, -4.47509613037109375000e+02) (71, -1.75057266235351562500e+02) (72, -8.38429565429687500000e+01) (73, -9.33348541259765625000e+01) (74, 2.32728561401367187500e+02) (75, 8.19222793579101562500e+01) (76, -8.95655899047851562500e+01) (77, -3.03481964111328125000e+02) (78, 7.01876754760742187500e+01) (79, -1.40368606567382812500e+02) (80, -1.33720703125000000000e+02) (81, -4.53649063110351562500e+01) (82, -1.20360918045043945312e+01) (83, 1.06822479248046875000e+02) (84, -1.16346031188964843750e+02) (85, -2.86093688964843750000e+02) (86, -6.11404533386230468750e+01) (87, 1.02130813598632812500e+02) (88, 3.23820404052734375000e+02) (89, 2.39075637817382812500e+02) (90, -5.55649681091308593750e+01) (91, 5.60747375488281250000e+01) (92, -2.84756378173828125000e+02) (93, 2.34972038269042968750e+01) (94, 1.63429397583007812500e+02) (95, 1.27915054321289062500e+02) (96, -8.79308853149414062500e+01) (97, 2.30952850341796875000e+02) (98, -2.04205917358398437500e+02) (99, 1.27323997497558593750e+02) (100, -2.45982147216796875000e+02) (101, -3.28182647705078125000e+02) (102, -1.39890403747558593750e+01) (103, 4.64650497436523437500e+01) (104, 2.46427230834960937500e+02) (105, -2.37508407592773437500e+02) (106, -8.53730850219726562500e+01) (107, 2.08091873168945312500e+02) (108, 4.06281524658203125000e+02) (109, 2.73529022216796875000e+02) (110, -6.93396234512329101562e+00) (111, 3.21906585693359375000e+02) (112, -2.03626861572265625000e+02) (113, -3.64098095893859863281e+00) (114, -2.73915130615234375000e+02) (115, -5.37905387878417968750e+01) (116, 1.50247850418090820312e+01) (117, 1.27501045227050781250e+02) (118, 1.73582962036132812500e+02) (119, 4.25190917968750000000e+02) (120, -2.92578948974609375000e+02) (121, -8.96946487426757812500e+01) (122, -5.12158569335937500000e+02) (123, -2.38627151489257812500e+02) (124, 6.63726257324218750000e+02) (125, -8.23575744628906250000e+02) (126, -3.24466400146484375000e+02) (127, 3.37463653564453125000e+02) (128, -1.08281074523925781250e+02) (129, 4.17862823486328125000e+02) (130, 3.28541809082031250000e+02) (131, -7.27781829833984375000e+01) (132, -8.47989273071289062500e+01) (133, 6.90479003906250000000e+02) (134, -2.72256805419921875000e+02) (135, -9.58893280029296875000e+01) (136, 3.41210746765136718750e+01) (137, 1.06475006103515625000e+02) (138, 1.71394012451171875000e+02) (139, 8.50252075195312500000e+02) (140, -6.69504577636718750000e+02) (141, -1.93591463565826416016e+00) (142, -9.66518371582031250000e+02) (143, -6.26646362304687500000e+02) (144, 3.88319122314453125000e+02) (145, -7.89958618164062500000e+02) (146, -2.69651336669921875000e+02) (147, 4.42846336364746093750e+01) (148, 5.71080017089843750000e+01) (149, 6.63245422363281250000e+02) (150, 3.76845123291015625000e+02) (151, -3.78252410888671875000e+01) (152, 8.61313400268554687500e+01) (153, 5.87533203125000000000e+02) (154, -8.31081787109375000000e+02) (155, 2.16421642303466796875e+01) (156, 5.67467346191406250000e+01) (157, 2.78104553222656250000e+02) (158, 5.77308349609375000000e+02) (159, 1.05148181152343750000e+03) (160, -3.18737060546875000000e+02) (161, -2.39474639892578125000e+02) (162, -1.16342260742187500000e+03) (163, -8.07242492675781250000e+02) (164, 6.78612731933593750000e+02) (165, -9.44868652343750000000e+02) (166, -1.17216499328613281250e+02) (167, -3.46746734619140625000e+02) (168, 1.05279594421386718750e+02) (169, 8.58009826660156250000e+02) (170, 4.51158233642578125000e+02) (171, -1.20756423950195312500e+02) (172, -1.64273712158203125000e+02) (173, 4.48579193115234375000e+02) (174, -1.05614208984375000000e+03) (175, -2.19941757202148437500e+02) (176, 6.01533851623535156250e+01) (177, 1.96453155517578125000e+02) (178, 3.10563629150390625000e+02) (179, 1.07462292480468750000e+03) (180, -4.97579711914062500000e+02) (181, -1.83842697143554687500e+02) (182, -4.73503692626953125000e+02) (183, -3.46638061523437500000e+02) (184, 5.36703613281250000000e+02) (185, -5.94617004394531250000e+02) (186, -3.51617523193359375000e+02) (187, -2.35707336425781250000e+02) (188, -6.78569458007812500000e+02) (189, 9.25227783203125000000e+02) (190, 5.59617797851562500000e+02) (191, -1.81637477874755859375e+01) (192, 1.39021692276000976562e+01) (193, 4.10805145263671875000e+02) (194, -9.52568847656250000000e+02) (195, 1.25603996276855468750e+02) (196, -8.41556243896484375000e+01) (197, 6.65060913085937500000e+02) (198, 2.97154632568359375000e+02) (199, 1.03240637207031250000e+03) (200, -4.01562927246093750000e+02) (201, -2.75217163085937500000e+02) (202, -9.96816177368164062500e+01) (203, -2.11747390747070312500e+02) (204, 2.32969329833984375000e+02) (205, -5.34903381347656250000e+02) (206, -7.67300643920898437500e+01) (207, 7.98215942382812500000e+01) (208, -3.03832031250000000000e+02) (209, 7.95746643066406250000e+02) (210, 4.49797149658203125000e+02) (211, -3.49026367187500000000e+02) (212, -2.07518905639648437500e+02) (213, 7.88710327148437500000e+01) (214, 1.19872718811035156250e+02) (215, 1.27144096374511718750e+02) (216, -3.10778320312500000000e+02) (217, 6.29425720214843750000e+02) (218, 4.11947937011718750000e+02) (219, 6.56262145996093750000e+02) (220, -1.37795013427734375000e+02) (221, -1.69542236328125000000e+02) (222, -1.47245254516601562500e+01) (223, 3.58474731445312500000e+01) (224, -6.45089187622070312500e+01) (225, -2.31035217285156250000e+02) (226, -4.00090484619140625000e+01) (227, 1.70240386962890625000e+02) (228, 2.09633850097656250000e+02) (229, 5.43295349121093750000e+02) (230, -1.45208328247070312500e+02) (231, -4.52546569824218750000e+02) (232, -3.65149383544921875000e+02) (233, 3.60835052490234375000e+02) (234, 3.39519073486328125000e+02) (235, 3.59173797607421875000e+02) (236, -1.46363327026367187500e+02) (237, 2.63415435791015625000e+02) (238, -2.59338073730468750000e+02) (239, 4.13188995361328125000e+02) (240, 6.48190841674804687500e+01) (241, 1.89012985229492187500e+01) (242, 2.10178192138671875000e+02) (243, 1.07494049072265625000e+02) (244, 4.06398010253906250000e+02) (245, -3.29422637939453125000e+02) (246, 1.10204620361328125000e+02) (247, 3.79003295898437500000e+02) (248, -1.72620559692382812500e+02) (249, 1.29302032470703125000e+02) (250, -1.23600662231445312500e+02) (251, -3.06594543457031250000e+02) (252, -2.34516128540039062500e+02) (253, -2.50146713256835937500e+02) (254, 2.65742492675781250000e+02) (255, 3.47460327148437500000e+02) (256, -2.59974395751953125000e+02) (257, -1.43951049804687500000e+02) (258, 1.74981445312500000000e+02) (259, 2.96176330566406250000e+02) (260, -1.98614242553710937500e+02) (261, -1.42218124389648437500e+02) (262, 1.97133255004882812500e+02) (263, 1.35496215820312500000e+02) (264, -1.81429901123046875000e+02) (265, -3.29246292114257812500e+01) (266, -6.12370443344116210938e+00) (267, 4.23341003417968750000e+02) (268, -7.09157180786132812500e+01) (269, 3.59525360107421875000e+02) (270, -3.11818145751953125000e+02) (271, -3.38522186279296875000e+02) (272, -3.84066314697265625000e+01) (273, -9.99885559082031250000e+01) (274, 5.01298309326171875000e+02) (275, 4.42497528076171875000e+02) (276, 9.45552978515625000000e+01) (277, -3.62369422912597656250e+01) (278, 4.42811431884765625000e+01) (279, -1.02830261230468750000e+02) (280, -2.27778594970703125000e+02) (281, -1.40503967285156250000e+02) (282, 1.79940624237060546875e+01) (283, 1.14030746459960937500e+02) (284, -1.37770080566406250000e+02) (285, 1.53061508178710937500e+02) (286, -7.86284179687500000000e+01) (287, 4.56848083496093750000e+02) (288, -5.52072477340698242188e+00) (289, -1.91596145629882812500e+02) (290, -2.52389160156250000000e+02) (291, -2.87634155273437500000e+02) (292, 1.43558334350585937500e+02) (293, -1.19226333618164062500e+02) (294, 2.08446807861328125000e+02) (295, 2.90306396484375000000e+02) (296, 4.95852966308593750000e+01) (297, 3.07450981140136718750e+01) (298, 2.08009704589843750000e+02) (299, 4.02657852172851562500e+01) (300, -1.55367630004882812500e+02) (301, -2.24098068237304687500e+02) (302, -6.96430492401123046875e+00) (303, 3.57996124267578125000e+02) (304, -3.74835388183593750000e+02) (305, 7.32603149414062500000e+01) (306, 7.53150863647460937500e+01) (307, 6.84313659667968750000e+01) (308, -1.29725524902343750000e+02) (309, -2.03239013671875000000e+02) (310, -3.72231292724609375000e+02) (311, -2.89336669921875000000e+02) (312, -2.47684234619140625000e+02) (313, -1.84741226196289062500e+02) (314, 1.07749946594238281250e+02) (315, 3.99594604492187500000e+02) (316, 2.92611053466796875000e+02) (317, -2.31522155761718750000e+02) (318, -1.61818542480468750000e+01) (319, -6.14658889770507812500e+01) (320, -4.39784881591796875000e+02) (321, -1.46622589111328125000e+02) (322, 2.31974582672119140625e+01) (323, -4.73026924133300781250e+01) (324, -5.78539672851562500000e+02) (325, -9.78360290527343750000e+01) (326, -7.91966857910156250000e+01) (327, 2.15091979980468750000e+02) (328, -3.08184051513671875000e+02) (329, 9.19850692749023437500e+01) (330, -1.72661712646484375000e+02) (331, -6.18880081176757812500e+01) (332, -8.90044116973876953125e+00) (333, -1.56817932128906250000e+01) (334, 6.47143325805664062500e+01) (335, 2.95212829589843750000e+02) (336, 8.64054183959960937500e+01) (337, 3.29604797363281250000e+01) (338, 1.28340621948242187500e+02) (339, -4.19548416137695312500e+01) (340, -1.33798779296875000000e+03) (0, 6.98499374389648437500e+01) (1, -8.70384025573730468750e+00) (2, -2.33483481407165527344e+00) (3, 2.45401077270507812500e+02) (4, -8.89669418334960937500e+00) (5, 8.86231002807617187500e+01) (6, 7.44941940307617187500e+01) (7, 4.25318565368652343750e+01) (8, 1.62561309814453125000e+02) (9, -2.72781097412109375000e+02) (10, 2.84020290374755859375e+01) (11, -1.43463928222656250000e+02) (12, 8.75108432769775390625e+00) (13, 3.40313934326171875000e+02) (14, 1.76975265502929687500e+02) (15, 8.79806289672851562500e+01) (16, 2.85517822265625000000e+02) (17, -2.27410781860351562500e+02) (18, 2.89110900878906250000e+02) (19, 1.62358993530273437500e+02) (20, 1.41241271972656250000e+02) (21, 1.71902664184570312500e+02) (22, -7.00301895141601562500e+01) (23, -4.43171272277832031250e+01) (24, 1.42041412353515625000e+02) (25, -3.24593078613281250000e+02) (26, 1.61976715087890625000e+02) (27, -8.79695587158203125000e+01) (28, 1.77916748046875000000e+02) (29, 8.89000473022460937500e+01) (30, 1.47039213180541992188e+01) (31, -2.68313110351562500000e+02) (32, 2.85914184570312500000e+02) (33, 3.23557037353515625000e+02) (34, 1.55343666076660156250e+01) (35, 7.61434326171875000000e+01) (36, 1.64948883056640625000e+02) (37, -4.21899032592773437500e+01) (38, 8.50780029296875000000e+01) (39, 1.87722702026367187500e+02) (40, 2.04428588867187500000e+02) (41, 2.39861404418945312500e+02) (42, -1.85975284576416015625e+01) (43, -3.91350326538085937500e+01) (44, 2.29845275878906250000e+02) (45, -1.75512649536132812500e+02) (46, -3.88211288452148437500e+01) (47, -3.50658798217773437500e+01) (48, 1.62256362915039062500e+02) (49, 1.64128723144531250000e+02) (50, 1.11004867553710937500e+01) (51, -1.81345977783203125000e+02) (52, 1.01783233642578125000e+02) (53, 1.02952018737792968750e+02) (54, 1.07212707519531250000e+02) (55, 4.82278480529785156250e+01) (56, 1.70088333129882812500e+02) (57, 2.02684600830078125000e+02) (58, -8.10873413085937500000e+01) (59, 2.30167678833007812500e+02) (60, 4.27215003967285156250e+01) (61, 2.15380878448486328125e+01) (62, -1.73047485351562500000e+02) (63, -2.79823532104492187500e+01) (64, 2.22408966064453125000e+02) (65, -4.25969657897949218750e+01) (66, 3.04538513183593750000e+02) (67, 1.65224411010742187500e+02) (68, 1.49908437728881835938e+01) (69, 1.96853836059570312500e+02) (70, 1.31737380981445312500e+02) (71, -3.41497100830078125000e+02) (72, 1.64827453613281250000e+02) (73, 1.99793380737304687500e+02) (74, -3.85844612121582031250e+01) (75, 2.15763397216796875000e+02) (76, 3.43633758544921875000e+02) (77, 4.85830354690551757812e+00) (78, 2.37387252807617187500e+02) (79, 6.09475936889648437500e+01) (80, 1.04596389770507812500e+02) (81, 1.91698852539062500000e+02) (82, 3.84449890136718750000e+02) (83, -6.14681854248046875000e+01) (84, 2.00122985839843750000e+02) (85, 1.20499595642089843750e+02) (86, 1.25192039489746093750e+02) (87, -5.93588018417358398438e+00) (88, 2.72462707519531250000e+02) (89, 1.83990020751953125000e+02) (90, 6.05042076110839843750e+01) (91, 4.22999763488769531250e+01) (92, 1.63799194335937500000e+02) (93, 3.44023376464843750000e+02) (94, -7.59335708618164062500e+01) (95, 3.28179817199707031250e+01) (96, 3.01549194335937500000e+02) (97, -2.15483657836914062500e+02) (98, 1.47915100097656250000e+02) (99, 1.48759613037109375000e+02) (100, -7.24319458007812500000e+01) (101, 2.57994171142578125000e+02) (102, 1.50728500366210937500e+02) (103, 1.61722412109375000000e+02) (104, -1.61212966918945312500e+02) (105, 4.54192733764648437500e+01) (106, 6.34820823669433593750e+01) (107, -1.00385391712188720703e+00) (108, 3.22399261474609375000e+02) (109, 1.68959381103515625000e+02) (110, 1.28048965454101562500e+02) (111, -9.54944000244140625000e+01) (112, 2.61283660888671875000e+02) (113, 2.70134704589843750000e+02) (114, -2.20615539550781250000e+02) (115, -3.21347389221191406250e+01) (116, 4.66950469970703125000e+02) (117, 4.66703277587890625000e+02) (118, 2.94271759033203125000e+02) (119, 1.44681365966796875000e+02) (120, 2.72623992919921875000e+02) (121, 1.18750801086425781250e+02) (122, -2.93202152252197265625e+01) (123, 6.38340377807617187500e+01) (124, -6.93894653320312500000e+01) (125, 1.09543556213378906250e+02) (126, 1.79558715820312500000e+01) (127, -1.40636672973632812500e+02) (128, 1.85727935791015625000e+02) (129, 3.40405700683593750000e+02) (130, 1.35821716308593750000e+02) (131, -1.34189422607421875000e+02) (132, -1.74439102172851562500e+02) (133, 2.76760314941406250000e+02) (134, 1.04907730102539062500e+02) (135, -2.36553878784179687500e+01) (136, 6.30342063903808593750e+01) (137, 4.14192352294921875000e+02) (138, 3.62278747558593750000e+02) (139, 2.18584945678710937500e+02) (140, 1.39074462890625000000e+02) (141, 3.39223480224609375000e+01) (142, -5.94762687683105468750e+01) (143, -8.16939849853515625000e+01) (144, -5.19501266479492187500e+01) (145, -4.52208824157714843750e+01) (146, -2.11668884277343750000e+02) (147, -5.16369812011718750000e+02) (148, -4.62711296081542968750e+01) (149, 7.94734649658203125000e+01) (150, 3.00866546630859375000e+02) (151, 1.60251358032226562500e+02) (152, 2.34327911376953125000e+02) (153, 1.24839309692382812500e+02) (154, -2.27915206909179687500e+02) (155, -1.39407180786132812500e+02) (156, 2.14223346710205078125e+01) (157, 5.47283386230468750000e+02) (158, 6.64502182006835937500e+01) (159, 2.01496917724609375000e+02) (160, -1.00334381103515625000e+02) (161, -1.35584320068359375000e+02) (162, -3.76797058105468750000e+02) (163, -2.20453155517578125000e+02) (164, -6.82461624145507812500e+01) (165, -1.85080154418945312500e+02) (166, 3.76662178039550781250e+01) (167, -4.14238220214843750000e+02) (168, 1.95342285156250000000e+02) (169, 2.65906097412109375000e+02) (170, 1.39325119018554687500e+02) (171, -2.00562057495117187500e+01) (172, -8.39584655761718750000e+01) (173, -7.96249465942382812500e+01) (174, -6.55891906738281250000e+02) (175, -2.64997253417968750000e+02) (176, -1.07615669250488281250e+02) (177, 2.65456604003906250000e+02) (178, -1.47123565673828125000e+02) (179, 1.76731319427490234375e+01) (180, 4.05539489746093750000e+02) (181, 2.52391250610351562500e+02) (182, 3.15210266113281250000e+02) (183, 2.76700988769531250000e+02) (184, 4.03876708984375000000e+02) (185, 2.99707641601562500000e+02) (186, 4.28573181152343750000e+02) (187, 2.00367782592773437500e+02) (188, 3.54286071777343750000e+02) (189, 4.98193359375000000000e+02) (190, 4.74461334228515625000e+02) (191, 2.03483901977539062500e+02) (192, 4.28533752441406250000e+02) (193, 3.86961883544921875000e+02) (194, -5.91665039062500000000e+03) (195, 2.21630233764648437500e+02) (196, 3.13191925048828125000e+02) (197, 4.64325408935546875000e+02) (198, 4.41860565185546875000e+02) (199, 2.88387451171875000000e+02) (200, 9.47548751831054687500e+01) (201, 5.57390480041503906250e+01) (202, -2.07142730712890625000e+02) (203, -1.57767105102539062500e+02) (204, -5.15709838867187500000e+01) (205, -1.90603927612304687500e+02) (206, -7.57063598632812500000e+01) (207, 1.38081100463867187500e+02) (208, 3.16272094726562500000e+02) (209, 1.64925125122070312500e+02) (210, 3.99459625244140625000e+02) (211, 6.60078353881835937500e+01) (212, 1.15208992004394531250e+02) (213, 4.65154418945312500000e+01) (214, -3.86820312500000000000e+02) (215, -2.42949104309082031250e+01) (216, -1.63664493560791015625e+01) (217, 2.61600933074951171875e+01) (218, 1.54872360229492187500e+02) (219, 2.63036376953125000000e+02) (220, 5.26141777038574218750e+01) (221, -2.02681808471679687500e+01) (222, 2.03059406280517578125e+01) (223, -1.19127159118652343750e+02) (224, -1.28141307830810546875e+01) (225, 1.52417984008789062500e+02) (226, -4.72731841728091239929e-03) (227, 6.32027206420898437500e+01) (228, 5.11584243774414062500e+01) (229, 1.96104827880859375000e+02) (230, 2.94817077636718750000e+02) (231, 8.63012237548828125000e+01) (232, 1.67087219238281250000e+02) (233, 3.55583740234375000000e+02) (234, -1.80543853759765625000e+02) (235, -6.67852706909179687500e+01) (236, 1.32821807861328125000e+02) (237, -5.23200874328613281250e+01) (238, 1.87654769897460937500e+02) (239, 1.57042531967163085938e+01) (240, 8.35252532958984375000e+01) (241, -3.40116691589355468750e+01) (242, -3.60532684326171875000e+01) (243, -2.39681243896484375000e+01) (244, -1.64370162963867187500e+02) (245, 1.44402908325195312500e+02) (246, 2.27179603576660156250e+01) (247, 9.89029464721679687500e+01) (248, 3.24819671630859375000e+02) (249, 2.09151840209960937500e+02) (250, 2.02889221191406250000e+02) (251, 1.75903289794921875000e+02) (252, 1.80858749389648437500e+02) (253, 3.12905639648437500000e+02) (254, -3.22114440917968750000e+02) (255, -1.04698356628417968750e+02) (256, 5.98184471130371093750e+01) (257, -1.47924926757812500000e+02) (258, 2.55060333251953125000e+02) (259, 7.26070709228515625000e+01) (260, 2.06882934570312500000e+02) (261, 4.86359643936157226562e+00) (262, 2.52158603668212890625e+01) (263, 1.47857421875000000000e+02) (264, -3.42614631652832031250e+01) (265, 5.93223915100097656250e+01) (266, -9.16086502075195312500e+01) (267, 1.48841371536254882812e+01) (268, 1.78279907226562500000e+02) (269, 1.63914459228515625000e+02) (270, 2.12484405517578125000e+02) (271, -4.64313926696777343750e+01) (272, 4.33562255859375000000e+02) (273, 4.09600036621093750000e+02) (274, -9.04252548217773437500e+01) (275, 1.20227592468261718750e+02) (276, 3.85966758728027343750e+01) (277, -4.08706390380859375000e+02) (278, 5.48960533142089843750e+01) (279, 1.15730850219726562500e+02) (280, 2.57352172851562500000e+02) (281, 4.82005004882812500000e+01) (282, -2.45582485198974609375e+01) (283, -2.37904891967773437500e+01) (284, -4.35182434082031250000e+02) (285, 1.42020523071289062500e+02) (286, 6.63823471069335937500e+01) (287, 6.68495483398437500000e+01) (288, 9.42001190185546875000e+01) (289, 1.33197814941406250000e+02) (290, -2.04198360443115234375e+01) (291, 4.72573318481445312500e+01) (292, 2.96466705322265625000e+02) (293, 6.82223510742187500000e+01) (294, -3.85428581237792968750e+01) (295, -2.19382614135742187500e+02) (296, -1.07048500061035156250e+02) (297, 2.11785140991210937500e+02) (298, 1.31943252563476562500e+02) (299, 1.02052124023437500000e+02) (300, 4.47871017456054687500e+01) (301, 2.19211483001708984375e+01) (302, -1.04485977172851562500e+02) (303, 1.92613067626953125000e+01) (304, 2.96484584808349609375e+01) (305, -8.32064971923828125000e+01) (306, 2.85616588592529296875e+01) (307, 3.14430770874023437500e+01) (308, -4.15691871643066406250e+01) (309, -3.30197525024414062500e+01) (310, -1.46442480087280273438e+01) (311, 1.46908691406250000000e+02) (312, 2.86617218017578125000e+02) (313, 2.13090896606445312500e+02) (314, -1.61370666503906250000e+02) (315, 4.28752937316894531250e+01) (316, 7.37799682617187500000e+01) (317, 1.50551284790039062500e+02) (318, 7.34821166992187500000e+01) (319, -3.52482910156250000000e+01) (320, -2.73163509368896484375e+01) (321, 5.94370002746582031250e+01) (322, -7.69934005737304687500e+01) (323, 2.82500671386718750000e+02) (324, 2.10357055664062500000e+02) (325, -4.72390518188476562500e+01) (326, 6.01060943603515625000e+01) (327, -2.30734085083007812500e+02) (328, -6.51395339965820312500e+01) (329, 1.86815643310546875000e+02) (330, 3.20068664550781250000e+01) (331, 2.57930084228515625000e+02) (332, 2.71521396636962890625e+01) (333, 1.46154357910156250000e+02) (334, -1.75675460815429687500e+02) (335, 3.97952461242675781250e+01) (336, 2.16958560943603515625e+01) (337, -1.37888717651367187500e+02) (338, 2.13188242912292480469e+00) (339, 8.98107910156250000000e+01) (340, -1.94126770019531250000e+03) (341, 2.78562760353088378906e+00) (342, 2.76043677330017089844e+00) (343, 3.64357948303222656250e+00) (344, -2.63267946243286132812e+00) (345, 1.04558539390563964844e+00) (346, -4.79722380638122558594e-01) (341, -1.14561378955841064453e+00) (342, 1.82176887989044189453e+00) (343, -4.45360279083251953125e+00) (344, 1.27858924865722656250e+00) (345, 4.93953168392181396484e-01) (346, -3.86138343811035156250e+00) (341, -1.04807388782501220703e+00) (342, -2.73368310928344726562e+00) (343, -1.95285165309906005859e+00) (344, -1.23490560054779052734e+00) (345, -8.40566694736480712891e-01) (346, -1.17427587509155273438e+00) (341, -2.47381758689880371094e+00) (342, -2.86858248710632324219e+00) (343, -1.54494929313659667969e+00) (344, 4.80974584817886352539e-01) (345, -1.72359812259674072266e+00) (346, -7.33846187591552734375e-01) 
