FANN_FLO_2.1
num_layers=3
learning_rate=0.700000
connection_rate=1.000000
network_type=0
learning_momentum=0.400000
training_algorithm=0
train_error_function=1
train_stop_function=0
cascade_output_change_fraction=0.010000
quickprop_decay=-0.000100
quickprop_mu=1.750000
rprop_increase_factor=1.200000
rprop_decrease_factor=0.500000
rprop_delta_min=0.000000
rprop_delta_max=50.000000
rprop_delta_zero=0.100000
cascade_output_stagnation_epochs=12
cascade_candidate_change_fraction=0.010000
cascade_candidate_stagnation_epochs=12
cascade_max_out_epochs=150
cascade_min_out_epochs=50
cascade_max_cand_epochs=150
cascade_min_cand_epochs=50
cascade_num_candidate_groups=2
bit_fail_limit=3.49999994039535522461e-01
cascade_candidate_limit=1.00000000000000000000e+03
cascade_weight_multiplier=4.00000005960464477539e-01
cascade_activation_functions_count=10
cascade_activation_functions=3 5 7 8 10 11 14 15 16 17 
cascade_activation_steepnesses_count=4
cascade_activation_steepnesses=2.50000000000000000000e-01 5.00000000000000000000e-01 7.50000000000000000000e-01 1.00000000000000000000e+00 
layer_sizes=341 6 5 
scale_included=0
neurons (num_inputs, activation_function, activation_steepness)=(0, 0, 0.00000000000000000000e+00) (0, 0, 0.00000000000000000000e+00) (0, 0, 0.00000000000000000000e+00) (0, 0, 0.00000000000000000000e+00) (0, 0, 0.00000000000000000000e+00) (0, 0, 0.00000000000000000000e+00) (0, 0, 0.00000000000000000000e+00) (0, 0, 0.00000000000000000000e+00) (0, 0, 0.00000000000000000000e+00) (0, 0, 0.00000000000000000000e+00) (0, 0, 0.00000000000000000000e+00) (0, 0, 0.00000000000000000000e+00) (0, 0, 0.00000000000000000000e+00) (0, 0, 0.00000000000000000000e+00) (0, 0, 0.00000000000000000000e+00) (0, 0, 0.00000000000000000000e+00) (0, 0, 0.00000000000000000000e+00) (0, 0, 0.00000000000000000000e+00) (0, 0, 0.00000000000000000000e+00) (0, 0, 0.00000000000000000000e+00) (0, 0, 0.00000000000000000000e+00) (0, 0, 0.00000000000000000000e+00) (0, 0, 0.00000000000000000000e+00) (0, 0, 0.00000000000000000000e+00) (0, 0, 0.00000000000000000000e+00) (0, 0, 0.00000000000000000000e+00) (0, 0, 0.00000000000000000000e+00) (0, 0, 0.00000000000000000000e+00) (0, 0, 0.00000000000000000000e+00) (0, 0, 0.00000000000000000000e+00) (0, 0, 0.00000000000000000000e+00) (0, 0, 0.00000000000000000000e+00) (0, 0, 0.00000000000000000000e+00) (0, 0, 0.00000000000000000000e+00) (0, 0, 0.00000000000000000000e+00) (0, 0, 0.00000000000000000000e+00) (0, 0, 0.00000000000000000000e+00) (0, 0, 0.00000000000000000000e+00) (0, 0, 0.00000000000000000000e+00) (0, 0, 0.00000000000000000000e+00) (0, 0, 0.00000000000000000000e+00) (0, 0, 0.00000000000000000000e+00) (0, 0, 0.00000000000000000000e+00) (0, 0, 0.00000000000000000000e+00) (0, 0, 0.00000000000000000000e+00) (0, 0, 0.00000000000000000000e+00) (0, 0, 0.00000000000000000000e+00) (0, 0, 0.00000000000000000000e+00) (0, 0, 0.00000000000000000000e+00) (0, 0, 0.00000000000000000000e+00) (0, 0, 0.00000000000000000000e+00) (0, 0, 0.00000000000000000000e+00) (0, 0, 0.00000000000000000000e+00) (0, 0, 0.00000000000000000000e+00) (0, 0, 0.00000000000000000000e+00) (0, 0, 0.00000000000000000000e+00) (0, 0, 0.00000000000000000000e+00) (0, 0, 0.00000000000000000000e+00) (0, 0, 0.00000000000000000000e+00) (0, 0, 0.00000000000000000000e+00) (0, 0, 0.00000000000000000000e+00) (0, 0, 0.00000000000000000000e+00) (0, 0, 0.00000000000000000000e+00) (0, 0, 0.00000000000000000000e+00) (0, 0, 0.00000000000000000000e+00) (0, 0, 0.00000000000000000000e+00) (0, 0, 0.00000000000000000000e+00) (0, 0, 0.00000000000000000000e+00) (0, 0, 0.00000000000000000000e+00) (0, 0, 0.00000000000000000000e+00) (0, 0, 0.00000000000000000000e+00) (0, 0, 0.00000000000000000000e+00) (0, 0, 0.00000000000000000000e+00) (0, 0, 0.00000000000000000000e+00) (0, 0, 0.00000000000000000000e+00) (0, 0, 0.00000000000000000000e+00) (0, 0, 0.00000000000000000000e+00) (0, 0, 0.00000000000000000000e+00) (0, 0, 0.00000000000000000000e+00) (0, 0, 0.00000000000000000000e+00) (0, 0, 0.00000000000000000000e+00) (0, 0, 0.00000000000000000000e+00) (0, 0, 0.00000000000000000000e+00) (0, 0, 0.00000000000000000000e+00) (0, 0, 0.00000000000000000000e+00) (0, 0, 0.00000000000000000000e+00) (0, 0, 0.00000000000000000000e+00) (0, 0, 0.00000000000000000000e+00) (0, 0, 0.00000000000000000000e+00) (0, 0, 0.00000000000000000000e+00) (0, 0, 0.00000000000000000000e+00) (0, 0, 0.00000000000000000000e+00) (0, 0, 0.00000000000000000000e+00) (0, 0, 0.00000000000000000000e+00) (0, 0, 0.00000000000000000000e+00) (0, 0, 0.00000000000000000000e+00) (0, 0, 0.00000000000000000000e+00) (0, 0, 0.00000000000000000000e+00) (0, 0, 0.00000000000000000000e+00) (0, 0, 0.00000000000000000000e+00) (0, 0, 0.00000000000000000000e+00) (0, 0, 0.00000000000000000000e+00) (0, 0, 0.00000000000000000000e+00) (0, 0, 0.00000000000000000000e+00) (0, 0, 0.00000000000000000000e+00) (0, 0, 0.00000000000000000000e+00) (0, 0, 0.00000000000000000000e+00) (0, 0, 0.00000000000000000000e+00) (0, 0, 0.00000000000000000000e+00) (0, 0, 0.00000000000000000000e+00) (0, 0, 0.00000000000000000000e+00) (0, 0, 0.00000000000000000000e+00) (0, 0, 0.00000000000000000000e+00) (0, 0, 0.00000000000000000000e+00) (0, 0, 0.00000000000000000000e+00) (0, 0, 0.00000000000000000000e+00) (0, 0, 0.00000000000000000000e+00) (0, 0, 0.00000000000000000000e+00) (0, 0, 0.00000000000000000000e+00) (0, 0, 0.00000000000000000000e+00) (0, 0, 0.00000000000000000000e+00) (0, 0, 0.00000000000000000000e+00) (0, 0, 0.00000000000000000000e+00) (0, 0, 0.00000000000000000000e+00) (0, 0, 0.00000000000000000000e+00) (0, 0, 0.00000000000000000000e+00) (0, 0, 0.00000000000000000000e+00) (0, 0, 0.00000000000000000000e+00) (0, 0, 0.00000000000000000000e+00) (0, 0, 0.00000000000000000000e+00) (0, 0, 0.00000000000000000000e+00) (0, 0, 0.00000000000000000000e+00) (0, 0, 0.00000000000000000000e+00) (0, 0, 0.00000000000000000000e+00) (0, 0, 0.00000000000000000000e+00) (0, 0, 0.00000000000000000000e+00) (0, 0, 0.00000000000000000000e+00) (0, 0, 0.00000000000000000000e+00) (0, 0, 0.00000000000000000000e+00) (0, 0, 0.00000000000000000000e+00) (0, 0, 0.00000000000000000000e+00) (0, 0, 0.00000000000000000000e+00) (0, 0, 0.00000000000000000000e+00) (0, 0, 0.00000000000000000000e+00) (0, 0, 0.00000000000000000000e+00) (0, 0, 0.00000000000000000000e+00) (0, 0, 0.00000000000000000000e+00) (0, 0, 0.00000000000000000000e+00) (0, 0, 0.00000000000000000000e+00) (0, 0, 0.00000000000000000000e+00) (0, 0, 0.00000000000000000000e+00) (0, 0, 0.00000000000000000000e+00) (0, 0, 0.00000000000000000000e+00) (0, 0, 0.00000000000000000000e+00) (0, 0, 0.00000000000000000000e+00) (0, 0, 0.00000000000000000000e+00) (0, 0, 0.00000000000000000000e+00) (0, 0, 0.00000000000000000000e+00) (0, 0, 0.00000000000000000000e+00) (0, 0, 0.00000000000000000000e+00) (0, 0, 0.00000000000000000000e+00) (0, 0, 0.00000000000000000000e+00) (0, 0, 0.00000000000000000000e+00) (0, 0, 0.00000000000000000000e+00) (0, 0, 0.00000000000000000000e+00) (0, 0, 0.00000000000000000000e+00) (0, 0, 0.00000000000000000000e+00) (0, 0, 0.00000000000000000000e+00) (0, 0, 0.00000000000000000000e+00) (0, 0, 0.00000000000000000000e+00) (0, 0, 0.00000000000000000000e+00) (0, 0, 0.00000000000000000000e+00) (0, 0, 0.00000000000000000000e+00) (0, 0, 0.00000000000000000000e+00) (0, 0, 0.00000000000000000000e+00) (0, 0, 0.00000000000000000000e+00) (0, 0, 0.00000000000000000000e+00) (0, 0, 0.00000000000000000000e+00) (0, 0, 0.00000000000000000000e+00) (0, 0, 0.00000000000000000000e+00) (0, 0, 0.00000000000000000000e+00) (0, 0, 0.00000000000000000000e+00) (0, 0, 0.00000000000000000000e+00) (0, 0, 0.00000000000000000000e+00) (0, 0, 0.00000000000000000000e+00) (0, 0, 0.00000000000000000000e+00) (0, 0, 0.00000000000000000000e+00) (0, 0, 0.00000000000000000000e+00) (0, 0, 0.00000000000000000000e+00) (0, 0, 0.00000000000000000000e+00) (0, 0, 0.00000000000000000000e+00) (0, 0, 0.00000000000000000000e+00) (0, 0, 0.00000000000000000000e+00) (0, 0, 0.00000000000000000000e+00) (0, 0, 0.00000000000000000000e+00) (0, 0, 0.00000000000000000000e+00) (0, 0, 0.00000000000000000000e+00) (0, 0, 0.00000000000000000000e+00) (0, 0, 0.00000000000000000000e+00) (0, 0, 0.00000000000000000000e+00) (0, 0, 0.00000000000000000000e+00) (0, 0, 0.00000000000000000000e+00) (0, 0, 0.00000000000000000000e+00) (0, 0, 0.00000000000000000000e+00) (0, 0, 0.00000000000000000000e+00) (0, 0, 0.00000000000000000000e+00) (0, 0, 0.00000000000000000000e+00) (0, 0, 0.00000000000000000000e+00) (0, 0, 0.00000000000000000000e+00) (0, 0, 0.00000000000000000000e+00) (0, 0, 0.00000000000000000000e+00) (0, 0, 0.00000000000000000000e+00) (0, 0, 0.00000000000000000000e+00) (0, 0, 0.00000000000000000000e+00) (0, 0, 0.00000000000000000000e+00) (0, 0, 0.00000000000000000000e+00) (0, 0, 0.00000000000000000000e+00) (0, 0, 0.00000000000000000000e+00) (0, 0, 0.00000000000000000000e+00) (0, 0, 0.00000000000000000000e+00) (0, 0, 0.00000000000000000000e+00) (0, 0, 0.00000000000000000000e+00) (0, 0, 0.00000000000000000000e+00) (0, 0, 0.00000000000000000000e+00) (0, 0, 0.00000000000000000000e+00) (0, 0, 0.00000000000000000000e+00) (0, 0, 0.00000000000000000000e+00) (0, 0, 0.00000000000000000000e+00) (0, 0, 0.00000000000000000000e+00) (0, 0, 0.00000000000000000000e+00) (0, 0, 0.00000000000000000000e+00) (0, 0, 0.00000000000000000000e+00) (0, 0, 0.00000000000000000000e+00) (0, 0, 0.00000000000000000000e+00) (0, 0, 0.00000000000000000000e+00) (0, 0, 0.00000000000000000000e+00) (0, 0, 0.00000000000000000000e+00) (0, 0, 0.00000000000000000000e+00) (0, 0, 0.00000000000000000000e+00) (0, 0, 0.00000000000000000000e+00) (0, 0, 0.00000000000000000000e+00) (0, 0, 0.00000000000000000000e+00) (0, 0, 0.00000000000000000000e+00) (0, 0, 0.00000000000000000000e+00) (0, 0, 0.00000000000000000000e+00) (0, 0, 0.00000000000000000000e+00) (0, 0, 0.00000000000000000000e+00) (0, 0, 0.00000000000000000000e+00) (0, 0, 0.00000000000000000000e+00) (0, 0, 0.00000000000000000000e+00) (0, 0, 0.00000000000000000000e+00) (0, 0, 0.00000000000000000000e+00) (0, 0, 0.00000000000000000000e+00) (0, 0, 0.00000000000000000000e+00) (0, 0, 0.00000000000000000000e+00) (0, 0, 0.00000000000000000000e+00) (0, 0, 0.00000000000000000000e+00) (0, 0, 0.00000000000000000000e+00) (0, 0, 0.00000000000000000000e+00) (0, 0, 0.00000000000000000000e+00) (0, 0, 0.00000000000000000000e+00) (0, 0, 0.00000000000000000000e+00) (0, 0, 0.00000000000000000000e+00) (0, 0, 0.00000000000000000000e+00) (0, 0, 0.00000000000000000000e+00) (0, 0, 0.00000000000000000000e+00) (0, 0, 0.00000000000000000000e+00) (0, 0, 0.00000000000000000000e+00) (0, 0, 0.00000000000000000000e+00) (0, 0, 0.00000000000000000000e+00) (0, 0, 0.00000000000000000000e+00) (0, 0, 0.00000000000000000000e+00) (0, 0, 0.00000000000000000000e+00) (0, 0, 0.00000000000000000000e+00) (0, 0, 0.00000000000000000000e+00) (0, 0, 0.00000000000000000000e+00) (0, 0, 0.00000000000000000000e+00) (0, 0, 0.00000000000000000000e+00) (0, 0, 0.00000000000000000000e+00) (0, 0, 0.00000000000000000000e+00) (0, 0, 0.00000000000000000000e+00) (0, 0, 0.00000000000000000000e+00) (0, 0, 0.00000000000000000000e+00) (0, 0, 0.00000000000000000000e+00) (0, 0, 0.00000000000000000000e+00) (0, 0, 0.00000000000000000000e+00) (0, 0, 0.00000000000000000000e+00) (0, 0, 0.00000000000000000000e+00) (0, 0, 0.00000000000000000000e+00) (0, 0, 0.00000000000000000000e+00) (0, 0, 0.00000000000000000000e+00) (0, 0, 0.00000000000000000000e+00) (0, 0, 0.00000000000000000000e+00) (0, 0, 0.00000000000000000000e+00) (0, 0, 0.00000000000000000000e+00) (0, 0, 0.00000000000000000000e+00) (0, 0, 0.00000000000000000000e+00) (0, 0, 0.00000000000000000000e+00) (0, 0, 0.00000000000000000000e+00) (0, 0, 0.00000000000000000000e+00) (0, 0, 0.00000000000000000000e+00) (0, 0, 0.00000000000000000000e+00) (0, 0, 0.00000000000000000000e+00) (0, 0, 0.00000000000000000000e+00) (0, 0, 0.00000000000000000000e+00) (0, 0, 0.00000000000000000000e+00) (0, 0, 0.00000000000000000000e+00) (0, 0, 0.00000000000000000000e+00) (0, 0, 0.00000000000000000000e+00) (0, 0, 0.00000000000000000000e+00) (0, 0, 0.00000000000000000000e+00) (0, 0, 0.00000000000000000000e+00) (0, 0, 0.00000000000000000000e+00) (0, 0, 0.00000000000000000000e+00) (0, 0, 0.00000000000000000000e+00) (0, 0, 0.00000000000000000000e+00) (0, 0, 0.00000000000000000000e+00) (0, 0, 0.00000000000000000000e+00) (0, 0, 0.00000000000000000000e+00) (0, 0, 0.00000000000000000000e+00) (0, 0, 0.00000000000000000000e+00) (0, 0, 0.00000000000000000000e+00) (0, 0, 0.00000000000000000000e+00) (0, 0, 0.00000000000000000000e+00) (0, 0, 0.00000000000000000000e+00) (0, 0, 0.00000000000000000000e+00) (0, 0, 0.00000000000000000000e+00) (0, 0, 0.00000000000000000000e+00) (0, 0, 0.00000000000000000000e+00) (0, 0, 0.00000000000000000000e+00) (0, 0, 0.00000000000000000000e+00) (0, 0, 0.00000000000000000000e+00) (0, 0, 0.00000000000000000000e+00) (0, 0, 0.00000000000000000000e+00) (0, 0, 0.00000000000000000000e+00) (0, 0, 0.00000000000000000000e+00) (0, 0, 0.00000000000000000000e+00) (0, 0, 0.00000000000000000000e+00) (0, 0, 0.00000000000000000000e+00) (0, 0, 0.00000000000000000000e+00) (0, 0, 0.00000000000000000000e+00) (341, 4, 5.00000000000000000000e-01) (341, 4, 5.00000000000000000000e-01) (341, 4, 5.00000000000000000000e-01) (341, 4, 5.00000000000000000000e-01) (341, 4, 5.00000000000000000000e-01) (0, 0, 0.00000000000000000000e+00) (6, 4, 5.00000000000000000000e-01) (6, 4, 5.00000000000000000000e-01) (6, 4, 5.00000000000000000000e-01) (6, 4, 5.00000000000000000000e-01) (0, 0, 0.00000000000000000000e+00) 
connections (connected_to_neuron, weight)=(0, -9.51442909240722656250e+00) (1, -3.94301724433898925781e+00) (2, 5.54347610473632812500e+00) (3, 1.26212291717529296875e+01) (4, 2.87398123741149902344e+00) (5, -1.73030662536621093750e+00) (6, 1.05649595260620117188e+01) (7, -5.86901950836181640625e+00) (8, -2.55001125335693359375e+01) (9, -2.96608114242553710938e+00) (10, 3.80491161346435546875e+00) (11, 4.20773029327392578125e+00) (12, 2.35929894447326660156e+00) (13, 4.00449752807617187500e+00) (14, 1.05409603118896484375e+01) (15, -1.50288724899291992188e+00) (16, -2.49299583435058593750e+01) (17, 3.31057281494140625000e+01) (18, 8.89393234252929687500e+00) (19, 6.75309610366821289062e+00) (20, -4.49877691268920898438e+00) (21, -1.88260154724121093750e+01) (22, 1.77619209289550781250e+01) (23, 2.45168514251708984375e+01) (24, -5.19690418243408203125e+00) (25, 1.04697504043579101562e+01) (26, 7.12088871002197265625e+00) (27, 1.90382754802703857422e+00) (28, -1.42408266067504882812e+01) (29, -7.03018963336944580078e-01) (30, 2.86497926712036132812e+00) (31, -1.91797428131103515625e+01) (32, -1.09708900451660156250e+01) (33, 7.46429109573364257812e+00) (34, 1.82949371337890625000e+01) (35, 1.52597246170043945312e+01) (36, -1.95642452239990234375e+01) (37, 7.53774785995483398438e+00) (38, 1.51609811782836914062e+01) (39, -1.04026803970336914062e+01) (40, -6.95847702026367187500e+00) (41, -1.43890075683593750000e+01) (42, -5.61993646621704101562e+00) (43, 1.96493244171142578125e+01) (44, 1.15338983535766601562e+01) (45, 1.33436691761016845703e+00) (46, -1.34106197357177734375e+01) (47, 1.14673509597778320312e+01) (48, 2.08886394500732421875e+01) (49, -1.30125064849853515625e+01) (50, -1.21705179214477539062e+01) (51, -2.97515678405761718750e+01) (52, -5.16063165664672851562e+00) (53, 1.48523302078247070312e+01) (54, 2.04409427642822265625e+01) (55, 9.33747196197509765625e+00) (56, -4.25585651397705078125e+00) (57, -6.36361265182495117188e+00) (58, 9.07769775390625000000e+00) (59, 8.30797863006591796875e+00) (60, -2.78066825866699218750e+00) (61, -2.04823856353759765625e+01) (62, -3.47715616226196289062e-01) (63, 1.18326435089111328125e+01) (64, 6.05392026901245117188e+00) (65, 1.95499134063720703125e+01) (66, -1.40502271652221679688e+01) (67, 1.22521390914916992188e+01) (68, 2.11439399719238281250e+01) (69, 4.87147521972656250000e+00) (70, -5.79707956314086914062e+00) (71, -5.02754640579223632812e+00) (72, -5.70159864425659179688e+00) (73, 2.05670142173767089844e+00) (74, 1.90824241638183593750e+01) (75, 1.02059831619262695312e+01) (76, -8.62607479095458984375e+00) (77, -1.18306674957275390625e+01) (78, -1.45239763259887695312e+01) (79, -1.11094152927398681641e+00) (80, -1.38628041744232177734e+00) (81, -1.71854610443115234375e+01) (82, -1.02747468948364257812e+01) (83, 1.25867605209350585938e+01) (84, 4.67597675323486328125e+00) (85, 6.07533693313598632812e+00) (86, -7.12679576873779296875e+00) (87, 1.23424739837646484375e+01) (88, 1.06186523437500000000e+01) (89, -5.41868829727172851562e+00) (90, 1.00208139419555664062e+01) (91, -1.57437171936035156250e+01) (92, -1.43381471633911132812e+01) (93, 9.22069931030273437500e+00) (94, 1.98866710662841796875e+01) (95, 1.92684707641601562500e+01) (96, -3.32144522666931152344e+00) (97, -2.45487136840820312500e+01) (98, 5.35782003402709960938e+00) (99, 8.66666793823242187500e+00) (100, 6.83031368255615234375e+00) (101, -1.30430202484130859375e+01) (102, -9.96854209899902343750e+00) (103, -1.47970342636108398438e+00) (104, 1.43901834487915039062e+01) (105, -2.12792730331420898438e+00) (106, -1.32089967727661132812e+01) (107, 1.11355237960815429688e+01) (108, 5.64685726165771484375e+00) (109, 6.71122312545776367188e+00) (110, 1.31620616912841796875e+01) (111, -5.92731428146362304688e+00) (112, -8.60161685943603515625e+00) (113, -6.25815343856811523438e+00) (114, -9.99227714538574218750e+00) (115, -5.17668533325195312500e+00) (116, -1.42417085170745849609e+00) (117, 1.16221189498901367188e+01) (118, -3.82943272590637207031e+00) (119, 1.18736839294433593750e+01) (120, -3.03091168403625488281e+00) (121, -1.63160858154296875000e+01) (122, -1.57499923706054687500e+01) (123, -9.79748249053955078125e+00) (124, 2.87213191986083984375e+01) (125, -2.04682803153991699219e+00) (126, -1.24861373901367187500e+01) (127, 1.92373886108398437500e+01) (128, 8.32895660400390625000e+00) (129, 1.35381202697753906250e+01) (130, 2.30204982757568359375e+01) (131, -3.84120440483093261719e+00) (132, -1.85672893524169921875e+01) (133, -1.56243343353271484375e+01) (134, -3.55328102111816406250e+01) (135, -6.17409133911132812500e+00) (136, 2.41617374420166015625e+01) (137, 1.91866035461425781250e+01) (138, 8.93179702758789062500e+00) (139, -7.58378362655639648438e+00) (140, 3.56156110763549804688e+00) (141, -1.63835468292236328125e+01) (142, -1.65514640808105468750e+01) (143, -8.39493179321289062500e+00) (144, 1.97727470397949218750e+01) (145, -1.23912916183471679688e+01) (146, -2.50056152343750000000e+01) (147, 4.36635446548461914062e+00) (148, 6.34780550003051757812e+00) (149, 1.50525035858154296875e+01) (150, 2.59648208618164062500e+01) (151, -1.57590589523315429688e+01) (152, -7.70318746566772460938e+00) (153, -1.73872470855712890625e+01) (154, -2.51615219116210937500e+01) (155, 9.19312858581542968750e+00) (156, 7.07102441787719726562e+00) (157, 1.34464788436889648438e+01) (158, 2.37555446624755859375e+01) (159, 7.06335687637329101562e+00) (160, 3.82569265365600585938e+00) (161, -1.89508991241455078125e+01) (162, -1.19964241981506347656e+00) (163, -1.85234966278076171875e+01) (164, 2.81155567169189453125e+01) (165, -3.44884567260742187500e+01) (166, -1.42526221275329589844e+00) (167, -8.39584541320800781250e+00) (168, 1.84142894744873046875e+01) (169, 1.81744060516357421875e+01) (170, 7.89514398574829101562e+00) (171, -2.07735881805419921875e+01) (172, -5.09947061538696289062e+00) (173, -1.01401062011718750000e+01) (174, -1.32268476486206054688e+01) (175, 9.80510139465332031250e+00) (176, -2.00354919433593750000e+01) (177, 2.05394630432128906250e+01) (178, 5.93159532546997070312e+00) (179, 6.76315402984619140625e+00) (180, -9.07043552398681640625e+00) (181, -7.27040481567382812500e+00) (182, -1.91124191284179687500e+01) (183, -6.91477537155151367188e+00) (184, 2.74924678802490234375e+01) (185, -2.47583370208740234375e+01) (186, 8.42726039886474609375e+00) (187, -8.43082427978515625000e+00) (188, 2.38493652343750000000e+01) (189, 2.39826507568359375000e+01) (190, 1.36924057006835937500e+01) (191, -8.15415859222412109375e+00) (192, -1.65688800811767578125e+01) (193, -7.33662509918212890625e+00) (194, -2.23806972503662109375e+01) (195, 2.06793899536132812500e+01) (196, -5.92867660522460937500e+00) (197, 9.01065063476562500000e+00) (198, -1.38128185272216796875e+01) (199, 5.40873956680297851562e+00) (200, -1.58472986221313476562e+01) (201, -6.43610191345214843750e+00) (202, -2.34064025878906250000e+01) (203, -5.55900621414184570312e+00) (204, 3.45970320701599121094e+00) (205, -1.90244407653808593750e+01) (206, -5.69916069507598876953e-01) (207, -5.64101839065551757812e+00) (208, 6.79406929016113281250e+00) (209, 3.06279468536376953125e+01) (210, -1.11191892623901367188e+01) (211, -1.47286319732666015625e+01) (212, -4.25192308425903320312e+00) (213, 2.23066368103027343750e+01) (214, 2.10400314331054687500e+01) (215, 1.16874809265136718750e+01) (216, -1.45718679428100585938e+01) (217, 1.77560386657714843750e+01) (218, -1.77458305358886718750e+01) (219, 3.82790827751159667969e+00) (220, -1.10366706848144531250e+01) (221, -1.53336830139160156250e+01) (222, 2.92526054382324218750e+00) (223, 2.96261239051818847656e+00) (224, 1.25079221725463867188e+01) (225, 5.62016248703002929688e+00) (226, -2.10925292968750000000e+00) (227, 6.09560346603393554688e+00) (228, 1.58497962951660156250e+01) (229, 1.17637491226196289062e+01) (230, -2.13279266357421875000e+01) (231, -3.13995933532714843750e+01) (232, -1.43239965438842773438e+01) (233, -4.96249055862426757812e+00) (234, 5.78708171844482421875e+00) (235, 3.34415006637573242188e+00) (236, -2.15049343109130859375e+01) (237, 1.20761880874633789062e+01) (238, -2.10970153808593750000e+01) (239, -5.47381162643432617188e-01) (240, 2.75452113151550292969e+00) (241, -2.07293872833251953125e+01) (242, 5.30658912658691406250e+00) (243, 5.37733888626098632812e+00) (244, -1.35738687515258789062e+01) (245, 8.45070457458496093750e+00) (246, -8.30656147003173828125e+00) (247, 1.29600229263305664062e+01) (248, -4.00426673889160156250e+00) (249, -1.56405000686645507812e+01) (250, -8.01146507263183593750e+00) (251, -1.19053621292114257812e+01) (252, -1.63884468078613281250e+01) (253, 3.55787611007690429688e+00) (254, 1.16906909942626953125e+01) (255, -1.15023183822631835938e+01) (256, -1.62545166015625000000e+01) (257, 1.02877006530761718750e+01) (258, -1.49547328948974609375e+01) (259, -3.58937811851501464844e+00) (260, 5.76195144653320312500e+00) (261, -2.18082561492919921875e+01) (262, 8.39006614685058593750e+00) (263, 1.41594009399414062500e+01) (264, -2.00994091033935546875e+01) (265, -1.14333877563476562500e+01) (266, 1.61189022064208984375e+01) (267, 1.54809446334838867188e+01) (268, -1.50872459411621093750e+01) (269, -1.51709489822387695312e+01) (270, -3.36642189025878906250e+01) (271, -1.21336669921875000000e+01) (272, -1.50356378555297851562e+01) (273, -8.19539928436279296875e+00) (274, 7.02492856979370117188e+00) (275, 4.80299425125122070312e+00) (276, 1.24989891052246093750e+01) (277, -1.34389286041259765625e+01) (278, -1.91356983184814453125e+01) (279, 7.93680763244628906250e+00) (280, -8.64422321319580078125e+00) (281, -3.89336872100830078125e+00) (282, 6.87905073165893554688e+00) (283, 2.97198444604873657227e-01) (284, -3.07744865417480468750e+01) (285, -4.58149814605712890625e+00) (286, -5.96391439437866210938e+00) (287, 1.74483394622802734375e+01) (288, -7.63910150527954101562e+00) (289, -3.63410758972167968750e+01) (290, -1.68182563781738281250e+01) (291, -9.18613910675048828125e+00) (292, -2.71587818861007690430e-01) (293, 1.08172807693481445312e+01) (294, 2.04873199462890625000e+01) (295, 6.78687334060668945312e+00) (296, 7.28000020980834960938e+00) (297, -2.88504428863525390625e+01) (298, -9.85693836212158203125e+00) (299, 2.17554855346679687500e+00) (300, -1.79108448028564453125e+01) (301, -7.65091085433959960938e+00) (302, 3.21113824844360351562e+00) (303, -2.33156051635742187500e+01) (304, -6.21464967727661132812e+00) (305, 2.02570128440856933594e+00) (306, -2.02345008850097656250e+01) (307, -8.30627822875976562500e+00) (308, -2.25007057189941406250e+01) (309, -2.81612854003906250000e+01) (310, -1.57413902282714843750e+01) (311, 1.84620642662048339844e+00) (312, 8.75617599487304687500e+00) (313, 2.60263109207153320312e+00) (314, 1.60085258483886718750e+01) (315, 1.62201938629150390625e+01) (316, 2.56957702636718750000e+01) (317, -2.14076118469238281250e+01) (318, 1.46133928298950195312e+01) (319, -1.13879318237304687500e+01) (320, -1.68015956878662109375e+01) (321, 3.58719611167907714844e+00) (322, 1.79203987121582031250e+01) (323, 1.47239005565643310547e+00) (324, -3.27127647399902343750e+00) (325, 2.48155331611633300781e+00) (326, -3.15500392913818359375e+01) (327, -9.11219596862792968750e+00) (328, -8.05946171283721923828e-01) (329, -2.23404674530029296875e+01) (330, -2.40031642913818359375e+01) (331, 1.25461387634277343750e+01) (332, -2.20855674743652343750e+01) (333, 2.82378077507019042969e+00) (334, 4.23666723072528839111e-02) (335, 8.34821605682373046875e+00) (336, 1.30933389663696289062e+01) (337, -1.58304376602172851562e+01) (338, 9.02882480621337890625e+00) (339, -8.97924709320068359375e+00) (340, -3.23680572509765625000e+01) (0, 7.94129371643066406250e+00) (1, -2.58032351732254028320e-01) (2, 1.07274293899536132812e+01) (3, -8.43513393402099609375e+00) (4, -4.82205629348754882812e+00) (5, 1.06252517700195312500e+01) (6, -7.69305849075317382812e+00) (7, 3.50372982025146484375e+00) (8, 1.97847306728363037109e+00) (9, 1.47164058685302734375e+01) (10, -4.39682865142822265625e+00) (11, -9.85390186309814453125e+00) (12, 9.75569152832031250000e+00) (13, -3.80231046676635742188e+00) (14, 2.68747258186340332031e+00) (15, -1.37168626785278320312e+01) (16, 3.07823133468627929688e+00) (17, 3.12391996383666992188e+00) (18, -6.39586114883422851562e+00) (19, 4.98048353195190429688e+00) (20, 6.59092664718627929688e-01) (21, -1.24206948280334472656e+00) (22, 9.78090572357177734375e+00) (23, 1.34347367286682128906e+00) (24, 3.75962495803833007812e+00) (25, -1.68175005912780761719e+00) (26, -1.01399955749511718750e+01) (27, 4.65107059478759765625e+00) (28, -1.47957921028137207031e-01) (29, 2.30865535736083984375e+01) (30, -1.05969657897949218750e+01) (31, -7.61854124069213867188e+00) (32, 5.87657165527343750000e+00) (33, 5.49579906463623046875e+00) (34, -3.63171172142028808594e+00) (35, -1.49754276275634765625e+01) (36, 1.03601324558258056641e+00) (37, 1.83272666931152343750e+01) (38, -1.63260841369628906250e+01) (39, 1.54738926887512207031e+00) (40, 2.66938495635986328125e+00) (41, -9.22287368774414062500e+00) (42, 3.25323104858398437500e+00) (43, -1.36524238586425781250e+01) (44, 1.26776885986328125000e+01) (45, 3.30771970748901367188e+00) (46, 2.11239767074584960938e+00) (47, -1.54150044918060302734e+00) (48, -2.30304166674613952637e-01) (49, 2.23110637664794921875e+01) (50, -7.88034105300903320312e+00) (51, 3.31966376304626464844e+00) (52, 4.35924053192138671875e+00) (53, -6.92896986007690429688e+00) (54, 8.32068562507629394531e-01) (55, -7.44316959381103515625e+00) (56, 8.44846153259277343750e+00) (57, 1.16135711669921875000e+01) (58, -1.83784542083740234375e+01) (59, 4.74749612808227539062e+00) (60, -6.92581701278686523438e+00) (61, 4.61613130569458007812e+00) (62, 6.10192728042602539062e+00) (63, -1.00511341094970703125e+01) (64, 7.36506938934326171875e-01) (65, -5.08645772933959960938e+00) (66, -3.65968489646911621094e+00) (67, -8.14166128635406494141e-01) (68, 1.07097654342651367188e+01) (69, 3.57264256477355957031e+00) (70, -7.46906232833862304688e+00) (71, -7.21890449523925781250e+00) (72, 4.79928159713745117188e+00) (73, 3.15397834777832031250e+00) (74, 1.16212403774261474609e+00) (75, 2.16902899742126464844e+00) (76, 3.51542806625366210938e+00) (77, 2.28791942596435546875e+01) (78, -2.04743838310241699219e+00) (79, -3.44665622711181640625e+00) (80, -5.14308452606201171875e+00) (81, 1.12098274230957031250e+01) (82, 1.29361829757690429688e+01) (83, 4.76406723260879516602e-01) (84, -1.33494577407836914062e+01) (85, 5.59222888946533203125e+00) (86, 4.12816286087036132812e+00) (87, -2.03150972723960876465e-01) (88, 9.51874351501464843750e+00) (89, -6.56620800495147705078e-01) (90, -2.41421556472778320312e+00) (91, 4.06887006759643554688e+00) (92, 5.57438516616821289062e+00) (93, -3.08262324333190917969e+00) (94, -3.68296933174133300781e+00) (95, 9.83824348449707031250e+00) (96, -6.06514167785644531250e+00) (97, 4.35038518905639648438e+00) (98, -7.82283163070678710938e+00) (99, -7.99770212173461914062e+00) (100, 1.52200376987457275391e+00) (101, 1.58632593154907226562e+01) (102, 2.56071519851684570312e+00) (103, 1.37332999706268310547e+00) (104, -7.88310384750366210938e+00) (105, 1.57183218002319335938e+00) (106, 6.42083454132080078125e+00) (107, -2.40814628601074218750e+01) (108, -2.56134152412414550781e+00) (109, -1.14084033966064453125e+01) (110, -1.13542878627777099609e+00) (111, 5.98116064071655273438e+00) (112, -1.66631901264190673828e+00) (113, 3.82087230682373046875e+00) (114, -7.51243829727172851562e+00) (115, 5.40551543235778808594e-01) (116, 7.61411380767822265625e+00) (117, 1.51083230972290039062e+01) (118, 1.13036155700683593750e+01) (119, -4.05011606216430664062e+00) (120, 1.33642311096191406250e+01) (121, 9.61872863769531250000e+00) (122, 4.10355031490325927734e-01) (123, 6.46677589416503906250e+00) (124, -1.40495786666870117188e+01) (125, -6.05373525619506835938e+00) (126, -3.46644520759582519531e+00) (127, -9.46575522422790527344e-01) (128, 4.25147628784179687500e+00) (129, -1.87260894775390625000e+01) (130, -1.11569643020629882812e+01) (131, 1.90281486511230468750e+01) (132, -1.78167209625244140625e+01) (133, 6.56753587722778320312e+00) (134, 1.55503635406494140625e+01) (135, 4.78853464126586914062e+00) (136, 9.68265914916992187500e+00) (137, -1.07023267745971679688e+01) (138, -3.98012399673461914062e+00) (139, -3.88723754882812500000e+00) (140, 4.16050720214843750000e+00) (141, 1.80364441871643066406e+00) (142, -1.01282870769500732422e+00) (143, 5.96490240097045898438e+00) (144, -2.58835430145263671875e+01) (145, 2.39914112091064453125e+01) (146, -1.12569007873535156250e+01) (147, -6.44980287551879882812e+00) (148, 4.14337253570556640625e+00) (149, -1.10986242294311523438e+01) (150, -4.61755084991455078125e+00) (151, 6.10831975936889648438e+00) (152, -5.43307781219482421875e-01) (153, 1.12983760833740234375e+01) (154, 3.05964756011962890625e+00) (155, 4.22554636001586914062e+00) (156, 8.05210494995117187500e+00) (157, -2.08547477722167968750e+01) (158, 4.92674875259399414062e+00) (159, -4.67088031768798828125e+00) (160, 1.07041501998901367188e+01) (161, -2.30792045593261718750e+00) (162, -7.92211484909057617188e+00) (163, 1.18220067024230957031e+00) (164, -1.34466371536254882812e+01) (165, 1.48561229705810546875e+01) (166, 7.39014148712158203125e+00) (167, -1.71447811126708984375e+01) (168, -9.59193706512451171875e+00) (169, -1.21594524383544921875e+01) (170, 2.27072238922119140625e+00) (171, 5.05566692352294921875e+00) (172, -8.48451423645019531250e+00) (173, -1.51693496704101562500e+01) (174, 1.51649868488311767578e+00) (175, 1.09360332489013671875e+01) (176, 3.74688267707824707031e+00) (177, -2.05792236328125000000e+01) (178, 1.50340394973754882812e+01) (179, -4.47824239730834960938e+00) (180, 7.26777887344360351562e+00) (181, 1.35882244110107421875e+01) (182, -4.36871677637100219727e-01) (183, 1.31724119186401367188e+00) (184, -2.21569004058837890625e+01) (185, 8.47513580322265625000e+00) (186, 4.53088617324829101562e+00) (187, 9.97672021389007568359e-01) (188, 9.13334274291992187500e+00) (189, -1.17870197296142578125e+01) (190, -2.42407941818237304688e+00) (191, -1.51393127441406250000e+00) (192, 5.69348049163818359375e+00) (193, -1.41634998321533203125e+01) (194, -1.57897319793701171875e+01) (195, 6.80426311492919921875e+00) (196, 1.76337254047393798828e+00) (197, -5.61808013916015625000e+00) (198, -3.29022574424743652344e+00) (199, -1.22612266540527343750e+01) (200, 5.98131608963012695312e+00) (201, 9.92962169647216796875e+00) (202, -8.78310108184814453125e+00) (203, 9.00360286235809326172e-01) (204, -1.32622871398925781250e+01) (205, 9.02150535583496093750e+00) (206, 1.48472204208374023438e+01) (207, -3.92480111122131347656e+00) (208, 8.56711673736572265625e+00) (209, 1.21426916122436523438e+01) (210, 4.79575395584106445312e+00) (211, -1.92388319969177246094e+00) (212, -4.35774040222167968750e+00) (213, -1.04598731994628906250e+01) (214, -4.20994567871093750000e+00) (215, -9.47538089752197265625e+00) (216, -1.03886394500732421875e+01) (217, -1.27951154708862304688e+01) (218, 1.63079214096069335938e+00) (219, -9.41803646087646484375e+00) (220, 1.41666469573974609375e+01) (221, -5.84418058395385742188e-01) (222, 1.74601440429687500000e+01) (223, 6.46760654449462890625e+00) (224, 1.84792983531951904297e+00) (225, -5.97779989242553710938e-01) (226, -7.26442635059356689453e-02) (227, -7.14602327346801757812e+00) (228, -3.28998827934265136719e+00) (229, -1.01752571761608123779e-01) (230, 1.51760792732238769531e+00) (231, 6.26910638809204101562e+00) (232, -1.67332763671875000000e+01) (233, 9.55397033691406250000e+00) (234, -3.58822059631347656250e+00) (235, -1.31628632545471191406e+00) (236, 5.13316488265991210938e+00) (237, 8.32879734039306640625e+00) (238, 4.28089427947998046875e+00) (239, -1.29614467620849609375e+01) (240, 1.61858100891113281250e+01) (241, 9.26920795440673828125e+00) (242, -4.39987802505493164062e+00) (243, 1.01765470504760742188e+01) (244, -6.19238948822021484375e+00) (245, -2.69600272178649902344e+00) (246, -9.91492748260498046875e-01) (247, -7.77205801010131835938e+00) (248, 8.55635929107666015625e+00) (249, -2.21000385284423828125e+00) (250, -1.29272289276123046875e+01) (251, 1.04522418975830078125e+01) (252, 1.29858046770095825195e-01) (253, -2.92847919464111328125e+00) (254, 7.18643617630004882812e+00) (255, -5.11645507812500000000e+00) (256, 1.77092564105987548828e+00) (257, 1.07835407257080078125e+01) (258, 1.91704254150390625000e+01) (259, -1.11424624919891357422e-01) (260, 5.76905441284179687500e+00) (261, 4.56711959838867187500e+00) (262, 1.13030004501342773438e+01) (263, -1.46265196800231933594e+00) (264, -4.07498073577880859375e+00) (265, 4.90907382965087890625e+00) (266, -5.76020288467407226562e+00) (267, -6.80670738220214843750e+00) (268, -1.89735770225524902344e-01) (269, -6.73898744583129882812e+00) (270, -5.11667108535766601562e+00) (271, 2.81168127059936523438e+00) (272, 6.56702184677124023438e+00) (273, 8.34365558624267578125e+00) (274, 5.73242330551147460938e+00) (275, 7.94718027114868164062e+00) (276, -5.09767532348632812500e+00) (277, 7.16146898269653320312e+00) (278, 1.98297119140625000000e+01) (279, 1.49111366271972656250e+01) (280, 4.05090904235839843750e+00) (281, -9.50883197784423828125e+00) (282, 2.00664401054382324219e+00) (283, -3.65748786926269531250e+00) (284, 1.57364292144775390625e+01) (285, 5.76005506515502929688e+00) (286, 2.94684553146362304688e+00) (287, 6.60712718963623046875e-01) (288, -1.39997673034667968750e+01) (289, 9.84750151634216308594e-01) (290, 9.61465549468994140625e+00) (291, -3.82618856430053710938e+00) (292, -1.56206836700439453125e+01) (293, 6.39976859092712402344e-01) (294, 1.18197422027587890625e+01) (295, 7.25258922576904296875e+00) (296, 7.94731497764587402344e-01) (297, 5.92215240001678466797e-01) (298, 1.51733217239379882812e+01) (299, 1.16523027420043945312e+01) (300, -5.78867626190185546875e+00) (301, -3.02992773056030273438e+00) (302, -1.08439216613769531250e+01) (303, -1.15625877380371093750e+01) (304, 3.03349423408508300781e+00) (305, -1.18573350906372070312e+01) (306, -3.66677021980285644531e+00) (307, 1.28023004531860351562e+01) (308, -6.47657537460327148438e+00) (309, 8.77113819122314453125e+00) (310, 4.37240552902221679688e+00) (311, 5.39789724349975585938e+00) (312, -4.61774736642837524414e-01) (313, 1.08072125911712646484e+00) (314, 4.61642742156982421875e+00) (315, 5.02165699005126953125e+00) (316, 2.60914301872253417969e+00) (317, 2.17036223411560058594e+00) (318, 1.02514476776123046875e+01) (319, 1.48298120498657226562e+01) (320, -2.01915526390075683594e+00) (321, 4.84279841184616088867e-01) (322, -6.27258920669555664062e+00) (323, -5.71018409729003906250e+00) (324, 8.20516967773437500000e+00) (325, -5.69425344467163085938e+00) (326, 6.48457145690917968750e+00) (327, 9.18369579315185546875e+00) (328, 8.40391540527343750000e+00) (329, 5.12014913558959960938e+00) (330, 4.50586318969726562500e+00) (331, -1.16885328292846679688e+00) (332, 1.19623489379882812500e+01) (333, -4.20469713211059570312e+00) (334, -3.17326456308364868164e-01) (335, 1.59419298171997070312e-01) (336, 2.11648046970367431641e-01) (337, 4.47605800628662109375e+00) (338, -5.08133731782436370850e-02) (339, -6.85431385040283203125e+00) (340, -3.84279708862304687500e+01) (0, -4.25874233245849609375e+00) (1, 1.19934091567993164062e+01) (2, 1.26370506286621093750e+01) (3, 6.77080726623535156250e+00) (4, 1.37256860733032226562e+01) (5, -1.02476990222930908203e+00) (6, -2.50061058998107910156e+00) (7, 4.86640262603759765625e+00) (8, -2.35186958312988281250e+00) (9, 1.11847674846649169922e+00) (10, -2.29751777648925781250e+01) (11, 7.24140882492065429688e+00) (12, -1.81657714843750000000e+01) (13, 3.34902143478393554688e+00) (14, -1.17599070072174072266e-01) (15, -8.11974585056304931641e-01) (16, 2.04045557975769042969e+00) (17, -3.37156796455383300781e+00) (18, -9.67733764648437500000e+00) (19, -7.73117494583129882812e+00) (20, 2.59051918983459472656e+00) (21, -8.41279506683349609375e+00) (22, 7.88711190223693847656e-01) (23, 1.75101661682128906250e+01) (24, 9.69481563568115234375e+00) (25, -1.73341274261474609375e+01) (26, -1.53674526214599609375e+01) (27, 5.28836059570312500000e+00) (28, -1.63898983001708984375e+01) (29, -6.60659265518188476562e+00) (30, -2.04314112663269042969e+00) (31, 3.14828681945800781250e+00) (32, 8.19674682617187500000e+00) (33, -6.63965892791748046875e+00) (34, -2.16979675292968750000e+01) (35, 1.57111244201660156250e+01) (36, 9.19657611846923828125e+00) (37, 1.14728736877441406250e+01) (38, -3.90963625907897949219e+00) (39, -2.02305126190185546875e+00) (40, -9.75245571136474609375e+00) (41, 7.90865182876586914062e+00) (42, 2.93078923225402832031e+00) (43, 1.19057865142822265625e+01) (44, -1.07120637893676757812e+01) (45, -9.64594459533691406250e+00) (46, 3.25721383094787597656e-01) (47, -6.14971399307250976562e+00) (48, 1.41909885406494140625e+00) (49, -6.40780544281005859375e+00) (50, -6.74945712089538574219e-01) (51, 4.51408100128173828125e+00) (52, 1.78706398010253906250e+01) (53, -1.83885431289672851562e+00) (54, 2.03249301910400390625e+01) (55, -8.49058151245117187500e+00) (56, 6.22170925140380859375e-01) (57, 4.29075360298156738281e-01) (58, -1.78511142730712890625e+01) (59, -3.03281974792480468750e+00) (60, 1.47701110839843750000e+01) (61, 1.08603315353393554688e+01) (62, -4.44884121417999267578e-01) (63, -8.28060567378997802734e-01) (64, 1.33905482292175292969e+00) (65, -3.93478441238403320312e+00) (66, 1.42265141010284423828e+00) (67, -1.01875009536743164062e+01) (68, -4.35959959030151367188e+00) (69, 3.82747054100036621094e+00) (70, 1.17970275878906250000e+00) (71, 1.87119209766387939453e+00) (72, 1.01150298118591308594e+00) (73, 9.54136943817138671875e+00) (74, 2.11572818756103515625e+01) (75, -1.34708127975463867188e+01) (76, 4.35870790481567382812e+00) (77, -6.68784761428833007812e+00) (78, -2.92274169921875000000e+01) (79, -2.10743737220764160156e+00) (80, 2.12239665985107421875e+01) (81, 1.45016727447509765625e+01) (82, -6.29786825180053710938e+00) (83, -1.08547019958496093750e+01) (84, -8.40953350067138671875e+00) (85, 2.66228461265563964844e+00) (86, 7.56847524642944335938e+00) (87, 7.64826774597167968750e+00) (88, -1.47546310424804687500e+01) (89, -7.80045175552368164062e+00) (90, 9.34750270843505859375e+00) (91, 2.86799740791320800781e+00) (92, 1.13567018508911132812e+00) (93, -1.14192402362823486328e+00) (94, 7.71702194213867187500e+00) (95, 2.37218904495239257812e+00) (96, 6.05094313621520996094e-01) (97, 3.07069468498229980469e+00) (98, -1.13290414810180664062e+01) (99, -1.03435668945312500000e+01) (100, 6.87759733200073242188e+00) (101, 9.68627810478210449219e-01) (102, 9.78347587585449218750e+00) (103, -8.13990116119384765625e+00) (104, -4.66801404953002929688e+00) (105, 5.27543687820434570312e+00) (106, -5.29320538043975830078e-01) (107, -2.00981974601745605469e+00) (108, -1.38415374755859375000e+01) (109, 5.80485200881958007812e+00) (110, -3.26810002326965332031e+00) (111, 1.03766260147094726562e+01) (112, -8.20604443550109863281e-01) (113, -1.69335269927978515625e+00) (114, -4.75213384628295898438e+00) (115, 9.70622730255126953125e+00) (116, 2.06551265716552734375e+00) (117, 3.02080535888671875000e+00) (118, -2.09358501434326171875e+01) (119, -1.40089368820190429688e+00) (120, 6.44049286842346191406e-01) (121, 1.86285781860351562500e+00) (122, 4.07898902893066406250e-01) (123, -9.34436702728271484375e+00) (124, 1.07737755775451660156e+00) (125, 6.08317661285400390625e+00) (126, -1.60705261230468750000e+01) (127, -1.13078222274780273438e+01) (128, -9.77647113800048828125e+00) (129, 1.94318027496337890625e+01) (130, -1.34754967689514160156e+00) (131, 1.56636791229248046875e+01) (132, 3.54631280899047851562e+00) (133, -1.48365497589111328125e+01) (134, -7.34624338150024414062e+00) (135, -1.31750380992889404297e+00) (136, -1.10311689376831054688e+01) (137, 5.61917734146118164062e+00) (138, 2.08211116790771484375e+01) (139, -4.51004981994628906250e+00) (140, 7.40024566650390625000e+00) (141, -5.29796361923217773438e+00) (142, 9.85167884826660156250e+00) (143, -3.69775676727294921875e+00) (144, -2.74769043922424316406e+00) (145, 5.75836992263793945312e+00) (146, -6.91222906112670898438e+00) (147, -8.82698917388916015625e+00) (148, -2.88999390602111816406e+00) (149, -4.03276824951171875000e+00) (150, 1.24690351486206054688e+01) (151, 8.81246185302734375000e+00) (152, -1.65274410247802734375e+01) (153, -1.07200121879577636719e+00) (154, -4.80908060073852539062e+00) (155, -3.03534245491027832031e+00) (156, -1.53409900665283203125e+01) (157, 6.53750181198120117188e+00) (158, 3.64157366752624511719e+00) (159, -1.17172382771968841553e-01) (160, 1.72009544372558593750e+01) (161, 9.25820732116699218750e+00) (162, 4.63405084609985351562e+00) (163, -1.34942998886108398438e+01) (164, -1.27316007614135742188e+01) (165, -2.58733348846435546875e+01) (166, -1.83564448356628417969e+00) (167, -1.83508701324462890625e+01) (168, -2.24245681762695312500e+01) (169, 4.75829982757568359375e+00) (170, 9.31642436981201171875e+00) (171, -5.44966220855712890625e+00) (172, 1.55317382812500000000e+01) (173, 9.21123504638671875000e+00) (174, 1.27786207199096679688e+00) (175, -1.22898797988891601562e+01) (176, -7.51978206634521484375e+00) (177, 2.82688713073730468750e+00) (178, 1.25328445434570312500e+00) (179, -8.82214164733886718750e+00) (180, 1.19228973388671875000e+01) (181, 1.83466472625732421875e+01) (182, -5.06804275512695312500e+00) (183, -1.56152029037475585938e+01) (184, -8.56230640411376953125e+00) (185, -7.19610214233398437500e+00) (186, -8.41160011291503906250e+00) (187, -2.22004718780517578125e+01) (188, 5.76657712459564208984e-01) (189, 8.38949966430664062500e+00) (190, 1.78870468139648437500e+01) (191, 1.64551544189453125000e+01) (192, 7.77853775024414062500e+00) (193, -3.40506291389465332031e+00) (194, -1.08247709274291992188e+01) (195, 4.27804899215698242188e+00) (196, -2.39982414245605468750e+01) (197, -1.11506767272949218750e+01) (198, 1.08061590194702148438e+01) (199, -6.74834060668945312500e+00) (200, 1.08702030181884765625e+01) (201, 1.04481573104858398438e+01) (202, 7.76773500442504882812e+00) (203, 4.74284362792968750000e+00) (204, -1.14783620834350585938e+01) (205, 5.68388462066650390625e+00) (206, 2.44839406013488769531e+00) (207, -3.07515311241149902344e+00) (208, -1.08195667266845703125e+01) (209, -1.97209322452545166016e+00) (210, 1.35324058532714843750e+01) (211, 1.45310554504394531250e+01) (212, 1.22365531921386718750e+01) (213, -2.64247369766235351562e+00) (214, -1.87482585906982421875e+01) (215, -1.36902923583984375000e+01) (216, 8.89984703063964843750e+00) (217, -1.52293453216552734375e+01) (218, -1.38533754348754882812e+01) (219, 1.07540416717529296875e+00) (220, 1.50865542888641357422e+00) (221, 2.73123741149902343750e+01) (222, 3.91160321235656738281e+00) (223, -5.94552230834960937500e+00) (224, -4.26220750808715820312e+00) (225, 2.32260727882385253906e+00) (226, 9.70324516296386718750e+00) (227, -8.69478607177734375000e+00) (228, -1.26804008483886718750e+01) (229, -9.24011051654815673828e-01) (230, 1.98417968750000000000e+01) (231, 8.77849769592285156250e+00) (232, 1.33887596130371093750e+01) (233, 2.34917378425598144531e+00) (234, -1.71515808105468750000e+01) (235, -1.28999633789062500000e+01) (236, 8.10217761993408203125e+00) (237, -8.77204895019531250000e+00) (238, -5.57237386703491210938e-01) (239, 8.51436233520507812500e+00) (240, 3.29154551029205322266e-01) (241, -5.30000829696655273438e+00) (242, 1.26986074447631835938e+01) (243, 5.76952981948852539062e+00) (244, 4.22445392608642578125e+00) (245, 1.58616876602172851562e+01) (246, 8.54533195495605468750e+00) (247, 1.30335798263549804688e+01) (248, 1.21973829269409179688e+01) (249, -2.03234052658081054688e+00) (250, 2.44340686798095703125e+01) (251, 7.77912187576293945312e+00) (252, -3.68816351890563964844e+00) (253, -3.30552840232849121094e+00) (254, -3.47172474861145019531e+00) (255, -3.01426482200622558594e+00) (256, 1.15594930648803710938e+01) (257, -3.44548463821411132812e+00) (258, -1.98478412628173828125e+01) (259, -7.40394020080566406250e+00) (260, -1.18100118637084960938e+00) (261, 9.95676422119140625000e+00) (262, 3.77899432182312011719e+00) (263, 3.59238505363464355469e+00) (264, -1.19674587249755859375e+01) (265, 1.18989477157592773438e+01) (266, 1.09487953186035156250e+01) (267, 6.96971178054809570312e-01) (268, 7.91373157501220703125e+00) (269, 6.37424230575561523438e+00) (270, 3.07250003814697265625e+01) (271, 1.19342241287231445312e+01) (272, 7.22109222412109375000e+00) (273, -1.30334544181823730469e+00) (274, -1.63837757110595703125e+01) (275, -2.13539714813232421875e+01) (276, 1.33548460006713867188e+01) (277, 2.20060882568359375000e+01) (278, -4.52476549148559570312e+00) (279, -1.09119091033935546875e+01) (280, -8.47486972808837890625e+00) (281, -2.21070885658264160156e+00) (282, 9.05673217773437500000e+00) (283, 7.99086475372314453125e+00) (284, 1.14701185226440429688e+01) (285, 9.26127016544342041016e-01) (286, 7.59603118896484375000e+00) (287, 1.33247852325439453125e+00) (288, 3.60190606117248535156e+00) (289, -1.07147760391235351562e+01) (290, 3.33894228935241699219e+00) (291, -1.87757360935211181641e+00) (292, 1.38627719879150390625e+01) (293, 2.06478576660156250000e+01) (294, -6.23907756805419921875e+00) (295, -3.11723709106445312500e+00) (296, 1.81880931854248046875e+01) (297, 1.23693323135375976562e+01) (298, -1.62945060729980468750e+01) (299, -5.35111522674560546875e+00) (300, 1.22905511856079101562e+01) (301, 1.14036273956298828125e+00) (302, 1.46269333362579345703e+00) (303, 5.30498266220092773438e+00) (304, 5.62566995620727539062e+00) (305, -3.90580773353576660156e+00) (306, -3.86373043060302734375e-01) (307, 3.15863519906997680664e-01) (308, -7.45501995086669921875e+00) (309, 3.78356289863586425781e+00) (310, 1.01844727993011474609e+00) (311, -7.65242004394531250000e+00) (312, 1.33035840988159179688e+01) (313, -5.00963068008422851562e+00) (314, 3.30713570117950439453e-01) (315, 3.31946992874145507812e+00) (316, 6.11482954025268554688e+00) (317, 8.40217399597167968750e+00) (318, -2.29163336753845214844e+00) (319, 5.12450265884399414062e+00) (320, 9.38051414489746093750e+00) (321, 5.37883472442626953125e+00) (322, -7.36012029647827148438e+00) (323, 2.71285605430603027344e+00) (324, 7.00620031356811523438e+00) (325, 4.90184307098388671875e+00) (326, 7.19765424728393554688e+00) (327, 1.25901336669921875000e+01) (328, -1.52985019683837890625e+01) (329, -5.07936096191406250000e+00) (330, -3.23486733436584472656e+00) (331, 2.04216194152832031250e+01) (332, 3.05661010742187500000e+00) (333, 1.50141448974609375000e+01) (334, -7.69648015499114990234e-01) (335, 4.20200729370117187500e+00) (336, 2.84125232696533203125e+00) (337, 9.09608554840087890625e+00) (338, -1.12385578155517578125e+01) (339, 1.30331087112426757812e+01) (340, -5.34086608886718750000e+01) (0, 8.78333759307861328125e+00) (1, 4.64820051193237304688e+00) (2, -4.35562610626220703125e+00) (3, -8.88663578033447265625e+00) (4, -1.23185977935791015625e+01) (5, -1.00504198074340820312e+01) (6, -4.34631967544555664062e+00) (7, 1.06080303192138671875e+01) (8, 1.37950487136840820312e+01) (9, -2.12107124328613281250e+01) (10, 8.21851825714111328125e+00) (11, 1.44392931461334228516e+00) (12, 3.00454101562500000000e+01) (13, 1.30578594207763671875e+01) (14, 2.05798625946044921875e+00) (15, -7.59035396575927734375e+00) (16, -6.23660945892333984375e+00) (17, -1.09461536407470703125e+01) (18, 5.21039199829101562500e+00) (19, -1.80627326965332031250e+01) (20, 4.98767375946044921875e+00) (21, 1.48476057052612304688e+01) (22, 2.66949295997619628906e+00) (23, -4.51352643966674804688e+00) (24, -3.21348152160644531250e+01) (25, 4.55590105056762695312e+00) (26, 4.45324468612670898438e+00) (27, -1.01014890670776367188e+01) (28, 9.97786998748779296875e+00) (29, -9.85648918151855468750e+00) (30, 4.87694889307022094727e-01) (31, 6.62748622894287109375e+00) (32, -1.47567665576934814453e+00) (33, 2.14033012390136718750e+01) (34, 1.30675630569458007812e+01) (35, -6.52831840515136718750e+00) (36, -1.05470085144042968750e+01) (37, -1.13076078891754150391e+00) (38, 3.32319855690002441406e-01) (39, -7.41335296630859375000e+00) (40, -6.69739186763763427734e-01) (41, 9.49625778198242187500e+00) (42, 8.74203205108642578125e+00) (43, 3.33999919891357421875e+00) (44, -1.34196567535400390625e+01) (45, 1.66522407531738281250e+00) (46, 9.37084007263183593750e+00) (47, -8.98297882080078125000e+00) (48, -1.08967838287353515625e+01) (49, 6.41452455520629882812e+00) (50, -3.96593570709228515625e+00) (51, 1.02365326881408691406e+00) (52, 2.54833126068115234375e+00) (53, -2.49966681003570556641e-01) (54, -2.92761764526367187500e+01) (55, 1.10831222534179687500e+01) (56, 1.97292518615722656250e+00) (57, 1.61654586791992187500e+01) (58, 1.17329473495483398438e+01) (59, -8.30954933166503906250e+00) (60, -8.06418132781982421875e+00) (61, 2.38561674952507019043e-01) (62, 9.30421543121337890625e+00) (63, -2.98325562477111816406e+00) (64, -4.30242627859115600586e-01) (65, 1.73137390613555908203e+00) (66, 1.49897985458374023438e+01) (67, -6.69594705104827880859e-01) (68, -1.72358775138854980469e+00) (69, 6.28466463088989257812e+00) (70, -1.59291255474090576172e+00) (71, 2.45576305389404296875e+01) (72, -2.67476463317871093750e+00) (73, 5.80377388000488281250e+00) (74, -2.33697128295898437500e+01) (75, 1.74623985290527343750e+01) (76, -8.03674983978271484375e+00) (77, -1.99749875068664550781e+00) (78, 1.11287033557891845703e+00) (79, -7.06312370300292968750e+00) (80, -1.65449962615966796875e+01) (81, -3.25477695465087890625e+00) (82, 6.56060457229614257812e+00) (83, 2.03071308135986328125e+00) (84, -6.26433134078979492188e+00) (85, 2.56235510110855102539e-01) (86, 3.79120564460754394531e+00) (87, -8.37942314147949218750e+00) (88, 6.07174015045166015625e+00) (89, 1.11227416992187500000e+01) (90, -7.76093196868896484375e+00) (91, 1.66583099365234375000e+01) (92, 1.57988948822021484375e+01) (93, 1.04319143295288085938e+01) (94, -2.31058692932128906250e+00) (95, 3.70568895339965820312e+00) (96, 1.46371161937713623047e+00) (97, -2.79170227050781250000e+00) (98, -6.18497419357299804688e+00) (99, 6.35091733932495117188e+00) (100, 9.55035018920898437500e+00) (101, -1.14451675415039062500e+01) (102, 1.53951091766357421875e+01) (103, 2.49989724159240722656e+00) (104, 8.60233402252197265625e+00) (105, -1.49493446350097656250e+01) (106, -3.31237649917602539062e+00) (107, -1.15996561050415039062e+01) (108, -5.11656093597412109375e+00) (109, -1.42675323486328125000e+01) (110, 8.33251476287841796875e+00) (111, 4.94112730026245117188e+00) (112, 6.95523166656494140625e+00) (113, 1.23535289764404296875e+01) (114, 1.70544683933258056641e+00) (115, -6.75587987899780273438e+00) (116, 5.62995910644531250000e+00) (117, 1.03177175521850585938e+01) (118, -4.74398225545883178711e-01) (119, 2.59076309204101562500e+00) (120, -3.64040946960449218750e+00) (121, -7.75040817260742187500e+00) (122, 1.11952800750732421875e+01) (123, 4.13912010192871093750e+00) (124, -8.66628360748291015625e+00) (125, -5.57785511016845703125e+00) (126, -2.61610603332519531250e+00) (127, 1.70307779312133789062e+00) (128, -9.17061233520507812500e+00) (129, -7.78293466567993164062e+00) (130, 6.30384969711303710938e+00) (131, 6.29064559936523437500e+00) (132, 9.13586902618408203125e+00) (133, 1.70218582153320312500e+01) (134, -6.48362207412719726562e+00) (135, -3.92810320854187011719e+00) (136, 2.19850444793701171875e+00) (137, 1.07004423141479492188e+01) (138, -6.84024858474731445312e+00) (139, 1.44965040683746337891e+00) (140, 1.95980148315429687500e+01) (141, 4.68048763275146484375e+00) (142, -2.38226199150085449219e+00) (143, -3.66751551628112792969e+00) (144, -3.05074901580810546875e+01) (145, -1.51970720291137695312e+01) (146, 3.47346138954162597656e+00) (147, -5.14656448364257812500e+00) (148, -1.37817497253417968750e+01) (149, 1.59226999282836914062e+01) (150, -8.16199874877929687500e+00) (151, 1.27970199584960937500e+01) (152, -6.52635192871093750000e+00) (153, 9.13093948364257812500e+00) (154, -8.29317188262939453125e+00) (155, -5.93048238754272460938e+00) (156, 1.32599860429763793945e-01) (157, 2.90296134948730468750e+01) (158, -9.98485386371612548828e-01) (159, -1.40451371669769287109e+00) (160, 4.02730703353881835938e+00) (161, 7.82119691371917724609e-01) (162, 1.90634405612945556641e+00) (163, 5.15744686126708984375e+00) (164, -1.70548706054687500000e+01) (165, 2.76894879341125488281e+00) (166, 1.03763551712036132812e+01) (167, -6.43834495544433593750e+00) (168, -7.46633243560791015625e+00) (169, 1.31829795837402343750e+01) (170, -4.83760023117065429688e+00) (171, 5.32438468933105468750e+00) (172, -1.97050666809082031250e+00) (173, -1.14404630661010742188e+01) (174, -2.81004734039306640625e+01) (175, -6.55505895614624023438e+00) (176, -1.19275932312011718750e+01) (177, 1.71426200866699218750e+01) (178, -4.29675161838531494141e-01) (179, 5.69156360626220703125e+00) (180, 4.31027173995971679688e+00) (181, -5.38754749298095703125e+00) (182, -4.89579057693481445312e+00) (183, 5.77507448196411132812e+00) (184, 5.54423475265502929688e+00) (185, 4.71879434585571289062e+00) (186, 1.62229576110839843750e+01) (187, -1.16489923000335693359e+00) (188, -1.43704688549041748047e+00) (189, 8.04882431030273437500e+00) (190, -1.39535403251647949219e+00) (191, -1.04261922836303710938e+01) (192, 4.59457492828369140625e+00) (193, -8.72400403022766113281e-01) (194, -2.57220973968505859375e+01) (195, -2.06968345642089843750e+01) (196, 1.73476467132568359375e+01) (197, -1.36277065277099609375e+01) (198, 4.22121912240982055664e-01) (199, -1.58330392837524414062e+00) (200, 4.46773672103881835938e+00) (201, 1.00473279953002929688e+01) (202, -1.91240348815917968750e+01) (203, -2.52103209495544433594e+00) (204, -1.23333044052124023438e+01) (205, -8.52416992187500000000e+00) (206, -9.62593555450439453125e+00) (207, -3.58293104171752929688e+00) (208, -1.55270981788635253906e+00) (209, 7.94306993484497070312e-01) (210, 5.90108680725097656250e+00) (211, -6.35150480270385742188e+00) (212, 1.28802776336669921875e+01) (213, 1.40248374938964843750e+01) (214, -1.22314500808715820312e+01) (215, 1.49929552078247070312e+01) (216, -1.21696874499320983887e-01) (217, -2.48027343750000000000e+01) (218, 8.78228092193603515625e+00) (219, -1.27210450172424316406e+00) (220, 9.10915470123291015625e+00) (221, -6.02344691753387451172e-01) (222, 2.67206287384033203125e+00) (223, -4.85237693786621093750e+00) (224, -6.89034891128540039062e+00) (225, 2.71683478355407714844e+00) (226, -6.77670907974243164062e+00) (227, 1.11433124542236328125e+01) (228, -4.94510936737060546875e+00) (229, 1.01988565921783447266e+00) (230, 1.05525004863739013672e+00) (231, 9.50935363769531250000e+00) (232, -8.18080139160156250000e+00) (233, 1.29017553329467773438e+01) (234, -3.42851448059082031250e+01) (235, -6.62542533874511718750e+00) (236, -1.92575800418853759766e+00) (237, -1.06186504364013671875e+01) (238, -3.50313901901245117188e+00) (239, 1.55879316329956054688e+01) (240, 1.21790437698364257812e+01) (241, 1.00364627838134765625e+01) (242, 7.52804219722747802734e-01) (243, -1.06973018646240234375e+01) (244, -3.40438079833984375000e+00) (245, 1.14294366836547851562e+01) (246, 7.56912755966186523438e+00) (247, 1.33071339130401611328e+00) (248, 2.55505251884460449219e+00) (249, -5.40541946887969970703e-01) (250, 5.64864158630371093750e-01) (251, 1.23520927429199218750e+01) (252, -1.68325099945068359375e+01) (253, 1.58374652862548828125e+01) (254, -4.08928565979003906250e+01) (255, -4.77657985687255859375e+00) (256, -8.53383350372314453125e+00) (257, 1.51311075687408447266e+00) (258, -1.01350698471069335938e+01) (259, -4.54987192153930664062e+00) (260, 8.98840904235839843750e+00) (261, 1.74811019897460937500e+01) (262, -1.24749410152435302734e+00) (263, 1.39460105895996093750e+01) (264, 7.50910902023315429688e+00) (265, -1.16560220718383789062e+01) (266, 2.14481949806213378906e+00) (267, 2.70931553840637207031e+00) (268, 2.29144597053527832031e+00) (269, -9.32270431518554687500e+00) (270, 3.50795686244964599609e-01) (271, 1.18878698348999023438e+00) (272, -6.61086678504943847656e-01) (273, 1.04556515812873840332e-01) (274, -2.03120174407958984375e+01) (275, -2.52763676643371582031e+00) (276, -1.25585336685180664062e+01) (277, 1.21449041366577148438e+00) (278, -7.35148191452026367188e+00) (279, -4.79582691192626953125e+00) (280, 3.66121220588684082031e+00) (281, 1.36610727310180664062e+01) (282, 5.84783649444580078125e+00) (283, -3.38370060920715332031e+00) (284, -5.10756194591522216797e-01) (285, -1.97604598999023437500e+01) (286, -1.10192947387695312500e+01) (287, 1.37970411777496337891e+00) (288, -6.88440752029418945312e+00) (289, 3.43412470817565917969e+00) (290, 1.86020076274871826172e+00) (291, -2.99229383468627929688e+00) (292, 1.03428673744201660156e+00) (293, 2.26655578613281250000e+00) (294, -1.01088762283325195312e+01) (295, -1.00962810516357421875e+01) (296, -1.48421592712402343750e+01) (297, 1.43437089920043945312e+01) (298, 1.02319030761718750000e+01) (299, 1.12436571121215820312e+01) (300, -5.35326957702636718750e+00) (301, 1.02900371551513671875e+01) (302, 2.40204739570617675781e+00) (303, -4.01941680908203125000e+00) (304, 6.70050477981567382812e+00) (305, -1.84751033782958984375e+00) (306, 2.70274043083190917969e-01) (307, -1.17589740753173828125e+01) (308, -1.49776620864868164062e+01) (309, -3.33674848079681396484e-01) (310, 2.87225812673568725586e-01) (311, 7.56131792068481445312e+00) (312, -3.68940263986587524414e-01) (313, 1.04787979125976562500e+01) (314, -1.31253128051757812500e+01) (315, -2.10482954978942871094e+00) (316, -1.55893123149871826172e+00) (317, 6.91320180892944335938e+00) (318, 1.24664449691772460938e+01) (319, -1.06148271560668945312e+01) (320, 6.73904895782470703125e+00) (321, 1.06432466506958007812e+01) (322, 1.18787889480590820312e+01) (323, 9.53125381469726562500e+00) (324, 5.94743311405181884766e-01) (325, 4.53833436965942382812e+00) (326, 5.91654777526855468750e+00) (327, 1.06393253803253173828e+00) (328, -6.95741653442382812500e+00) (329, -1.59276199340820312500e+01) (330, -7.40053987503051757812e+00) (331, 3.55148792266845703125e+00) (332, -1.12088851928710937500e+01) (333, 2.56726217269897460938e+00) (334, -1.00975961685180664062e+01) (335, -7.87606477737426757812e+00) (336, 2.61939644813537597656e+00) (337, 1.09657468795776367188e+01) (338, -1.83337080478668212891e+00) (339, -1.81084079742431640625e+01) (340, -2.99313621520996093750e+01) (0, -6.89372444152832031250e+00) (1, 9.24684882164001464844e-01) (2, -3.12916064262390136719e+00) (3, -6.18172049522399902344e-01) (4, -5.55589580535888671875e+00) (5, 1.32350559234619140625e+01) (6, 5.91453835368156433105e-02) (7, 6.93389081954956054688e+00) (8, 1.08089933395385742188e+01) (9, 1.44982986450195312500e+01) (10, -4.37927579879760742188e+00) (11, -3.09338331222534179688e+00) (12, -4.93276071548461914062e+00) (13, -2.56513357162475585938e+00) (14, -6.03851604461669921875e+00) (15, 6.70283031463623046875e+00) (16, 1.04855117797851562500e+01) (17, -1.11930961608886718750e+01) (18, -1.57883977890014648438e+00) (19, 8.34140872955322265625e+00) (20, -1.83334064483642578125e+00) (21, -5.26538085937500000000e+00) (22, -8.03766250610351562500e+00) (23, 3.42575335502624511719e+00) (24, -4.71822500228881835938e+00) (25, -9.10561442375183105469e-01) (26, 7.61322450637817382812e+00) (27, 7.05180692672729492188e+00) (28, -1.64993548393249511719e+00) (29, 1.39884786605834960938e+01) (30, 4.91545534133911132812e+00) (31, -2.42788910865783691406e+00) (32, 1.59126758575439453125e+00) (33, 6.57265090942382812500e+00) (34, -6.74178791046142578125e+00) (35, 1.90961551666259765625e+00) (36, -1.35261891409754753113e-02) (37, -3.17345762252807617188e+00) (38, -8.83071303367614746094e-01) (39, 1.17397766113281250000e+01) (40, -1.64187502861022949219e+00) (41, -1.62601006031036376953e+00) (42, -2.29495018720626831055e-01) (43, 5.33951139450073242188e+00) (44, 4.41905403137207031250e+00) (45, 1.05474109649658203125e+01) (46, 5.16156435012817382812e+00) (47, 9.46730136871337890625e+00) (48, -2.21534991264343261719e+00) (49, 9.84722971916198730469e-01) (50, 6.11440849304199218750e+00) (51, 8.42280483245849609375e+00) (52, 1.45960712432861328125e+00) (53, 3.00328207015991210938e+00) (54, 1.21609935760498046875e+01) (55, -2.08176207542419433594e+00) (56, -5.49725580215454101562e+00) (57, -2.34049701690673828125e+01) (58, -1.40146446228027343750e+01) (59, 8.85721302032470703125e+00) (60, 2.54779601097106933594e+00) (61, 2.82552671432495117188e+00) (62, 2.35425972938537597656e+00) (63, 3.89924669265747070312e+00) (64, -4.59348887205123901367e-01) (65, -1.15885372161865234375e+01) (66, -6.35674059391021728516e-01) (67, 7.35478115081787109375e+00) (68, -1.54342126846313476562e+00) (69, -6.54070377349853515625e+00) (70, -1.18659138679504394531e+00) (71, -5.75192117691040039062e+00) (72, 3.98388552665710449219e+00) (73, 9.41111660003662109375e+00) (74, 1.32433090209960937500e+01) (75, -2.32473707199096679688e+00) (76, 2.22935438156127929688e+00) (77, -5.33428907394409179688e+00) (78, 8.06318283081054687500e+00) (79, 9.34455871582031250000e+00) (80, 1.19446983337402343750e+01) (81, 5.87894773483276367188e+00) (82, -8.92180347442626953125e+00) (83, 6.59482908248901367188e+00) (84, -3.82990807294845581055e-01) (85, 7.63433885574340820312e+00) (86, -3.81018042564392089844e+00) (87, 1.12122392654418945312e+01) (88, -2.15067839622497558594e+00) (89, -1.74275898933410644531e+00) (90, 3.14874386787414550781e+00) (91, 4.02410221099853515625e+00) (92, 3.49979782104492187500e+00) (93, -2.26615118980407714844e+00) (94, 9.48618030548095703125e+00) (95, 4.15997600555419921875e+00) (96, 6.14696085453033447266e-01) (97, -7.79172468185424804688e+00) (98, 3.57413625717163085938e+00) (99, -6.55894565582275390625e+00) (100, 1.10577774047851562500e+00) (101, 1.01674213409423828125e+01) (102, -4.12926769256591796875e+00) (103, 2.28181838989257812500e+00) (104, 1.23523139953613281250e+00) (105, 1.01870274543762207031e+00) (106, -4.20471096038818359375e+00) (107, 5.97559309005737304688e+00) (108, 3.00617623329162597656e+00) (109, 8.55703449249267578125e+00) (110, -1.16253156661987304688e+01) (111, 5.99276685714721679688e+00) (112, 7.98040580749511718750e+00) (113, -3.83875668048858642578e-01) (114, -2.35738897323608398438e+00) (115, -2.08418178558349609375e+00) (116, -8.79291820526123046875e+00) (117, 7.46206521987915039062e+00) (118, 1.36395034790039062500e+01) (119, -9.52001762390136718750e+00) (120, 1.62380008697509765625e+01) (121, 2.98912644386291503906e+00) (122, -1.94347114562988281250e+01) (123, -8.41996860504150390625e+00) (124, 1.31852130889892578125e+01) (125, -1.15009698867797851562e+01) (126, -6.00977754592895507812e+00) (127, -9.97372493147850036621e-02) (128, 1.77546465396881103516e+00) (129, 1.24790906906127929688e+01) (130, -3.86212038993835449219e+00) (131, 5.23390626907348632812e+00) (132, -1.65499389171600341797e+00) (133, -3.17373156547546386719e+00) (134, -4.57535791397094726562e+00) (135, -3.82994103431701660156e+00) (136, -5.76567411422729492188e+00) (137, 1.60787429809570312500e+01) (138, 9.00709438323974609375e+00) (139, 5.69024848937988281250e+00) (140, -5.00946760177612304688e+00) (141, -1.22121834754943847656e+00) (142, -1.22332096099853515625e+01) (143, -6.88384151458740234375e+00) (144, 7.08671998977661132812e+00) (145, 5.58506488800048828125e+00) (146, -1.60479044914245605469e+00) (147, -8.11080551147460937500e+00) (148, 1.69718146324157714844e+00) (149, 9.52397441864013671875e+00) (150, 8.78354549407958984375e+00) (151, -5.47901725769042968750e+00) (152, -1.04479324817657470703e+00) (153, 9.85121130943298339844e-01) (154, -1.81863441467285156250e+01) (155, -9.02583789825439453125e+00) (156, 4.68835878372192382812e+00) (157, 1.72430229187011718750e+01) (158, -2.28610754013061523438e+00) (159, 3.81452250480651855469e+00) (160, 5.91706466674804687500e+00) (161, 3.40071231126785278320e-01) (162, -2.77675151824951171875e+01) (163, -2.10512924194335937500e+01) (164, -1.20009222030639648438e+01) (165, 4.77271318435668945312e+00) (166, -2.44939255714416503906e+00) (167, -2.34470615386962890625e+01) (168, 6.20857524871826171875e+00) (169, 1.56005373001098632812e+01) (170, 2.15535717010498046875e+01) (171, -2.84167838096618652344e+00) (172, 9.03014987707138061523e-02) (173, 2.01460289955139160156e+00) (174, -3.39830513000488281250e+01) (175, -1.13342800140380859375e+01) (176, 1.80898666381835937500e+01) (177, 1.17463245391845703125e+01) (178, 1.17686223983764648438e+01) (179, 5.21969842910766601562e+00) (180, 6.50760269165039062500e+00) (181, 2.89263033866882324219e+00) (182, -1.80322151184082031250e+01) (183, -1.42129831314086914062e+01) (184, 3.28382563591003417969e+00) (185, 8.15935552120208740234e-01) (186, -1.59221563339233398438e+01) (187, -9.84347629547119140625e+00) (188, -4.02321720123291015625e+00) (189, 2.23268775939941406250e+01) (190, 1.96056213378906250000e+01) (191, 2.81164693832397460938e+00) (192, 1.06591825485229492188e+01) (193, 8.25899219512939453125e+00) (194, -2.82541866302490234375e+01) (195, -1.71224641799926757812e+00) (196, -1.10890569686889648438e+01) (197, 1.06656408309936523438e+01) (198, 1.01480197906494140625e+01) (199, 1.00479278564453125000e+01) (200, -4.44650983810424804688e+00) (201, 3.55067998170852661133e-01) (202, -1.40677261352539062500e+01) (203, -2.17675647735595703125e+01) (204, -2.37241911888122558594e+00) (205, 1.27728290557861328125e+01) (206, 1.60914974212646484375e+01) (207, 2.86935400962829589844e+00) (208, 5.74177646636962890625e+00) (209, 1.96067295074462890625e+01) (210, 1.91762943267822265625e+01) (211, -6.04562759399414062500e-01) (212, -8.92289257049560546875e+00) (213, -9.74093198776245117188e-01) (214, -2.39487037658691406250e+01) (215, -9.65892791748046875000e+00) (216, 5.11543393135070800781e-01) (217, -5.80919504165649414062e+00) (218, 5.73494052886962890625e+00) (219, 7.47429227828979492188e+00) (220, -1.07304728031158447266e+00) (221, -4.57595491409301757812e+00) (222, -1.56056809425354003906e+00) (223, -7.23792374134063720703e-01) (224, 8.74140834808349609375e+00) (225, -7.65804350376129150391e-01) (226, 5.54123640060424804688e+00) (227, -2.20564174652099609375e+00) (228, -3.36512684822082519531e+00) (229, 8.63061809539794921875e+00) (230, 1.12195434570312500000e+01) (231, -1.11816148757934570312e+01) (232, 7.13122081756591796875e+00) (233, 5.65514326095581054688e+00) (234, -1.83217315673828125000e+01) (235, 9.14180374145507812500e+00) (236, 3.04014539718627929688e+00) (237, -2.85569381713867187500e+00) (238, 1.38652157783508300781e+00) (239, -1.06662225723266601562e+01) (240, -8.12061214447021484375e+00) (241, -3.80654788017272949219e+00) (242, -9.14383411407470703125e+00) (243, 9.19286251068115234375e+00) (244, 1.15830230712890625000e+01) (245, -6.43426227569580078125e+00) (246, -3.89420986175537109375e+00) (247, -3.99133473634719848633e-01) (248, -2.01829409599304199219e+00) (249, -6.59410905838012695312e+00) (250, -2.85153460502624511719e+00) (251, -6.03948652744293212891e-01) (252, 1.63860454559326171875e+01) (253, 1.61623644828796386719e+00) (254, -3.45006680488586425781e+00) (255, 7.72585391998291015625e+00) (256, -4.65742635726928710938e+00) (257, 1.62413275241851806641e+00) (258, 3.26155829429626464844e+00) (259, 4.08856183290481567383e-01) (260, -1.10105476379394531250e+01) (261, -1.21751272678375244141e+00) (262, 2.39520192146301269531e+00) (263, -4.98185491561889648438e+00) (264, -3.07795047760009765625e+00) (265, 4.25155305862426757812e+00) (266, -1.57606935501098632812e+01) (267, 2.45496201515197753906e+00) (268, -1.12235574722290039062e+01) (269, 3.99386978149414062500e+00) (270, 1.00990934371948242188e+01) (271, -5.68800783157348632812e+00) (272, 1.00008077621459960938e+01) (273, 1.48630456924438476562e+01) (274, 3.35378837585449218750e+00) (275, 1.25442180633544921875e+01) (276, -1.84493064880371093750e+01) (277, 6.39775419235229492188e+00) (278, 2.08740854263305664062e+00) (279, 7.95311808586120605469e-01) (280, 2.95831584930419921875e+00) (281, 1.65088176727294921875e+00) (282, -2.84886765480041503906e+00) (283, 8.29152107238769531250e+00) (284, 1.56083917617797851562e+00) (285, 6.19077825546264648438e+00) (286, 9.90293741226196289062e-01) (287, -1.01508169174194335938e+01) (288, 7.48685836791992187500e-01) (289, -9.83189773559570312500e+00) (290, 5.20418930053710937500e+00) (291, -8.99376392364501953125e+00) (292, 9.76554393768310546875e-01) (293, 3.70374488830566406250e+00) (294, 6.11389398574829101562e+00) (295, 5.25443315505981445312e+00) (296, 1.11745905876159667969e+00) (297, 5.32589817047119140625e+00) (298, -5.87378084659576416016e-01) (299, -1.07617092132568359375e+01) (300, 1.24481856822967529297e+00) (301, 3.16125798225402832031e+00) (302, 2.07393398284912109375e+01) (303, 9.39232635498046875000e+00) (304, -1.52868008613586425781e+00) (305, -1.57218194007873535156e+00) (306, 3.26786446571350097656e+00) (307, 1.62336096167564392090e-01) (308, -1.20286312103271484375e+01) (309, -3.79887056350708007812e+00) (310, 8.87755298614501953125e+00) (311, -1.65829169750213623047e+00) (312, 5.32406377792358398438e+00) (313, 2.21893191337585449219e+00) (314, -8.17272567749023437500e+00) (315, -4.36595535278320312500e+00) (316, 1.44146740436553955078e+00) (317, -6.90998733043670654297e-01) (318, -8.91476631164550781250e+00) (319, 2.59309411048889160156e+00) (320, -4.11171817779541015625e+00) (321, 1.28270778656005859375e+01) (322, -4.95931959152221679688e+00) (323, 3.12386417388916015625e+00) (324, 4.92123937606811523438e+00) (325, 2.49722886085510253906e+00) (326, 7.70874321460723876953e-01) (327, -4.23040390014648437500e+00) (328, -4.41309881210327148438e+00) (329, 4.51902484893798828125e+00) (330, 1.06234359741210937500e+01) (331, 6.72944831848144531250e+00) (332, -5.78305816650390625000e+00) (333, 8.17102146148681640625e+00) (334, -5.54610252380371093750e+00) (335, -7.00444364547729492188e+00) (336, -1.31741542816162109375e+01) (337, 1.24941968917846679688e+00) (338, 1.18151454925537109375e+01) (339, 4.90454053878784179688e+00) (340, -3.18636951446533203125e+01) (341, -1.07434835433959960938e+01) (342, 4.21149492263793945312e+00) (343, 1.00518903732299804688e+01) (344, 1.03222846984863281250e+01) (345, 6.05463600158691406250e+00) (346, -7.16346025466918945312e+00) (341, 8.26975154876708984375e+00) (342, -8.33776950836181640625e+00) (343, -7.57509613037109375000e+00) (344, 2.33171963691711425781e+00) (345, 8.29553127288818359375e+00) (346, -6.25111293792724609375e+00) (341, 4.43919324874877929688e+00) (342, 5.79243898391723632812e+00) (343, 2.27702665328979492188e+00) (344, -6.06872034072875976562e+00) (345, -9.16842746734619140625e+00) (346, -5.93331146240234375000e+00) (341, -6.95692539215087890625e+00) (342, -5.22147560119628906250e+00) (343, -6.99645900726318359375e+00) (344, -7.08211612701416015625e+00) (345, -7.89989519119262695312e+00) (346, 4.44053792953491210938e+00) 
