FANN_FLO_2.1
num_layers=3
learning_rate=0.700000
connection_rate=1.000000
network_type=0
learning_momentum=0.000000
training_algorithm=0
train_error_function=1
train_stop_function=0
cascade_output_change_fraction=0.010000
quickprop_decay=-0.000100
quickprop_mu=1.750000
rprop_increase_factor=1.200000
rprop_decrease_factor=0.500000
rprop_delta_min=0.000000
rprop_delta_max=50.000000
rprop_delta_zero=0.100000
cascade_output_stagnation_epochs=12
cascade_candidate_change_fraction=0.010000
cascade_candidate_stagnation_epochs=12
cascade_max_out_epochs=150
cascade_min_out_epochs=50
cascade_max_cand_epochs=150
cascade_min_cand_epochs=50
cascade_num_candidate_groups=2
bit_fail_limit=3.49999994039535522461e-01
cascade_candidate_limit=1.00000000000000000000e+03
cascade_weight_multiplier=4.00000005960464477539e-01
cascade_activation_functions_count=10
cascade_activation_functions=3 5 7 8 10 11 14 15 16 17 
cascade_activation_steepnesses_count=4
cascade_activation_steepnesses=2.50000000000000000000e-01 5.00000000000000000000e-01 7.50000000000000000000e-01 1.00000000000000000000e+00 
layer_sizes=381 61 5 
scale_included=0
neurons (num_inputs, activation_function, activation_steepness)=(0, 0, 0.00000000000000000000e+00) (0, 0, 0.00000000000000000000e+00) (0, 0, 0.00000000000000000000e+00) (0, 0, 0.00000000000000000000e+00) (0, 0, 0.00000000000000000000e+00) (0, 0, 0.00000000000000000000e+00) (0, 0, 0.00000000000000000000e+00) (0, 0, 0.00000000000000000000e+00) (0, 0, 0.00000000000000000000e+00) (0, 0, 0.00000000000000000000e+00) (0, 0, 0.00000000000000000000e+00) (0, 0, 0.00000000000000000000e+00) (0, 0, 0.00000000000000000000e+00) (0, 0, 0.00000000000000000000e+00) (0, 0, 0.00000000000000000000e+00) (0, 0, 0.00000000000000000000e+00) (0, 0, 0.00000000000000000000e+00) (0, 0, 0.00000000000000000000e+00) (0, 0, 0.00000000000000000000e+00) (0, 0, 0.00000000000000000000e+00) (0, 0, 0.00000000000000000000e+00) (0, 0, 0.00000000000000000000e+00) (0, 0, 0.00000000000000000000e+00) (0, 0, 0.00000000000000000000e+00) (0, 0, 0.00000000000000000000e+00) (0, 0, 0.00000000000000000000e+00) (0, 0, 0.00000000000000000000e+00) (0, 0, 0.00000000000000000000e+00) (0, 0, 0.00000000000000000000e+00) (0, 0, 0.00000000000000000000e+00) (0, 0, 0.00000000000000000000e+00) (0, 0, 0.00000000000000000000e+00) (0, 0, 0.00000000000000000000e+00) (0, 0, 0.00000000000000000000e+00) (0, 0, 0.00000000000000000000e+00) (0, 0, 0.00000000000000000000e+00) (0, 0, 0.00000000000000000000e+00) (0, 0, 0.00000000000000000000e+00) (0, 0, 0.00000000000000000000e+00) (0, 0, 0.00000000000000000000e+00) (0, 0, 0.00000000000000000000e+00) (0, 0, 0.00000000000000000000e+00) (0, 0, 0.00000000000000000000e+00) (0, 0, 0.00000000000000000000e+00) (0, 0, 0.00000000000000000000e+00) (0, 0, 0.00000000000000000000e+00) (0, 0, 0.00000000000000000000e+00) (0, 0, 0.00000000000000000000e+00) (0, 0, 0.00000000000000000000e+00) (0, 0, 0.00000000000000000000e+00) (0, 0, 0.00000000000000000000e+00) (0, 0, 0.00000000000000000000e+00) (0, 0, 0.00000000000000000000e+00) (0, 0, 0.00000000000000000000e+00) (0, 0, 0.00000000000000000000e+00) (0, 0, 0.00000000000000000000e+00) (0, 0, 0.00000000000000000000e+00) (0, 0, 0.00000000000000000000e+00) (0, 0, 0.00000000000000000000e+00) (0, 0, 0.00000000000000000000e+00) (0, 0, 0.00000000000000000000e+00) (0, 0, 0.00000000000000000000e+00) (0, 0, 0.00000000000000000000e+00) (0, 0, 0.00000000000000000000e+00) (0, 0, 0.00000000000000000000e+00) (0, 0, 0.00000000000000000000e+00) (0, 0, 0.00000000000000000000e+00) (0, 0, 0.00000000000000000000e+00) (0, 0, 0.00000000000000000000e+00) (0, 0, 0.00000000000000000000e+00) (0, 0, 0.00000000000000000000e+00) (0, 0, 0.00000000000000000000e+00) (0, 0, 0.00000000000000000000e+00) (0, 0, 0.00000000000000000000e+00) (0, 0, 0.00000000000000000000e+00) (0, 0, 0.00000000000000000000e+00) (0, 0, 0.00000000000000000000e+00) (0, 0, 0.00000000000000000000e+00) (0, 0, 0.00000000000000000000e+00) (0, 0, 0.00000000000000000000e+00) (0, 0, 0.00000000000000000000e+00) (0, 0, 0.00000000000000000000e+00) (0, 0, 0.00000000000000000000e+00) (0, 0, 0.00000000000000000000e+00) (0, 0, 0.00000000000000000000e+00) (0, 0, 0.00000000000000000000e+00) (0, 0, 0.00000000000000000000e+00) (0, 0, 0.00000000000000000000e+00) (0, 0, 0.00000000000000000000e+00) (0, 0, 0.00000000000000000000e+00) (0, 0, 0.00000000000000000000e+00) (0, 0, 0.00000000000000000000e+00) (0, 0, 0.00000000000000000000e+00) (0, 0, 0.00000000000000000000e+00) (0, 0, 0.00000000000000000000e+00) (0, 0, 0.00000000000000000000e+00) (0, 0, 0.00000000000000000000e+00) (0, 0, 0.00000000000000000000e+00) (0, 0, 0.00000000000000000000e+00) (0, 0, 0.00000000000000000000e+00) (0, 0, 0.00000000000000000000e+00) (0, 0, 0.00000000000000000000e+00) (0, 0, 0.00000000000000000000e+00) (0, 0, 0.00000000000000000000e+00) (0, 0, 0.00000000000000000000e+00) (0, 0, 0.00000000000000000000e+00) (0, 0, 0.00000000000000000000e+00) (0, 0, 0.00000000000000000000e+00) (0, 0, 0.00000000000000000000e+00) (0, 0, 0.00000000000000000000e+00) (0, 0, 0.00000000000000000000e+00) (0, 0, 0.00000000000000000000e+00) (0, 0, 0.00000000000000000000e+00) (0, 0, 0.00000000000000000000e+00) (0, 0, 0.00000000000000000000e+00) (0, 0, 0.00000000000000000000e+00) (0, 0, 0.00000000000000000000e+00) (0, 0, 0.00000000000000000000e+00) (0, 0, 0.00000000000000000000e+00) (0, 0, 0.00000000000000000000e+00) (0, 0, 0.00000000000000000000e+00) (0, 0, 0.00000000000000000000e+00) (0, 0, 0.00000000000000000000e+00) (0, 0, 0.00000000000000000000e+00) (0, 0, 0.00000000000000000000e+00) (0, 0, 0.00000000000000000000e+00) (0, 0, 0.00000000000000000000e+00) (0, 0, 0.00000000000000000000e+00) (0, 0, 0.00000000000000000000e+00) (0, 0, 0.00000000000000000000e+00) (0, 0, 0.00000000000000000000e+00) (0, 0, 0.00000000000000000000e+00) (0, 0, 0.00000000000000000000e+00) (0, 0, 0.00000000000000000000e+00) (0, 0, 0.00000000000000000000e+00) (0, 0, 0.00000000000000000000e+00) (0, 0, 0.00000000000000000000e+00) (0, 0, 0.00000000000000000000e+00) (0, 0, 0.00000000000000000000e+00) (0, 0, 0.00000000000000000000e+00) (0, 0, 0.00000000000000000000e+00) (0, 0, 0.00000000000000000000e+00) (0, 0, 0.00000000000000000000e+00) (0, 0, 0.00000000000000000000e+00) (0, 0, 0.00000000000000000000e+00) (0, 0, 0.00000000000000000000e+00) (0, 0, 0.00000000000000000000e+00) (0, 0, 0.00000000000000000000e+00) (0, 0, 0.00000000000000000000e+00) (0, 0, 0.00000000000000000000e+00) (0, 0, 0.00000000000000000000e+00) (0, 0, 0.00000000000000000000e+00) (0, 0, 0.00000000000000000000e+00) (0, 0, 0.00000000000000000000e+00) (0, 0, 0.00000000000000000000e+00) (0, 0, 0.00000000000000000000e+00) (0, 0, 0.00000000000000000000e+00) (0, 0, 0.00000000000000000000e+00) (0, 0, 0.00000000000000000000e+00) (0, 0, 0.00000000000000000000e+00) (0, 0, 0.00000000000000000000e+00) (0, 0, 0.00000000000000000000e+00) (0, 0, 0.00000000000000000000e+00) (0, 0, 0.00000000000000000000e+00) (0, 0, 0.00000000000000000000e+00) (0, 0, 0.00000000000000000000e+00) (0, 0, 0.00000000000000000000e+00) (0, 0, 0.00000000000000000000e+00) (0, 0, 0.00000000000000000000e+00) (0, 0, 0.00000000000000000000e+00) (0, 0, 0.00000000000000000000e+00) (0, 0, 0.00000000000000000000e+00) (0, 0, 0.00000000000000000000e+00) (0, 0, 0.00000000000000000000e+00) (0, 0, 0.00000000000000000000e+00) (0, 0, 0.00000000000000000000e+00) (0, 0, 0.00000000000000000000e+00) (0, 0, 0.00000000000000000000e+00) (0, 0, 0.00000000000000000000e+00) (0, 0, 0.00000000000000000000e+00) (0, 0, 0.00000000000000000000e+00) (0, 0, 0.00000000000000000000e+00) (0, 0, 0.00000000000000000000e+00) (0, 0, 0.00000000000000000000e+00) (0, 0, 0.00000000000000000000e+00) (0, 0, 0.00000000000000000000e+00) (0, 0, 0.00000000000000000000e+00) (0, 0, 0.00000000000000000000e+00) (0, 0, 0.00000000000000000000e+00) (0, 0, 0.00000000000000000000e+00) (0, 0, 0.00000000000000000000e+00) (0, 0, 0.00000000000000000000e+00) (0, 0, 0.00000000000000000000e+00) (0, 0, 0.00000000000000000000e+00) (0, 0, 0.00000000000000000000e+00) (0, 0, 0.00000000000000000000e+00) (0, 0, 0.00000000000000000000e+00) (0, 0, 0.00000000000000000000e+00) (0, 0, 0.00000000000000000000e+00) (0, 0, 0.00000000000000000000e+00) (0, 0, 0.00000000000000000000e+00) (0, 0, 0.00000000000000000000e+00) (0, 0, 0.00000000000000000000e+00) (0, 0, 0.00000000000000000000e+00) (0, 0, 0.00000000000000000000e+00) (0, 0, 0.00000000000000000000e+00) (0, 0, 0.00000000000000000000e+00) (0, 0, 0.00000000000000000000e+00) (0, 0, 0.00000000000000000000e+00) (0, 0, 0.00000000000000000000e+00) (0, 0, 0.00000000000000000000e+00) (0, 0, 0.00000000000000000000e+00) (0, 0, 0.00000000000000000000e+00) (0, 0, 0.00000000000000000000e+00) (0, 0, 0.00000000000000000000e+00) (0, 0, 0.00000000000000000000e+00) (0, 0, 0.00000000000000000000e+00) (0, 0, 0.00000000000000000000e+00) (0, 0, 0.00000000000000000000e+00) (0, 0, 0.00000000000000000000e+00) (0, 0, 0.00000000000000000000e+00) (0, 0, 0.00000000000000000000e+00) (0, 0, 0.00000000000000000000e+00) (0, 0, 0.00000000000000000000e+00) (0, 0, 0.00000000000000000000e+00) (0, 0, 0.00000000000000000000e+00) (0, 0, 0.00000000000000000000e+00) (0, 0, 0.00000000000000000000e+00) (0, 0, 0.00000000000000000000e+00) (0, 0, 0.00000000000000000000e+00) (0, 0, 0.00000000000000000000e+00) (0, 0, 0.00000000000000000000e+00) (0, 0, 0.00000000000000000000e+00) (0, 0, 0.00000000000000000000e+00) (0, 0, 0.00000000000000000000e+00) (0, 0, 0.00000000000000000000e+00) (0, 0, 0.00000000000000000000e+00) (0, 0, 0.00000000000000000000e+00) (0, 0, 0.00000000000000000000e+00) (0, 0, 0.00000000000000000000e+00) (0, 0, 0.00000000000000000000e+00) (0, 0, 0.00000000000000000000e+00) (0, 0, 0.00000000000000000000e+00) (0, 0, 0.00000000000000000000e+00) (0, 0, 0.00000000000000000000e+00) (0, 0, 0.00000000000000000000e+00) (0, 0, 0.00000000000000000000e+00) (0, 0, 0.00000000000000000000e+00) (0, 0, 0.00000000000000000000e+00) (0, 0, 0.00000000000000000000e+00) (0, 0, 0.00000000000000000000e+00) (0, 0, 0.00000000000000000000e+00) (0, 0, 0.00000000000000000000e+00) (0, 0, 0.00000000000000000000e+00) (0, 0, 0.00000000000000000000e+00) (0, 0, 0.00000000000000000000e+00) (0, 0, 0.00000000000000000000e+00) (0, 0, 0.00000000000000000000e+00) (0, 0, 0.00000000000000000000e+00) (0, 0, 0.00000000000000000000e+00) (0, 0, 0.00000000000000000000e+00) (0, 0, 0.00000000000000000000e+00) (0, 0, 0.00000000000000000000e+00) (0, 0, 0.00000000000000000000e+00) (0, 0, 0.00000000000000000000e+00) (0, 0, 0.00000000000000000000e+00) (0, 0, 0.00000000000000000000e+00) (0, 0, 0.00000000000000000000e+00) (0, 0, 0.00000000000000000000e+00) (0, 0, 0.00000000000000000000e+00) (0, 0, 0.00000000000000000000e+00) (0, 0, 0.00000000000000000000e+00) (0, 0, 0.00000000000000000000e+00) (0, 0, 0.00000000000000000000e+00) (0, 0, 0.00000000000000000000e+00) (0, 0, 0.00000000000000000000e+00) (0, 0, 0.00000000000000000000e+00) (0, 0, 0.00000000000000000000e+00) (0, 0, 0.00000000000000000000e+00) (0, 0, 0.00000000000000000000e+00) (0, 0, 0.00000000000000000000e+00) (0, 0, 0.00000000000000000000e+00) (0, 0, 0.00000000000000000000e+00) (0, 0, 0.00000000000000000000e+00) (0, 0, 0.00000000000000000000e+00) (0, 0, 0.00000000000000000000e+00) (0, 0, 0.00000000000000000000e+00) (0, 0, 0.00000000000000000000e+00) (0, 0, 0.00000000000000000000e+00) (0, 0, 0.00000000000000000000e+00) (0, 0, 0.00000000000000000000e+00) (0, 0, 0.00000000000000000000e+00) (0, 0, 0.00000000000000000000e+00) (0, 0, 0.00000000000000000000e+00) (0, 0, 0.00000000000000000000e+00) (0, 0, 0.00000000000000000000e+00) (0, 0, 0.00000000000000000000e+00) (0, 0, 0.00000000000000000000e+00) (0, 0, 0.00000000000000000000e+00) (0, 0, 0.00000000000000000000e+00) (0, 0, 0.00000000000000000000e+00) (0, 0, 0.00000000000000000000e+00) (0, 0, 0.00000000000000000000e+00) (0, 0, 0.00000000000000000000e+00) (0, 0, 0.00000000000000000000e+00) (0, 0, 0.00000000000000000000e+00) (0, 0, 0.00000000000000000000e+00) (0, 0, 0.00000000000000000000e+00) (0, 0, 0.00000000000000000000e+00) (0, 0, 0.00000000000000000000e+00) (0, 0, 0.00000000000000000000e+00) (0, 0, 0.00000000000000000000e+00) (0, 0, 0.00000000000000000000e+00) (0, 0, 0.00000000000000000000e+00) (0, 0, 0.00000000000000000000e+00) (0, 0, 0.00000000000000000000e+00) (0, 0, 0.00000000000000000000e+00) (0, 0, 0.00000000000000000000e+00) (0, 0, 0.00000000000000000000e+00) (0, 0, 0.00000000000000000000e+00) (0, 0, 0.00000000000000000000e+00) (0, 0, 0.00000000000000000000e+00) (0, 0, 0.00000000000000000000e+00) (0, 0, 0.00000000000000000000e+00) (0, 0, 0.00000000000000000000e+00) (0, 0, 0.00000000000000000000e+00) (0, 0, 0.00000000000000000000e+00) (0, 0, 0.00000000000000000000e+00) (0, 0, 0.00000000000000000000e+00) (0, 0, 0.00000000000000000000e+00) (0, 0, 0.00000000000000000000e+00) (0, 0, 0.00000000000000000000e+00) (0, 0, 0.00000000000000000000e+00) (0, 0, 0.00000000000000000000e+00) (0, 0, 0.00000000000000000000e+00) (0, 0, 0.00000000000000000000e+00) (0, 0, 0.00000000000000000000e+00) (0, 0, 0.00000000000000000000e+00) (0, 0, 0.00000000000000000000e+00) (0, 0, 0.00000000000000000000e+00) (0, 0, 0.00000000000000000000e+00) (0, 0, 0.00000000000000000000e+00) (0, 0, 0.00000000000000000000e+00) (0, 0, 0.00000000000000000000e+00) (0, 0, 0.00000000000000000000e+00) (0, 0, 0.00000000000000000000e+00) (0, 0, 0.00000000000000000000e+00) (0, 0, 0.00000000000000000000e+00) (0, 0, 0.00000000000000000000e+00) (0, 0, 0.00000000000000000000e+00) (0, 0, 0.00000000000000000000e+00) (0, 0, 0.00000000000000000000e+00) (0, 0, 0.00000000000000000000e+00) (0, 0, 0.00000000000000000000e+00) (0, 0, 0.00000000000000000000e+00) (0, 0, 0.00000000000000000000e+00) (0, 0, 0.00000000000000000000e+00) (0, 0, 0.00000000000000000000e+00) (0, 0, 0.00000000000000000000e+00) (0, 0, 0.00000000000000000000e+00) (0, 0, 0.00000000000000000000e+00) (0, 0, 0.00000000000000000000e+00) (0, 0, 0.00000000000000000000e+00) (0, 0, 0.00000000000000000000e+00) (0, 0, 0.00000000000000000000e+00) (0, 0, 0.00000000000000000000e+00) (0, 0, 0.00000000000000000000e+00) (0, 0, 0.00000000000000000000e+00) (0, 0, 0.00000000000000000000e+00) (0, 0, 0.00000000000000000000e+00) (0, 0, 0.00000000000000000000e+00) (0, 0, 0.00000000000000000000e+00) (0, 0, 0.00000000000000000000e+00) (0, 0, 0.00000000000000000000e+00) (0, 0, 0.00000000000000000000e+00) (0, 0, 0.00000000000000000000e+00) (0, 0, 0.00000000000000000000e+00) (0, 0, 0.00000000000000000000e+00) (0, 0, 0.00000000000000000000e+00) (0, 0, 0.00000000000000000000e+00) (0, 0, 0.00000000000000000000e+00) (381, 4, 5.00000000000000000000e-01) (381, 4, 5.00000000000000000000e-01) (381, 4, 5.00000000000000000000e-01) (381, 4, 5.00000000000000000000e-01) (381, 4, 5.00000000000000000000e-01) (381, 4, 5.00000000000000000000e-01) (381, 4, 5.00000000000000000000e-01) (381, 4, 5.00000000000000000000e-01) (381, 4, 5.00000000000000000000e-01) (381, 4, 5.00000000000000000000e-01) (381, 4, 5.00000000000000000000e-01) (381, 4, 5.00000000000000000000e-01) (381, 4, 5.00000000000000000000e-01) (381, 4, 5.00000000000000000000e-01) (381, 4, 5.00000000000000000000e-01) (381, 4, 5.00000000000000000000e-01) (381, 4, 5.00000000000000000000e-01) (381, 4, 5.00000000000000000000e-01) (381, 4, 5.00000000000000000000e-01) (381, 4, 5.00000000000000000000e-01) (381, 4, 5.00000000000000000000e-01) (381, 4, 5.00000000000000000000e-01) (381, 4, 5.00000000000000000000e-01) (381, 4, 5.00000000000000000000e-01) (381, 4, 5.00000000000000000000e-01) (381, 4, 5.00000000000000000000e-01) (381, 4, 5.00000000000000000000e-01) (381, 4, 5.00000000000000000000e-01) (381, 4, 5.00000000000000000000e-01) (381, 4, 5.00000000000000000000e-01) (381, 4, 5.00000000000000000000e-01) (381, 4, 5.00000000000000000000e-01) (381, 4, 5.00000000000000000000e-01) (381, 4, 5.00000000000000000000e-01) (381, 4, 5.00000000000000000000e-01) (381, 4, 5.00000000000000000000e-01) (381, 4, 5.00000000000000000000e-01) (381, 4, 5.00000000000000000000e-01) (381, 4, 5.00000000000000000000e-01) (381, 4, 5.00000000000000000000e-01) (381, 4, 5.00000000000000000000e-01) (381, 4, 5.00000000000000000000e-01) (381, 4, 5.00000000000000000000e-01) (381, 4, 5.00000000000000000000e-01) (381, 4, 5.00000000000000000000e-01) (381, 4, 5.00000000000000000000e-01) (381, 4, 5.00000000000000000000e-01) (381, 4, 5.00000000000000000000e-01) (381, 4, 5.00000000000000000000e-01) (381, 4, 5.00000000000000000000e-01) (381, 4, 5.00000000000000000000e-01) (381, 4, 5.00000000000000000000e-01) (381, 4, 5.00000000000000000000e-01) (381, 4, 5.00000000000000000000e-01) (381, 4, 5.00000000000000000000e-01) (381, 4, 5.00000000000000000000e-01) (381, 4, 5.00000000000000000000e-01) (381, 4, 5.00000000000000000000e-01) (381, 4, 5.00000000000000000000e-01) (381, 4, 5.00000000000000000000e-01) (0, 0, 0.00000000000000000000e+00) (61, 4, 5.00000000000000000000e-01) (61, 4, 5.00000000000000000000e-01) (61, 4, 5.00000000000000000000e-01) (61, 4, 5.00000000000000000000e-01) (0, 0, 0.00000000000000000000e+00) 
connections (connected_to_neuron, weight)=(0, 6.09423220157623291016e-01) (1, -1.38673245906829833984e+00) (2, 3.34231972694396972656e-01) (3, -6.73722863197326660156e-01) (4, -1.35546267032623291016e+00) (5, 4.65057522058486938477e-01) (6, -1.48240280151367187500e+00) (7, 1.35764503479003906250e+00) (8, -2.12932515144348144531e+00) (9, 1.77118039131164550781e+00) (10, 3.53737211227416992188e+00) (11, 6.22829437255859375000e-01) (12, -1.51275372505187988281e+00) (13, 1.42016744613647460938e+00) (14, -4.38024759292602539062e+00) (15, 1.98361515998840332031e+00) (16, 1.13833713531494140625e+00) (17, -2.57788991928100585938e+00) (18, -1.51367115974426269531e+00) (19, 1.01629436016082763672e+00) (20, -4.93698447942733764648e-01) (21, 3.03184807300567626953e-01) (22, -2.59586858749389648438e+00) (23, -2.20143985748291015625e+00) (24, 1.94114160537719726562e+00) (25, 3.72472584247589111328e-01) (26, -9.09536302089691162109e-01) (27, -2.41918063163757324219e+00) (28, 1.38056731224060058594e+00) (29, 3.87745618820190429688e+00) (30, 1.47564852237701416016e+00) (31, -2.55693435668945312500e-01) (32, -1.21970690786838531494e-01) (33, -3.51434683799743652344e+00) (34, -3.71596670150756835938e+00) (35, -1.47313797473907470703e+00) (36, 2.73332405090332031250e+00) (37, 2.95848131179809570312e+00) (38, -2.63930225372314453125e+00) (39, 1.39504182338714599609e+00) (40, -2.16136860847473144531e+00) (41, 1.97306656837463378906e+00) (42, 1.03163826465606689453e+00) (43, -1.04612052440643310547e+00) (44, 1.91672861576080322266e+00) (45, 1.69861590862274169922e+00) (46, -2.45388925075531005859e-01) (47, -1.36542582511901855469e+00) (48, -1.20200967788696289062e+00) (49, 2.51938772201538085938e+00) (50, 4.44875150918960571289e-01) (51, -1.77699279785156250000e+00) (52, -3.14527249336242675781e+00) (53, -1.56510531902313232422e+00) (54, -1.42634534835815429688e+00) (55, -1.57822906970977783203e+00) (56, -1.59619972109794616699e-01) (57, 3.00326085090637207031e+00) (58, -2.65929055213928222656e+00) (59, 4.34635877609252929688e-01) (60, -1.49786579608917236328e+00) (61, 1.03265500068664550781e+00) (62, -5.92729151248931884766e-01) (63, -5.42259335517883300781e-01) (64, -9.34392213821411132812e-01) (65, -1.22167003154754638672e+00) (66, -2.18147754669189453125e+00) (67, 8.51985394954681396484e-01) (68, -4.36722040176391601562e-01) (69, 3.32587361335754394531e+00) (70, 1.32399177551269531250e+00) (71, 1.42592048645019531250e+00) (72, -2.97198319435119628906e+00) (73, -1.06151449680328369141e+00) (74, -2.35240745544433593750e+00) (75, -6.63506269454956054688e-01) (76, 4.45557653903961181641e-01) (77, 8.75520586967468261719e-01) (78, -2.01659989356994628906e+00) (79, -6.02912127971649169922e-01) (80, 8.92908424139022827148e-02) (81, 1.26107677817344665527e-01) (82, -8.67421865463256835938e-01) (83, -1.23276913166046142578e+00) (84, 5.09919583797454833984e-01) (85, -7.93886601924896240234e-01) (86, -2.06894373893737792969e+00) (87, -2.20566129684448242188e+00) (88, -4.08690309524536132812e+00) (89, -6.74137234687805175781e-01) (90, -8.37143957614898681641e-01) (91, 6.72722876071929931641e-01) (92, -1.12349963188171386719e+00) (93, 2.59395003318786621094e-01) (94, -1.13752233982086181641e+00) (95, -1.93275427818298339844e+00) (96, -7.22579598426818847656e-01) (97, 1.00604104995727539062e+00) (98, 2.98662543296813964844e+00) (99, 1.30216681957244873047e+00) (100, -9.94469970464706420898e-02) (101, 3.05568337440490722656e+00) (102, -3.82799434661865234375e+00) (103, -7.21288681030273437500e-01) (104, -1.97552895545959472656e+00) (105, 9.95191454887390136719e-01) (106, -1.24058854579925537109e+00) (107, -6.36925506591796875000e+00) (108, 2.06809711456298828125e+00) (109, -1.30052220821380615234e+00) (110, 3.02864104509353637695e-01) (111, 1.75039160251617431641e+00) (112, -1.07423746585845947266e+00) (113, -1.21570599079132080078e+00) (114, -1.96371042728424072266e+00) (115, -1.21187484264373779297e+00) (116, -4.22345542907714843750e+00) (117, 1.53789162635803222656e+00) (118, 3.23011040687561035156e-01) (119, 1.53994023799896240234e+00) (120, -1.52863442897796630859e+00) (121, -1.88431596755981445312e+00) (122, 1.73162475228309631348e-01) (123, 2.61652469635009765625e+00) (124, -2.36056995391845703125e+00) (125, 2.65900731086730957031e-01) (126, -4.16327863931655883789e-01) (127, -5.22818708419799804688e+00) (128, 6.64150238037109375000e-01) (129, -1.61851167678833007812e+00) (130, -2.75678300857543945312e+00) (131, 1.05432200431823730469e+00) (132, -2.41004109382629394531e+00) (133, 2.31553941965103149414e-01) (134, -1.38856410980224609375e+00) (135, 2.17282080650329589844e+00) (136, 2.44685813784599304199e-01) (137, 1.82893455028533935547e+00) (138, -2.66742229461669921875e+00) (139, -1.96888911724090576172e+00) (140, -1.18327701091766357422e+00) (141, -2.20813369750976562500e+00) (142, -1.15333509445190429688e+00) (143, 3.25184440612792968750e+00) (144, 1.15015649795532226562e+00) (145, -1.06877136230468750000e+00) (146, -1.23921513557434082031e+00) (147, -1.70603716373443603516e+00) (148, -9.30551707744598388672e-01) (149, -3.47466850280761718750e+00) (150, -1.97682189941406250000e+00) (151, -5.31485438346862792969e-01) (152, -2.43027234077453613281e+00) (153, -4.84437894821166992188e+00) (154, 2.86887216567993164062e+00) (155, 1.23479318618774414062e+00) (156, -8.71114134788513183594e-02) (157, 3.66338157653808593750e+00) (158, -4.18163120746612548828e-01) (159, -3.68193817138671875000e+00) (160, -9.86381947994232177734e-01) (161, -7.81044840812683105469e-01) (162, -2.03616905212402343750e+00) (163, 3.70783090591430664062e+00) (164, -2.09165263175964355469e+00) (165, -1.89415550231933593750e+00) (166, 1.60079228878021240234e+00) (167, 8.39902043342590332031e-01) (168, -6.74843311309814453125e-01) (169, -4.18459177017211914062e+00) (170, -3.61052846908569335938e+00) (171, -2.54139810800552368164e-01) (172, -2.66575169563293457031e+00) (173, -3.14240384101867675781e+00) (174, 4.75751733779907226562e+00) (175, 1.72576248645782470703e+00) (176, 4.80987834930419921875e+00) (177, -3.48999112844467163086e-01) (178, -3.53542304039001464844e+00) (179, -5.50567007064819335938e+00) (180, -3.15338492393493652344e+00) (181, -2.87373876571655273438e+00) (182, 8.64730775356292724609e-01) (183, 3.72372388839721679688e+00) (184, -1.85637605190277099609e+00) (185, -3.20286273956298828125e+00) (186, -1.08081638813018798828e+00) (187, 4.89114189147949218750e+00) (188, -6.06760203838348388672e-01) (189, -5.03060483932495117188e+00) (190, -3.98418045043945312500e+00) (191, 1.95228472352027893066e-01) (192, -1.16169464588165283203e+00) (193, -4.10001945495605468750e+00) (194, 3.90078449249267578125e+00) (195, -1.41600155830383300781e+00) (196, 2.48248314857482910156e+00) (197, 9.97662484645843505859e-01) (198, -1.45673322677612304688e+00) (199, -1.97020679712295532227e-01) (200, -2.59458160400390625000e+00) (201, -2.98433828353881835938e+00) (202, -8.56759488582611083984e-01) (203, 4.72501307725906372070e-01) (204, -6.06244385242462158203e-01) (205, -5.45199775695800781250e+00) (206, 2.10357856750488281250e+00) (207, 5.68606853485107421875e+00) (208, -8.63170623779296875000e-02) (209, -4.76922273635864257812e+00) (210, -6.26890420913696289062e+00) (211, 5.48013150691986083984e-01) (212, -1.80617582798004150391e+00) (213, -2.76097249984741210938e+00) (214, 3.23957777023315429688e+00) (215, 5.67207455635070800781e-01) (216, 4.10526990890502929688e+00) (217, 2.01382899284362792969e+00) (218, -1.42760038375854492188e+00) (219, -2.07798886299133300781e+00) (220, 6.52901887893676757812e-01) (221, -1.04448175430297851562e+00) (222, -2.47193479537963867188e+00) (223, -2.52932691574096679688e+00) (224, 1.56746089458465576172e+00) (225, -1.47050821781158447266e+00) (226, 4.11259233951568603516e-02) (227, 2.18879342079162597656e+00) (228, -1.72449970245361328125e+00) (229, -2.99843382835388183594e+00) (230, -2.33243775367736816406e+00) (231, 1.24180495738983154297e+00) (232, -2.22076416015625000000e+00) (233, -2.59130354970693588257e-02) (234, 3.61702013015747070312e+00) (235, 1.46214628219604492188e+00) (236, -1.70716512203216552734e+00) (237, -2.02129840850830078125e-01) (238, -1.68869650363922119141e+00) (239, -1.26920330524444580078e+00) (240, 3.84352356195449829102e-01) (241, -1.00567197799682617188e+00) (242, -4.04042053222656250000e+00) (243, -3.49624395370483398438e-01) (244, 2.35538387298583984375e+00) (245, -2.32833671569824218750e+00) (246, -6.33107542991638183594e-01) (247, -8.91304671764373779297e-01) (248, -9.07055199146270751953e-01) (249, -1.43988597393035888672e+00) (250, -1.91908943653106689453e+00) (251, 9.28315818309783935547e-01) (252, -1.71764039993286132812e+00) (253, 1.71916759014129638672e+00) (254, 4.17341232299804687500e+00) (255, 1.51005220413208007812e+00) (256, -2.80938267707824707031e+00) (257, -2.45273137092590332031e+00) (258, -5.33087968826293945312e-01) (259, 1.25900304317474365234e+00) (260, 1.85144340991973876953e+00) (261, -1.10494256019592285156e+00) (262, 7.94801950454711914062e-01) (263, 4.01232957839965820312e-01) (264, -1.40085554122924804688e+00) (265, -2.24631857872009277344e+00) (266, 1.20495271682739257812e+00) (267, 7.40646719932556152344e-01) (268, -2.15526366233825683594e+00) (269, 5.14276146888732910156e-01) (270, -1.28618550300598144531e+00) (271, -4.61000442504882812500e-01) (272, 4.68555599451065063477e-01) (273, -1.18237629532814025879e-01) (274, 1.36326527595520019531e+00) (275, -2.98840236663818359375e+00) (276, -2.28408384323120117188e+00) (277, -6.34233653545379638672e-01) (278, 3.69988650083541870117e-01) (279, 2.46992230415344238281e-01) (280, 2.65649056434631347656e+00) (281, 1.62884986400604248047e+00) (282, 8.47250461578369140625e-01) (283, -1.99489903450012207031e+00) (284, -1.40716052055358886719e+00) (285, -1.65599679946899414062e+00) (286, 1.54782044887542724609e+00) (287, -3.44789767265319824219e+00) (288, -7.88308978080749511719e-01) (289, 4.64989133179187774658e-02) (290, 6.44546031951904296875e-01) (291, 9.47142302989959716797e-01) (292, -9.54398870468139648438e-01) (293, -4.09128785133361816406e-01) (294, 2.52203941345214843750e+00) (295, -3.09478735923767089844e+00) (296, -2.94080758094787597656e+00) (297, -1.55750942230224609375e+00) (298, -2.82055139541625976562e-01) (299, 1.26659417152404785156e+00) (300, 1.83500826358795166016e+00) (301, 1.50639951229095458984e+00) (302, 4.60990786552429199219e-01) (303, 1.93473052978515625000e+00) (304, -1.30803382396697998047e+00) (305, -3.37913966178894042969e+00) (306, 1.39859306812286376953e+00) (307, -2.15746784210205078125e+00) (308, 1.05170106887817382812e+00) (309, 1.46398317813873291016e+00) (310, -9.63012874126434326172e-01) (311, -1.82865753769874572754e-01) (312, 1.62234947085380554199e-01) (313, -2.42919254302978515625e+00) (314, -1.01340234279632568359e+00) (315, -6.55541718006134033203e-01) (316, -8.40080916881561279297e-01) (317, -2.52873229980468750000e+00) (318, -1.81948900222778320312e+00) (319, -1.97081014513969421387e-01) (320, -1.83294996619224548340e-01) (321, -7.51124739646911621094e-01) (322, -3.39947414398193359375e+00) (323, 1.65374231338500976562e+00) (324, -2.22632336616516113281e+00) (325, -2.35524773597717285156e+00) (326, -2.23508191108703613281e+00) (327, -4.10382449626922607422e-01) (328, -4.29886013269424438477e-01) (329, -6.65939092636108398438e-01) (330, 1.50523245334625244141e+00) (331, -1.71087336540222167969e+00) (332, -1.68673455715179443359e-01) (333, -3.28484117984771728516e-01) (334, 2.45976090431213378906e+00) (335, -1.76489710807800292969e+00) (336, 1.52057802677154541016e+00) (337, -2.10289931297302246094e+00) (338, 1.34539759159088134766e+00) (339, 8.92214715480804443359e-01) (340, 3.71396851539611816406e+00) (341, -8.70065867900848388672e-01) (342, -3.06682467460632324219e+00) (343, -1.24946022033691406250e+00) (344, 2.02569508552551269531e+00) (345, -1.51606154441833496094e+00) (346, -6.66170537471771240234e-01) (347, -1.63532912731170654297e+00) (348, 2.69569468498229980469e+00) (349, -1.05513799190521240234e+00) (350, 1.91925883293151855469e+00) (351, -1.74473726749420166016e+00) (352, -8.32941234111785888672e-01) (353, 6.67352557182312011719e-01) (354, -2.18895286321640014648e-01) (355, -8.64493846893310546875e-01) (356, -2.33686789870262145996e-01) (357, -3.12529587745666503906e+00) (358, -1.84096264839172363281e+00) (359, -5.42502701282501220703e-01) (360, 3.16844320297241210938e+00) (361, -3.93131709098815917969e+00) (362, 2.29018878936767578125e+00) (363, -1.97606670856475830078e+00) (364, -2.07249909639358520508e-01) (365, 2.47486099600791931152e-01) (366, -4.41337972879409790039e-01) (367, -1.59498393535614013672e+00) (368, 4.02403259277343750000e+00) (369, -1.19226443767547607422e+00) (370, -1.25233995914459228516e+00) (371, -2.36587476730346679688e+00) (372, -2.07402181625366210938e+00) (373, -2.01301693916320800781e+00) (374, 3.85146230459213256836e-01) (375, 2.13402771949768066406e+00) (376, -1.37780451774597167969e+00) (377, -1.08822762966156005859e+00) (378, -1.16636061668395996094e+00) (379, 4.98425155878067016602e-01) (380, -1.28212509155273437500e+01) (0, 4.11454439163208007812e-01) (1, -4.94778680801391601562e+00) (2, -2.96689778566360473633e-01) (3, -3.63882690668106079102e-01) (4, -4.85148787498474121094e-01) (5, 2.41527485847473144531e+00) (6, 2.72214382886886596680e-01) (7, -2.52151131629943847656e-01) (8, 2.60469317436218261719e+00) (9, -2.88397955894470214844e+00) (10, -1.61617445945739746094e+00) (11, -1.53267168998718261719e+00) (12, -1.11322426795959472656e+00) (13, -2.34535503387451171875e+00) (14, 6.17091655731201171875e-01) (15, -1.08788597583770751953e+00) (16, -2.82911109924316406250e+00) (17, -1.71381199359893798828e+00) (18, 1.72962021827697753906e+00) (19, -1.63014590740203857422e+00) (20, -3.40117740631103515625e+00) (21, -6.99641525745391845703e-01) (22, -1.58957564830780029297e+00) (23, 5.77561318874359130859e-01) (24, 1.54470348358154296875e+00) (25, -2.13423895835876464844e+00) (26, -7.63182997703552246094e-01) (27, 8.75857234001159667969e-01) (28, -1.23302996158599853516e+00) (29, -8.54942381381988525391e-01) (30, 1.49238383769989013672e+00) (31, -2.65903615951538085938e+00) (32, 4.05530817806720733643e-02) (33, -2.66877865791320800781e+00) (34, -1.53593111038208007812e+00) (35, -1.87592935562133789062e+00) (36, -2.70101338624954223633e-01) (37, 3.01799643784761428833e-02) (38, 1.74386966228485107422e+00) (39, 1.27233102917671203613e-01) (40, -2.82861304283142089844e+00) (41, 1.75109064579010009766e+00) (42, -3.20293307304382324219e+00) (43, -2.39874553680419921875e+00) (44, 1.99315083026885986328e+00) (45, -9.30828213691711425781e-01) (46, -9.99784231185913085938e-01) (47, -2.45049667358398437500e+00) (48, 2.04926228523254394531e+00) (49, -1.36497640609741210938e+00) (50, -7.44729697704315185547e-01) (51, 1.88923335075378417969e+00) (52, -3.05263781547546386719e+00) (53, -3.38523149490356445312e-01) (54, -7.75507390499114990234e-01) (55, 2.56957101821899414062e+00) (56, -1.82187736034393310547e+00) (57, -4.74801093339920043945e-01) (58, -7.52801060676574707031e-01) (59, 9.78555232286453247070e-02) (60, -7.66952991485595703125e-01) (61, -1.40222012996673583984e-01) (62, -1.03965997695922851562e+00) (63, -3.01316356658935546875e+00) (64, -2.17387604713439941406e+00) (65, -5.54734766483306884766e-02) (66, -7.62465000152587890625e-01) (67, -5.92863225936889648438e+00) (68, -1.50852203369140625000e+00) (69, -1.68878376483917236328e+00) (70, 8.76051634550094604492e-02) (71, -4.41824793815612792969e-01) (72, -3.15314024686813354492e-01) (73, 1.34311425685882568359e+00) (74, 1.25388836860656738281e+00) (75, 3.73666614294052124023e-01) (76, 8.05636167526245117188e-01) (77, 2.21960842609405517578e-01) (78, 8.64532351493835449219e-01) (79, -7.15150356292724609375e-01) (80, -1.95733559131622314453e+00) (81, -6.95787072181701660156e-01) (82, -2.28818130493164062500e+00) (83, -9.78768840432167053223e-02) (84, 3.16896200180053710938e-01) (85, 1.04468047618865966797e+00) (86, 2.17355251312255859375e+00) (87, 9.28243756294250488281e-01) (88, 1.58575701713562011719e+00) (89, -5.28122329711914062500e+00) (90, -4.31428384780883789062e+00) (91, -2.01959133148193359375e+00) (92, 4.25855755805969238281e-01) (93, -2.99014711380004882812e+00) (94, -1.46658182144165039062e+00) (95, 1.41143178939819335938e+00) (96, -1.64228665828704833984e+00) (97, -9.72986221313476562500e-02) (98, -2.22810769081115722656e+00) (99, 4.49233484268188476562e+00) (100, -3.33396697044372558594e+00) (101, -9.92939531803131103516e-01) (102, -3.76533198356628417969e+00) (103, -3.02161812782287597656e+00) (104, -1.92640399932861328125e+00) (105, -3.60364437103271484375e+00) (106, 1.53768515586853027344e+00) (107, 3.46542668342590332031e+00) (108, -4.77158755064010620117e-01) (109, -2.34581559896469116211e-01) (110, -1.55794978141784667969e+00) (111, -1.40828406810760498047e+00) (112, -8.43151390552520751953e-01) (113, -1.80830097198486328125e+00) (114, -3.71402502059936523438e+00) (115, 1.35635125637054443359e+00) (116, -1.26662242412567138672e+00) (117, 3.55166018009185791016e-01) (118, 9.53372776508331298828e-01) (119, 1.95102000236511230469e+00) (120, -2.71570253372192382812e+00) (121, 3.21447938680648803711e-01) (122, -2.22580623626708984375e+00) (123, 3.12952756881713867188e-01) (124, -2.39789271354675292969e+00) (125, -5.83233833312988281250e+00) (126, -5.80469906330108642578e-01) (127, 3.10476279258728027344e+00) (128, 1.67636537551879882812e+00) (129, 3.70843887329101562500e-01) (130, -2.93837285041809082031e+00) (131, -1.57943725585937500000e+00) (132, -1.14502012729644775391e+00) (133, -9.40521776676177978516e-01) (134, 9.76279973983764648438e-02) (135, -8.18876326084136962891e-01) (136, -6.54433667659759521484e-01) (137, -2.46124911308288574219e+00) (138, -1.71191668510437011719e+00) (139, 1.92800068855285644531e+00) (140, -4.06693369150161743164e-01) (141, 1.05242025852203369141e+00) (142, 1.08413648605346679688e+00) (143, -1.16808545589447021484e+00) (144, -4.06106328964233398438e+00) (145, 6.90539300441741943359e-01) (146, -2.72546505928039550781e+00) (147, -2.08944916725158691406e+00) (148, -1.73921048641204833984e+00) (149, -2.08806800842285156250e+00) (150, -1.79961001873016357422e+00) (151, -5.17388486862182617188e+00) (152, -2.13952374458312988281e+00) (153, -3.18618893623352050781e+00) (154, 3.16022968292236328125e+00) (155, 3.18133616447448730469e+00) (156, 7.93797552585601806641e-01) (157, -2.11642789840698242188e+00) (158, 4.82541441917419433594e-01) (159, 5.93122020363807678223e-02) (160, -5.98168224096298217773e-02) (161, 1.34151899814605712891e+00) (162, -1.70046079158782958984e+00) (163, 7.80572652816772460938e-01) (164, -2.58878755569458007812e+00) (165, 3.36144953966140747070e-01) (166, 1.73306703567504882812e+00) (167, -1.70806133747100830078e+00) (168, -3.62323927879333496094e+00) (169, 6.70227110385894775391e-01) (170, 5.35296440124511718750e-01) (171, -2.99938583374023437500e+00) (172, -1.20859622955322265625e+00) (173, -1.71250855922698974609e+00) (174, 2.86075520515441894531e+00) (175, -1.47501099109649658203e+00) (176, 2.15353989601135253906e+00) (177, -6.31621539592742919922e-01) (178, -2.32919907569885253906e+00) (179, -3.87093305587768554688e+00) (180, 1.54473292827606201172e+00) (181, 3.85204792022705078125e-01) (182, 8.25321197509765625000e-01) (183, 3.27245593070983886719e+00) (184, -2.57417798042297363281e-01) (185, -2.04773020744323730469e+00) (186, 1.17092752456665039062e+00) (187, -2.60285139083862304688e+00) (188, 7.66476511955261230469e-01) (189, -2.15053653717041015625e+00) (190, -4.62943887710571289062e+00) (191, -1.15695190429687500000e+00) (192, -2.53827428817749023438e+00) (193, -7.46198177337646484375e-01) (194, 7.44208145141601562500e+00) (195, 3.12071293592453002930e-01) (196, 1.07614624500274658203e+00) (197, -3.49195837974548339844e+00) (198, -1.33378660678863525391e+00) (199, 4.00692701339721679688e-01) (200, 1.75064647197723388672e+00) (201, -2.16807150840759277344e+00) (202, -1.40883076190948486328e+00) (203, 2.49236151576042175293e-02) (204, 1.28207787871360778809e-01) (205, -3.24422049522399902344e+00) (206, -2.87436819076538085938e+00) (207, 1.04962027072906494141e+00) (208, 1.73894703388214111328e+00) (209, -3.89296817779541015625e+00) (210, -2.62529253959655761719e+00) (211, -3.87439608573913574219e+00) (212, -3.58830213546752929688e+00) (213, -1.13755571842193603516e+00) (214, 8.18888664245605468750e+00) (215, -1.99158012866973876953e+00) (216, 7.17141091823577880859e-01) (217, -5.89344680309295654297e-01) (218, 1.66643530130386352539e-01) (219, -6.08202159404754638672e-01) (220, -3.28964161872863769531e+00) (221, 4.44773674011230468750e-01) (222, 4.22803103923797607422e-01) (223, -1.65000998973846435547e+00) (224, 1.11917948722839355469e+00) (225, -2.18052458763122558594e+00) (226, -3.21519660949707031250e+00) (227, 1.65318930149078369141e+00) (228, 2.12060645222663879395e-01) (229, -9.34994280338287353516e-01) (230, -2.74332714080810546875e+00) (231, 3.76739144325256347656e-01) (232, -2.30475497245788574219e+00) (233, -6.68762743473052978516e-01) (234, -1.53127419948577880859e+00) (235, -1.50901317596435546875e+00) (236, 1.35102915763854980469e+00) (237, 9.48883071541786193848e-02) (238, 1.86566740274429321289e-01) (239, -2.64355635643005371094e+00) (240, -3.74629497528076171875e-01) (241, 4.32617485523223876953e-01) (242, -2.93387460708618164062e+00) (243, 1.16119074821472167969e+00) (244, -6.63259446620941162109e-01) (245, 1.09623424708843231201e-01) (246, -1.02163076400756835938e+00) (247, -2.10079813003540039062e+00) (248, -7.02853620052337646484e-01) (249, -6.14903271198272705078e-01) (250, -1.04116380214691162109e+00) (251, -5.97529172897338867188e-01) (252, -1.05235612392425537109e+00) (253, -3.06545400619506835938e+00) (254, -2.73699998855590820312e-01) (255, -1.23386979103088378906e+00) (256, 1.50255298614501953125e+00) (257, -2.17313671112060546875e+00) (258, -1.71778416633605957031e+00) (259, -2.87494587898254394531e+00) (260, -2.32055753469467163086e-01) (261, -4.10392910242080688477e-01) (262, -2.37904047966003417969e+00) (263, 2.35366091132164001465e-01) (264, -1.37326657772064208984e+00) (265, -6.00762426853179931641e-01) (266, 2.43187117576599121094e+00) (267, -1.31602323055267333984e+00) (268, -3.25346446037292480469e+00) (269, -4.58483606576919555664e-01) (270, -1.80017876625061035156e+00) (271, -3.60425257682800292969e+00) (272, 9.16165769100189208984e-01) (273, -2.23480772972106933594e+00) (274, 2.07474327087402343750e+00) (275, 2.14660793542861938477e-01) (276, 1.98076593875885009766e+00) (277, -2.92981583625078201294e-02) (278, -2.04977154731750488281e+00) (279, -3.40774393081665039062e+00) (280, 2.28198528289794921875e+00) (281, -2.51065433025360107422e-01) (282, -1.94753432273864746094e+00) (283, -2.46815252304077148438e+00) (284, -6.43861964344978332520e-02) (285, -3.71674442291259765625e+00) (286, 2.31692910194396972656e+00) (287, -5.43088018894195556641e-01) (288, 1.08751066029071807861e-01) (289, -3.20825576782226562500e+00) (290, -8.96834433078765869141e-01) (291, -1.91119873523712158203e+00) (292, -1.34138941764831542969e+00) (293, 1.66900920867919921875e+00) (294, -1.71060490608215332031e+00) (295, -1.73483490943908691406e+00) (296, 1.11975765228271484375e+00) (297, -1.99619736522436141968e-02) (298, -2.66655635833740234375e+00) (299, -2.21177697181701660156e+00) (300, -1.42133593559265136719e+00) (301, -3.26129269599914550781e+00) (302, 6.21027946472167968750e-01) (303, -1.27968657016754150391e+00) (304, 9.94066417217254638672e-01) (305, 1.43079078197479248047e+00) (306, -2.76612639427185058594e-01) (307, -4.61402988433837890625e+00) (308, 5.62819302082061767578e-01) (309, 1.07007406651973724365e-01) (310, -1.72458732128143310547e+00) (311, 1.29116737842559814453e+00) (312, -4.10113191604614257812e+00) (313, 1.04542851448059082031e+00) (314, 2.19022825360298156738e-01) (315, 1.00886571407318115234e+00) (316, 1.50943768024444580078e+00) (317, -1.37532627582550048828e+00) (318, -5.16967201232910156250e+00) (319, -2.29430389404296875000e+00) (320, -5.13876497745513916016e-01) (321, -1.30446946620941162109e+00) (322, -2.40160250663757324219e+00) (323, -1.08916568756103515625e+00) (324, 8.80808055400848388672e-01) (325, 1.02913749217987060547e+00) (326, -1.73974835872650146484e+00) (327, -8.16654324531555175781e-01) (328, 2.80401945114135742188e-01) (329, 7.33821034431457519531e-01) (330, 2.08312869071960449219e-01) (331, -2.78991770744323730469e+00) (332, -3.14666748046875000000e+00) (333, -1.11970998346805572510e-01) (334, -1.62921941280364990234e+00) (335, -5.11971235275268554688e+00) (336, 4.67644155025482177734e-01) (337, -2.37104147672653198242e-01) (338, 1.32056832313537597656e+00) (339, 1.93281829357147216797e+00) (340, -4.13216304779052734375e+00) (341, -2.02880334854125976562e+00) (342, -2.74755746126174926758e-01) (343, -2.74972152709960937500e+00) (344, 9.11103963851928710938e-01) (345, 2.51993465423583984375e+00) (346, 7.91682481765747070312e-01) (347, -1.68648958206176757812e+00) (348, -9.95099127292633056641e-01) (349, -8.18798542022705078125e-01) (350, -1.98488116264343261719e+00) (351, 3.13428133726119995117e-01) (352, 3.44772052764892578125e+00) (353, -5.71239590644836425781e-01) (354, -3.77452802658081054688e+00) (355, -1.63896584510803222656e+00) (356, 3.58714699745178222656e-01) (357, 1.08469076454639434814e-01) (358, 1.95362520217895507812e+00) (359, -2.94511318206787109375e+00) (360, -2.06835937500000000000e+00) (361, 1.60908985137939453125e+00) (362, -3.11175966262817382812e+00) (363, 2.98510849475860595703e-01) (364, 3.69460487365722656250e+00) (365, 1.07665777206420898438e+00) (366, -3.17084622383117675781e+00) (367, 2.54934215545654296875e+00) (368, -1.11103093624114990234e+00) (369, 4.04528528451919555664e-01) (370, -4.06786108016967773438e+00) (371, -1.92525303363800048828e+00) (372, -5.91795265674591064453e-01) (373, -4.23290967941284179688e-01) (374, -6.78361952304840087891e-01) (375, 1.25305354595184326172e+00) (376, 6.69396715238690376282e-03) (377, -2.85020381212234497070e-01) (378, -1.61895370483398437500e+00) (379, -2.40836691856384277344e+00) (380, -3.89755082130432128906e+00) (0, 1.91316568851470947266e+00) (1, 1.98546075820922851562e+00) (2, 1.69044530391693115234e+00) (3, -6.39783143997192382812e-01) (4, 1.86157214641571044922e+00) (5, -1.50795423984527587891e+00) (6, -8.87177348136901855469e-01) (7, -1.32177770137786865234e+00) (8, -1.92369580268859863281e+00) (9, -4.48011249303817749023e-01) (10, -2.82882302999496459961e-01) (11, -7.48076796531677246094e-01) (12, -3.38015198707580566406e-01) (13, -1.81857377290725708008e-01) (14, -6.78723156452178955078e-02) (15, -1.99901783466339111328e+00) (16, 2.01864504814147949219e+00) (17, -1.67068815231323242188e+00) (18, -5.97574234008789062500e-01) (19, -3.23954510688781738281e+00) (20, 1.01553690433502197266e+00) (21, 1.85613679885864257812e+00) (22, 9.81334269046783447266e-01) (23, 2.58859604597091674805e-01) (24, -1.08925604820251464844e+00) (25, -1.06687760353088378906e+00) (26, -1.24100160598754882812e+00) (27, -1.53526556491851806641e+00) (28, 1.49778068065643310547e+00) (29, -3.98885369300842285156e-01) (30, 3.77225637435913085938e-01) (31, -4.70999866724014282227e-01) (32, -6.22583627700805664062e-01) (33, -2.35314190387725830078e-01) (34, 5.77574312686920166016e-01) (35, -2.68489217758178710938e+00) (36, 1.38961493968963623047e+00) (37, -1.72254133224487304688e+00) (38, -3.12499016523361206055e-01) (39, -1.84631109237670898438e-01) (40, 1.76849949359893798828e+00) (41, -3.42111140489578247070e-01) (42, 2.43151947855949401855e-01) (43, 1.72446513175964355469e+00) (44, -2.49550962448120117188e+00) (45, 1.67861008644104003906e+00) (46, -5.47375261783599853516e-01) (47, -1.30347788333892822266e+00) (48, -1.44895672798156738281e-01) (49, 1.02133846282958984375e+00) (50, -1.32763648033142089844e+00) (51, -1.56601619720458984375e+00) (52, -3.00690740346908569336e-01) (53, -7.69515812397003173828e-01) (54, -3.74254226684570312500e-01) (55, -6.10412359237670898438e-01) (56, 1.63641178607940673828e+00) (57, -2.38548374176025390625e+00) (58, 4.63088862597942352295e-02) (59, -4.26325261592864990234e-01) (60, 2.10127973556518554688e+00) (61, 1.88785851001739501953e+00) (62, -1.29208838939666748047e+00) (63, 1.11715400218963623047e+00) (64, -8.77445518970489501953e-01) (65, 1.27826929092407226562e+00) (66, -9.04989004135131835938e-01) (67, -2.01468539237976074219e+00) (68, 1.10538029670715332031e+00) (69, -2.00193715095520019531e+00) (70, 1.39396297931671142578e+00) (71, 7.16189980506896972656e-01) (72, -1.50673019886016845703e+00) (73, -1.41911935806274414062e+00) (74, -1.39990198612213134766e+00) (75, 7.32060372829437255859e-01) (76, -7.01832711696624755859e-01) (77, -1.52665519714355468750e+00) (78, -5.10022222995758056641e-01) (79, -1.19230353832244873047e+00) (80, -8.93321156501770019531e-01) (81, 1.01758813858032226562e+00) (82, 1.56268632411956787109e+00) (83, -2.21413969993591308594e+00) (84, -1.11081826686859130859e+00) (85, -5.47939240932464599609e-01) (86, -2.57471203804016113281e+00) (87, -1.76923191547393798828e+00) (88, -7.83020794391632080078e-01) (89, 1.34579038619995117188e+00) (90, 1.53424310684204101562e+00) (91, 2.40190410614013671875e+00) (92, -1.95024383068084716797e+00) (93, -1.22889233753085136414e-02) (94, 8.19561302661895751953e-01) (95, -1.77330136299133300781e-01) (96, -1.07463526725769042969e+00) (97, -1.86349177360534667969e+00) (98, -7.81450748443603515625e-01) (99, 1.88126683235168457031e+00) (100, 4.44302350282669067383e-01) (101, -9.11498665809631347656e-01) (102, -1.22144520282745361328e+00) (103, 7.13503360748291015625e-02) (104, 4.92456555366516113281e-01) (105, 1.46741437911987304688e+00) (106, -1.63643705844879150391e+00) (107, -2.01695775985717773438e+00) (108, -1.04347383975982666016e+00) (109, -6.19325220584869384766e-01) (110, 1.43107867240905761719e+00) (111, 1.26188004016876220703e+00) (112, -7.45512962341308593750e-01) (113, 4.57036823034286499023e-01) (114, -9.95995044708251953125e-01) (115, 2.09336280822753906250e+00) (116, 1.14144146442413330078e+00) (117, -1.22377872467041015625e+00) (118, -1.48887932300567626953e+00) (119, -2.25748085975646972656e+00) (120, -1.06031745672225952148e-01) (121, -5.07227778434753417969e-01) (122, 1.48774170875549316406e+00) (123, -2.57331705093383789062e+00) (124, 1.04454554617404937744e-01) (125, -1.89299297332763671875e+00) (126, -1.31478762626647949219e+00) (127, -9.43062663078308105469e-01) (128, -1.38836359977722167969e+00) (129, 8.87388765811920166016e-01) (130, 9.00521814823150634766e-01) (131, 1.98469686508178710938e+00) (132, 2.22170376777648925781e+00) (133, 4.25113081932067871094e-01) (134, 1.73113524913787841797e-01) (135, -1.57704949378967285156e+00) (136, -2.89468932151794433594e+00) (137, -5.29038786888122558594e-01) (138, 1.95493102073669433594e+00) (139, -1.39726650714874267578e+00) (140, -1.90459036827087402344e+00) (141, 1.82653677463531494141e+00) (142, -1.98186135292053222656e+00) (143, -2.29110455513000488281e+00) (144, -1.66326844692230224609e+00) (145, -1.00785863399505615234e+00) (146, 6.83715581893920898438e-01) (147, -4.98366653919219970703e-01) (148, 2.15139842033386230469e+00) (149, 3.24696254730224609375e+00) (150, -1.78955423831939697266e+00) (151, 1.83781278133392333984e+00) (152, -6.64526879787445068359e-01) (153, 1.31561958789825439453e+00) (154, -6.43468201160430908203e-02) (155, -6.02286100387573242188e-01) (156, -2.68821740150451660156e+00) (157, -1.28662168979644775391e-01) (158, 2.67549231648445129395e-02) (159, -1.22310984134674072266e+00) (160, 2.29215100407600402832e-01) (161, 3.39082986116409301758e-01) (162, -2.14120244979858398438e+00) (163, -1.76580989360809326172e+00) (164, -1.66477411985397338867e-01) (165, -3.12015354633331298828e-01) (166, 2.12559551000595092773e-01) (167, -6.14881873130798339844e-01) (168, 9.68760728836059570312e-01) (169, -4.51251745223999023438e-01) (170, -8.14599931240081787109e-01) (171, -2.09917378425598144531e+00) (172, 1.32776105403900146484e+00) (173, 6.29421919584274291992e-02) (174, -1.61197340488433837891e+00) (175, -2.75306010246276855469e+00) (176, -6.07180655002593994141e-01) (177, 8.08082938194274902344e-01) (178, 2.39230990409851074219e+00) (179, -5.03141343593597412109e-01) (180, 2.87435948848724365234e-01) (181, 2.46455478668212890625e+00) (182, -1.10732638835906982422e+00) (183, -2.09483695030212402344e+00) (184, -6.58183515071868896484e-01) (185, -3.11190336942672729492e-01) (186, -3.36271464824676513672e-01) (187, -5.00845575332641601562e+00) (188, 9.24015045166015625000e-01) (189, 2.50222921371459960938e+00) (190, 9.10027101635932922363e-02) (191, -1.16498589515686035156e+00) (192, 2.85751819610595703125e+00) (193, 8.12216177582740783691e-02) (194, -4.27635192871093750000e+00) (195, -5.90718030929565429688e-01) (196, -2.65305018424987792969e+00) (197, 3.92801731824874877930e-01) (198, 3.58441054821014404297e-01) (199, -1.17809019982814788818e-01) (200, -1.39016580581665039062e+00) (201, -9.59154546260833740234e-01) (202, -2.09872484207153320312e+00) (203, -3.02600836753845214844e+00) (204, -3.33024650812149047852e-01) (205, 2.18680906295776367188e+00) (206, 1.54487937688827514648e-01) (207, -4.23520469665527343750e+00) (208, -2.77964621782302856445e-01) (209, 4.18719112873077392578e-01) (210, 1.20734977722167968750e+00) (211, 5.33783972263336181641e-01) (212, 1.67322361469268798828e+00) (213, -4.14091795682907104492e-02) (214, -3.70611524581909179688e+00) (215, -2.01166883111000061035e-01) (216, 5.90401411056518554688e-01) (217, 4.01969164609909057617e-01) (218, 1.49836063385009765625e+00) (219, 8.57055544853210449219e-01) (220, -1.99732947349548339844e+00) (221, 5.52888095378875732422e-01) (222, -3.51983815431594848633e-01) (223, -3.65701913833618164062e+00) (224, 1.19622111320495605469e+00) (225, 3.80908322334289550781e+00) (226, -7.92674481868743896484e-01) (227, -2.00297737121582031250e+00) (228, -1.89037990570068359375e+00) (229, 1.39487016201019287109e+00) (230, -7.22648918628692626953e-01) (231, 2.47103199362754821777e-01) (232, 5.85784316062927246094e-01) (233, -2.70931005477905273438e+00) (234, -1.80621027946472167969e+00) (235, -3.00674170255661010742e-01) (236, 8.72358202934265136719e-01) (237, -1.12024748325347900391e+00) (238, 1.30704605579376220703e+00) (239, 3.65079164505004882812e-01) (240, -1.05196423828601837158e-01) (241, 1.20994234085083007812e+00) (242, -2.13675665855407714844e+00) (243, -4.17964220046997070312e+00) (244, -1.27553299069404602051e-01) (245, 6.47558569908142089844e-01) (246, 1.45110261440277099609e+00) (247, -8.39960753917694091797e-01) (248, -8.37883502244949340820e-02) (249, -1.19255876541137695312e+00) (250, 1.92900502681732177734e+00) (251, -1.10652327537536621094e-01) (252, -6.00717425346374511719e-01) (253, -2.08596825599670410156e-01) (254, -2.89392590522766113281e+00) (255, -6.05617165565490722656e-02) (256, 2.25762462615966796875e+00) (257, -2.10609555244445800781e+00) (258, 9.28386509418487548828e-01) (259, -5.06340444087982177734e-01) (260, 5.95630798488855361938e-03) (261, -2.68926233053207397461e-01) (262, 3.77330243587493896484e-01) (263, -1.77592861652374267578e+00) (264, 2.14631795883178710938e-01) (265, -1.11266267299652099609e+00) (266, 9.06633019447326660156e-01) (267, -1.44586884975433349609e+00) (268, 5.39620161056518554688e-01) (269, 8.75774994492530822754e-02) (270, -9.94527995586395263672e-01) (271, 3.03527307510375976562e+00) (272, 1.46957409381866455078e+00) (273, -1.63414418697357177734e+00) (274, -3.56822681427001953125e+00) (275, -1.55468201637268066406e+00) (276, 1.93339288234710693359e+00) (277, 1.39466679096221923828e+00) (278, -1.48896050453186035156e+00) (279, -2.37191534042358398438e+00) (280, -5.84083735942840576172e-01) (281, -9.73335027694702148438e-01) (282, -8.93946170806884765625e-01) (283, -6.81920111179351806641e-01) (284, -1.16775906085968017578e+00) (285, 6.86883985996246337891e-01) (286, 2.35406541824340820312e+00) (287, 1.50217163562774658203e+00) (288, 1.50506412982940673828e+00) (289, -1.57724416255950927734e+00) (290, -1.11543262004852294922e+00) (291, 1.27016186714172363281e+00) (292, 7.84506797790527343750e-01) (293, -2.41322302818298339844e+00) (294, -2.36956462264060974121e-01) (295, -8.55061054229736328125e-01) (296, -2.10551545023918151855e-01) (297, 1.68057584762573242188e+00) (298, -3.32888817787170410156e+00) (299, -1.96507275104522705078e+00) (300, -1.17217645049095153809e-01) (301, 1.23566353321075439453e+00) (302, -3.26981037855148315430e-01) (303, -8.56537744402885437012e-02) (304, -1.33681416511535644531e+00) (305, -8.30408990383148193359e-01) (306, 5.80682516098022460938e-01) (307, 2.03365862369537353516e-01) (308, -2.41725370287895202637e-01) (309, -2.74480986595153808594e+00) (310, -2.31606101989746093750e+00) (311, 2.64179015159606933594e+00) (312, -3.75616580247879028320e-01) (313, -1.03261911869049072266e+00) (314, 7.41892337799072265625e-01) (315, -1.96691602468490600586e-01) (316, 2.80557930469512939453e-01) (317, -3.86623740196228027344e-01) (318, -1.92691302299499511719e+00) (319, -1.32989692687988281250e+00) (320, -1.07169821858406066895e-01) (321, 3.29526782035827636719e+00) (322, 2.28799724578857421875e+00) (323, 1.61713600158691406250e+00) (324, 1.58701074123382568359e+00) (325, -1.61588609218597412109e+00) (326, -1.36815357208251953125e+00) (327, 1.14992821216583251953e+00) (328, -5.11151611804962158203e-01) (329, -7.95596361160278320312e-01) (330, -2.82486486434936523438e+00) (331, -1.63265734910964965820e-01) (332, 7.66294747591018676758e-02) (333, -1.36248183250427246094e+00) (334, -1.69675195217132568359e+00) (335, -1.48007810115814208984e+00) (336, -6.29633963108062744141e-01) (337, -1.48324513435363769531e+00) (338, -1.02456498146057128906e+00) (339, -2.28939175605773925781e+00) (340, -1.97371757030487060547e+00) (341, 5.19838929176330566406e-01) (342, -1.70195972919464111328e+00) (343, 9.67714190483093261719e-01) (344, 6.35670185089111328125e-01) (345, -1.20837604999542236328e+00) (346, 1.66511595249176025391e+00) (347, -2.27058157324790954590e-01) (348, -1.66827094554901123047e+00) (349, -2.37155961990356445312e+00) (350, -3.42842191457748413086e-01) (351, 6.36198103427886962891e-01) (352, -4.72441256046295166016e-01) (353, 1.43206700682640075684e-01) (354, 1.03438925743103027344e+00) (355, -1.15843021869659423828e+00) (356, -1.51020932197570800781e+00) (357, -8.69006291031837463379e-02) (358, 1.34422034025192260742e-01) (359, -1.53812205791473388672e+00) (360, -1.25815498828887939453e+00) (361, -1.37647598981857299805e-01) (362, -3.17017346620559692383e-01) (363, 2.10829544067382812500e+00) (364, 1.46526694297790527344e+00) (365, -1.56463658809661865234e+00) (366, -1.54475495219230651855e-01) (367, -3.56638455390930175781e+00) (368, -1.15611243247985839844e+00) (369, 1.84091019630432128906e+00) (370, -3.30616641044616699219e+00) (371, 1.57634651660919189453e+00) (372, -1.41192042827606201172e+00) (373, -7.83550262451171875000e-01) (374, -1.21496307849884033203e+00) (375, -1.00292360782623291016e+00) (376, -3.16560029983520507812e-01) (377, -2.62943327426910400391e-01) (378, -7.41074681282043457031e-01) (379, 9.14712995290756225586e-02) (380, -8.48618125915527343750e+00) (0, -4.53129023313522338867e-01) (1, 2.16960716247558593750e+00) (2, -6.93614482879638671875e-01) (3, 1.47013795375823974609e+00) (4, 8.13030265271663665771e-03) (5, 8.07212769985198974609e-01) (6, -1.28699159622192382812e+00) (7, 1.76813530921936035156e+00) (8, -1.53202223777770996094e+00) (9, -3.79835844039916992188e+00) (10, 1.18967640399932861328e+00) (11, -1.82315802574157714844e+00) (12, -1.33901512622833251953e+00) (13, -2.25438427925109863281e+00) (14, -2.60371589660644531250e+00) (15, 1.46721982955932617188e+00) (16, -8.71308207511901855469e-01) (17, 4.59825247526168823242e-02) (18, -1.42417776584625244141e+00) (19, -1.66506218910217285156e+00) (20, -9.43344056606292724609e-01) (21, 2.24040126800537109375e+00) (22, -3.17617726325988769531e+00) (23, -8.35141897201538085938e-01) (24, 5.81862628459930419922e-01) (25, 2.00803470611572265625e+00) (26, -1.91152262687683105469e+00) (27, 1.18575012683868408203e+00) (28, 1.01850092411041259766e+00) (29, -1.94870913028717041016e+00) (30, -3.57009458541870117188e+00) (31, 2.53446310758590698242e-01) (32, -6.07611685991287231445e-02) (33, 2.64431200921535491943e-02) (34, -1.22068190574645996094e+00) (35, 2.89056587219238281250e+00) (36, -9.30141270160675048828e-01) (37, 2.32841819524765014648e-01) (38, -4.44745397567749023438e+00) (39, -1.27846288681030273438e+00) (40, -3.69935846328735351562e+00) (41, -1.09032757580280303955e-01) (42, -1.97761094570159912109e+00) (43, -7.95243203639984130859e-01) (44, -2.39336952567100524902e-01) (45, -1.13588380813598632812e+00) (46, -2.65274238586425781250e+00) (47, 1.40903471037745475769e-02) (48, -6.90242707729339599609e-01) (49, 3.05335730314254760742e-01) (50, -2.70999670028686523438e-02) (51, 7.26494431495666503906e-01) (52, -1.37365424633026123047e+00) (53, 3.75978302955627441406e+00) (54, -6.92088842391967773438e-01) (55, 3.55051016807556152344e+00) (56, -1.81456696987152099609e+00) (57, -2.63824391365051269531e+00) (58, 2.38590788841247558594e+00) (59, -2.75347042083740234375e+00) (60, -1.04881834983825683594e+00) (61, -2.00411200523376464844e+00) (62, 2.93653942644596099854e-02) (63, 1.39788246154785156250e+00) (64, -2.52537226676940917969e+00) (65, -1.87005460262298583984e+00) (66, 1.09069705009460449219e+00) (67, 4.26701879501342773438e+00) (68, -1.31724917888641357422e+00) (69, -1.84980237483978271484e+00) (70, 4.69799488782882690430e-01) (71, -1.74878180027008056641e-01) (72, 1.15098989009857177734e+00) (73, 1.03112947940826416016e+00) (74, -3.49177217483520507812e+00) (75, -5.85602164268493652344e-01) (76, -3.25712323188781738281e+00) (77, -2.40780305862426757812e+00) (78, 1.06384146213531494141e+00) (79, -3.15764486789703369141e-01) (80, 6.62516057491302490234e-01) (81, 1.84354567527770996094e+00) (82, -9.55288350582122802734e-01) (83, 1.29101383686065673828e+00) (84, -7.33431100845336914062e-01) (85, -1.26558721065521240234e-01) (86, -5.33305597305297851562e+00) (87, -9.14924502372741699219e-01) (88, 4.01178264617919921875e+00) (89, -4.54401344060897827148e-01) (90, -1.61752831935882568359e+00) (91, 2.59957551956176757812e+00) (92, -1.33067488670349121094e+00) (93, -3.73015999794006347656e-02) (94, -3.23381811380386352539e-01) (95, -4.84814494848251342773e-01) (96, 8.00942480564117431641e-01) (97, -2.28124618530273437500e+00) (98, -1.03714919090270996094e+00) (99, -4.20660686492919921875e+00) (100, -2.60849565267562866211e-01) (101, 6.29274308681488037109e-01) (102, -8.31389844417572021484e-01) (103, 2.82823944091796875000e+00) (104, -9.21629607677459716797e-01) (105, -2.72539407014846801758e-01) (106, -3.54432106018066406250e+00) (107, 3.27266275882720947266e-01) (108, -2.48639151453971862793e-01) (109, 1.44128072261810302734e+00) (110, 2.61346697807312011719e+00) (111, 2.19121873378753662109e-02) (112, -2.30445718765258789062e+00) (113, -3.30087733268737792969e+00) (114, 3.61375284194946289062e+00) (115, -1.83992040157318115234e+00) (116, -6.85770988464355468750e-01) (117, -8.77166450023651123047e-01) (118, 3.55981200933456420898e-01) (119, -3.90392446517944335938e+00) (120, -3.46331572532653808594e+00) (121, 1.37678241729736328125e+00) (122, 1.14313483238220214844e+00) (123, -3.88531863689422607422e-01) (124, 1.74127626419067382812e+00) (125, -7.10919737815856933594e-01) (126, -2.29265475273132324219e+00) (127, 4.39161598682403564453e-01) (128, -1.17428183555603027344e+00) (129, -3.48697471618652343750e+00) (130, -1.62136864662170410156e+00) (131, -2.48660743236541748047e-01) (132, -1.37925803661346435547e+00) (133, 1.72027766704559326172e+00) (134, 4.85485136508941650391e-01) (135, -5.10496795177459716797e-01) (136, 3.36937099695205688477e-01) (137, -9.26480054855346679688e-01) (138, -2.51279890537261962891e-01) (139, 3.28955698013305664062e+00) (140, -1.96854281425476074219e+00) (141, -1.83458185195922851562e+00) (142, -1.21356999874114990234e+00) (143, -2.85200357437133789062e+00) (144, 2.04980432987213134766e-01) (145, -1.36934542655944824219e+00) (146, -2.35079348087310791016e-01) (147, 2.44768977165222167969e+00) (148, -1.79863238334655761719e+00) (149, 7.75942385196685791016e-01) (150, 7.63714015483856201172e-01) (151, 1.66726994514465332031e+00) (152, -1.23575115203857421875e+00) (153, 3.25070977210998535156e+00) (154, -6.08395516872406005859e-01) (155, -1.78104114532470703125e+00) (156, -2.96112370491027832031e+00) (157, -1.64176547527313232422e+00) (158, 4.50257873535156250000e+00) (159, -7.21101999282836914062e-01) (160, -2.75940895080566406250e+00) (161, -4.67148125171661376953e-01) (162, -1.93907606601715087891e+00) (163, -2.80983924865722656250e+00) (164, 1.85642480850219726562e+00) (165, -1.84065628051757812500e+00) (166, -3.38384509086608886719e+00) (167, -1.53143095970153808594e+00) (168, -4.39913368225097656250e+00) (169, 1.87367475032806396484e+00) (170, 9.35786187648773193359e-01) (171, -4.82853919267654418945e-01) (172, 8.87330770492553710938e-02) (173, 2.09174370765686035156e+00) (174, 7.96624064445495605469e-01) (175, 1.87369275093078613281e+00) (176, -1.91744416952133178711e-01) (177, 1.75162625312805175781e+00) (178, -1.06921267509460449219e+00) (179, 1.71052050590515136719e+00) (180, -4.23173809051513671875e+00) (181, -2.31181097030639648438e+00) (182, 1.39918178319931030273e-01) (183, -4.41240215301513671875e+00) (184, 1.05211794376373291016e+00) (185, -1.01830816268920898438e+00) (186, -2.35693693161010742188e+00) (187, -1.48360168933868408203e+00) (188, -2.48625826835632324219e+00) (189, 4.14382600784301757812e+00) (190, 4.30117845535278320312e+00) (191, -2.24685692787170410156e+00) (192, -2.23620876669883728027e-01) (193, 2.45718765258789062500e+00) (194, -4.60373067855834960938e+00) (195, -3.37057304382324218750e+00) (196, 4.05861079692840576172e-01) (197, -2.57123619318008422852e-01) (198, -1.52794137597084045410e-01) (199, 3.56946086883544921875e+00) (200, -1.62276864051818847656e+00) (201, -2.58370566368103027344e+00) (202, -2.87978363037109375000e+00) (203, -1.53100740909576416016e+00) (204, 1.94944417476654052734e+00) (205, 1.02567493915557861328e+00) (206, -2.49425840377807617188e+00) (207, -6.75843298435211181641e-01) (208, -1.54387426376342773438e+00) (209, 1.93408679962158203125e+00) (210, 9.49229598045349121094e-01) (211, 1.14679306745529174805e-01) (212, 1.52314946055412292480e-01) (213, 3.61834645271301269531e+00) (214, -1.58762681484222412109e+00) (215, -4.48034572601318359375e+00) (216, -2.30874848365783691406e+00) (217, 9.60961639881134033203e-01) (218, 2.82746648788452148438e+00) (219, 6.44561946392059326172e-01) (220, -2.40106463432312011719e+00) (221, -1.80662739276885986328e+00) (222, -8.36328327655792236328e-01) (223, -2.28399062156677246094e+00) (224, 5.60219109058380126953e-01) (225, -2.85338592529296875000e+00) (226, -4.04801559448242187500e+00) (227, -2.37355828285217285156e+00) (228, -1.40688169002532958984e+00) (229, 6.03326368331909179688e+00) (230, -2.63194262981414794922e-01) (231, -1.88161277770996093750e+00) (232, -2.74433350563049316406e+00) (233, 2.61889910697937011719e+00) (234, 2.62482213973999023438e+00) (235, 2.15392017364501953125e+00) (236, -3.64392709732055664062e+00) (237, 6.41807937622070312500e+00) (238, 9.48793590068817138672e-01) (239, 9.16303396224975585938e-02) (240, -2.75104928016662597656e+00) (241, 1.27727329730987548828e+00) (242, -8.80011260509490966797e-01) (243, 1.83515858650207519531e+00) (244, 8.16832780838012695312e-02) (245, -5.46578884124755859375e-01) (246, -2.28575801849365234375e+00) (247, -3.31407666206359863281e+00) (248, -1.82926785945892333984e+00) (249, 1.11661553382873535156e+00) (250, -6.52339279651641845703e-01) (251, -8.65293860435485839844e-01) (252, -3.20692253112792968750e+00) (253, 3.77960860729217529297e-01) (254, -2.74593263864517211914e-01) (255, 9.33645665645599365234e-01) (256, 5.93126490712165832520e-02) (257, 4.26058959960937500000e+00) (258, -4.48082804679870605469e-01) (259, -3.96738886833190917969e-01) (260, -3.17332935333251953125e+00) (261, 9.01794493198394775391e-01) (262, 1.28307783603668212891e+00) (263, 1.23026788234710693359e+00) (264, 1.94081187248229980469e+00) (265, -2.08279943466186523438e+00) (266, -9.23513531684875488281e-01) (267, -2.45398736000061035156e+00) (268, -7.93675005435943603516e-01) (269, -4.53789758682250976562e+00) (270, -1.09434473514556884766e+00) (271, -8.28342199325561523438e-01) (272, 8.88849496841430664062e-01) (273, -1.09586155414581298828e+00) (274, 2.60693955421447753906e+00) (275, -9.15466606616973876953e-01) (276, -1.47744381427764892578e+00) (277, -1.70481371879577636719e+00) (278, -2.08875370025634765625e+00) (279, 2.42657780647277832031e+00) (280, -2.37749934196472167969e+00) (281, -3.81707131862640380859e-01) (282, -1.53269720077514648438e+00) (283, 1.53446972370147705078e+00) (284, 2.88595318794250488281e+00) (285, 4.93660718202590942383e-01) (286, 8.23025465011596679688e-01) (287, -3.18179178237915039062e+00) (288, 4.06951904296875000000e-01) (289, 1.29588329792022705078e+00) (290, 2.48842763900756835938e+00) (291, -1.19958698749542236328e+00) (292, -2.13076531887054443359e-01) (293, -1.46802854537963867188e+00) (294, -1.93816289305686950684e-01) (295, -1.46695923805236816406e+00) (296, 4.71002042293548583984e-01) (297, -2.03489613533020019531e+00) (298, -3.41596674919128417969e+00) (299, -3.54864239692687988281e+00) (300, 2.85010266304016113281e+00) (301, 1.26185512542724609375e+00) (302, 3.80851912498474121094e+00) (303, -1.81650924682617187500e+00) (304, -2.55421638488769531250e-01) (305, 1.13292120397090911865e-01) (306, -1.96117341518402099609e+00) (307, -5.65998017787933349609e-01) (308, -1.45416009426116943359e+00) (309, -3.28369945287704467773e-01) (310, -2.20406365394592285156e+00) (311, 5.42428016662597656250e-01) (312, -8.92490267753601074219e-01) (313, -1.90517985820770263672e+00) (314, 6.60020411014556884766e-01) (315, -1.46624374389648437500e+00) (316, -2.07399177551269531250e+00) (317, -5.64376056194305419922e-01) (318, -3.76492166519165039062e+00) (319, -4.52828332781791687012e-02) (320, -1.21374714374542236328e+00) (321, -1.89249968528747558594e+00) (322, 3.40098834037780761719e+00) (323, 1.84633409976959228516e+00) (324, -2.96736526489257812500e+00) (325, -5.78324019908905029297e-01) (326, 8.91771316528320312500e-01) (327, -2.13104695081710815430e-01) (328, 2.67563152313232421875e+00) (329, -2.70836305618286132812e+00) (330, -2.68858218193054199219e+00) (331, -2.32474660873413085938e+00) (332, 2.93282330036163330078e-01) (333, -3.46728801727294921875e+00) (334, 4.10685157775878906250e+00) (335, -1.84644997119903564453e+00) (336, -1.24650430679321289062e+00) (337, -2.01688718795776367188e+00) (338, -1.31278908252716064453e+00) (339, -1.46678960323333740234e+00) (340, 9.90611985325813293457e-02) (341, -3.87933194637298583984e-01) (342, -2.10826188325881958008e-01) (343, -2.13871788978576660156e+00) (344, -2.76948833465576171875e+00) (345, -9.56846252083778381348e-02) (346, -2.79425263404846191406e+00) (347, 3.84295821189880371094e+00) (348, -1.42501342296600341797e+00) (349, -1.85939228534698486328e+00) (350, -8.67900326848030090332e-02) (351, -2.61297321319580078125e+00) (352, -2.05111432075500488281e+00) (353, -1.45094025135040283203e+00) (354, 2.90437674522399902344e+00) (355, -5.09068906307220458984e-01) (356, 1.92645454406738281250e+00) (357, -5.93210518360137939453e-01) (358, -2.12893986701965332031e+00) (359, 7.78102278709411621094e-01) (360, 9.42455768585205078125e-01) (361, -8.18220019340515136719e-01) (362, 6.12161874771118164062e-01) (363, -7.55432784557342529297e-01) (364, 5.86823940277099609375e-01) (365, -3.34710091352462768555e-01) (366, -7.46406793594360351562e-01) (367, 4.83366072177886962891e-01) (368, -5.54200053215026855469e-01) (369, -1.84411251544952392578e+00) (370, -2.60776090621948242188e+00) (371, -7.51911699771881103516e-01) (372, -2.41998481750488281250e+00) (373, 2.13628602027893066406e+00) (374, -2.11440443992614746094e+00) (375, -8.33888292312622070312e-01) (376, -3.23308199644088745117e-01) (377, -2.73262429237365722656e+00) (378, -9.67388972640037536621e-02) (379, -1.37514543533325195312e+00) (380, -1.31027727127075195312e+01) (0, -5.59015512466430664062e-01) (1, -6.56611680984497070312e-01) (2, -1.20161509513854980469e+00) (3, 1.85228610038757324219e+00) (4, -1.37540924549102783203e+00) (5, -2.05085825920104980469e+00) (6, 1.30161869525909423828e+00) (7, 4.48340511322021484375e+00) (8, 2.58897066116333007812e-01) (9, -1.02885402739048004150e-01) (10, -2.14331492781639099121e-01) (11, -1.67869663238525390625e+00) (12, -1.06889212131500244141e+00) (13, -2.52198800444602966309e-02) (14, -1.51800525188446044922e+00) (15, 8.53994429111480712891e-01) (16, 3.35894227027893066406e-01) (17, -1.48044192790985107422e+00) (18, 2.23851799964904785156e+00) (19, -1.70944225788116455078e+00) (20, 2.14338803291320800781e+00) (21, -2.67513632774353027344e+00) (22, 1.29884314537048339844e+00) (23, -1.15617230534553527832e-01) (24, 3.54960076510906219482e-02) (25, 1.98786211013793945312e+00) (26, 5.90417444705963134766e-01) (27, -1.64685451984405517578e+00) (28, 1.05527848005294799805e-01) (29, -1.89802718162536621094e+00) (30, -5.04277408123016357422e-01) (31, 7.56691247224807739258e-02) (32, -6.14274024963378906250e-01) (33, -1.11237680912017822266e+00) (34, -4.17306900024414062500e+00) (35, 2.49698376655578613281e+00) (36, -2.04140591621398925781e+00) (37, 2.70722031593322753906e-01) (38, 3.80200356245040893555e-01) (39, 1.37759375572204589844e+00) (40, -6.69435441493988037109e-01) (41, -9.35526609420776367188e-01) (42, -6.49673700332641601562e-01) (43, -1.54797506332397460938e+00) (44, 9.88833665847778320312e-01) (45, 1.30923533439636230469e+00) (46, -3.30829572677612304688e+00) (47, 4.68066304922103881836e-01) (48, 4.64889109134674072266e-01) (49, 2.09030359983444213867e-01) (50, 1.94747269153594970703e+00) (51, -2.17233085632324218750e+00) (52, -2.49415591359138488770e-01) (53, 9.70108583569526672363e-02) (54, -3.41097450256347656250e+00) (55, -4.17960792779922485352e-01) (56, -1.13148629665374755859e+00) (57, 2.13016366958618164062e+00) (58, 3.95084887742996215820e-01) (59, 1.29299247264862060547e+00) (60, -1.48729348182678222656e+00) (61, -2.03488206863403320312e+00) (62, -1.50619149208068847656e+00) (63, 9.67106103897094726562e-01) (64, 3.19018340110778808594e+00) (65, -1.56093299388885498047e+00) (66, 1.22436690330505371094e+00) (67, -1.09219086170196533203e+00) (68, -3.05321723222732543945e-01) (69, 5.42968958616256713867e-02) (70, -4.42117542028427124023e-01) (71, -1.70841372013092041016e+00) (72, -1.23941592872142791748e-01) (73, 1.34414803981781005859e+00) (74, -2.35963678359985351562e+00) (75, -9.88243818283081054688e-01) (76, 2.34965622425079345703e-01) (77, 2.34705042839050292969e+00) (78, 2.60779261589050292969e-01) (79, -2.31835579872131347656e+00) (80, -2.46031284332275390625e-01) (81, -8.82721841335296630859e-01) (82, -9.09828007221221923828e-01) (83, -1.93008029460906982422e+00) (84, -1.94687873125076293945e-01) (85, 1.46517336368560791016e+00) (86, -9.93482053279876708984e-01) (87, 6.53948962688446044922e-01) (88, -2.11389136314392089844e+00) (89, 2.73094820976257324219e+00) (90, -3.69331822730600833893e-03) (91, -3.57320594787597656250e+00) (92, 1.69817185401916503906e+00) (93, 3.30851840972900390625e+00) (94, -1.66065037250518798828e+00) (95, -2.22874593734741210938e+00) (96, 5.56916296482086181641e-01) (97, 1.56562125682830810547e+00) (98, -2.84525561332702636719e+00) (99, -1.80039513111114501953e+00) (100, -2.20811486244201660156e+00) (101, -3.58495259284973144531e+00) (102, -1.52743291854858398438e+00) (103, -1.29384052753448486328e+00) (104, 5.12336254119873046875e-01) (105, -7.50190258026123046875e-01) (106, 1.59726202487945556641e-01) (107, 6.17161154747009277344e-01) (108, -1.35446238517761230469e+00) (109, -7.75781035423278808594e-01) (110, -1.13950943946838378906e+00) (111, -2.65224307775497436523e-01) (112, -6.14528179168701171875e-01) (113, 3.45049619674682617188e+00) (114, 2.10062265396118164062e+00) (115, -9.90294575691223144531e-01) (116, -1.08801797032356262207e-01) (117, 3.82838338613510131836e-01) (118, -1.27554726600646972656e+00) (119, 5.10240256786346435547e-01) (120, 2.10353713482618331909e-02) (121, -1.22433066368103027344e+00) (122, 1.20873510837554931641e+00) (123, -1.87228178977966308594e+00) (124, -9.83382523059844970703e-01) (125, -5.00535786151885986328e-01) (126, 4.52517509460449218750e+00) (127, 4.80888724327087402344e-01) (128, 1.11398315429687500000e+00) (129, -4.12201595306396484375e+00) (130, -2.24483594298362731934e-01) (131, 6.19292140007019042969e-01) (132, 3.28069746494293212891e-01) (133, -2.80271339416503906250e+00) (134, -5.76014697551727294922e-01) (135, -2.79745173454284667969e+00) (136, -6.14636301994323730469e-01) (137, 4.70553338527679443359e-01) (138, 5.63848674297332763672e-01) (139, -2.85631012916564941406e+00) (140, -2.16897964477539062500e+00) (141, -2.09641289710998535156e+00) (142, 2.14701199531555175781e+00) (143, -1.61605417728424072266e+00) (144, -1.42376959323883056641e-01) (145, -1.84330415725708007812e+00) (146, 1.57964634895324707031e+00) (147, 1.51354312896728515625e+00) (148, 5.90932309627532958984e-01) (149, -1.00404357910156250000e+00) (150, -2.94707679748535156250e+00) (151, -7.37592577934265136719e-01) (152, -4.03559267520904541016e-01) (153, -1.55399173498153686523e-01) (154, 1.86984586715698242188e+00) (155, -4.39642101526260375977e-01) (156, -1.02739715576171875000e+00) (157, -1.67209219932556152344e+00) (158, -1.24351978302001953125e+00) (159, -9.24461960792541503906e-01) (160, 9.83303248882293701172e-01) (161, -1.05865168571472167969e+00) (162, 3.47770810127258300781e+00) (163, 4.56562709808349609375e+00) (164, -8.61165821552276611328e-01) (165, -4.04604554176330566406e-01) (166, -1.24367845058441162109e+00) (167, 2.69970625638961791992e-01) (168, 8.45686569809913635254e-02) (169, -4.81139278411865234375e+00) (170, -3.09866845607757568359e-01) (171, -9.54044997692108154297e-01) (172, -1.82661175727844238281e+00) (173, -3.20794105529785156250e+00) (174, 2.55783081054687500000e+00) (175, -2.05127134919166564941e-01) (176, 6.15430116653442382812e-01) (177, -1.09628069400787353516e+00) (178, -1.03266441822052001953e+00) (179, -5.89406442642211914062e+00) (180, -2.49831295013427734375e+00) (181, -1.39357817173004150391e+00) (182, 1.26249802112579345703e+00) (183, 2.87717103958129882812e+00) (184, -2.25116133689880371094e+00) (185, 2.13636827468872070312e+00) (186, 1.12344729900360107422e+00) (187, -2.61834502220153808594e-01) (188, -6.96065187454223632812e-01) (189, -3.91779994964599609375e+00) (190, -1.04293771088123321533e-01) (191, -1.80515146255493164062e+00) (192, -5.88028430938720703125e-01) (193, -2.37623572349548339844e+00) (194, 3.49056839942932128906e+00) (195, 8.29989433288574218750e-01) (196, -4.79884654283523559570e-01) (197, -2.80021095275878906250e+00) (198, 1.23283886909484863281e+00) (199, -3.46681547164916992188e+00) (200, -1.03894960880279541016e+00) (201, -1.12930190563201904297e+00) (202, 1.54131579399108886719e+00) (203, 2.44622707366943359375e+00) (204, -1.82380843162536621094e+00) (205, 2.36562453210353851318e-02) (206, 1.40786099433898925781e+00) (207, 4.34612607955932617188e+00) (208, -1.20617485046386718750e+00) (209, -3.76248741149902343750e+00) (210, -1.62895113229751586914e-01) (211, -4.25285845994949340820e-01) (212, -8.64270865917205810547e-01) (213, -2.69790768623352050781e+00) (214, 2.71862983703613281250e+00) (215, -8.13754737377166748047e-01) (216, -3.05766761302947998047e-01) (217, -4.07659530639648437500e+00) (218, -7.23307251930236816406e-01) (219, -2.96725416183471679688e+00) (220, -1.82365071773529052734e+00) (221, -1.24583113193511962891e+00) (222, 1.74308609962463378906e+00) (223, 7.83173501491546630859e-01) (224, -1.81211054325103759766e+00) (225, -3.64119529724121093750e+00) (226, 3.55893111228942871094e+00) (227, 4.56766366958618164062e+00) (228, 4.81925636529922485352e-01) (229, -4.30229663848876953125e+00) (230, 1.31422591209411621094e+00) (231, -2.54074037075042724609e-01) (232, -1.21335530281066894531e+00) (233, -4.45580005645751953125e-01) (234, -1.44101905822753906250e+00) (235, -3.65514069795608520508e-01) (236, 1.66420102119445800781e+00) (237, -1.56043910980224609375e+00) (238, -1.50452244281768798828e+00) (239, -2.35236358642578125000e+00) (240, -2.13085818290710449219e+00) (241, -1.16656816005706787109e+00) (242, -1.59193038940429687500e-01) (243, -1.44770610332489013672e+00) (244, -1.17585897445678710938e+00) (245, 6.24359250068664550781e-01) (246, 1.29436445236206054688e+00) (247, 1.32029676437377929688e+00) (248, -2.25013446807861328125e+00) (249, -1.96237969398498535156e+00) (250, 2.09233069419860839844e+00) (251, -9.98357236385345458984e-01) (252, 3.61613696441054344177e-03) (253, -2.27576231956481933594e+00) (254, 1.72227990627288818359e+00) (255, -2.23004174232482910156e+00) (256, 2.57376432418823242188e+00) (257, -1.57778406143188476562e+00) (258, 7.24405229091644287109e-01) (259, -7.48501196503639221191e-02) (260, -7.54441767930984497070e-02) (261, 1.10067164897918701172e+00) (262, -2.58374905586242675781e+00) (263, -2.37864398956298828125e+00) (264, -1.32835805416107177734e+00) (265, 1.95248639583587646484e+00) (266, -4.44814026355743408203e-01) (267, 4.14269179105758666992e-01) (268, -1.31873941421508789062e+00) (269, -2.08688974380493164062e+00) (270, 3.71272750198841094971e-02) (271, -2.62332391738891601562e+00) (272, -1.24322915077209472656e+00) (273, -1.44004988670349121094e+00) (274, 1.28351497650146484375e+00) (275, -1.04050290584564208984e+00) (276, 1.38931322097778320312e+00) (277, 2.07450175285339355469e+00) (278, 9.56499993801116943359e-01) (279, 2.39265847206115722656e+00) (280, -3.32909607887268066406e+00) (281, 2.79304385185241699219e+00) (282, -2.42794823646545410156e+00) (283, -2.89975047111511230469e-01) (284, -1.79380238056182861328e+00) (285, -5.42438745498657226562e-01) (286, 7.43037760257720947266e-01) (287, 1.84614077210426330566e-01) (288, -6.71997785568237304688e-01) (289, -8.24679672718048095703e-01) (290, -3.33738595247268676758e-01) (291, -2.06103610992431640625e+00) (292, 2.45228075981140136719e+00) (293, 2.38817834854125976562e+00) (294, 5.14545440673828125000e-01) (295, -3.31734013557434082031e+00) (296, 1.82185077667236328125e+00) (297, -5.07161021232604980469e-01) (298, 7.55227804183959960938e-01) (299, 1.35471999645233154297e-01) (300, -3.51443171501159667969e+00) (301, 1.16639149188995361328e+00) (302, -1.28764688968658447266e+00) (303, 5.03077387809753417969e-01) (304, 1.29455137252807617188e+00) (305, -3.32849919795989990234e-01) (306, 1.32398593425750732422e+00) (307, 1.72602877020835876465e-01) (308, 2.29459747672080993652e-01) (309, -4.85157996416091918945e-01) (310, 2.21311640739440917969e+00) (311, -3.85171365737915039062e+00) (312, 2.44844865798950195312e+00) (313, -1.49689614772796630859e+00) (314, -2.45060443878173828125e+00) (315, 2.30935764312744140625e+00) (316, -6.15020357072353363037e-02) (317, 4.05746012926101684570e-01) (318, -9.32803526520729064941e-02) (319, -2.78277564048767089844e+00) (320, -1.18787240982055664062e+00) (321, -1.56994879245758056641e+00) (322, 1.69816482067108154297e+00) (323, -5.71386516094207763672e-01) (324, 1.53295040130615234375e-01) (325, -9.26758885383605957031e-01) (326, 1.49381065368652343750e+00) (327, 2.26686620712280273438e+00) (328, -2.02837514877319335938e+00) (329, -1.02814888954162597656e+00) (330, -2.24538430571556091309e-01) (331, -2.37726116180419921875e+00) (332, 1.21625378727912902832e-01) (333, 1.41509270668029785156e+00) (334, -1.44263625144958496094e+00) (335, -1.77099227905273437500e+00) (336, -2.73568987846374511719e+00) (337, 2.39563241600990295410e-01) (338, 1.62622714042663574219e+00) (339, 1.26723909378051757812e+00) (340, -8.87220084667205810547e-01) (341, 1.68249964714050292969e+00) (342, 1.32984173297882080078e+00) (343, 1.30589097738265991211e-01) (344, 2.13721603155136108398e-01) (345, -9.20216441154479980469e-01) (346, -1.05111308395862579346e-01) (347, 1.79169619083404541016e+00) (348, -1.80359780788421630859e+00) (349, -1.49490106850862503052e-02) (350, -2.79643821716308593750e+00) (351, -2.28473782539367675781e+00) (352, -1.90099430084228515625e+00) (353, 2.49890494346618652344e+00) (354, -1.36173617839813232422e+00) (355, -9.85897302627563476562e-01) (356, -1.84712421894073486328e+00) (357, 2.06793093681335449219e+00) (358, 7.97223091125488281250e-01) (359, 3.22182089090347290039e-01) (360, -6.88972294330596923828e-01) (361, -1.09495234489440917969e+00) (362, -1.50364720821380615234e+00) (363, 1.01335644721984863281e+00) (364, 5.62105119228363037109e-01) (365, -2.05425930023193359375e+00) (366, -2.68886613845825195312e+00) (367, 1.13817751407623291016e+00) (368, -4.85825479030609130859e-01) (369, -2.57421112060546875000e+00) (370, 2.16557121276855468750e+00) (371, -3.24596595764160156250e+00) (372, 2.86582779884338378906e+00) (373, 2.77196097373962402344e+00) (374, -1.40421915054321289062e+00) (375, 8.52907657623291015625e-01) (376, 1.46971714496612548828e+00) (377, 2.65852499008178710938e+00) (378, 1.27285873889923095703e+00) (379, -3.24689555168151855469e+00) (380, -1.01500205993652343750e+01) (0, 2.08022856712341308594e+00) (1, -2.04827260971069335938e+00) (2, -2.99696415662765502930e-01) (3, -3.00096690654754638672e-01) (4, 5.69229662418365478516e-01) (5, -2.77629852294921875000e+00) (6, -8.46163451671600341797e-01) (7, 1.18008561432361602783e-01) (8, -2.98835349082946777344e+00) (9, -4.04042387008666992188e+00) (10, -3.08858013153076171875e+00) (11, -1.86662539839744567871e-01) (12, 3.04982495307922363281e+00) (13, 5.10024605318903923035e-03) (14, 1.18462181091308593750e+00) (15, 4.99080866575241088867e-01) (16, 6.40793800354003906250e-01) (17, 1.11226379871368408203e+00) (18, 1.77343994379043579102e-01) (19, 1.41061198711395263672e+00) (20, -1.39509022235870361328e+00) (21, 2.21223449707031250000e+00) (22, 1.10765218734741210938e+00) (23, -5.29670894145965576172e-01) (24, -1.97342777252197265625e+00) (25, -2.76652634143829345703e-01) (26, -9.31515395641326904297e-02) (27, -2.75971841812133789062e+00) (28, 3.81490617990493774414e-01) (29, -3.24650764465332031250e+00) (30, -4.13493680953979492188e+00) (31, 1.49972558021545410156e+00) (32, 2.05281972885131835938e+00) (33, -1.34841609001159667969e+00) (34, 2.44234704971313476562e+00) (35, 4.71605747938156127930e-01) (36, -9.30644571781158447266e-01) (37, -1.78907644748687744141e+00) (38, -1.26274794340133666992e-01) (39, 2.40504121780395507812e+00) (40, 8.22909176349639892578e-02) (41, 9.97547328472137451172e-01) (42, 2.14705753326416015625e+00) (43, 7.70279467105865478516e-01) (44, -3.15089416503906250000e+00) (45, 4.65075135231018066406e-01) (46, 7.25776433944702148438e-01) (47, -9.98317062854766845703e-01) (48, 1.06046460568904876709e-01) (49, -1.10682785511016845703e+00) (50, -2.54699778556823730469e+00) (51, -2.36331653594970703125e+00) (52, 1.32975518703460693359e-01) (53, 4.22531157732009887695e-01) (54, -1.39500424265861511230e-01) (55, -1.63680762052536010742e-01) (56, -1.33234536647796630859e+00) (57, -9.82572436332702636719e-01) (58, -9.32378888130187988281e-01) (59, 1.13005554676055908203e+00) (60, -2.55989044904708862305e-01) (61, -1.74908459186553955078e+00) (62, 1.39974904060363769531e+00) (63, 4.59046006202697753906e-01) (64, -3.56488990783691406250e+00) (65, 1.02160775661468505859e+00) (66, 1.46012115478515625000e+00) (67, -2.78497576713562011719e+00) (68, -3.25613677501678466797e-01) (69, -1.24054002761840820312e+00) (70, -9.55093979835510253906e-01) (71, -8.09651017189025878906e-01) (72, 1.11224699020385742188e+00) (73, 1.11743640899658203125e+00) (74, -2.09915608167648315430e-01) (75, -1.30419480800628662109e+00) (76, 1.26033329963684082031e+00) (77, 1.03013610839843750000e+00) (78, -1.11951148509979248047e+00) (79, -2.33333635330200195312e+00) (80, -3.18903058767318725586e-01) (81, -1.13587665557861328125e+00) (82, 2.37861871719360351562e+00) (83, -2.12595176696777343750e+00) (84, -1.71338891983032226562e+00) (85, -2.83219766616821289062e+00) (86, 3.37870264053344726562e+00) (87, -2.85632944107055664062e+00) (88, -2.99842327833175659180e-01) (89, 9.44143474102020263672e-01) (90, 1.24235354363918304443e-01) (91, 1.66865408420562744141e+00) (92, 3.41726708412170410156e+00) (93, 4.49493318796157836914e-01) (94, 1.33311676979064941406e+00) (95, 1.36200809478759765625e+00) (96, -2.73527264595031738281e-01) (97, -1.54260766506195068359e+00) (98, -1.64980781078338623047e+00) (99, -3.84982967376708984375e+00) (100, -1.00508952140808105469e+00) (101, 9.20983433723449707031e-01) (102, 5.30127525329589843750e+00) (103, -7.64755383133888244629e-02) (104, -6.87697589397430419922e-01) (105, -1.75228416919708251953e+00) (106, -5.74385710060596466064e-02) (107, -5.20362555980682373047e-01) (108, -2.82262754440307617188e+00) (109, 1.45086526870727539062e-01) (110, -2.97422504425048828125e+00) (111, 1.29346454143524169922e+00) (112, 4.85118055343627929688e+00) (113, -1.92154765129089355469e+00) (114, -5.29688835144042968750e-01) (115, -2.84435838460922241211e-01) (116, -1.20276665687561035156e+00) (117, -5.25711297988891601562e-01) (118, -6.22225105762481689453e-01) (119, -2.29554131627082824707e-01) (120, 1.22381329536437988281e+00) (121, -1.03773839771747589111e-01) (122, 2.35625243186950683594e+00) (123, 2.85103392601013183594e+00) (124, -2.54684114456176757812e+00) (125, 1.71852099895477294922e+00) (126, -5.90194761753082275391e-02) (127, 1.47135722637176513672e+00) (128, -8.83927404880523681641e-01) (129, -1.07695734500885009766e+00) (130, -4.31854963302612304688e-01) (131, -1.40959107875823974609e+00) (132, 2.65010547637939453125e+00) (133, -1.92823457717895507812e+00) (134, -1.76679611206054687500e+00) (135, 2.46630296111106872559e-01) (136, -2.10805153846740722656e+00) (137, 5.73391199111938476562e-01) (138, -1.17459380626678466797e+00) (139, -6.35475963354110717773e-02) (140, -5.95083177089691162109e-01) (141, 2.89525508880615234375e+00) (142, -2.24806118011474609375e+00) (143, 1.06589078903198242188e+00) (144, -3.59700232744216918945e-01) (145, 2.33365440368652343750e+00) (146, -1.63591504096984863281e+00) (147, -4.44547080993652343750e+00) (148, 1.59224718809127807617e-02) (149, -3.64615559577941894531e+00) (150, 3.92795586585998535156e+00) (151, -1.80507755279541015625e+00) (152, 3.44196677207946777344e+00) (153, -2.04498648643493652344e+00) (154, -1.12089729309082031250e+00) (155, 6.22062861919403076172e-01) (156, 4.72138911485671997070e-01) (157, -1.26156032085418701172e+00) (158, 8.51393342018127441406e-01) (159, 8.29753637313842773438e-01) (160, 6.43397212028503417969e-01) (161, 1.28453886508941650391e+00) (162, -2.20392274856567382812e+00) (163, 1.09107494354248046875e+00) (164, -1.74664402008056640625e+00) (165, 2.45846962928771972656e+00) (166, 1.95496812462806701660e-01) (167, -7.38783407211303710938e+00) (168, 6.95341348648071289062e-01) (169, 5.37309467792510986328e-01) (170, -9.28964793682098388672e-01) (171, 1.17402546107769012451e-01) (172, 1.64993739128112792969e+00) (173, -5.24573206901550292969e-01) (174, -1.78236317634582519531e+00) (175, 1.47706305980682373047e+00) (176, 1.22465968132019042969e+00) (177, -4.62684333324432373047e-01) (178, -9.36192154884338378906e-01) (179, -1.46003395318984985352e-01) (180, 9.00244414806365966797e-01) (181, 1.31932640075683593750e+00) (182, -4.16853055357933044434e-02) (183, -3.59181714057922363281e+00) (184, -3.20571136474609375000e+00) (185, 3.55977463722229003906e+00) (186, 1.14462697505950927734e+00) (187, -6.31892490386962890625e+00) (188, -1.99484980106353759766e+00) (189, -6.55932724475860595703e-01) (190, 1.16320562362670898438e+00) (191, 1.55178928375244140625e+00) (192, 3.21538853645324707031e+00) (193, 4.83256638050079345703e-01) (194, -2.81999683380126953125e+00) (195, -2.07075643539428710938e+00) (196, -2.90126705169677734375e+00) (197, -1.51042854785919189453e+00) (198, -1.86344695091247558594e+00) (199, -5.07772088050842285156e-01) (200, 2.02676272392272949219e+00) (201, 4.03555679321289062500e+00) (202, -2.52493405342102050781e+00) (203, -1.26797449588775634766e+00) (204, -3.09857392311096191406e+00) (205, 3.38177514076232910156e+00) (206, -9.04212236404418945312e-01) (207, -6.44842004776000976562e+00) (208, 1.32061994075775146484e+00) (209, -1.00466036796569824219e+00) (210, 5.27651929855346679688e+00) (211, 1.19025540351867675781e+00) (212, 2.21079182624816894531e+00) (213, 8.72286856174468994141e-01) (214, -5.89421510696411132812e+00) (215, -2.65840363502502441406e+00) (216, -3.93103170394897460938e+00) (217, 2.63115987181663513184e-02) (218, -2.45502448081970214844e+00) (219, 2.12301588058471679688e+00) (220, 3.02004075050354003906e+00) (221, 1.62729179859161376953e+00) (222, -1.51501393318176269531e+00) (223, -2.60603094100952148438e+00) (224, -2.23548817634582519531e+00) (225, 2.45034337043762207031e+00) (226, -7.68420636653900146484e-01) (227, -2.23177719116210937500e+00) (228, 1.65839183330535888672e+00) (229, 2.55290651321411132812e+00) (230, 3.97383499145507812500e+00) (231, 2.42467236518859863281e+00) (232, 2.85677933692932128906e+00) (233, 9.84849631786346435547e-02) (234, -6.75988054275512695312e+00) (235, -5.25704765319824218750e+00) (236, -2.62070274353027343750e+00) (237, -5.54468572139739990234e-01) (238, -3.81013822555541992188e+00) (239, 2.30359840393066406250e+00) (240, 3.39068794250488281250e+00) (241, 5.00062417984008789062e+00) (242, -1.77097332477569580078e+00) (243, -1.92332291603088378906e+00) (244, -9.38362777233123779297e-01) (245, 1.46059119701385498047e+00) (246, -2.01262879371643066406e+00) (247, -2.64096260070800781250e-01) (248, 2.02482156455516815186e-02) (249, -1.80207371711730957031e+00) (250, 4.07001352310180664062e+00) (251, -8.63918900489807128906e-01) (252, 1.73418772220611572266e+00) (253, 2.46925568580627441406e+00) (254, -2.57232713699340820312e+00) (255, -4.17861032485961914062e+00) (256, -1.06597435474395751953e+00) (257, -1.47420540452003479004e-02) (258, -3.68249297142028808594e-01) (259, -3.30095624923706054688e+00) (260, 5.51485443115234375000e+00) (261, 6.18726491928100585938e+00) (262, -5.04264593124389648438e-01) (263, -3.00823211669921875000e+00) (264, -6.84873342514038085938e-01) (265, -2.15245485305786132812e+00) (266, -2.16432046890258789062e+00) (267, -2.17761254310607910156e+00) (268, 2.51230764389038085938e+00) (269, 1.77376937866210937500e+00) (270, 9.44890260696411132812e-01) (271, -5.64118139445781707764e-02) (272, 3.28771924972534179688e+00) (273, 7.49068439006805419922e-01) (274, -2.86499786376953125000e+00) (275, -1.48193955421447753906e+00) (276, -2.73821878433227539062e+00) (277, -2.47383430600166320801e-01) (278, -1.78693699836730957031e+00) (279, -3.97240543365478515625e+00) (280, 2.77257418632507324219e+00) (281, 3.24591684341430664062e+00) (282, -4.04511839151382446289e-01) (283, -8.44956159591674804688e-01) (284, 7.11671292781829833984e-01) (285, 1.53641772270202636719e+00) (286, -4.01543807983398437500e+00) (287, 8.03675472736358642578e-01) (288, 2.07462146878242492676e-01) (289, 2.12795996665954589844e+00) (290, 3.05530691146850585938e+00) (291, -2.06966161727905273438e+00) (292, -1.56176388263702392578e-01) (293, 2.09956145286560058594e+00) (294, -3.39614939689636230469e+00) (295, -3.32995676994323730469e+00) (296, -2.45431971549987792969e+00) (297, -1.36338508129119873047e+00) (298, 8.96505773067474365234e-01) (299, -8.79273116588592529297e-01) (300, 2.96808505058288574219e+00) (301, 3.14798593521118164062e+00) (302, -1.34405601024627685547e+00) (303, -2.16709542274475097656e+00) (304, 1.94822597503662109375e+00) (305, -2.63761520385742187500e-01) (306, -8.79505157470703125000e-01) (307, -8.18533897399902343750e-01) (308, -1.66736936569213867188e+00) (309, 2.67656064033508300781e+00) (310, 1.42799937725067138672e+00) (311, -1.72370648384094238281e+00) (312, 3.96384671330451965332e-02) (313, 2.79496598243713378906e+00) (314, -1.97919189929962158203e+00) (315, -3.21817159652709960938e+00) (316, -3.62905192375183105469e+00) (317, -1.10357415676116943359e+00) (318, 2.73279237747192382812e+00) (319, -2.90511190891265869141e-01) (320, -2.46645236015319824219e+00) (321, 3.90025782585144042969e+00) (322, -2.35571122169494628906e+00) (323, 9.46316361427307128906e-01) (324, 6.36668801307678222656e-01) (325, 4.58098828792572021484e-01) (326, -2.53917908668518066406e+00) (327, -2.66361570358276367188e+00) (328, -1.40364956855773925781e+00) (329, 8.08767080307006835938e-01) (330, 3.44497370719909667969e+00) (331, 2.56879830360412597656e+00) (332, 1.40455734729766845703e+00) (333, -2.89065480232238769531e+00) (334, -2.66089272499084472656e+00) (335, 8.42327654361724853516e-01) (336, 4.34922933578491210938e-01) (337, 1.20249104499816894531e+00) (338, -9.56319391727447509766e-01) (339, -1.63242888450622558594e+00) (340, -1.83020532131195068359e+00) (341, 2.61993288993835449219e+00) (342, -7.84661769866943359375e-01) (343, 2.16725900769233703613e-01) (344, 2.41354036331176757812e+00) (345, 1.69260591268539428711e-01) (346, 2.98459857702255249023e-01) (347, -1.27655601501464843750e+00) (348, -8.56154739856719970703e-01) (349, 2.17592671513557434082e-01) (350, 3.22193169593811035156e+00) (351, -1.17192602157592773438e+00) (352, 3.12100911140441894531e+00) (353, -3.31679964065551757812e+00) (354, -4.11555385589599609375e+00) (355, -1.07102906703948974609e+00) (356, 1.88922500610351562500e+00) (357, -3.06972885131835937500e+00) (358, -1.14149525761604309082e-01) (359, -7.15839743614196777344e-01) (360, 4.31696385145187377930e-01) (361, -1.65756893157958984375e+00) (362, -4.45388412475585937500e+00) (363, -1.24634814262390136719e+00) (364, -2.01921761035919189453e-01) (365, -1.68285846710205078125e+00) (366, 3.40671348571777343750e+00) (367, 1.25598394870758056641e+00) (368, -1.05464315414428710938e+00) (369, -7.20685184001922607422e-01) (370, 2.52514886856079101562e+00) (371, 9.38490569591522216797e-01) (372, 2.25494432449340820312e+00) (373, -1.80871713161468505859e+00) (374, -4.01469659805297851562e+00) (375, 8.62713754177093505859e-01) (376, -2.01341509819030761719e+00) (377, 3.61575603485107421875e-01) (378, 9.77524042129516601562e-01) (379, -4.42703872919082641602e-01) (380, -1.46153392791748046875e+01) (0, -1.04818832874298095703e+00) (1, -2.22234630584716796875e+00) (2, -1.80338311195373535156e+00) (3, -1.64100337028503417969e+00) (4, 2.02787947654724121094e+00) (5, -1.20747029781341552734e+00) (6, -2.53119063377380371094e+00) (7, 3.48464226722717285156e+00) (8, -1.91913664340972900391e+00) (9, -3.85198760032653808594e+00) (10, -4.28706318140029907227e-01) (11, 1.95102548599243164062e+00) (12, -1.11804139614105224609e+00) (13, -2.56199455261230468750e+00) (14, -1.65356802940368652344e+00) (15, 4.54059332609176635742e-01) (16, 6.56377553939819335938e-01) (17, -1.31765305995941162109e-02) (18, 8.91466498374938964844e-01) (19, 5.77466666698455810547e-01) (20, -1.54141318798065185547e+00) (21, -3.08008408546447753906e+00) (22, 1.65772116184234619141e+00) (23, -8.38378071784973144531e-01) (24, 6.03015899658203125000e-01) (25, -2.63239693641662597656e+00) (26, -9.37312245368957519531e-01) (27, -1.22326183319091796875e+00) (28, 1.13394282758235931396e-01) (29, 7.61462569236755371094e-01) (30, -2.22575330734252929688e+00) (31, -2.44893693923950195312e+00) (32, 3.03455305099487304688e+00) (33, -1.80182576179504394531e-01) (34, -1.21925115585327148438e+00) (35, 3.80783724784851074219e+00) (36, -6.33123695850372314453e-01) (37, -2.71938741207122802734e-01) (38, -2.22754430770874023438e+00) (39, -1.04617977142333984375e+00) (40, -5.22265136241912841797e-01) (41, 9.17150974273681640625e-02) (42, 1.76345515251159667969e+00) (43, -8.30038011074066162109e-01) (44, 2.28706702589988708496e-01) (45, -5.20737290382385253906e-01) (46, -5.54648563265800476074e-02) (47, 1.37553954124450683594e+00) (48, -3.15684938430786132812e+00) (49, -1.90406665205955505371e-01) (50, -1.03146922588348388672e+00) (51, -1.62601220607757568359e+00) (52, -1.17052376270294189453e+00) (53, -1.22024133801460266113e-01) (54, -1.21849012374877929688e+00) (55, -1.00358819961547851562e+00) (56, -1.12995100021362304688e+00) (57, 1.29945278167724609375e+00) (58, 1.15429304540157318115e-01) (59, -3.04151988029479980469e+00) (60, -2.17676758766174316406e-01) (61, 1.97259232401847839355e-01) (62, 1.74395132064819335938e+00) (63, -1.88324499130249023438e+00) (64, 2.64880442619323730469e+00) (65, -1.57003715634346008301e-01) (66, -2.16438817977905273438e+00) (67, -7.41129517555236816406e-01) (68, 7.99275338649749755859e-02) (69, -8.66865634918212890625e-01) (70, -1.07071471214294433594e+00) (71, -2.11457848548889160156e+00) (72, 1.06061446666717529297e+00) (73, -1.93533611297607421875e+00) (74, -6.04866743087768554688e-01) (75, -1.74024790525436401367e-01) (76, -2.69075608253479003906e+00) (77, -1.26754033565521240234e+00) (78, 6.49705111980438232422e-01) (79, -1.86362791061401367188e+00) (80, -3.11441826820373535156e+00) (81, -1.73111939430236816406e+00) (82, -1.71233022212982177734e+00) (83, -1.46484744548797607422e+00) (84, 1.56702291965484619141e+00) (85, -7.62811601161956787109e-01) (86, 5.07870733737945556641e-01) (87, 1.25068867206573486328e+00) (88, -3.25180768966674804688e+00) (89, -1.27533400058746337891e+00) (90, 3.59034031629562377930e-01) (91, -1.76337611675262451172e+00) (92, -1.46533107757568359375e+00) (93, -1.52509737014770507812e+00) (94, 2.65652203559875488281e+00) (95, -7.64043569564819335938e-01) (96, -1.27879574894905090332e-01) (97, -4.06978726387023925781e-01) (98, -1.55143082141876220703e+00) (99, 1.58726227283477783203e+00) (100, 1.42958962917327880859e+00) (101, 7.05449223518371582031e-01) (102, -6.28567695617675781250e-01) (103, -2.41358399391174316406e+00) (104, -5.82556009292602539062e-01) (105, -2.24613714218139648438e+00) (106, -2.55755472183227539062e+00) (107, 1.37767207622528076172e+00) (108, -1.25227057933807373047e+00) (109, 1.13293385505676269531e+00) (110, -2.64706134796142578125e+00) (111, 2.55393719673156738281e+00) (112, -2.20891284942626953125e+00) (113, -2.16354966163635253906e+00) (114, 1.70580232143402099609e+00) (115, -3.93244385719299316406e+00) (116, -8.98624181747436523438e-01) (117, -2.71522164344787597656e+00) (118, -1.68097078800201416016e-01) (119, 1.74491691589355468750e+00) (120, 1.23015081882476806641e+00) (121, -3.37519598007202148438e+00) (122, -1.68043982982635498047e+00) (123, -1.60388779640197753906e+00) (124, -1.90182030200958251953e+00) (125, -4.16069924831390380859e-01) (126, -1.34918272495269775391e+00) (127, -2.83819222450256347656e+00) (128, 2.72554963827133178711e-01) (129, -1.21781563758850097656e+00) (130, -3.14098954200744628906e+00) (131, 3.07087349891662597656e+00) (132, -4.47352156043052673340e-02) (133, 7.92754530906677246094e-01) 