FANN_FLO_2.1
num_layers=3
learning_rate=0.700000
connection_rate=1.000000
network_type=0
learning_momentum=0.000000
training_algorithm=0
train_error_function=1
train_stop_function=0
cascade_output_change_fraction=0.010000
quickprop_decay=-0.000100
quickprop_mu=1.750000
rprop_increase_factor=1.200000
rprop_decrease_factor=0.500000
rprop_delta_min=0.000000
rprop_delta_max=50.000000
rprop_delta_zero=0.100000
cascade_output_stagnation_epochs=12
cascade_candidate_change_fraction=0.010000
cascade_candidate_stagnation_epochs=12
cascade_max_out_epochs=150
cascade_min_out_epochs=50
cascade_max_cand_epochs=150
cascade_min_cand_epochs=50
cascade_num_candidate_groups=2
bit_fail_limit=3.49999994039535522461e-01
cascade_candidate_limit=1.00000000000000000000e+03
cascade_weight_multiplier=4.00000005960464477539e-01
cascade_activation_functions_count=10
cascade_activation_functions=3 5 7 8 10 11 14 15 16 17 
cascade_activation_steepnesses_count=4
cascade_activation_steepnesses=2.50000000000000000000e-01 5.00000000000000000000e-01 7.50000000000000000000e-01 1.00000000000000000000e+00 
layer_sizes=381 61 5 
scale_included=0
neurons (num_inputs, activation_function, activation_steepness)=(0, 0, 0.00000000000000000000e+00) (0, 0, 0.00000000000000000000e+00) (0, 0, 0.00000000000000000000e+00) (0, 0, 0.00000000000000000000e+00) (0, 0, 0.00000000000000000000e+00) (0, 0, 0.00000000000000000000e+00) (0, 0, 0.00000000000000000000e+00) (0, 0, 0.00000000000000000000e+00) (0, 0, 0.00000000000000000000e+00) (0, 0, 0.00000000000000000000e+00) (0, 0, 0.00000000000000000000e+00) (0, 0, 0.00000000000000000000e+00) (0, 0, 0.00000000000000000000e+00) (0, 0, 0.00000000000000000000e+00) (0, 0, 0.00000000000000000000e+00) (0, 0, 0.00000000000000000000e+00) (0, 0, 0.00000000000000000000e+00) (0, 0, 0.00000000000000000000e+00) (0, 0, 0.00000000000000000000e+00) (0, 0, 0.00000000000000000000e+00) (0, 0, 0.00000000000000000000e+00) (0, 0, 0.00000000000000000000e+00) (0, 0, 0.00000000000000000000e+00) (0, 0, 0.00000000000000000000e+00) (0, 0, 0.00000000000000000000e+00) (0, 0, 0.00000000000000000000e+00) (0, 0, 0.00000000000000000000e+00) (0, 0, 0.00000000000000000000e+00) (0, 0, 0.00000000000000000000e+00) (0, 0, 0.00000000000000000000e+00) (0, 0, 0.00000000000000000000e+00) (0, 0, 0.00000000000000000000e+00) (0, 0, 0.00000000000000000000e+00) (0, 0, 0.00000000000000000000e+00) (0, 0, 0.00000000000000000000e+00) (0, 0, 0.00000000000000000000e+00) (0, 0, 0.00000000000000000000e+00) (0, 0, 0.00000000000000000000e+00) (0, 0, 0.00000000000000000000e+00) (0, 0, 0.00000000000000000000e+00) (0, 0, 0.00000000000000000000e+00) (0, 0, 0.00000000000000000000e+00) (0, 0, 0.00000000000000000000e+00) (0, 0, 0.00000000000000000000e+00) (0, 0, 0.00000000000000000000e+00) (0, 0, 0.00000000000000000000e+00) (0, 0, 0.00000000000000000000e+00) (0, 0, 0.00000000000000000000e+00) (0, 0, 0.00000000000000000000e+00) (0, 0, 0.00000000000000000000e+00) (0, 0, 0.00000000000000000000e+00) (0, 0, 0.00000000000000000000e+00) (0, 0, 0.00000000000000000000e+00) (0, 0, 0.00000000000000000000e+00) (0, 0, 0.00000000000000000000e+00) (0, 0, 0.00000000000000000000e+00) (0, 0, 0.00000000000000000000e+00) (0, 0, 0.00000000000000000000e+00) (0, 0, 0.00000000000000000000e+00) (0, 0, 0.00000000000000000000e+00) (0, 0, 0.00000000000000000000e+00) (0, 0, 0.00000000000000000000e+00) (0, 0, 0.00000000000000000000e+00) (0, 0, 0.00000000000000000000e+00) (0, 0, 0.00000000000000000000e+00) (0, 0, 0.00000000000000000000e+00) (0, 0, 0.00000000000000000000e+00) (0, 0, 0.00000000000000000000e+00) (0, 0, 0.00000000000000000000e+00) (0, 0, 0.00000000000000000000e+00) (0, 0, 0.00000000000000000000e+00) (0, 0, 0.00000000000000000000e+00) (0, 0, 0.00000000000000000000e+00) (0, 0, 0.00000000000000000000e+00) (0, 0, 0.00000000000000000000e+00) (0, 0, 0.00000000000000000000e+00) (0, 0, 0.00000000000000000000e+00) (0, 0, 0.00000000000000000000e+00) (0, 0, 0.00000000000000000000e+00) (0, 0, 0.00000000000000000000e+00) (0, 0, 0.00000000000000000000e+00) (0, 0, 0.00000000000000000000e+00) (0, 0, 0.00000000000000000000e+00) (0, 0, 0.00000000000000000000e+00) (0, 0, 0.00000000000000000000e+00) (0, 0, 0.00000000000000000000e+00) (0, 0, 0.00000000000000000000e+00) (0, 0, 0.00000000000000000000e+00) (0, 0, 0.00000000000000000000e+00) (0, 0, 0.00000000000000000000e+00) (0, 0, 0.00000000000000000000e+00) (0, 0, 0.00000000000000000000e+00) (0, 0, 0.00000000000000000000e+00) (0, 0, 0.00000000000000000000e+00) (0, 0, 0.00000000000000000000e+00) (0, 0, 0.00000000000000000000e+00) (0, 0, 0.00000000000000000000e+00) (0, 0, 0.00000000000000000000e+00) (0, 0, 0.00000000000000000000e+00) (0, 0, 0.00000000000000000000e+00) (0, 0, 0.00000000000000000000e+00) (0, 0, 0.00000000000000000000e+00) (0, 0, 0.00000000000000000000e+00) (0, 0, 0.00000000000000000000e+00) (0, 0, 0.00000000000000000000e+00) (0, 0, 0.00000000000000000000e+00) (0, 0, 0.00000000000000000000e+00) (0, 0, 0.00000000000000000000e+00) (0, 0, 0.00000000000000000000e+00) (0, 0, 0.00000000000000000000e+00) (0, 0, 0.00000000000000000000e+00) (0, 0, 0.00000000000000000000e+00) (0, 0, 0.00000000000000000000e+00) (0, 0, 0.00000000000000000000e+00) (0, 0, 0.00000000000000000000e+00) (0, 0, 0.00000000000000000000e+00) (0, 0, 0.00000000000000000000e+00) (0, 0, 0.00000000000000000000e+00) (0, 0, 0.00000000000000000000e+00) (0, 0, 0.00000000000000000000e+00) (0, 0, 0.00000000000000000000e+00) (0, 0, 0.00000000000000000000e+00) (0, 0, 0.00000000000000000000e+00) (0, 0, 0.00000000000000000000e+00) (0, 0, 0.00000000000000000000e+00) (0, 0, 0.00000000000000000000e+00) (0, 0, 0.00000000000000000000e+00) (0, 0, 0.00000000000000000000e+00) (0, 0, 0.00000000000000000000e+00) (0, 0, 0.00000000000000000000e+00) (0, 0, 0.00000000000000000000e+00) (0, 0, 0.00000000000000000000e+00) (0, 0, 0.00000000000000000000e+00) (0, 0, 0.00000000000000000000e+00) (0, 0, 0.00000000000000000000e+00) (0, 0, 0.00000000000000000000e+00) (0, 0, 0.00000000000000000000e+00) (0, 0, 0.00000000000000000000e+00) (0, 0, 0.00000000000000000000e+00) (0, 0, 0.00000000000000000000e+00) (0, 0, 0.00000000000000000000e+00) (0, 0, 0.00000000000000000000e+00) (0, 0, 0.00000000000000000000e+00) (0, 0, 0.00000000000000000000e+00) (0, 0, 0.00000000000000000000e+00) (0, 0, 0.00000000000000000000e+00) (0, 0, 0.00000000000000000000e+00) (0, 0, 0.00000000000000000000e+00) (0, 0, 0.00000000000000000000e+00) (0, 0, 0.00000000000000000000e+00) (0, 0, 0.00000000000000000000e+00) (0, 0, 0.00000000000000000000e+00) (0, 0, 0.00000000000000000000e+00) (0, 0, 0.00000000000000000000e+00) (0, 0, 0.00000000000000000000e+00) (0, 0, 0.00000000000000000000e+00) (0, 0, 0.00000000000000000000e+00) (0, 0, 0.00000000000000000000e+00) (0, 0, 0.00000000000000000000e+00) (0, 0, 0.00000000000000000000e+00) (0, 0, 0.00000000000000000000e+00) (0, 0, 0.00000000000000000000e+00) (0, 0, 0.00000000000000000000e+00) (0, 0, 0.00000000000000000000e+00) (0, 0, 0.00000000000000000000e+00) (0, 0, 0.00000000000000000000e+00) (0, 0, 0.00000000000000000000e+00) (0, 0, 0.00000000000000000000e+00) (0, 0, 0.00000000000000000000e+00) (0, 0, 0.00000000000000000000e+00) (0, 0, 0.00000000000000000000e+00) (0, 0, 0.00000000000000000000e+00) (0, 0, 0.00000000000000000000e+00) (0, 0, 0.00000000000000000000e+00) (0, 0, 0.00000000000000000000e+00) (0, 0, 0.00000000000000000000e+00) (0, 0, 0.00000000000000000000e+00) (0, 0, 0.00000000000000000000e+00) (0, 0, 0.00000000000000000000e+00) (0, 0, 0.00000000000000000000e+00) (0, 0, 0.00000000000000000000e+00) (0, 0, 0.00000000000000000000e+00) (0, 0, 0.00000000000000000000e+00) (0, 0, 0.00000000000000000000e+00) (0, 0, 0.00000000000000000000e+00) (0, 0, 0.00000000000000000000e+00) (0, 0, 0.00000000000000000000e+00) (0, 0, 0.00000000000000000000e+00) (0, 0, 0.00000000000000000000e+00) (0, 0, 0.00000000000000000000e+00) (0, 0, 0.00000000000000000000e+00) (0, 0, 0.00000000000000000000e+00) (0, 0, 0.00000000000000000000e+00) (0, 0, 0.00000000000000000000e+00) (0, 0, 0.00000000000000000000e+00) (0, 0, 0.00000000000000000000e+00) (0, 0, 0.00000000000000000000e+00) (0, 0, 0.00000000000000000000e+00) (0, 0, 0.00000000000000000000e+00) (0, 0, 0.00000000000000000000e+00) (0, 0, 0.00000000000000000000e+00) (0, 0, 0.00000000000000000000e+00) (0, 0, 0.00000000000000000000e+00) (0, 0, 0.00000000000000000000e+00) (0, 0, 0.00000000000000000000e+00) (0, 0, 0.00000000000000000000e+00) (0, 0, 0.00000000000000000000e+00) (0, 0, 0.00000000000000000000e+00) (0, 0, 0.00000000000000000000e+00) (0, 0, 0.00000000000000000000e+00) (0, 0, 0.00000000000000000000e+00) (0, 0, 0.00000000000000000000e+00) (0, 0, 0.00000000000000000000e+00) (0, 0, 0.00000000000000000000e+00) (0, 0, 0.00000000000000000000e+00) (0, 0, 0.00000000000000000000e+00) (0, 0, 0.00000000000000000000e+00) (0, 0, 0.00000000000000000000e+00) (0, 0, 0.00000000000000000000e+00) (0, 0, 0.00000000000000000000e+00) (0, 0, 0.00000000000000000000e+00) (0, 0, 0.00000000000000000000e+00) (0, 0, 0.00000000000000000000e+00) (0, 0, 0.00000000000000000000e+00) (0, 0, 0.00000000000000000000e+00) (0, 0, 0.00000000000000000000e+00) (0, 0, 0.00000000000000000000e+00) (0, 0, 0.00000000000000000000e+00) (0, 0, 0.00000000000000000000e+00) (0, 0, 0.00000000000000000000e+00) (0, 0, 0.00000000000000000000e+00) (0, 0, 0.00000000000000000000e+00) (0, 0, 0.00000000000000000000e+00) (0, 0, 0.00000000000000000000e+00) (0, 0, 0.00000000000000000000e+00) (0, 0, 0.00000000000000000000e+00) (0, 0, 0.00000000000000000000e+00) (0, 0, 0.00000000000000000000e+00) (0, 0, 0.00000000000000000000e+00) (0, 0, 0.00000000000000000000e+00) (0, 0, 0.00000000000000000000e+00) (0, 0, 0.00000000000000000000e+00) (0, 0, 0.00000000000000000000e+00) (0, 0, 0.00000000000000000000e+00) (0, 0, 0.00000000000000000000e+00) (0, 0, 0.00000000000000000000e+00) (0, 0, 0.00000000000000000000e+00) (0, 0, 0.00000000000000000000e+00) (0, 0, 0.00000000000000000000e+00) (0, 0, 0.00000000000000000000e+00) (0, 0, 0.00000000000000000000e+00) (0, 0, 0.00000000000000000000e+00) (0, 0, 0.00000000000000000000e+00) (0, 0, 0.00000000000000000000e+00) (0, 0, 0.00000000000000000000e+00) (0, 0, 0.00000000000000000000e+00) (0, 0, 0.00000000000000000000e+00) (0, 0, 0.00000000000000000000e+00) (0, 0, 0.00000000000000000000e+00) (0, 0, 0.00000000000000000000e+00) (0, 0, 0.00000000000000000000e+00) (0, 0, 0.00000000000000000000e+00) (0, 0, 0.00000000000000000000e+00) (0, 0, 0.00000000000000000000e+00) (0, 0, 0.00000000000000000000e+00) (0, 0, 0.00000000000000000000e+00) (0, 0, 0.00000000000000000000e+00) (0, 0, 0.00000000000000000000e+00) (0, 0, 0.00000000000000000000e+00) (0, 0, 0.00000000000000000000e+00) (0, 0, 0.00000000000000000000e+00) (0, 0, 0.00000000000000000000e+00) (0, 0, 0.00000000000000000000e+00) (0, 0, 0.00000000000000000000e+00) (0, 0, 0.00000000000000000000e+00) (0, 0, 0.00000000000000000000e+00) (0, 0, 0.00000000000000000000e+00) (0, 0, 0.00000000000000000000e+00) (0, 0, 0.00000000000000000000e+00) (0, 0, 0.00000000000000000000e+00) (0, 0, 0.00000000000000000000e+00) (0, 0, 0.00000000000000000000e+00) (0, 0, 0.00000000000000000000e+00) (0, 0, 0.00000000000000000000e+00) (0, 0, 0.00000000000000000000e+00) (0, 0, 0.00000000000000000000e+00) (0, 0, 0.00000000000000000000e+00) (0, 0, 0.00000000000000000000e+00) (0, 0, 0.00000000000000000000e+00) (0, 0, 0.00000000000000000000e+00) (0, 0, 0.00000000000000000000e+00) (0, 0, 0.00000000000000000000e+00) (0, 0, 0.00000000000000000000e+00) (0, 0, 0.00000000000000000000e+00) (0, 0, 0.00000000000000000000e+00) (0, 0, 0.00000000000000000000e+00) (0, 0, 0.00000000000000000000e+00) (0, 0, 0.00000000000000000000e+00) (0, 0, 0.00000000000000000000e+00) (0, 0, 0.00000000000000000000e+00) (0, 0, 0.00000000000000000000e+00) (0, 0, 0.00000000000000000000e+00) (0, 0, 0.00000000000000000000e+00) (0, 0, 0.00000000000000000000e+00) (0, 0, 0.00000000000000000000e+00) (0, 0, 0.00000000000000000000e+00) (0, 0, 0.00000000000000000000e+00) (0, 0, 0.00000000000000000000e+00) (0, 0, 0.00000000000000000000e+00) (0, 0, 0.00000000000000000000e+00) (0, 0, 0.00000000000000000000e+00) (0, 0, 0.00000000000000000000e+00) (0, 0, 0.00000000000000000000e+00) (0, 0, 0.00000000000000000000e+00) (0, 0, 0.00000000000000000000e+00) (0, 0, 0.00000000000000000000e+00) (0, 0, 0.00000000000000000000e+00) (0, 0, 0.00000000000000000000e+00) (0, 0, 0.00000000000000000000e+00) (0, 0, 0.00000000000000000000e+00) (0, 0, 0.00000000000000000000e+00) (0, 0, 0.00000000000000000000e+00) (0, 0, 0.00000000000000000000e+00) (0, 0, 0.00000000000000000000e+00) (0, 0, 0.00000000000000000000e+00) (0, 0, 0.00000000000000000000e+00) (0, 0, 0.00000000000000000000e+00) (0, 0, 0.00000000000000000000e+00) (0, 0, 0.00000000000000000000e+00) (0, 0, 0.00000000000000000000e+00) (0, 0, 0.00000000000000000000e+00) (0, 0, 0.00000000000000000000e+00) (0, 0, 0.00000000000000000000e+00) (0, 0, 0.00000000000000000000e+00) (0, 0, 0.00000000000000000000e+00) (0, 0, 0.00000000000000000000e+00) (0, 0, 0.00000000000000000000e+00) (0, 0, 0.00000000000000000000e+00) (0, 0, 0.00000000000000000000e+00) (0, 0, 0.00000000000000000000e+00) (0, 0, 0.00000000000000000000e+00) (0, 0, 0.00000000000000000000e+00) (0, 0, 0.00000000000000000000e+00) (0, 0, 0.00000000000000000000e+00) (0, 0, 0.00000000000000000000e+00) (0, 0, 0.00000000000000000000e+00) (0, 0, 0.00000000000000000000e+00) (0, 0, 0.00000000000000000000e+00) (0, 0, 0.00000000000000000000e+00) (0, 0, 0.00000000000000000000e+00) (0, 0, 0.00000000000000000000e+00) (0, 0, 0.00000000000000000000e+00) (0, 0, 0.00000000000000000000e+00) (0, 0, 0.00000000000000000000e+00) (0, 0, 0.00000000000000000000e+00) (0, 0, 0.00000000000000000000e+00) (0, 0, 0.00000000000000000000e+00) (0, 0, 0.00000000000000000000e+00) (0, 0, 0.00000000000000000000e+00) (0, 0, 0.00000000000000000000e+00) (0, 0, 0.00000000000000000000e+00) (0, 0, 0.00000000000000000000e+00) (0, 0, 0.00000000000000000000e+00) (0, 0, 0.00000000000000000000e+00) (0, 0, 0.00000000000000000000e+00) (0, 0, 0.00000000000000000000e+00) (0, 0, 0.00000000000000000000e+00) (0, 0, 0.00000000000000000000e+00) (0, 0, 0.00000000000000000000e+00) (0, 0, 0.00000000000000000000e+00) (0, 0, 0.00000000000000000000e+00) (0, 0, 0.00000000000000000000e+00) (0, 0, 0.00000000000000000000e+00) (0, 0, 0.00000000000000000000e+00) (0, 0, 0.00000000000000000000e+00) (0, 0, 0.00000000000000000000e+00) (0, 0, 0.00000000000000000000e+00) (0, 0, 0.00000000000000000000e+00) (0, 0, 0.00000000000000000000e+00) (0, 0, 0.00000000000000000000e+00) (0, 0, 0.00000000000000000000e+00) (381, 4, 5.00000000000000000000e-01) (381, 4, 5.00000000000000000000e-01) (381, 4, 5.00000000000000000000e-01) (381, 4, 5.00000000000000000000e-01) (381, 4, 5.00000000000000000000e-01) (381, 4, 5.00000000000000000000e-01) (381, 4, 5.00000000000000000000e-01) (381, 4, 5.00000000000000000000e-01) (381, 4, 5.00000000000000000000e-01) (381, 4, 5.00000000000000000000e-01) (381, 4, 5.00000000000000000000e-01) (381, 4, 5.00000000000000000000e-01) (381, 4, 5.00000000000000000000e-01) (381, 4, 5.00000000000000000000e-01) (381, 4, 5.00000000000000000000e-01) (381, 4, 5.00000000000000000000e-01) (381, 4, 5.00000000000000000000e-01) (381, 4, 5.00000000000000000000e-01) (381, 4, 5.00000000000000000000e-01) (381, 4, 5.00000000000000000000e-01) (381, 4, 5.00000000000000000000e-01) (381, 4, 5.00000000000000000000e-01) (381, 4, 5.00000000000000000000e-01) (381, 4, 5.00000000000000000000e-01) (381, 4, 5.00000000000000000000e-01) (381, 4, 5.00000000000000000000e-01) (381, 4, 5.00000000000000000000e-01) (381, 4, 5.00000000000000000000e-01) (381, 4, 5.00000000000000000000e-01) (381, 4, 5.00000000000000000000e-01) (381, 4, 5.00000000000000000000e-01) (381, 4, 5.00000000000000000000e-01) (381, 4, 5.00000000000000000000e-01) (381, 4, 5.00000000000000000000e-01) (381, 4, 5.00000000000000000000e-01) (381, 4, 5.00000000000000000000e-01) (381, 4, 5.00000000000000000000e-01) (381, 4, 5.00000000000000000000e-01) (381, 4, 5.00000000000000000000e-01) (381, 4, 5.00000000000000000000e-01) (381, 4, 5.00000000000000000000e-01) (381, 4, 5.00000000000000000000e-01) (381, 4, 5.00000000000000000000e-01) (381, 4, 5.00000000000000000000e-01) (381, 4, 5.00000000000000000000e-01) (381, 4, 5.00000000000000000000e-01) (381, 4, 5.00000000000000000000e-01) (381, 4, 5.00000000000000000000e-01) (381, 4, 5.00000000000000000000e-01) (381, 4, 5.00000000000000000000e-01) (381, 4, 5.00000000000000000000e-01) (381, 4, 5.00000000000000000000e-01) (381, 4, 5.00000000000000000000e-01) (381, 4, 5.00000000000000000000e-01) (381, 4, 5.00000000000000000000e-01) (381, 4, 5.00000000000000000000e-01) (381, 4, 5.00000000000000000000e-01) (381, 4, 5.00000000000000000000e-01) (381, 4, 5.00000000000000000000e-01) (381, 4, 5.00000000000000000000e-01) (0, 0, 0.00000000000000000000e+00) (61, 4, 5.00000000000000000000e-01) (61, 4, 5.00000000000000000000e-01) (61, 4, 5.00000000000000000000e-01) (61, 4, 5.00000000000000000000e-01) (0, 0, 0.00000000000000000000e+00) 
connections (connected_to_neuron, weight)=(0, -2.15945224761962890625e+01) (1, -3.31265258789062500000e+01) (2, -2.95595817565917968750e+01) (3, -2.50976352691650390625e+01) (4, -1.75270137786865234375e+01) (5, -4.35980949401855468750e+01) (6, 2.70409984588623046875e+01) (7, -1.70373668670654296875e+01) (8, 2.18620252609252929688e+00) (9, -2.34593200683593750000e+00) (10, 1.42924957275390625000e+01) (11, -1.40972185134887695312e+01) (12, 1.74342498779296875000e+01) (13, 1.06882834434509277344e+00) (14, -1.47650451660156250000e+01) (15, -3.31818199157714843750e+01) (16, -1.48926534652709960938e+01) (17, 2.84368848800659179688e+00) (18, 3.58960223197937011719e+00) (19, -9.76495552062988281250e+00) (20, 1.57181015014648437500e+01) (21, -1.37261972427368164062e+01) (22, -3.09801197052001953125e+01) (23, -2.24873085021972656250e+01) (24, 1.31090462207794189453e+00) (25, -3.48444404602050781250e+01) (26, 1.11352026462554931641e+00) (27, -1.75927352905273437500e+01) (28, -8.66170227527618408203e-01) (29, 4.86252725124359130859e-01) (30, 9.91913032531738281250e+00) (31, 1.12559232711791992188e+01) (32, 1.35516262054443359375e+00) (33, -4.03955698013305664062e+00) (34, -5.60170555114746093750e+01) (35, 6.23698139190673828125e+00) (36, -3.53217201232910156250e+01) (37, 1.50289793014526367188e+01) (38, -6.70595455169677734375e+00) (39, -3.16796817779541015625e+01) (40, -1.01559638977050781250e+01) (41, -2.92871665954589843750e+01) (42, -6.49302005767822265625e+00) (43, 1.49216547012329101562e+01) (44, -1.11869640350341796875e+01) (45, 1.61783714294433593750e+01) (46, 7.66737174987792968750e+00) (47, -2.13247489929199218750e+01) (48, -2.60840682983398437500e+01) (49, -2.24453353881835937500e+01) (50, 6.53455305099487304688e+00) (51, -1.05535674095153808594e+00) (52, -1.52047004699707031250e+01) (53, -1.97007693350315093994e-02) (54, -2.94353313446044921875e+01) (55, -7.91283464431762695312e+00) (56, -1.56281366944313049316e-01) (57, 1.60260295867919921875e+01) (58, -2.96538200378417968750e+01) (59, -3.55368614196777343750e+01) (60, -6.91397619247436523438e+00) (61, 5.03930449485778808594e-01) (62, -1.04030494689941406250e+01) (63, -3.45945320129394531250e+01) (64, -1.55424957275390625000e+01) (65, -2.49973449707031250000e+01) (66, -1.32629597187042236328e+00) (67, -5.29042091369628906250e+01) (68, -3.15325546264648437500e+01) (69, 1.17345294952392578125e+01) (70, 2.17086601257324218750e+01) (71, -2.60025453567504882812e+00) (72, -1.12750368118286132812e+01) (73, 1.74709644317626953125e+01) (74, -2.42209281921386718750e+01) (75, -3.57415313720703125000e+01) (76, 1.03510084152221679688e+01) (77, 2.61707038879394531250e+01) (78, -2.55858249664306640625e+01) (79, -2.36097450256347656250e+01) (80, 2.96560931205749511719e+00) (81, 5.24930179119110107422e-01) (82, -2.08495044708251953125e+01) (83, -2.44367465972900390625e+01) (84, 1.00575189590454101562e+01) (85, -1.20973329544067382812e+01) (86, -1.35819549560546875000e+01) (87, -7.00097961425781250000e+01) (88, -1.31132354736328125000e+01) (89, -6.66247510910034179688e+00) (90, 9.58425819873809814453e-01) (91, -3.52189612388610839844e+00) (92, -6.63738155364990234375e+00) (93, 7.34986639022827148438e+00) (94, -1.19032182693481445312e+01) (95, -2.64715499877929687500e+01) (96, -8.40421009063720703125e+00) (97, -7.64873790740966796875e+00) (98, -8.01941013336181640625e+00) (99, -9.30530548095703125000e+00) (100, -3.15334491729736328125e+01) (101, 4.51161479949951171875e+00) (102, -2.73589968681335449219e+00) (103, -1.82500743865966796875e+01) (104, -7.59728336334228515625e+00) (105, 1.17493410110473632812e+01) (106, -3.10616130828857421875e+01) (107, -3.52790908813476562500e+01) (108, 8.67897510528564453125e+00) (109, -1.89599494934082031250e+01) (110, -2.31608467102050781250e+01) (111, 2.33863949775695800781e+00) (112, -1.65205898284912109375e+01) (113, -2.67845096588134765625e+01) (114, -1.74000835418701171875e+01) (115, -9.41775608062744140625e+00) (116, 5.06662225723266601562e+00) (117, -6.16708087921142578125e+00) (118, -5.75462627410888671875e+00) (119, -1.21520795822143554688e+01) (120, -1.30827722549438476562e+01) (121, 1.99977836608886718750e+01) (122, -1.42673101425170898438e+01) (123, -4.32979011535644531250e+01) (124, -1.01174554824829101562e+01) (125, 4.21130037307739257812e+00) (126, 2.20750141143798828125e+00) (127, -2.62738761901855468750e+01) (128, -9.50836086273193359375e+00) (129, -8.07357692718505859375e+00) (130, -7.18302202224731445312e+00) (131, -9.36310100555419921875e+00) (132, -1.14725923538208007812e+01) (133, -1.57225036621093750000e+01) (134, 2.77632260322570800781e+00) (135, -1.05364265441894531250e+01) (136, -1.67491130828857421875e+01) (137, -1.03177919387817382812e+01) (138, -2.13265609741210937500e+01) (139, -2.25448131561279296875e+01) (140, -2.51835632324218750000e+01) (141, 1.03517742156982421875e+01) (142, -3.46675300598144531250e+00) (143, 4.33100414276123046875e+00) (144, -1.61965007781982421875e+01) (145, -2.81033363342285156250e+01) (146, -1.02247047424316406250e+01) (147, -1.38914852142333984375e+01) (148, -1.50573930740356445312e+01) (149, -3.67747268676757812500e+01) (150, 3.81930160522460937500e+00) (151, 1.14654026031494140625e+01) (152, -1.58498411178588867188e+01) (153, -1.12145290374755859375e+01) (154, -1.03042240142822265625e+01) (155, -1.51280937194824218750e+01) (156, 5.04483222961425781250e+00) (157, -6.90127992630004882812e+00) (158, -3.19962799549102783203e-01) (159, -4.24976272583007812500e+01) (160, -3.58059883117675781250e+01) (161, -2.22143611907958984375e+01) (162, 2.93112621307373046875e+01) (163, 1.81807365417480468750e+01) (164, -2.52078380584716796875e+01) (165, -2.39122123718261718750e+01) (166, 1.24541807174682617188e+01) (167, 9.34732894897460937500e+01) (168, -6.52529811859130859375e+00) (169, -1.92467727661132812500e+01) (170, -6.61950988769531250000e+01) (171, 1.00932464599609375000e+01) (172, -2.86342697143554687500e+01) (173, -1.15036926269531250000e+01) (174, 4.48977622985839843750e+01) (175, -7.61989259719848632812e+00) (176, -2.10317897796630859375e+01) (177, -5.58920593261718750000e+01) (178, -2.42098674774169921875e+01) (179, -4.34440460205078125000e+01) (180, -4.63810195922851562500e+01) (181, 2.69740843772888183594e+00) (182, 6.69556045532226562500e+01) (183, 3.71093635559082031250e+01) (184, -3.03063220977783203125e+01) (185, -2.60348911285400390625e+01) (186, -1.14610691070556640625e+01) (187, 4.32975959777832031250e+01) (188, 1.12776985168457031250e+01) (189, -1.35382308959960937500e+01) (190, -3.73255004882812500000e+01) (191, -9.07351016998291015625e+00) (192, -2.12690753936767578125e+01) (193, 9.63342189788818359375e+00) (194, 4.98067703247070312500e+01) (195, 6.94930505752563476562e+00) (196, 1.21090517044067382812e+01) (197, -4.26215476989746093750e+01) (198, -3.59016609191894531250e+01) (199, -3.21969375610351562500e+01) (200, -5.45337142944335937500e+01) (201, -3.59775090217590332031e+00) (202, 3.54057197570800781250e+01) (203, 7.04185638427734375000e+01) (204, -2.24493713378906250000e+01) (205, 1.05321292877197265625e+01) (206, -5.91651582717895507812e+00) (207, -1.58472031354904174805e-01) (208, -1.25287418365478515625e+01) (209, -3.70345268249511718750e+01) (210, -8.02242660522460937500e+01) (211, 1.13695259094238281250e+01) (212, -2.98373088836669921875e+01) (213, -2.94084053039550781250e+01) (214, 6.12369346618652343750e+01) (215, 1.16681280136108398438e+01) (216, 3.18173961639404296875e+01) (217, -3.52861938476562500000e+01) (218, -4.05076522827148437500e+01) (219, -5.36078720092773437500e+01) (220, -4.63886184692382812500e+01) (221, -3.25853996276855468750e+01) (222, 1.14767169952392578125e+01) (223, 4.66049652099609375000e+01) (224, -3.79305381774902343750e+01) (225, 3.08769969940185546875e+01) (226, -2.50741672515869140625e+01) (227, -2.76719055175781250000e+01) (228, 8.04236888885498046875e+00) (229, -3.10233402252197265625e+00) (230, -4.18985900878906250000e+01) (231, -1.55052928924560546875e+01) (232, -3.00690269470214843750e+01) (233, -4.36157073974609375000e+01) (234, 4.64495735168457031250e+01) (235, -4.45444345474243164062e+00) (236, 3.01786975860595703125e+01) (237, -1.80511665344238281250e+01) (238, -5.28842887878417968750e+01) (239, 1.52446756362915039062e+01) (240, -5.43573303222656250000e+01) (241, -4.38085746765136718750e+01) (242, -1.52114400863647460938e+01) (243, 2.42109565734863281250e+01) (244, -2.17172031402587890625e+01) (245, -3.27341918945312500000e+01) (246, -2.32537040710449218750e+01) (247, -1.66512603759765625000e+01) (248, 2.85621166229248046875e-01) (249, -1.06790685653686523438e+01) (250, -1.09318990707397460938e+01) (251, 6.20538473129272460938e-01) (252, -4.11365051269531250000e+01) (253, -1.76102790832519531250e+01) (254, 1.43244829177856445312e+01) (255, 2.88092555999755859375e+01) (256, 1.85458297729492187500e+01) (257, -1.90522491931915283203e+00) (258, -2.28849315643310546875e+01) (259, -9.95440244674682617188e-01) (260, -1.34303274154663085938e+01) (261, -1.27811021804809570312e+01) (262, -8.47608280181884765625e+00) (263, -3.41587495803833007812e+00) (264, 2.90636706352233886719e+00) (265, -3.24247283935546875000e+01) (266, -1.93214492797851562500e+01) (267, -9.40397739410400390625e+00) (268, 1.09283733367919921875e+01) (269, 2.01024293899536132812e-01) (270, -2.40290431976318359375e+01) (271, -1.85865612030029296875e+01) (272, -1.80311429500579833984e+00) (273, -3.80272026062011718750e+01) (274, -4.40998983383178710938e+00) (275, -2.36499671936035156250e+01) (276, 1.45198135375976562500e+01) (277, 2.65867748260498046875e+01) (278, -2.30053558349609375000e+01) (279, -2.07140369415283203125e+01) (280, -4.08545761108398437500e+01) (281, -3.57671546936035156250e+01) (282, -2.08353786468505859375e+01) (283, 1.42722046375274658203e+00) (284, 8.62820339202880859375e+00) (285, -2.37277584075927734375e+01) (286, -1.63262023925781250000e+01) (287, -1.20837249755859375000e+01) (288, -2.72921085357666015625e+01) (289, 8.29984569549560546875e+00) (290, 1.82193584442138671875e+01) (291, -2.35785045623779296875e+01) (292, 9.78543996810913085938e-01) (293, -7.53545522689819335938e+00) (294, -6.15671920776367187500e+00) (295, -4.57557449340820312500e+01) (296, 1.93540477752685546875e+01) (297, 9.47478866577148437500e+00) (298, -7.57889270782470703125e+00) (299, 2.24062385559082031250e+01) (300, -2.18314766883850097656e+00) (301, -1.53426017761230468750e+01) (302, -6.52817630767822265625e+00) (303, -2.39190578460693359375e+01) (304, 3.86132049560546875000e+00) (305, 1.46425414085388183594e+00) (306, 1.15611381530761718750e+01) (307, -1.74786014556884765625e+01) (308, -1.68706817626953125000e+01) (309, -2.19973831176757812500e+01) (310, -2.42888031005859375000e+01) (311, -2.23169345855712890625e+01) (312, -1.25243234634399414062e+01) (313, 1.33472747802734375000e+01) (314, 2.39005050659179687500e+01) (315, -1.41966094970703125000e+01) (316, -5.78405380249023437500e+00) (317, -7.00355720520019531250e+00) (318, -1.50864038467407226562e+01) (319, 1.06312541961669921875e+01) (320, 2.28624805808067321777e-01) (321, -2.16262650489807128906e+00) (322, -2.48006749153137207031e+00) (323, 5.70679712295532226562e+00) (324, -2.15297794342041015625e+00) (325, -2.00179462432861328125e+01) (326, 1.52098817825317382812e+01) (327, 3.50443763732910156250e+01) (328, -5.22094774246215820312e+00) (329, -2.21705684661865234375e+01) (330, -2.14940986633300781250e+01) (331, -3.66873397827148437500e+01) (332, -3.74134969711303710938e+00) (333, -1.88311481475830078125e+00) (334, -2.80539665222167968750e+01) (335, 2.54720985889434814453e-01) (336, 1.39830812811851501465e-01) (337, -1.41025724411010742188e+01) (338, -2.38406009674072265625e+01) (339, -2.15828084945678710938e+00) (340, 2.80872058868408203125e+01) (341, -3.58855819702148437500e+01) (342, -1.51988744735717773438e+01) (343, 1.57727222442626953125e+01) (344, -1.17781257629394531250e+01) (345, -1.63890135288238525391e+00) (346, 6.46053361892700195312e+00) (347, -1.99275684356689453125e+00) (348, 7.43496775627136230469e-01) (349, -3.06797828674316406250e+01) (350, 1.47174501419067382812e+00) (351, -2.01477832794189453125e+01) (352, -1.77803039550781250000e+01) (353, -2.58688187599182128906e+00) (354, -2.82701816558837890625e+01) (355, 1.44273176193237304688e+01) (356, -4.12315893173217773438e+00) (357, 2.52483701705932617188e+00) (358, -1.14796419143676757812e+01) (359, -8.60678577423095703125e+00) (360, -1.59406852722167968750e+01) (361, -2.66302013397216796875e+01) (362, -1.49633550643920898438e+01) (363, -7.68933963775634765625e+00) (364, 3.95438122749328613281e+00) (365, 1.36281991004943847656e+00) (366, -8.14337921142578125000e+00) (367, -2.04403095245361328125e+01) (368, -9.96905040740966796875e+00) (369, -1.59195537567138671875e+01) (370, -1.07807397842407226562e+01) (371, -8.33460330963134765625e+00) (372, -1.48389263153076171875e+01) (373, 2.97756462097167968750e+01) (374, -1.08509244918823242188e+01) (375, 8.50090980529785156250e+00) (376, 1.53389225006103515625e+01) (377, -7.96039223670959472656e-01) (378, -1.88983554840087890625e+01) (379, 4.55320596694946289062e-01) (380, -6.58913803100585937500e+01) (0, 2.37999973297119140625e+01) (1, 2.04264564514160156250e+01) (2, -1.66881065368652343750e+01) (3, -8.37476196289062500000e+01) (4, 1.80524444580078125000e+01) (5, -1.69042301177978515625e+01) (6, 2.78320980072021484375e+00) (7, -1.19638061523437500000e+01) (8, -1.53699815273284912109e+00) (9, -4.71510887145996093750e+00) (10, 4.91559505462646484375e+00) (11, -1.17751054763793945312e+01) (12, -2.03180527687072753906e+00) (13, 3.29706525802612304688e+00) (14, 6.84965562820434570312e+00) (15, -2.56470375061035156250e+01) (16, 2.01655960083007812500e+00) (17, 7.27666676044464111328e-01) (18, 3.10993528366088867188e+00) (19, 5.69223463535308837891e-01) (20, -7.68944501876831054688e+00) (21, 1.87031860351562500000e+01) (22, -1.52974958419799804688e+01) (23, -4.22548294067382812500e+00) (24, 5.43640947341918945312e+00) (25, -1.50104808807373046875e+01) (26, -1.47798814773559570312e+01) (27, -6.13887119293212890625e+00) (28, -1.44595928192138671875e+01) (29, 1.32855119705200195312e+01) (30, -7.20094108581542968750e+00) (31, 8.90832901000976562500e+00) (32, 8.16144752502441406250e+00) (33, 3.64404964447021484375e+00) (34, 1.70376300811767578125e+01) (35, -2.24989833831787109375e+01) (36, -7.59642553329467773438e+00) (37, -1.09933910369873046875e+01) (38, -3.68616027832031250000e+01) (39, 1.25992786884307861328e+00) (40, -9.71085834503173828125e+00) (41, 8.46526336669921875000e+00) (42, -9.66112709045410156250e+00) (43, -2.24259262084960937500e+01) (44, -2.10477581024169921875e+01) (45, -2.90567088127136230469e+00) (46, -1.55576982498168945312e+01) (47, 2.07469501495361328125e+01) (48, -3.45734825134277343750e+01) (49, 2.62323741912841796875e+01) (50, 7.91899204254150390625e-01) (51, -2.07521514892578125000e+01) (52, 4.29329919815063476562e+00) (53, -9.28061366081237792969e-01) (54, 1.93697166442871093750e+01) (55, -3.95031738281250000000e+01) (56, 2.66349935531616210938e+00) (57, 9.39887714385986328125e+00) (58, -3.36270408630371093750e+01) (59, 5.28309869766235351562e+00) (60, -1.23932485580444335938e+01) (61, -2.25759983062744140625e+00) (62, -5.17625522613525390625e+00) (63, -5.55994367599487304688e+00) (64, 7.78957366943359375000e+00) (65, -1.75959587097167968750e+01) (66, -1.55957641601562500000e+01) (67, 6.29481506347656250000e+00) (68, -1.79367980957031250000e+01) (69, 1.84708607196807861328e+00) (70, -1.28555936813354492188e+01) (71, -5.64802742004394531250e+00) (72, 1.30194110870361328125e+01) (73, -9.64938068389892578125e+00) (74, -9.49671173095703125000e+00) (75, -4.05408954620361328125e+00) (76, 1.48434793949127197266e+00) (77, -1.66702327728271484375e+01) (78, -1.76042213439941406250e+01) (79, -1.33613662719726562500e+01) (80, -1.20624456405639648438e+01) (81, -1.10783071517944335938e+01) (82, 5.68195009231567382812e+00) (83, -1.87335758209228515625e+01) (84, 2.20276966094970703125e+01) (85, -6.44014835357666015625e+00) (86, 1.17180156707763671875e+01) (87, 6.88201951980590820312e+00) (88, -1.86904258728027343750e+01) (89, -4.72381973266601562500e+00) (90, -1.71733665466308593750e+01) (91, -9.42693138122558593750e+00) (92, -1.05119590759277343750e+01) (93, -1.56121349334716796875e+01) (94, 1.71526288986206054688e+00) (95, -1.89691658020019531250e+01) (96, -4.23061180114746093750e+00) (97, -6.66771745681762695312e+00) (98, -2.63630981445312500000e+01) (99, 5.29721593856811523438e+00) (100, -7.48386573791503906250e+00) (101, -1.64686851501464843750e+01) (102, 3.65238094329833984375e+00) (103, -8.96886348724365234375e+00) (104, 2.10350475311279296875e+01) (105, -2.78930435180664062500e+01) (106, -3.15970873832702636719e+00) (107, -1.07178822159767150879e-01) (108, -1.87527298927307128906e+00) (109, -3.05141544342041015625e+00) (110, -2.83096942901611328125e+01) (111, -1.03503637313842773438e+01) (112, 3.23605251312255859375e+00) (113, -7.27967470884323120117e-02) (114, 6.62960469722747802734e-01) (115, -1.25602645874023437500e+01) (116, -1.51633777618408203125e+01) (117, 1.21552050113677978516e+00) (118, -7.37039041519165039062e+00) (119, -1.13426475524902343750e+01) (120, -2.32220840454101562500e+01) (121, -1.95885353088378906250e+01) (122, 6.22288370132446289062e+00) (123, 8.74140834808349609375e+00) (124, 1.08279314041137695312e+01) (125, -6.39527559280395507812e+00) (126, -1.87614173889160156250e+01) (127, 4.82708311080932617188e+00) (128, 3.12845915555953979492e-01) (129, -2.49528522491455078125e+01) (130, 5.79314184188842773438e+00) (131, -3.11613273620605468750e+00) (132, -8.03941965103149414062e-01) (133, 3.28233629465103149414e-01) (134, -1.44449405670166015625e+01) (135, 1.12834990024566650391e+00) (136, -2.52468276023864746094e+00) (137, 3.50320369005203247070e-01) (138, -1.58689823150634765625e+01) (139, -2.24929027557373046875e+01) (140, -2.54400939941406250000e+01) (141, -3.56698393821716308594e-01) (142, 2.14268058538436889648e-01) (143, 1.64327964782714843750e+01) (144, -2.63462543487548828125e-01) (145, -8.78783035278320312500e+00) (146, -7.02402353286743164062e+00) (147, 2.45430202484130859375e+01) (148, -6.92703247070312500000e+00) (149, -1.72644214630126953125e+01) (150, -2.08603439331054687500e+01) (151, -1.17312173843383789062e+01) (152, -2.99800739288330078125e+01) (153, -7.19132423400878906250e+00) (154, 2.18084964752197265625e+01) (155, 2.30561399459838867188e+00) (156, 9.94061851501464843750e+00) (157, -1.39590587615966796875e+01) (158, -1.38566122055053710938e+01) (159, -3.10858078002929687500e+01) (160, -4.79734725952148437500e+01) (161, -1.14960174560546875000e+01) (162, 7.60656309127807617188e+00) (163, 2.20764803886413574219e+00) (164, 2.11459712982177734375e+01) (165, -3.86447601318359375000e+01) (166, -2.73245868682861328125e+01) (167, 2.43124961853027343750e+01) (168, 2.96793389320373535156e+00) (169, 1.97443008422851562500e+01) (170, -1.25211582183837890625e+01) (171, 5.76568031311035156250e+00) (172, -5.65280437469482421875e+00) (173, -6.45182323455810546875e+00) (174, 3.27002258300781250000e+01) (175, -8.25594711303710937500e+00) (176, -1.37034559249877929688e+01) (177, -3.25574851036071777344e+00) (178, -5.63617086410522460938e+00) (179, -4.40438385009765625000e+01) (180, -2.21957187652587890625e+01) (181, -2.44854793548583984375e+01) (182, 2.65452098846435546875e+01) (183, 3.46307411193847656250e+01) (184, 6.59030771255493164062e+00) (185, -1.52239770889282226562e+01) (186, 7.94517803192138671875e+00) (187, 4.27781028747558593750e+01) (188, -4.77938699722290039062e+00) (189, -2.41358604431152343750e+01) (190, 3.75128924846649169922e-01) (191, 1.16499519348144531250e+01) (192, -3.70359764099121093750e+01) (193, -6.78625106811523437500e+01) (194, 7.37134475708007812500e+01) (195, 1.00720081329345703125e+01) (196, -9.98627281188964843750e+00) (197, -2.71434855461120605469e+00) (198, -2.65235557556152343750e+01) (199, -3.48905181884765625000e+01) (200, -1.74425029754638671875e+01) (201, -2.68523445129394531250e+01) (202, 1.22718553543090820312e+01) (203, -1.22060251235961914062e+00) (204, -9.54000568389892578125e+00) (205, -7.82820796966552734375e+00) (206, -1.88962917327880859375e+01) (207, 4.47682418823242187500e+01) (208, 7.29853963851928710938e+00) (209, -2.16886940002441406250e+01) (210, 8.03573668003082275391e-01) (211, -8.14925575256347656250e+00) (212, -2.96418838500976562500e+01) (213, -2.18453750610351562500e+01) (214, 1.88074436187744140625e+01) (215, -2.81013798713684082031e+00) (216, 5.45468568801879882812e+00) (217, 5.27471590042114257812e+00) (218, -2.18816165924072265625e+01) (219, -9.68566799163818359375e+00) (220, -3.21227226257324218750e+01) (221, -2.70254783630371093750e+01) (222, -1.08468127250671386719e+00) (223, 1.47121543884277343750e+01) (224, 4.56655263900756835938e+00) (225, -1.05689210891723632812e+01) (226, -1.00919218063354492188e+01) (227, -1.18138122558593750000e+01) (228, -6.10603618621826171875e+00) (229, -1.16016702651977539062e+01) (230, -2.95819520950317382812e+00) (231, -2.28285789489746093750e+01) (232, -3.65057792663574218750e+01) (233, -1.77594547271728515625e+01) (234, 6.71350097656250000000e+01) (235, 1.61125755310058593750e+00) (236, 9.45492172241210937500e+00) (237, 1.48826913833618164062e+01) (238, 5.37902975082397460938e+00) (239, -3.57061271667480468750e+01) (240, -2.28065986633300781250e+01) (241, -3.61270866394042968750e+01) (242, -3.38365864753723144531e+00) (243, 1.84644603729248046875e+01) (244, 2.35194568634033203125e+01) (245, -7.70380210876464843750e+00) (246, -9.04802894592285156250e+00) (247, -3.18134045600891113281e+00) (248, -3.09581184387207031250e+00) (249, 9.68738257884979248047e-01) (250, -3.07884140014648437500e+01) (251, -7.84644365310668945312e+00) (252, -3.01429138183593750000e+01) (253, -1.43563442230224609375e+01) (254, 4.31847381591796875000e+01) (255, -1.72325916290283203125e+01) (256, 3.21409046649932861328e-01) (257, -7.99853610992431640625e+00) (258, 8.66770553588867187500e+00) (259, -1.76734333038330078125e+01) (260, -1.17441005706787109375e+01) (261, -2.74284553527832031250e+01) (262, -1.58237991333007812500e+01) (263, 2.56563148498535156250e+01) (264, -6.57548141479492187500e+00) (265, -8.86233615875244140625e+00) (266, -4.03483276367187500000e+01) (267, -4.48306503295898437500e+01) (268, 2.02284073829650878906e+00) (269, -8.54937458038330078125e+00) (270, -5.63143968582153320312e+00) (271, -2.67155666351318359375e+01) (272, 1.04441022872924804688e+00) (273, -4.96936368942260742188e+00) (274, 3.26885108947753906250e+01) (275, 7.40583181381225585938e+00) (276, 6.72962284088134765625e+00) (277, -1.70719680786132812500e+01) (278, 1.58221130371093750000e+01) (279, 7.69070768356323242188e+00) (280, -1.16502647399902343750e+01) (281, 2.90091514587402343750e+00) (282, -2.11021060943603515625e+01) (283, 2.32116851806640625000e+01) (284, 9.76544201374053955078e-01) (285, -1.43587141036987304688e+01) (286, -5.34074735641479492188e+00) (287, -9.30645847320556640625e+00) (288, -2.09770889282226562500e+01) (289, 2.03451957702636718750e+01) (290, -3.28851852416992187500e+01) (291, -4.27714767456054687500e+01) (292, -1.50745010375976562500e+01) (293, 5.88367557525634765625e+00) (294, 1.16205739974975585938e+01) (295, 1.61535968780517578125e+01) (296, -2.18529987335205078125e+00) (297, -4.51890707015991210938e+00) (298, -5.98775053024291992188e+00) (299, -9.52613258361816406250e+00) (300, -1.84706974029541015625e+01) (301, 9.42167186737060546875e+00) (302, -3.07736659049987792969e+00) (303, 2.15997982025146484375e+01) (304, -3.38511109352111816406e+00) (305, -4.63439788818359375000e+01) (306, -2.42157897949218750000e+01) (307, 4.58531808853149414062e+00) (308, -2.45015316009521484375e+01) (309, -1.74746456146240234375e+01) (310, -8.96903228759765625000e+00) (311, -8.47365379333496093750e+00) (312, -1.32127881050109863281e+00) (313, 7.76200199127197265625e+00) (314, 1.67894001007080078125e+01) (315, 2.73839402198791503906e+00) (316, 2.51369524002075195312e+00) (317, -1.17092657089233398438e+01) (318, -8.47138345241546630859e-01) (319, -1.09008007049560546875e+01) (320, -1.97754707336425781250e+01) (321, 9.88232326507568359375e+00) (322, -6.12712192535400390625e+00) (323, 1.70179138183593750000e+01) (324, -3.55396771430969238281e+00) (325, -1.32255649566650390625e+01) (326, -2.69713783264160156250e+01) (327, 7.68669652938842773438e+00) (328, -4.33219642639160156250e+01) (329, -2.14763393402099609375e+01) (330, 3.70325517654418945312e+00) (331, 5.34596824645996093750e+00) (332, 6.29434287548065185547e-01) (333, 3.08313679695129394531e+00) (334, 2.67923927307128906250e+00) (335, 1.68932552337646484375e+01) (336, -1.29803152084350585938e+01) (337, -1.14796180725097656250e+01) (338, -7.79930734634399414062e+00) (339, -2.19680328369140625000e+01) (340, 1.23402891159057617188e+01) (341, 3.49589204788208007812e+00) (342, -2.57394618988037109375e+01) (343, 1.17469541728496551514e-01) (344, -2.47072334289550781250e+01) (345, -2.60334072113037109375e+01) (346, -9.07327532768249511719e-01) (347, 4.55663204193115234375e+00) (348, -2.16368045806884765625e+01) (349, -5.00446653366088867188e+00) (350, 2.79370814561843872070e-01) (351, -1.03948383331298828125e+01) (352, 4.51921415328979492188e+00) (353, -2.20373249053955078125e+00) (354, -1.33768167495727539062e+01) (355, -6.30007266998291015625e+00) (356, -1.33869705200195312500e+01) (357, -3.53432869911193847656e+00) (358, -1.07098674774169921875e+00) (359, 3.00599670410156250000e+00) (360, 7.73366546630859375000e+00) (361, -7.50462293624877929688e+00) (362, 4.81786870956420898438e+00) (363, 1.11924390792846679688e+01) (364, -1.79229373931884765625e+01) (365, -2.52100753784179687500e+01) (366, -1.55372323989868164062e+01) (367, -2.04046783447265625000e+01) (368, -7.74522113800048828125e+00) (369, -1.77452242374420166016e+00) (370, -1.17505884170532226562e+01) (371, -8.29161930084228515625e+00) (372, 3.43333721160888671875e+00) (373, -8.26369380950927734375e+00) (374, 2.06541731953620910645e-01) (375, -8.49708366394042968750e+00) (376, 1.25022876262664794922e+00) (377, 8.48569679260253906250e+00) (378, -3.42899093627929687500e+01) (379, 3.93385314941406250000e+00) (380, -5.55676460266113281250e+01) (0, -2.48336334228515625000e+01) (1, -1.56491537094116210938e+01) (2, 6.47437477111816406250e+00) (3, -3.89122724533081054688e-01) (4, -1.52343330383300781250e+01) (5, -1.01977462768554687500e+01) (6, -3.39307556152343750000e+01) (7, 4.20179748535156250000e+00) (8, -2.22002086639404296875e+01) (9, -2.25869727134704589844e+00) (10, -5.30068435668945312500e+01) (11, -3.34365272521972656250e+01) (12, 2.15084266662597656250e+00) (13, -1.99917430877685546875e+01) (14, -1.73122138977050781250e+01) (15, -2.38536167144775390625e+01) (16, -4.20020751953125000000e+01) (17, -8.90705585479736328125e+00) (18, 1.67954788208007812500e+01) (19, -3.95136184692382812500e+01) (20, -2.06013908386230468750e+01) (21, -1.93530216217041015625e+01) (22, -2.92808055877685546875e+00) (23, -3.58897042274475097656e+00) (24, -4.53531761169433593750e+01) (25, -5.64602088928222656250e+00) (26, -3.93187355995178222656e+00) (27, -5.22118091583251953125e+00) (28, -5.18569326400756835938e+00) (29, -3.96580848693847656250e+01) (30, -2.67284793853759765625e+01) (31, -3.54124488830566406250e+01) (32, -1.39096050262451171875e+01) (33, -2.35069637298583984375e+01) (34, 3.33596076965332031250e+01) (35, -2.25380764007568359375e+01) (36, -3.57457275390625000000e+01) (37, -1.91592025756835937500e+01) (38, 4.25817203521728515625e+00) (39, -2.86779670715332031250e+01) (40, -3.06011238098144531250e+01) (41, -1.49672222137451171875e+01) (42, 4.13611793518066406250e+00) (43, -1.36351022720336914062e+01) (44, -2.51350116729736328125e+01) (45, -2.93597145080566406250e+01) (46, -1.28528594970703125000e+01) (47, 1.26168498992919921875e+01) (48, 2.76557207107543945312e+00) (49, -2.36157035827636718750e+01) (50, -2.35926265716552734375e+01) (51, -2.26016769409179687500e+01) (52, -2.14165802001953125000e+01) (53, -3.31690940856933593750e+01) (54, 2.30948047637939453125e+01) (55, -1.66547429561614990234e+00) (56, -3.46367740631103515625e+00) (57, -2.88657913208007812500e+01) (58, 7.91873598098754882812e+00) (59, -5.29740982055664062500e+01) (60, -3.88554382324218750000e+01) (61, 7.26072788238525390625e-01) (62, 7.84514760971069335938e+00) (63, 1.05528831481933593750e+01) (64, -2.87926330566406250000e+01) (65, 2.00137786865234375000e+01) (66, -1.42753601074218750000e+00) (67, 1.27220964431762695312e+01) (68, -6.17232894897460937500e+00) (69, -4.93583908081054687500e+01) (70, -4.32351379394531250000e+01) (71, -9.87773323059082031250e+00) (72, -2.02554149627685546875e+01) (73, -4.51295375823974609375e+00) (74, 1.62484626770019531250e+01) (75, -7.14004468917846679688e+00) (76, -5.78734874725341796875e+00) (77, -4.28714485168457031250e+01) (78, 4.06643658876419067383e-01) (79, -3.29146995544433593750e+01) (80, -5.29530982971191406250e+01) (81, -3.87297105789184570312e+00) (82, -7.35532379150390625000e+00) (83, -1.52146806716918945312e+01) (84, -4.08592796325683593750e+01) (85, -2.32085189819335937500e+01) (86, -1.36110954284667968750e+01) (87, 4.00349655151367187500e+01) (88, 1.34367237091064453125e+01) (89, -1.43505563735961914062e+01) (90, -4.51806488037109375000e+01) (91, 1.17616415023803710938e+00) (92, -1.94258575439453125000e+01) (93, 3.68985404968261718750e+01) (94, -6.41980218887329101562e+00) (95, 7.19675445556640625000e+00) (96, 3.06370372772216796875e+01) (97, -3.69065284729003906250e+01) (98, 5.32910299301147460938e+00) (99, -2.62225856781005859375e+01) (100, -2.67856025695800781250e+01) (101, -2.14648342132568359375e+01) (102, -2.53579068183898925781e+00) (103, -3.40766334533691406250e+01) (104, -4.99556875228881835938e+00) (105, -1.29840755462646484375e+01) (106, -2.40744571685791015625e+01) (107, 3.44566154479980468750e+01) (108, -1.38826465606689453125e+01) (109, -1.05862903594970703125e+01) (110, -4.19734191894531250000e+01) (111, -1.34160957336425781250e+01) (112, -1.39504938125610351562e+01) (113, 4.38850173950195312500e+01) (114, 1.75239448547363281250e+01) (115, -3.69967794418334960938e+00) (116, 7.42539286613464355469e-01) (117, 8.51776695251464843750e+00) (118, -7.03709173202514648438e+00) (119, -1.46284704208374023438e+01) (120, -3.79885749816894531250e+01) (121, -1.94589424133300781250e+01) (122, 2.62953014373779296875e+01) (123, -2.81172809600830078125e+01) (124, 2.20674538612365722656e+00) (125, -2.77507858276367187500e+01) (126, -3.65475692749023437500e+01) (127, 8.71192779541015625000e+01) (128, -1.41869039535522460938e+01) (129, 2.59195632934570312500e+01) (130, -5.56021690368652343750e+01) (131, 1.93004722595214843750e+01) (132, -6.61068725585937500000e+00) (133, 1.40901718139648437500e+01) (134, 3.23370051383972167969e+00) (135, -3.59637069702148437500e+01) (136, -6.36121511459350585938e+00) (137, -1.22015018463134765625e+01) (138, 1.82577073574066162109e+00) (139, 2.16064357757568359375e+00) (140, -2.18599491119384765625e+01) (141, -2.76588478088378906250e+01) (142, 7.97015619277954101562e+00) (143, -4.68540077209472656250e+01) (144, 2.85191345214843750000e+01) (145, -4.67900695800781250000e+01) (146, -2.57669277191162109375e+01) (147, 6.64942321777343750000e+01) (148, -2.99262657165527343750e+01) (149, 1.95730705261230468750e+01) (150, -3.98548774719238281250e+01) (151, -4.55089330673217773438e+00) (152, -2.46713590621948242188e+00) (153, 1.49794654846191406250e+01) (154, -2.71496219635009765625e+01) (155, -2.73999176025390625000e+01) (156, -6.13097667694091796875e+00) (157, 9.86222076416015625000e+00) (158, 3.40502090454101562500e+01) (159, 4.92241096496582031250e+01) (160, 4.45262908935546875000e+00) (161, -4.87048244476318359375e+00) (162, -5.51763420104980468750e+01) (163, -9.12839889526367187500e+01) (164, 2.09316692352294921875e+01) (165, -4.13223762512207031250e+01) (166, -4.50398635864257812500e+01) (167, 1.17637834548950195312e+01) (168, -1.29898328781127929688e+01) (169, 6.32962760925292968750e+01) (170, 1.91632270812988281250e+01) (171, -7.73307943344116210938e+00) (172, 1.40035381317138671875e+01) (173, 5.16941566467285156250e+01) (174, -1.08055297851562500000e+02) (175, -4.04412269592285156250e+01) (176, 4.46591424942016601562e+00) (177, 2.13836803436279296875e+01) (178, 3.05767860412597656250e+01) (179, 6.03231315612792968750e+01) (180, -7.08906602859497070312e+00) (181, 1.91000747680664062500e+01) (182, -1.26623146057128906250e+02) (183, -1.66086181640625000000e+02) (184, 2.13722229003906250000e+01) (185, -6.36578102111816406250e+01) (186, -2.53933181762695312500e+01) (187, -9.47958602905273437500e+01) (188, -9.74011993408203125000e+00) (189, 8.91695022583007812500e+01) (190, 4.55848503112792968750e+01) (191, -2.48257637023925781250e+01) (192, 2.54323978424072265625e+01) (193, 7.52115097045898437500e+01) (194, -1.85981994628906250000e+02) (195, -5.33968696594238281250e+01) (196, 7.22198562622070312500e+01) (197, 4.45109519958496093750e+01) (198, 4.20357131958007812500e+01) (199, 1.14851509094238281250e+02) (200, -3.36254463195800781250e+01) (201, -9.42885017395019531250e+00) (202, -5.63669357299804687500e+01) (203, -9.79048309326171875000e+01) (204, 2.80217170715332031250e+01) (205, -3.55221061706542968750e+01) (206, -3.21844100952148437500e+01) (207, -8.33235549926757812500e+01) (208, -2.89137268066406250000e+01) (209, 7.76953811645507812500e+01) (210, 3.06675395965576171875e+01) (211, -7.83784031867980957031e-01) (212, 1.73884201049804687500e+01) (213, 5.60425910949707031250e+01) (214, -2.74336204528808593750e+01) (215, -5.42173805236816406250e+01) (216, -1.10783386230468750000e+01) (217, 5.03317375183105468750e+01) (218, 3.91976699829101562500e+01) (219, 5.22053375244140625000e+01) (220, -2.53068618774414062500e+01) (221, -1.14734287261962890625e+01) (222, -4.02501144409179687500e+01) (223, -6.96005783081054687500e+01) (224, 2.15120162963867187500e+01) (225, -2.89144649505615234375e+01) (226, -4.49969367980957031250e+01) (227, -2.36647281646728515625e+01) (228, -3.19682331085205078125e+01) (229, 7.55563278198242187500e+01) (230, 3.98056373596191406250e+01) (231, -5.41014328002929687500e+01) (232, 2.01378879547119140625e+01) (233, 3.52348213195800781250e+01) (234, -3.00135669708251953125e+01) (235, -3.16949329376220703125e+01) (236, -2.93058052062988281250e+01) (237, 3.90449523925781250000e+01) (238, 2.96327800750732421875e+01) (239, 7.55879287719726562500e+01) (240, -2.49140586853027343750e+01) (241, 3.83298540115356445312e+00) (242, -1.45477504730224609375e+01) (243, -1.50160036087036132812e+01) (244, 1.62585544586181640625e+01) (245, 7.25416469573974609375e+00) (246, -4.39356231689453125000e+01) (247, -1.18037862777709960938e+01) (248, -1.59480304718017578125e+01) (249, 4.13424453735351562500e+01) (250, -1.42064895629882812500e+01) (251, -4.25497741699218750000e+01) (252, 1.17344427108764648438e+01) (253, 2.14880332946777343750e+01) (254, -7.11049842834472656250e+00) (255, 3.08739393949508666992e-01) (256, 3.36223297119140625000e+01) (257, 2.18645763397216796875e+00) (258, -2.15680599212646484375e+01) (259, 2.11844348907470703125e+01) (260, -3.92651634216308593750e+01) (261, -2.65394535064697265625e+01) (262, -3.05568408966064453125e+00) (263, -1.66078510284423828125e+01) (264, 1.27922334671020507812e+01) (265, -9.27892971038818359375e+00) (266, -9.21022129058837890625e+00) (267, 1.11141347885131835938e+01) (268, -1.79225273132324218750e+01) (269, 2.99533863067626953125e+01) (270, -1.09899644851684570312e+01) (271, 1.09332752227783203125e+01) (272, -5.22074604034423828125e+00) (273, -3.38561797142028808594e+00) (274, 1.42071323394775390625e+01) (275, -2.18253078460693359375e+01) (276, 6.33587551116943359375e+00) (277, -2.47232704162597656250e+01) (278, -9.74800491333007812500e+00) (279, 3.24162826538085937500e+01) (280, -1.71733798980712890625e+01) (281, -2.88427658081054687500e+01) (282, 3.33070602416992187500e+01) (283, 1.78981361389160156250e+01) (284, -1.86849956512451171875e+01) (285, -6.27485609054565429688e+00) (286, -6.03195190429687500000e+00) (287, 2.34471969604492187500e+01) (288, -7.38780450820922851562e+00) (289, -1.50372877120971679688e+01) (290, -6.83968811035156250000e+01) (291, 1.24527692794799804688e+01) (292, -2.61492328643798828125e+01) (293, -1.37558269500732421875e+01) (294, 2.06383152008056640625e+01) (295, 2.03590068817138671875e+01) (296, -5.21061420440673828125e+00) (297, -2.99115695953369140625e+01) (298, -1.32761459350585937500e+01) (299, 1.48882889747619628906e+00) (300, -7.32577657699584960938e+00) (301, -2.49541969299316406250e+01) (302, 1.24569406509399414062e+01) (303, 4.05968246459960937500e+01) (304, -2.65490322113037109375e+01) (305, -2.26394057273864746094e+00) (306, -5.69474716186523437500e+01) (307, 8.60284328460693359375e+00) (308, -1.44637238979339599609e+00) (309, -4.70731353759765625000e+01) (310, -6.15811233520507812500e+01) (311, -7.60986948013305664062e+00) (312, -1.65104579925537109375e+01) (313, -1.01398553848266601562e+01) (314, 3.91831130981445312500e+01) (315, 8.86387825012207031250e+00) (316, 9.95968627929687500000e+00) (317, -1.86655788421630859375e+01) (318, 1.70554900169372558594e+00) (319, -1.15493888854980468750e+01) (320, -1.02322139739990234375e+01) (321, -3.03769226074218750000e+01) (322, 8.18971347808837890625e+00) (323, 7.39126443862915039062e+00) (324, -2.52357349395751953125e+01) (325, -8.34005451202392578125e+00) (326, -3.79401893615722656250e+01) (327, 2.21770381927490234375e+01) (328, 7.16168105602264404297e-01) (329, -3.95212135314941406250e+01) (330, -8.40970382690429687500e+01) (331, 1.09840404987335205078e+00) (332, -1.58848094940185546875e+01) (333, -5.98509368896484375000e+01) (334, 4.91239356994628906250e+01) (335, 1.06748876571655273438e+01) (336, 5.93469285964965820312e+00) (337, -2.19353485107421875000e+01) (338, -1.09194431304931640625e+01) (339, 2.46320190429687500000e+01) (340, -1.28634166717529296875e+01) (341, -1.46803178787231445312e+01) (342, -8.26042461395263671875e+00) (343, -1.77800381183624267578e+00) (344, -4.02254638671875000000e+01) (345, 9.77801513671875000000e+00) (346, 2.87846412658691406250e+01) (347, 1.62655029296875000000e+01) (348, -1.44425497055053710938e+01) (349, -2.33337287902832031250e+01) (350, -4.90704460144042968750e+01) (351, -1.65086002349853515625e+01) (352, -1.51182222366333007812e+01) (353, -2.13697776794433593750e+01) (354, 5.99165499210357666016e-01) (355, -5.48138713836669921875e+00) (356, 9.21572303771972656250e+00) (357, -1.36257390975952148438e+01) (358, -9.36905097961425781250e+00) (359, -1.76134395599365234375e+01) (360, -7.06421375274658203125e+00) (361, -2.18624477386474609375e+01) (362, 8.44289875030517578125e+00) (363, -5.15823554992675781250e+00) (364, -4.20672187805175781250e+01) (365, 1.95767383575439453125e+01) (366, -2.06237125396728515625e+01) (367, 2.54951019287109375000e+01) (368, -3.86592626571655273438e+00) (369, -6.38883733749389648438e+00) (370, -1.64022808074951171875e+01) (371, 8.41864109039306640625e+00) (372, -5.59962987899780273438e+00) (373, -2.74426670074462890625e+01) (374, 5.59957695007324218750e+00) (375, -2.52970242500305175781e+00) (376, 3.50644230842590332031e+00) (377, -1.80448913574218750000e+01) (378, -1.61442623138427734375e+01) (379, -5.05438575744628906250e+01) (380, -2.08131576538085937500e+02) (0, -1.99763431549072265625e+01) (1, -2.84817099571228027344e+00) (2, -4.64677286148071289062e+00) (3, -8.40400409698486328125e+00) (4, -2.13840599060058593750e+01) (5, -3.88225936889648437500e+00) (6, 2.44545993804931640625e+01) (7, 1.02993221282958984375e+01) (8, -1.11472911834716796875e+01) (9, -1.39379537105560302734e+00) (10, -3.37969517707824707031e+00) (11, 1.07662048339843750000e+01) (12, 1.17206916809082031250e+01) (13, -1.76831493377685546875e+01) (14, 9.35572338104248046875e+00) (15, -9.47342586517333984375e+00) (16, -4.12852859497070312500e+00) (17, -1.20903742313385009766e+00) (18, -6.39402627944946289062e-01) (19, -3.72925453186035156250e+01) (20, -2.93625125885009765625e+01) (21, 1.76059608459472656250e+01) (22, 8.96512603759765625000e+00) (23, 1.09562921524047851562e+01) (24, -2.78771286010742187500e+01) (25, 1.69939243793487548828e+00) (26, 1.00404586791992187500e+01) (27, 2.87955164909362792969e+00) (28, 1.07255554199218750000e+01) (29, 1.62132530212402343750e+01) (30, 4.36166048049926757812e+00) (31, -1.86523246765136718750e+00) (32, -2.44836091995239257812e+00) (33, -2.55613441467285156250e+01) (34, -1.28491163253784179688e+01) (35, -2.64177627563476562500e+01) (36, -9.33723926544189453125e+00) (37, 4.79959154129028320312e+00) (38, -2.76879143714904785156e+00) (39, -2.05157070159912109375e+01) (40, -2.03866920471191406250e+01) (41, -1.96575224399566650391e+00) (42, 2.18437843322753906250e+01) (43, 2.85345802307128906250e+01) (44, -1.65632705688476562500e+01) (45, 6.05254602432250976562e+00) (46, 1.24253664016723632812e+01) (47, 2.55284500122070312500e+01) (48, -2.27006363868713378906e+00) (49, 3.57715535163879394531e+00) (50, 1.35871076583862304688e+00) (51, 2.31961593627929687500e+01) (52, 2.95510244369506835938e+00) (53, 9.83900070190429687500e+00) (54, -2.42279917001724243164e-01) (55, -5.19912910461425781250e+01) (56, -8.71950447559356689453e-01) (57, -1.87542514801025390625e+01) (58, -2.57205963134765625000e+01) (59, -4.36558723449707031250e+01) (60, -2.17876720428466796875e+01) (61, -3.57316732406616210938e+00) (62, 8.18832397460937500000e+00) (63, 1.54393825531005859375e+01) (64, -2.18157310485839843750e+01) (65, -7.81174945831298828125e+00) (66, 1.09942722320556640625e+01) (67, 1.45318994522094726562e+01) (68, -3.22807639837265014648e-01) (69, -2.84601950645446777344e+00) (70, 2.22993373870849609375e+01) (71, 2.52534523010253906250e+01) (72, -2.56792430877685546875e+01) (73, -7.17970466613769531250e+00) (74, 1.55134773254394531250e+01) (75, -1.14482269287109375000e+01) (76, 7.27051305770874023438e+00) (77, -1.56874094009399414062e+01) (78, 2.94320058822631835938e+00) (79, -3.56884422302246093750e+01) (80, -8.65190410614013671875e+00) (81, 3.08183789253234863281e+00) (82, -9.36551856994628906250e+00) (83, 7.89345502853393554688e+00) (84, -2.72803115844726562500e+00) (85, 4.87884044647216796875e+00) (86, -1.10995025634765625000e+01) (87, 3.32281723022460937500e+01) (88, 1.32218284606933593750e+01) (89, -4.23446178436279296875e+00) (90, 1.18969306945800781250e+01) (91, 8.46078968048095703125e+00) (92, -1.19973268508911132812e+01) (93, -1.31246852874755859375e+01) (94, 2.22689933776855468750e+01) (95, -1.53941230773925781250e+01) (96, -5.95515918731689453125e+00) (97, 3.17897963523864746094e+00) (98, -7.64166879653930664062e+00) (99, -2.75135231018066406250e+01) (100, -6.68173694610595703125e+00) (101, 2.04836559295654296875e+00) (102, -1.15324983596801757812e+01) (103, 2.01556091308593750000e+01) (104, 8.57944774627685546875e+00) (105, -1.92884178161621093750e+01) (106, -3.95207901000976562500e+01) (107, 2.94060401916503906250e+01) (108, 6.39806652069091796875e+00) (109, 1.61356716156005859375e+01) (110, 1.89350166320800781250e+01) (111, 2.05836811065673828125e+01) (112, -2.56972618103027343750e+01) (113, 4.77077054977416992188e+00) (114, -8.19818115234375000000e+00) (115, -6.95182847976684570312e+00) (116, -2.32504844665527343750e+00) (117, -1.48325786590576171875e+01) (118, 2.73929023742675781250e+01) (119, -2.54557876586914062500e+01) (120, -1.23016090393066406250e+01) (121, -3.05278444290161132812e+00) (122, 1.35233604907989501953e+00) (123, -9.83854961395263671875e+00) (124, 6.82365703582763671875e+00) (125, -1.09359197616577148438e+01) (126, -1.08839073181152343750e+01) (127, -3.72391009330749511719e+00) (128, 9.18525123596191406250e+00) (129, 3.40568580627441406250e+01) (130, 1.71778907775878906250e+01) (131, 2.01201076507568359375e+01) (132, 3.93240833282470703125e+00) (133, 4.36385965347290039062e+00) (134, -2.53121109008789062500e+01) (135, -4.05667533874511718750e+01) (136, 7.47647142410278320312e+00) (137, -3.19137687683105468750e+01) (138, 1.66099529266357421875e+01) (139, 1.35432872772216796875e+01) (140, -6.47297000885009765625e+00) (141, -3.11350288391113281250e+01) (142, -3.59552421569824218750e+01) (143, -6.04277191162109375000e+01) (144, 2.21582660675048828125e+01) (145, -1.83111953735351562500e+01) (146, -1.25577335357666015625e+01) (147, -1.84694442749023437500e+01) (148, -1.19598865509033203125e+01) (149, 5.78121681213378906250e+01) (150, 3.44750251770019531250e+01) (151, -1.97114601135253906250e+01) (152, 3.00205183029174804688e+00) (153, 6.11987686157226562500e+00) (154, -4.23284225463867187500e+01) (155, -6.99483633041381835938e+00) (156, 8.19266223907470703125e+00) (157, 2.67752799987792968750e+01) (158, 3.45875740051269531250e+01) (159, 4.82523994445800781250e+01) (160, -1.82107715606689453125e+01) (161, -1.96797008514404296875e+01) (162, -5.94461021423339843750e+01) (163, -5.51480293273925781250e+01) (164, 1.23687038421630859375e+01) (165, -1.58047561645507812500e+01) (166, -1.98917713165283203125e+01) (167, -5.27650756835937500000e+01) (168, -2.47219085693359375000e+00) (169, 7.25383453369140625000e+01) (170, 3.71948165893554687500e+01) (171, -2.00748901367187500000e+01) (172, 1.84832668304443359375e+01) (173, 2.83768100738525390625e+01) (174, -8.04926528930664062500e+01) (175, -1.88969554901123046875e+01) (176, -7.74795484542846679688e+00) (177, 3.20719680786132812500e+01) (178, 3.95493354797363281250e+01) (179, 6.03801383972167968750e+01) (180, -1.27239198684692382812e+01) (181, -1.24137735366821289062e+01) (182, -5.34530296325683593750e+01) (183, -7.12117919921875000000e+01) (184, 3.18493099212646484375e+01) (185, -1.43648970127105712891e+00) (186, -2.61000652313232421875e+01) (187, -1.02085838317871093750e+02) (188, -1.28825168609619140625e+01) (189, 9.27514114379882812500e+01) (190, 5.45332794189453125000e+01) (191, -4.41668624877929687500e+01) (192, 1.95137176513671875000e+01) (193, 3.71354064941406250000e+01) (194, -9.55599746704101562500e+01) (195, -1.53204469680786132812e+01) (196, -3.83016929626464843750e+01) (197, 4.25767059326171875000e+01) (198, 1.72194957733154296875e+01) (199, 7.64710235595703125000e+01) (200, -1.55261220932006835938e+01) (201, -1.98030166625976562500e+01) (202, -4.44916496276855468750e+01) (203, -3.27914161682128906250e+01) (204, 2.29149780273437500000e+01) (205, -6.07769393920898437500e+00) (206, -2.88824882507324218750e+01) (207, -8.94400024414062500000e+01) (208, -2.92261428833007812500e+01) (209, 7.66748428344726562500e+01) (210, 5.27442092895507812500e+01) (211, -1.64397354125976562500e+01) (212, 1.77556953430175781250e+01) (213, 1.29075756072998046875e+01) (214, -4.56307067871093750000e+01) (215, -2.71995182037353515625e+01) (216, -1.56334495544433593750e+01) (217, 5.21926803588867187500e+01) (218, 1.35448722839355468750e+01) (219, 5.61989898681640625000e+01) (220, -1.97282361984252929688e+00) (221, 1.30114960670471191406e+00) (222, -1.83444194793701171875e+01) (223, -5.92628574371337890625e+00) (224, 2.17026863098144531250e+01) (225, -1.02966222763061523438e+01) (226, -4.27077903747558593750e+01) (227, -3.98454818725585937500e+01) (228, -4.16070890426635742188e+00) (229, 4.93165893554687500000e+01) (230, 3.10148220062255859375e+01) (231, 3.79314541816711425781e+00) (232, 1.26202793121337890625e+01) (233, -2.39785337448120117188e+00) (234, -7.51056060791015625000e+01) (235, -1.59361763000488281250e+01) (236, -1.26188726425170898438e+01) (237, 1.58292560577392578125e+01) (238, 1.99428157806396484375e+01) (239, 2.97731075286865234375e+01) (240, -3.45633935928344726562e+00) (241, -1.27392282485961914062e+01) (242, 4.66008281707763671875e+00) (243, 9.02822971343994140625e+00) (244, -8.87415826320648193359e-01) (245, -2.01231307983398437500e+01) (246, -1.33027896881103515625e+01) (247, -2.55428142547607421875e+01) (248, 2.35366511344909667969e+00) (249, 2.68408374786376953125e+01) (250, -1.05725131928920745850e-01) (251, 3.53549122810363769531e+00) (252, 1.31119575500488281250e+01) (253, -1.43258514404296875000e+01) (254, -2.61281623840332031250e+01) (255, 1.56729974746704101562e+01) (256, 3.51363754272460937500e+00) (257, 5.48555898666381835938e+00) (258, -1.98061428070068359375e+01) (259, 3.65093307495117187500e+01) (260, 1.77389073371887207031e+00) (261, -1.64359397888183593750e+01) (262, 6.58906698226928710938e+00) (263, 5.41207695007324218750e+00) (264, 9.16186237335205078125e+00) (265, -2.91465282440185546875e+01) (266, -1.02223129272460937500e+01) (267, -1.79324531555175781250e+01) (268, 1.48499412536621093750e+01) (269, -2.03380165100097656250e+01) (270, -1.61020946502685546875e+01) (271, 9.82967853546142578125e+00) (272, 2.07498741149902343750e+01) (273, -2.27475109100341796875e+01) (274, 1.19820427894592285156e+00) (275, 1.31461620330810546875e+01) (276, 2.13013744354248046875e+01) (277, -9.06248569488525390625e+00) (278, 1.67463722229003906250e+01) (279, -1.11444652080535888672e+00) (280, 2.01606464385986328125e+01) (281, -1.04047555923461914062e+01) (282, 9.29295921325683593750e+00) (283, 4.44751024246215820312e+00) (284, 5.39854049682617187500e+00) (285, -2.20429763793945312500e+01) (286, -1.86696014404296875000e+01) (287, -4.41340160369873046875e+00) (288, 8.50393676757812500000e+00) (289, -1.86668014526367187500e+01) (290, -1.06275110244750976562e+01) (291, 1.09225358963012695312e+01) (292, -1.32406578063964843750e+01) (293, -2.21064167022705078125e+01) (294, -2.61399459838867187500e+00) (295, 2.12913112640380859375e+01) (296, 2.52216548919677734375e+01) (297, -2.22679100036621093750e+01) (298, -7.12598133087158203125e+00) (299, 1.02787828445434570312e+01) (300, -8.81617736816406250000e+00) (301, -1.56609554290771484375e+01) (302, 1.99024257659912109375e+01) (303, 1.18769559860229492188e+01) (304, 1.53263244628906250000e+01) (305, -2.70341110229492187500e+01) (306, 3.81321930885314941406e+00) (307, -3.40784215927124023438e+00) (308, 8.99900627136230468750e+00) (309, -2.40723590850830078125e+01) (310, -1.87516002655029296875e+01) (311, 1.02413930892944335938e+01) (312, -3.51332426071166992188e+00) (313, -2.47919440269470214844e+00) (314, 1.66270196437835693359e+00) (315, -1.37891330718994140625e+01) (316, 2.03271560668945312500e+01) (317, -3.88375520706176757812e+00) (318, -1.17923946380615234375e+01) (319, -1.80074844360351562500e+01) (320, -4.48873519897460937500e+00) (321, -8.62457692623138427734e-01) (322, 1.81922283172607421875e+01) (323, -8.08969879150390625000e+00) (324, 1.24300212860107421875e+01) (325, -1.39835557937622070312e+01) (326, 7.34491825103759765625e+00) (327, 1.75008888244628906250e+01) (328, -1.68623828887939453125e+01) (329, -5.09984245300292968750e+01) (330, -1.53325881958007812500e+01) (331, 1.44042596817016601562e+01) (332, 1.90527439117431640625e+01) (333, -1.31802110671997070312e+01) (334, -1.02974662780761718750e+01) (335, 1.31800041198730468750e+01) (336, 1.45979309082031250000e+00) (337, -1.35460844039916992188e+01) (338, -3.64999222755432128906e+00) (339, -2.53611793518066406250e+01) (340, -1.07407350540161132812e+01) (341, -2.02498950958251953125e+01) (342, 1.60675010681152343750e+01) (343, -1.29523706436157226562e+01) (344, 4.02351289987564086914e-01) (345, -5.21786165237426757812e+00) (346, 1.32171201705932617188e+01) (347, 1.99160461425781250000e+01) (348, 5.93758487701416015625e+00) (349, -2.62479515075683593750e+01) (350, -2.94384145736694335938e+00) (351, 2.92298717498779296875e+01) (352, 7.25855112075805664062e+00) (353, -2.00386505126953125000e+01) (354, -7.92130279541015625000e+00) (355, -1.36901330947875976562e+00) (356, -9.56002712249755859375e+00) (357, -7.05313825607299804688e+00) (358, -2.08834362030029296875e+01) (359, -1.57710075378417968750e+01) (360, 2.99776339530944824219e+00) (361, -6.37060070037841796875e+00) (362, -1.17014050483703613281e+00) (363, 1.12806386947631835938e+01) (364, -1.33259153366088867188e+01) (365, -1.07069416046142578125e+01) (366, 8.34723186492919921875e+00) (367, -4.83568954467773437500e+00) (368, -5.55505847930908203125e+00) (369, -1.03061628341674804688e+01) (370, 1.47404346466064453125e+01) (371, 1.99549884796142578125e+01) (372, -6.11219978332519531250e+00) (373, -1.50929174423217773438e+01) (374, -5.58495596051216125488e-02) (375, -7.49486637115478515625e+00) (376, -6.02420616149902343750e+00) (377, -6.68891239166259765625e+00) (378, -2.92644824981689453125e+01) (379, 2.31659221649169921875e+00) (380, -1.13525741577148437500e+02) (0, -2.10957183837890625000e+01) (1, 2.67770214080810546875e+01) (2, -4.43542957305908203125e+00) (3, -7.83107852935791015625e+00) (4, -1.91227397918701171875e+01) (5, -5.90683698654174804688e+00) (6, 2.67645645141601562500e+01) (7, -1.41839456558227539062e+01) (8, 1.85236492156982421875e+01) (9, -1.10946359634399414062e+01) (10, -1.05402860641479492188e+01) (11, -3.71976041793823242188e+00) (12, -7.53831815719604492188e+00) (13, -5.04341077804565429688e+00) (14, -9.52805042266845703125e+00) (15, 2.20877857208251953125e+01) (16, -4.77708435058593750000e+00) (17, -6.12255573272705078125e+00) (18, -2.74073195457458496094e+00) (19, -8.46318054199218750000e+00) (20, 3.94141316413879394531e+00) (21, -2.08088183403015136719e+00) (22, 4.44537544250488281250e+00) (23, 1.45875024795532226562e+01) (24, -3.01148948669433593750e+01) (25, 3.55816531181335449219e+00) (26, -8.09227657318115234375e+00) (27, -1.50306634902954101562e+01) (28, 1.55533533096313476562e+01) (29, -3.78598332405090332031e+00) (30, -9.83685970306396484375e+00) (31, 9.94583225250244140625e+00) (32, -1.09385223388671875000e+01) (33, -8.54302597045898437500e+00) (34, 4.96035718917846679688e+00) (35, 2.15451908111572265625e+01) (36, 1.03106460571289062500e+01) (37, -2.33874244689941406250e+01) (38, -1.08254985809326171875e+01) (39, -1.83355960845947265625e+01) (40, -9.72907733917236328125e+00) (41, 1.30758838653564453125e+01) (42, 2.80971927642822265625e+01) (43, -3.05355739593505859375e+00) (44, -2.37133941650390625000e+01) (45, 2.08583927154541015625e+01) (46, -3.83701992034912109375e+00) (47, -2.29743175506591796875e+01) (48, 1.33791971206665039062e+01) (49, 3.75404262542724609375e+00) (50, -4.92045021057128906250e+00) (51, -6.55749225616455078125e+00) (52, -9.89860534667968750000e+00) (53, -1.20442113876342773438e+01) (54, 1.79207000732421875000e+01) (55, 9.69329547882080078125e+00) (56, 1.30274572372436523438e+01) (57, -2.08042850494384765625e+01) (58, -2.54324569702148437500e+01) (59, -2.10696468353271484375e+01) (60, 1.34083557128906250000e+01) (61, -1.74690914154052734375e+01) (62, 2.47822742462158203125e+01) (63, 3.15927815437316894531e+00) (64, -2.04509792327880859375e+01) (65, 1.59440183639526367188e+01) (66, -2.98067498207092285156e+00) (67, 1.68372535705566406250e+01) (68, 1.10726995468139648438e+01) (69, -2.26288852691650390625e+01) (70, -1.08967981338500976562e+01) (71, -3.95918816328048706055e-01) (72, 7.69915676116943359375e+00) (73, -1.31828107833862304688e+01) (74, 1.57333526611328125000e+01) (75, -1.30732393264770507812e+01) (76, 4.15113983154296875000e+01) (77, -6.76136445999145507812e+00) (78, -2.69710407257080078125e+01) (79, -2.26222610473632812500e+01) (80, 9.50921440124511718750e+00) (81, -2.75381507873535156250e+01) (82, 1.34882984161376953125e+01) (83, 1.31055068969726562500e+01) (84, -3.62846064567565917969e+00) (85, 1.48174324035644531250e+01) (86, -4.97579574584960937500e+00) (87, -6.59859061241149902344e-01) (88, 1.29617309570312500000e+01) (89, 1.20582351684570312500e+01) (90, -1.75722827911376953125e+01) (91, -1.10023860931396484375e+01) (92, 1.09184145927429199219e+00) (93, -1.35161457061767578125e+01) (94, -1.16831772029399871826e-02) (95, 1.28662090301513671875e+01) (96, 2.24585456848144531250e+01) (97, -1.17078800201416015625e+01) (98, 1.62938404083251953125e+01) (99, -3.20237998962402343750e+01) (100, 7.21823740005493164062e+00) (101, -3.03624572753906250000e+01) (102, 1.02325792312622070312e+01) (103, 3.55614113807678222656e+00) (104, 1.33254451751708984375e+01) (105, 1.06177682876586914062e+01) (106, -1.07765150070190429688e+00) (107, 1.85054051876068115234e+00) (108, 1.29056577682495117188e+01) (109, -3.09688925743103027344e+00) (110, -4.00461196899414062500e-01) (111, 4.52132225036621093750e+00) (112, -5.15278005599975585938e+00) (113, 1.88603803515434265137e-01) (114, -4.82003480195999145508e-01) (115, 9.83612823486328125000e+00) (116, 6.99118900299072265625e+00) (117, -8.04930686950683593750e+00) (118, -8.15853297710418701172e-01) (119, -1.75178928375244140625e+01) (120, 8.23383235931396484375e+00) (121, -1.62004489898681640625e+01) (122, -1.91176662445068359375e+01) (123, -1.13148012161254882812e+01) (124, 4.06202507019042968750e+00) (125, 4.33969259262084960938e+00) (126, -4.15281181335449218750e+01) (127, 1.08161675930023193359e+00) (128, 2.73291873931884765625e+01) (129, -2.49449070543050765991e-02) (130, -3.01732110977172851562e+00) (131, -7.46897363662719726562e+00) (132, 7.44014930725097656250e+00) (133, 1.94924736022949218750e+01) (134, -2.01422119140625000000e+01) (135, -3.69261503219604492188e-01) (136, 9.86759901046752929688e-01) (137, 1.32183313369750976562e+01) (138, 1.64938945770263671875e+01) (139, 1.96412029266357421875e+01) (140, -9.49945735931396484375e+00) (141, -1.81269569396972656250e+01) (142, -5.44346904754638671875e+00) (143, -3.47839584350585937500e+01) (144, 9.06073188781738281250e+00) (145, -1.37095975875854492188e+01) (146, -6.35907363891601562500e+00) (147, -2.44146461486816406250e+01) (148, 2.76288337707519531250e+01) (149, 2.44029498100280761719e+00) (150, 2.60931415557861328125e+01) (151, -3.10749645233154296875e+01) (152, 2.29051017761230468750e+01) (153, 1.39371490478515625000e+01) (154, -2.60270996093750000000e+01) (155, -2.24829635620117187500e+01) (156, -2.29006099700927734375e+01) (157, 3.76280670166015625000e+01) (158, 2.59212799072265625000e+01) (159, 2.90656795501708984375e+01) (160, 2.58215770721435546875e+01) (161, 6.83168506622314453125e+00) (162, -3.53069801330566406250e+01) (163, -6.85116348266601562500e+01) (164, 4.18548164367675781250e+01) (165, -1.47501335144042968750e+01) (166, -1.75928955078125000000e+01) (167, -3.24434967041015625000e+01) (168, 1.17521343231201171875e+01) (169, 1.63335514068603515625e+01) (170, 1.30701255798339843750e+00) (171, -4.86434288024902343750e+01) (172, 3.20273933410644531250e+01) (173, 2.13226566314697265625e+01) (174, -6.58811721801757812500e+01) (175, -4.99075775146484375000e+01) (176, -1.03486356735229492188e+01) (177, 4.18259925842285156250e+01) (178, 5.73199806213378906250e+01) (179, 3.73594589233398437500e+01) (180, 1.50601263046264648438e+01) (181, -4.25170278549194335938e+00) (182, -7.87227706909179687500e+01) (183, -8.19180145263671875000e+01) (184, 4.33854675292968750000e+01) (185, -2.31396007537841796875e+01) (186, -2.02808799743652343750e+01) (187, -8.85465469360351562500e+01) (188, 6.24771535396575927734e-01) (189, 3.72236480712890625000e+01) (190, 2.65659923553466796875e+01) (191, -3.55017814636230468750e+01) (192, 3.76308555603027343750e+01) (193, 5.61329498291015625000e+01) (194, -9.01212768554687500000e+01) (195, -3.07876377105712890625e+01) (196, -2.29319477081298828125e+00) (197, 5.19272003173828125000e+01) (198, 3.94720687866210937500e+01) (199, 3.18663272857666015625e+01) (200, 1.46983375549316406250e+01) (201, 1.24816503524780273438e+01) (202, -5.27288436889648437500e+01) (203, -7.29023132324218750000e+01) (204, 2.37305793762207031250e+01) (205, -6.67667150497436523438e-01) (206, -4.68442487716674804688e+00) (207, -4.28210792541503906250e+01) (208, 9.67467403411865234375e+00) (209, 2.01052742004394531250e+01) (210, 2.68729381561279296875e+01) (211, -2.22901344299316406250e+01) (212, 2.64014720916748046875e-01) (213, 2.09374446868896484375e+01) (214, -5.58839874267578125000e+01) (215, -3.87749900817871093750e+01) (216, -1.21807394027709960938e+01) (217, 1.35957717895507812500e+01) (218, 3.95728950500488281250e+01) (219, 5.36944999694824218750e+01) (220, 1.01353187561035156250e+01) (221, -2.25721597671508789062e+00) (222, -4.79507369995117187500e+01) (223, -2.94742679595947265625e+01) (224, 3.75127983093261718750e+01) (225, -9.14886379241943359375e+00) (226, -1.03708362579345703125e+00) (227, -7.41708183288574218750e+00) (228, 1.22378706932067871094e+00) (229, 3.02714118957519531250e+01) (230, 1.00891180038452148438e+01) (231, -1.13419885635375976562e+01) (232, -1.03130931854248046875e+01) (233, 1.38850021362304687500e+01) (234, -4.11634216308593750000e+01) (235, -3.54003295898437500000e+01) (236, -3.02589530944824218750e+01) (237, 4.55458602905273437500e+01) (238, 1.85433063507080078125e+01) (239, 8.29932785034179687500e+00) (240, -1.59558982849121093750e+01) (241, 7.98659944534301757812e+00) (242, -3.28001022338867187500e+01) (243, 1.47165703773498535156e+00) (244, 3.61340370178222656250e+01) (245, -1.43162040710449218750e+01) (246, -8.98829078674316406250e+00) (247, -5.84775686264038085938e+00) (248, 4.07161664962768554688e+00) (249, 2.75959129333496093750e+01) (250, 1.78667068481445312500e+01) (251, -6.98818588256835937500e+00) (252, 1.38261070251464843750e+01) (253, 1.56063737869262695312e+01) (254, -1.10061054229736328125e+01) (255, -1.91625843048095703125e+01) (256, -3.98266220092773437500e+01) (257, -1.31194467544555664062e+01) (258, 1.01798658370971679688e+01) (259, -6.06729269027709960938e-01) (260, -2.27822284698486328125e+01) (261, -3.38543033599853515625e+00) (262, -1.20352954864501953125e+01) (263, -9.17743682861328125000e+00) (264, 1.13132858276367187500e+01) (265, -1.37592115402221679688e+01) (266, 1.02482624053955078125e+01) (267, 3.58843111991882324219e+00) (268, 1.05026245117187500000e+01) (269, 1.62885665893554687500e+01) (270, 5.33995962142944335938e+00) (271, -1.94225807189941406250e+01) (272, -6.38736534118652343750e+00) (273, 6.24086380004882812500e+00) (274, -4.83298480510711669922e-01) (275, 5.56287479400634765625e+00) (276, -7.87080526351928710938e+00) (277, 2.19750690460205078125e+00) (278, -9.90052986145019531250e+00) (279, 4.10475111007690429688e+00) (280, -2.17489671707153320312e+00) (281, 9.20030117034912109375e+00) (282, -1.62101993560791015625e+01) (283, -1.41034612655639648438e+01) (284, -1.02373123168945312500e+01) (285, -1.50400571823120117188e+01) (286, 1.44752388000488281250e+01) (287, -1.00482892990112304688e+01) (288, 1.93976993560791015625e+01) (289, 1.46352767944335937500e+01) (290, 1.06750574111938476562e+01) (291, 4.84909963607788085938e+00) (292, -1.41560373306274414062e+01) (293, -2.34509906768798828125e+01) (294, 7.14868021011352539062e+00) (295, 1.44068927764892578125e+01) (296, -1.62694168090820312500e+01) (297, -1.45813531875610351562e+01) (298, 1.42415342330932617188e+01) (299, -1.95403175354003906250e+01) (300, -1.37204151153564453125e+01) (301, -1.40026226043701171875e+01) (302, 3.11919903755187988281e+00) (303, -1.01132965087890625000e+01) (304, -7.74948596954345703125e-01) (305, 3.33671402931213378906e+00) (306, -1.05949888229370117188e+01) (307, -1.14136447906494140625e+01) (308, -2.40428981781005859375e+01) (309, -1.95611572265625000000e+01) (310, 3.62191123962402343750e+01) (311, -7.96977949142456054688e+00) (312, -6.81279063224792480469e-01) (313, -6.52058172225952148438e+00) (314, 1.94935493469238281250e+01) (315, 1.86008014678955078125e+01) (316, -5.82550477981567382812e+00) (317, -2.37035369873046875000e+01) (318, -5.77853918075561523438e-01) (319, 1.25895786285400390625e+01) (320, -1.31164131164550781250e+01) (321, 7.92939424514770507812e+00) (322, -2.07980251312255859375e+01) (323, -1.05495853424072265625e+01) (324, -1.99179286956787109375e+01) (325, 3.71011400222778320312e+00) (326, -1.05531930923461914062e+01) (327, 2.67624588012695312500e+01) (328, 6.07304215431213378906e-01) (329, -2.39962444305419921875e+01) (330, 8.81827831268310546875e+00) (331, -8.39949512481689453125e+00) (332, -1.63388252258300781250e+01) (333, -3.04972338676452636719e+00) (334, 1.15082144737243652344e+00) (335, -6.07107222080230712891e-01) (336, -1.49953737258911132812e+01) (337, -6.36688232421875000000e-01) (338, 2.43030395507812500000e+01) (339, 1.90259599685668945312e+00) (340, -1.12772512435913085938e+01) (341, 3.74375534057617187500e+01) (342, 4.69280862808227539062e+00) (343, -2.68109822273254394531e+00) (344, -5.00432205200195312500e+00) (345, -9.77452814579010009766e-01) (346, 2.23769831657409667969e+00) (347, 5.55325889587402343750e+00) (348, -6.70476293563842773438e+00) (349, -1.14507842063903808594e+00) (350, -1.89383163452148437500e+01) (351, -1.03033761978149414062e+01) (352, -2.15352745056152343750e+01) (353, -1.68389530181884765625e+01) (354, -2.94652128219604492188e+00) (355, 4.88072919845581054688e+00) (356, -1.99801921844482421875e+01) (357, 4.65386629104614257812e+00) (358, -7.87099838256835937500e+00) (359, -8.58663749694824218750e+00) (360, 2.12897539138793945312e+00) (361, 5.05595684051513671875e-01) (362, -2.46275782585144042969e+00) (363, -8.85732746124267578125e+00) (364, -5.94898760318756103516e-02) (365, 2.85820531845092773438e+00) (366, 6.46894788742065429688e+00) (367, -1.15920209884643554688e+01) (368, -1.17365798950195312500e+01) (369, 3.99528026580810546875e+00) (370, -1.53772525787353515625e+01) (371, -2.30794868469238281250e+01) (372, -1.76125583648681640625e+01) (373, -1.83023357391357421875e+01) (374, 6.18389701843261718750e+00) (375, 1.18781862258911132812e+01) (376, -8.88655567169189453125e+00) (377, -2.44704318046569824219e+00) (378, -6.13280153274536132812e+00) (379, 2.82270455360412597656e+00) (380, -1.15588768005371093750e+02) (0, -2.86690378189086914062e+00) (1, -2.64816017150878906250e+01) (2, -1.36894273757934570312e+01) (3, -1.43012905120849609375e+01) (4, -2.87339782714843750000e+01) (5, 5.70788431167602539062e+00) (6, -3.38021774291992187500e+01) (7, 7.64971017837524414062e+00) (8, -2.22379512786865234375e+01) (9, -1.02673931121826171875e+01) (10, -4.01425971984863281250e+01) (11, -3.07780361175537109375e+01) (12, -1.89215240478515625000e+01) (13, -2.26957454681396484375e+01) (14, 6.42261266708374023438e+00) (15, -1.26093864440917968750e+01) (16, -3.84162483215332031250e+01) (17, -1.60020408630371093750e+01) (18, -3.46052169799804687500e+01) (19, -2.11840343475341796875e+01) (20, -2.21681098937988281250e+01) (21, -1.95713958740234375000e+01) (22, -1.05497798919677734375e+01) (23, 4.03580284118652343750e+00) (24, -4.99898414611816406250e+01) (25, -7.20548820495605468750e+00) (26, -1.04778556823730468750e+01) (27, 1.18588457107543945312e+01) (28, 1.45712833404541015625e+01) (29, -4.93779411315917968750e+01) (30, -5.06611213684082031250e+01) (31, -4.42273292541503906250e+01) (32, -3.58859291076660156250e+01) (33, 2.98433089256286621094e+00) (34, 3.55640296936035156250e+01) (35, 1.05406417846679687500e+01) (36, -3.24812202453613281250e+01) (37, -2.36025657653808593750e+01) (38, -3.39079437255859375000e+01) (39, -2.62632274627685546875e+01) (40, -3.49986534118652343750e+01) (41, 4.67302799224853515625e+00) (42, 1.21242666244506835938e+00) (43, 5.35088062286376953125e+00) (44, -3.68033714294433593750e+01) (45, -4.52082443237304687500e+01) (46, 9.96859550476074218750e+00) (47, 1.34844484329223632812e+01) (48, -2.52294898033142089844e+00) (49, -6.09396476745605468750e+01) (50, -5.85180091857910156250e+01) (51, -2.84766817092895507812e+00) (52, -2.72028865814208984375e+01) (53, -3.51313552856445312500e+01) (54, 2.16917057037353515625e+01) (55, 1.62302494049072265625e+01) (56, 8.83765316009521484375e+00) (57, -3.10808429718017578125e+01) (58, -2.42204933166503906250e+01) (59, -1.72268199920654296875e+01) (60, -5.52311515808105468750e+01) (61, 2.43512001037597656250e+01) (62, -8.67481040954589843750e+00) (63, 1.47237386703491210938e+01) (64, -4.38620071411132812500e+01) (65, 9.45569896697998046875e+00) (66, -1.06479787826538085938e+00) (67, 2.76489868164062500000e+01) (68, -9.58912467956542968750e+00) (69, -6.97705917358398437500e+01) (70, -7.38423461914062500000e+01) (71, -9.11678981781005859375e+00) (72, -1.37788591384887695312e+01) (73, -3.15603961944580078125e+01) (74, 2.68497161865234375000e+01) (75, 1.25220365524291992188e+01) (76, 1.54236297607421875000e+01) (77, -3.99740982055664062500e+01) (78, 8.64222526550292968750e+00) (79, 1.12714977264404296875e+01) (80, -6.20461235046386718750e+01) (81, 8.26191043853759765625e+00) (82, 1.59586918354034423828e+00) (83, 2.85042500495910644531e+00) (84, -3.69028816223144531250e+01) (85, -3.30685501098632812500e+01) (86, -6.83991622924804687500e+00) (87, 2.91430130004882812500e+01) (88, -1.79569646716117858887e-01) (89, -5.17219696044921875000e+01) (90, -1.77094841003417968750e+01) (91, 4.44646072387695312500e+00) (92, -2.50959758758544921875e+01) (93, 1.26447572708129882812e+01) (94, 1.71486244201660156250e+01) (95, 2.08137340545654296875e+01) (96, -1.81106376647949218750e+01) (97, -3.79683647155761718750e+01) (98, -6.39207458496093750000e+00) (99, 4.15485572814941406250e+01) (100, -4.86540565490722656250e+01) (101, 4.98654317855834960938e+00) (102, 1.75259542465209960938e+00) (103, -2.29054927825927734375e+01) (104, -2.03933563232421875000e+01) (105, -2.38762474060058593750e+00) (106, -2.97488250732421875000e+01) (107, 3.23827972412109375000e+01) (108, -8.54883575439453125000e+00) (109, -1.16740856170654296875e+01) (110, -4.03650360107421875000e+01) (111, 4.85920333862304687500e+00) (112, -8.85643386840820312500e+00) (113, 6.44022512435913085938e+00) (114, 1.82880935668945312500e+01) (115, 5.96753168106079101562e+00) (116, 9.81527233123779296875e+00) (117, -1.61956062316894531250e+01) (118, -1.31003265380859375000e+01) (119, 7.72048568725585937500e+00) (120, -2.94217681884765625000e+01) (121, -1.02680873870849609375e+00) (122, -3.16160449981689453125e+01) (123, -2.01626148223876953125e+01) (124, 2.87127113342285156250e+01) (125, -3.13770523071289062500e+01) (126, -2.38094654083251953125e+01) (127, 5.28623161315917968750e+01) (128, -3.08696041107177734375e+01) (129, 2.11180286407470703125e+01) (130, -8.18430709838867187500e+01) (131, 1.15235471725463867188e+01) (132, -1.34627590179443359375e+01) (133, 3.20943679809570312500e+01) (134, -4.01650009155273437500e+01) (135, -2.42601111531257629395e-01) (136, -5.94033288955688476562e+00) (137, 7.15125989913940429688e+00) (138, 9.47723484039306640625e+00) (139, 3.20739784240722656250e+01) (140, -2.67931900024414062500e+01) (141, -1.03798151016235351562e+01) (142, -1.81414699554443359375e+01) (143, -8.43906555175781250000e+01) (144, 3.32545013427734375000e+01) (145, -6.91588821411132812500e+01) (146, -5.64104804992675781250e+01) (147, 5.98149147033691406250e+01) (148, -3.12650623321533203125e+01) (149, 4.16846008300781250000e+01) (150, -2.05452041625976562500e+01) (151, 3.47135448455810546875e+00) (152, 7.59783935546875000000e+00) (153, 2.46756038665771484375e+01) (154, -7.41678009033203125000e+01) (155, 1.09686450958251953125e+01) (156, -1.45533037185668945312e+01) (157, 2.45563530921936035156e+00) (158, 3.35462646484375000000e+01) (159, 8.79201660156250000000e+01) (160, -2.54699497222900390625e+01) (161, -2.04499130249023437500e+01) (162, -1.12033271789550781250e+02) (163, -1.26294258117675781250e+02) (164, 4.63111877441406250000e+01) (165, -4.65351181030273437500e+01) (166, -1.30112333297729492188e+01) (167, 2.73114204406738281250e+01) (168, -2.91457519531250000000e+01) (169, 6.42602233886718750000e+01) (170, 3.80681152343750000000e+01) (171, -3.40529479980468750000e+01) (172, 3.85645484924316406250e+01) (173, 8.67491455078125000000e+01) (174, -1.73244201660156250000e+02) (175, -3.34998397827148437500e+01) (176, 4.19216585159301757812e+00) (177, 5.28490447998046875000e+01) (178, 5.04023933410644531250e+01) (179, 8.04426879882812500000e+01) (180, -1.61868801116943359375e+01) (181, 5.34632980823516845703e-01) (182, -1.79989959716796875000e+02) (183, -2.12507080078125000000e+02) (184, 3.09752922058105468750e+01) (185, -9.54036712646484375000e+01) (186, -3.67462120056152343750e+01) (187, -7.26370468139648437500e+01) (188, -1.96379451751708984375e+01) (189, 1.32318618774414062500e+02) (190, 5.36173477172851562500e+01) (191, -5.25063705444335937500e+01) (192, 3.87359085083007812500e+01) (193, 7.85006103515625000000e+01) (194, -2.55343139648437500000e+02) (195, 4.70645408630371093750e+01) (196, 4.49063644409179687500e+01) (197, 4.66654777526855468750e+01) (198, 8.23824768066406250000e+01) (199, 1.22542556762695312500e+02) (200, 1.17001209259033203125e+01) (201, -4.19077796936035156250e+01) (202, -1.13925773620605468750e+02) (203, -1.40226486206054687500e+02) (204, 2.83515625000000000000e+01) (205, -4.98155822753906250000e+01) (206, -6.47942276000976562500e+01) (207, 3.00841999053955078125e+01) (208, -3.70141220092773437500e+01) (209, 8.96558990478515625000e+01) (210, 3.32341117858886718750e+01) (211, -6.17197608947753906250e+01) (212, 2.90464363098144531250e+01) (213, 5.87367439270019531250e+01) (214, -3.91815605163574218750e+01) (215, -2.47060699462890625000e+01) (216, -3.02378082275390625000e+01) (217, 6.00995864868164062500e+01) (218, 4.76191329956054687500e+01) (219, 7.67320480346679687500e+01) (220, -3.79757523536682128906e+00) (221, -2.23851718902587890625e+01) (222, -4.89958038330078125000e+01) (223, -6.08179550170898437500e+01) (224, 2.09650440216064453125e+01) (225, -3.53971786499023437500e+01) (226, -4.27183761596679687500e+01) (227, -3.20238037109375000000e+01) (228, -3.01328544616699218750e+01) (229, 2.20974102020263671875e+01) (230, 1.28373880386352539062e+01) (231, -8.09437408447265625000e+01) (232, 1.29079875946044921875e+01) (233, 7.20847778320312500000e+01) (234, -6.50314025878906250000e+01) (235, 4.37632064819335937500e+01) (236, -2.43895196914672851562e+00) (237, 4.45150489807128906250e+01) (238, 4.73729515075683593750e+01) (239, 4.44476814270019531250e+01) (240, -2.01723499298095703125e+01) (241, -3.49631347656250000000e+01) (242, -3.34529131650924682617e-01) (243, -8.59050655364990234375e+00) (244, 1.90675582885742187500e+01) (245, -9.50994396209716796875e+00) (246, -2.42057666778564453125e+01) (247, 2.23799858093261718750e+01) (248, -1.14644527435302734375e+01) (249, 1.18604278564453125000e+01) (250, -5.48482036590576171875e+00) (251, -5.42945747375488281250e+01) (252, 1.23027400970458984375e+01) (253, 2.32840824127197265625e+01) (254, -5.71096153259277343750e+01) (255, 1.38898792266845703125e+01) (256, 1.80207157135009765625e+01) (257, 6.30941629409790039062e+00) (258, 1.72710132598876953125e+01) (259, 2.76121253967285156250e+01) (260, -4.83411712646484375000e+01) (261, -5.49552726745605468750e+01) (262, 5.80678105354309082031e-01) (263, 6.19957864284515380859e-01) (264, 3.10453891754150390625e-01) (265, -2.50730915069580078125e+01) (266, -2.22964072227478027344e+00) (267, 1.15669927597045898438e+01) (268, 1.06594686508178710938e+01) (269, 8.31385517120361328125e+00) (270, -3.64800300598144531250e+01) (271, -2.13965663909912109375e+01) (272, -1.30836582183837890625e+01) (273, 2.19231052398681640625e+01) (274, 1.69632282257080078125e+01) (275, 9.27013337612152099609e-01) (276, 2.68825302124023437500e+01) (277, -1.83043422698974609375e+01) (278, 3.16510581970214843750e+01) (279, 1.52171993255615234375e+00) (280, -3.29603614807128906250e+01) (281, -3.10903568267822265625e+01) (282, 3.97104682922363281250e+01) (283, 2.32149677276611328125e+01) (284, -1.40884532928466796875e+01) (285, -3.26040573120117187500e+01) (286, -1.26219310760498046875e+01) (287, 4.19990348815917968750e+01) (288, 3.45388107299804687500e+01) (289, -1.57967805862426757812e+01) (290, -9.27598342895507812500e+01) (291, 1.92442548274993896484e+00) (292, -3.91793327331542968750e+01) (293, -3.31441078186035156250e+01) (294, 6.18218088150024414062e+00) (295, 2.84995384216308593750e+01) (296, -5.21434402465820312500e+00) (297, -5.27408943176269531250e+01) (298, 4.67750215530395507812e+00) (299, 3.62582359313964843750e+01) (300, -2.01618843078613281250e+01) (301, -4.12604103088378906250e+01) (302, 1.44601163864135742188e+01) (303, 2.64441947937011718750e+01) (304, -4.70279006958007812500e+01) (305, -1.15796718597412109375e+01) (306, -5.18936195373535156250e+01) (307, 2.85081520080566406250e+01) (308, -6.41427707672119140625e+00) (309, -6.18366012573242187500e+01) (310, -2.66687240600585937500e+01) (311, 3.71083450317382812500e+00) (312, -1.65627765655517578125e+01) (313, -8.62081336975097656250e+00) (314, 1.90767841339111328125e+01) (315, 2.02232513427734375000e+01) (316, 2.71516075134277343750e+01) (317, -1.52831611633300781250e+01) (318, 4.53516960144042968750e+00) (319, -1.62053909301757812500e+01) (320, -4.43764839172363281250e+01) (321, -3.65603332519531250000e+01) (322, 1.21320228576660156250e+01) (323, 2.69065265655517578125e+01) (324, -1.88507595062255859375e+01) (325, -4.23868227005004882812e+00) (326, -2.12094097137451171875e+01) (327, 1.15042982101440429688e+01) (328, -8.83769416809082031250e+00) (329, -3.74573631286621093750e+01) (330, -4.82734107971191406250e+01) (331, 1.93849391937255859375e+01) (332, -2.03678722381591796875e+01) (333, -6.11122932434082031250e+01) (334, 2.56611709594726562500e+01) (335, 1.52088098526000976562e+01) (336, 2.24873867034912109375e+01) (337, -2.31997222900390625000e+01) (338, -2.26117300987243652344e+00) (339, 1.45921599864959716797e+00) (340, -4.55393333435058593750e+01) (341, -6.36873054504394531250e+00) (342, 1.59056158065795898438e+01) (343, 3.49031299352645874023e-01) (344, -2.86265735626220703125e+01) (345, -8.57079124450683593750e+00) (346, 4.54517316818237304688e+00) (347, -1.27462692260742187500e+01) (348, -2.05177249908447265625e+01) (349, 1.30111999511718750000e+01) (350, -1.04178609848022460938e+01) (351, -2.00031089782714843750e+00) (352, -3.20102844238281250000e+01) (353, -1.23850593566894531250e+01) (354, -1.27425622940063476562e+00) (355, 1.89222698211669921875e+01) (356, -1.90934963226318359375e+01) (357, -1.52819843292236328125e+01) (358, 7.17738389968872070312e-01) (359, -3.37726898193359375000e+01) (360, -8.91322708129882812500e+00) (361, -3.99957313537597656250e+01) (362, 8.70478820800781250000e+00) (363, -8.63150215148925781250e+00) (364, -5.61713714599609375000e+01) (365, -1.62772636413574218750e+01) (366, 4.20428961515426635742e-01) (367, 1.66574153900146484375e+01) (368, -1.26172609329223632812e+01) (369, 2.15587482452392578125e+01) (370, -3.10027122497558593750e+01) (371, -1.48182690143585205078e+00) (372, 1.73208827972412109375e+01) (373, -4.26116752624511718750e+01) (374, -2.59493732452392578125e+01) (375, 9.08032035827636718750e+00) (376, 3.74594879150390625000e+01) (377, -2.62146434783935546875e+01) (378, 1.23957109451293945312e+01) (379, -3.30970001220703125000e+01) (380, -2.62591949462890625000e+02) (0, -1.29405317306518554688e+01) (1, -2.52000198364257812500e+01) (2, -1.30092115402221679688e+01) (3, -1.56565933227539062500e+01) (4, -1.47385454177856445312e+01) (5, -5.27465295791625976562e+00) (6, -1.80621833801269531250e+01) (7, -1.05460758209228515625e+01) (8, -2.04901754856109619141e-01) (9, -2.59045429229736328125e+01) (10, -1.47367238998413085938e+01) (11, -6.25426530838012695312e+00) (12, 9.94655990600585937500e+00) (13, 3.50443267822265625000e+00) (14, -7.83969593048095703125e+00) (15, 9.18863487243652343750e+00) (16, -1.78771057128906250000e+01) (17, -1.67042522430419921875e+01) (18, 5.10637903213500976562e+00) (19, -2.51057243347167968750e+01) (20, -9.64570236206054687500e+00) (21, -4.96610307693481445312e+00) (22, -6.71961593627929687500e+00) (23, -1.24736320972442626953e+00) (24, -2.94420318603515625000e+01) (25, 1.68757748603820800781e+00) (26, -3.09800219535827636719e+00) (27, 1.84249649047851562500e+01) (28, -1.26602439880371093750e+01) (29, -2.43828830718994140625e+01) (30, -1.31879692077636718750e+01) (31, -1.22144699096679687500e+00) (32, -1.54409480094909667969e+00) (33, -5.42657613754272460938e+00) (34, -2.86440372467041015625e+01) (35, -4.88920593261718750000e+00) (36, -3.77248954772949218750e+00) (37, -3.23344039916992187500e+01) (38, 3.38200449943542480469e+00) (39, -2.35272026062011718750e+01) (40, -2.12688083648681640625e+01) (41, -1.38607406616210937500e+01) (42, -1.31816396713256835938e+01) (43, -3.90824007987976074219e+00) (44, -2.38711051940917968750e+01) (45, 8.63676738739013671875e+00) (46, -1.39215173721313476562e+01) (47, 7.70138621330261230469e-01) (48, -1.36498107910156250000e+01) (49, -1.57424459457397460938e+01) (50, -1.49986667633056640625e+01) (51, -6.38020873069763183594e-01) (52, 2.92720413208007812500e+00) (53, -1.23206615447998046875e+01) (54, 1.19976243972778320312e+01) (55, 4.67801332473754882812e+00) (56, -2.59912538528442382812e+00) (57, -2.40051239728927612305e-01) (58, 1.16640806198120117188e+00) (59, -4.46739654541015625000e+01) (60, -1.58107891082763671875e+01) (61, -3.17552447319030761719e+00) (62, 9.09949874877929687500e+00) (63, -2.57453775405883789062e+00) (64, -2.06130867004394531250e+01) (65, -1.43768367767333984375e+01) (66, 2.90510201454162597656e+00) (67, 1.12416810989379882812e+01) (68, 5.97151231765747070312e+00) (69, -1.01359825134277343750e+01) (70, -1.90998840332031250000e+01) (71, 1.12066879272460937500e+01) (72, -9.34961318969726562500e+00) (73, -3.63108944892883300781e+00) (74, 9.30720233917236328125e+00) (75, -4.54097175598144531250e+00) (76, -1.71593475341796875000e+00) (77, -1.69278068542480468750e+01) (78, -1.78029847145080566406e+00) (79, -4.75827484130859375000e+01) (80, -1.27910594940185546875e+01) (81, -6.75639057159423828125e+00) (82, 5.81783246994018554688e+00) (83, -1.83649883270263671875e+01) (84, -1.88065261840820312500e+01) (85, -5.88629424571990966797e-01) (86, 9.24991512298583984375e+00) (87, 9.98021984100341796875e+00) (88, 2.74433660507202148438e+00) (89, 3.56993746757507324219e+00) (90, -2.19506759643554687500e+01) (91, -1.63762176036834716797e+00) (92, -2.84568672180175781250e+01) (93, 7.48607492446899414062e+00) (94, 9.28696727752685546875e+00) (95, -3.55480980873107910156e+00) (96, 8.20838069915771484375e+00) (97, -1.98930034637451171875e+01) (98, -2.31192893981933593750e+01) (99, -2.50539469718933105469e+00) (100, -1.48433465957641601562e+01) (101, -4.49314260482788085938e+00) (102, 1.10563478469848632812e+01) (103, 4.87440729141235351562e+00) (104, -1.71865081787109375000e+01) (105, -1.12536296844482421875e+01) (106, -5.58237218856811523438e+00) (107, 2.63606872558593750000e+01) (108, 3.33301097154617309570e-01) (109, -2.08724212646484375000e+01) (110, -1.88187465667724609375e+01) (111, 1.13577489852905273438e+01) (112, -1.76195087432861328125e+01) (113, 1.05335931777954101562e+01) (114, 6.88299942016601562500e+00) (115, 3.12639564275741577148e-01) (116, -9.32580471038818359375e+00) (117, -2.74308109283447265625e+01) (118, 1.09940538406372070312e+01) (119, -2.98502769470214843750e+01) (120, -4.24247360229492187500e+00) (121, -2.33675193786621093750e+00) (122, -8.63282012939453125000e+00) (123, -1.31787033081054687500e+01) (124, -3.83183288574218750000e+00) (125, -1.12576160430908203125e+01) (126, 3.52433609962463378906e+00) (127, 2.26640262603759765625e+01) (128, 1.46883296966552734375e+00) (129, -6.95063638687133789062e+00) (130, 1.10433263778686523438e+01) (131, -7.46646547317504882812e+00) (132, 4.33254957199096679688e+00) (133, 3.86153221130371093750e+00) 