FANN_FLO_2.1
num_layers=3
learning_rate=0.700000
connection_rate=1.000000
network_type=0
learning_momentum=0.000000
training_algorithm=0
train_error_function=1
train_stop_function=0
cascade_output_change_fraction=0.010000
quickprop_decay=-0.000100
quickprop_mu=1.750000
rprop_increase_factor=1.200000
rprop_decrease_factor=0.500000
rprop_delta_min=0.000000
rprop_delta_max=50.000000
rprop_delta_zero=0.100000
cascade_output_stagnation_epochs=12
cascade_candidate_change_fraction=0.010000
cascade_candidate_stagnation_epochs=12
cascade_max_out_epochs=150
cascade_min_out_epochs=50
cascade_max_cand_epochs=150
cascade_min_cand_epochs=50
cascade_num_candidate_groups=2
bit_fail_limit=3.49999994039535522461e-01
cascade_candidate_limit=1.00000000000000000000e+03
cascade_weight_multiplier=4.00000005960464477539e-01
cascade_activation_functions_count=10
cascade_activation_functions=3 5 7 8 10 11 14 15 16 17 
cascade_activation_steepnesses_count=4
cascade_activation_steepnesses=2.50000000000000000000e-01 5.00000000000000000000e-01 7.50000000000000000000e-01 1.00000000000000000000e+00 
layer_sizes=381 61 5 
scale_included=0
neurons (num_inputs, activation_function, activation_steepness)=(0, 0, 0.00000000000000000000e+00) (0, 0, 0.00000000000000000000e+00) (0, 0, 0.00000000000000000000e+00) (0, 0, 0.00000000000000000000e+00) (0, 0, 0.00000000000000000000e+00) (0, 0, 0.00000000000000000000e+00) (0, 0, 0.00000000000000000000e+00) (0, 0, 0.00000000000000000000e+00) (0, 0, 0.00000000000000000000e+00) (0, 0, 0.00000000000000000000e+00) (0, 0, 0.00000000000000000000e+00) (0, 0, 0.00000000000000000000e+00) (0, 0, 0.00000000000000000000e+00) (0, 0, 0.00000000000000000000e+00) (0, 0, 0.00000000000000000000e+00) (0, 0, 0.00000000000000000000e+00) (0, 0, 0.00000000000000000000e+00) (0, 0, 0.00000000000000000000e+00) (0, 0, 0.00000000000000000000e+00) (0, 0, 0.00000000000000000000e+00) (0, 0, 0.00000000000000000000e+00) (0, 0, 0.00000000000000000000e+00) (0, 0, 0.00000000000000000000e+00) (0, 0, 0.00000000000000000000e+00) (0, 0, 0.00000000000000000000e+00) (0, 0, 0.00000000000000000000e+00) (0, 0, 0.00000000000000000000e+00) (0, 0, 0.00000000000000000000e+00) (0, 0, 0.00000000000000000000e+00) (0, 0, 0.00000000000000000000e+00) (0, 0, 0.00000000000000000000e+00) (0, 0, 0.00000000000000000000e+00) (0, 0, 0.00000000000000000000e+00) (0, 0, 0.00000000000000000000e+00) (0, 0, 0.00000000000000000000e+00) (0, 0, 0.00000000000000000000e+00) (0, 0, 0.00000000000000000000e+00) (0, 0, 0.00000000000000000000e+00) (0, 0, 0.00000000000000000000e+00) (0, 0, 0.00000000000000000000e+00) (0, 0, 0.00000000000000000000e+00) (0, 0, 0.00000000000000000000e+00) (0, 0, 0.00000000000000000000e+00) (0, 0, 0.00000000000000000000e+00) (0, 0, 0.00000000000000000000e+00) (0, 0, 0.00000000000000000000e+00) (0, 0, 0.00000000000000000000e+00) (0, 0, 0.00000000000000000000e+00) (0, 0, 0.00000000000000000000e+00) (0, 0, 0.00000000000000000000e+00) (0, 0, 0.00000000000000000000e+00) (0, 0, 0.00000000000000000000e+00) (0, 0, 0.00000000000000000000e+00) (0, 0, 0.00000000000000000000e+00) (0, 0, 0.00000000000000000000e+00) (0, 0, 0.00000000000000000000e+00) (0, 0, 0.00000000000000000000e+00) (0, 0, 0.00000000000000000000e+00) (0, 0, 0.00000000000000000000e+00) (0, 0, 0.00000000000000000000e+00) (0, 0, 0.00000000000000000000e+00) (0, 0, 0.00000000000000000000e+00) (0, 0, 0.00000000000000000000e+00) (0, 0, 0.00000000000000000000e+00) (0, 0, 0.00000000000000000000e+00) (0, 0, 0.00000000000000000000e+00) (0, 0, 0.00000000000000000000e+00) (0, 0, 0.00000000000000000000e+00) (0, 0, 0.00000000000000000000e+00) (0, 0, 0.00000000000000000000e+00) (0, 0, 0.00000000000000000000e+00) (0, 0, 0.00000000000000000000e+00) (0, 0, 0.00000000000000000000e+00) (0, 0, 0.00000000000000000000e+00) (0, 0, 0.00000000000000000000e+00) (0, 0, 0.00000000000000000000e+00) (0, 0, 0.00000000000000000000e+00) (0, 0, 0.00000000000000000000e+00) (0, 0, 0.00000000000000000000e+00) (0, 0, 0.00000000000000000000e+00) (0, 0, 0.00000000000000000000e+00) (0, 0, 0.00000000000000000000e+00) (0, 0, 0.00000000000000000000e+00) (0, 0, 0.00000000000000000000e+00) (0, 0, 0.00000000000000000000e+00) (0, 0, 0.00000000000000000000e+00) (0, 0, 0.00000000000000000000e+00) (0, 0, 0.00000000000000000000e+00) (0, 0, 0.00000000000000000000e+00) (0, 0, 0.00000000000000000000e+00) (0, 0, 0.00000000000000000000e+00) (0, 0, 0.00000000000000000000e+00) (0, 0, 0.00000000000000000000e+00) (0, 0, 0.00000000000000000000e+00) (0, 0, 0.00000000000000000000e+00) (0, 0, 0.00000000000000000000e+00) (0, 0, 0.00000000000000000000e+00) (0, 0, 0.00000000000000000000e+00) (0, 0, 0.00000000000000000000e+00) (0, 0, 0.00000000000000000000e+00) (0, 0, 0.00000000000000000000e+00) (0, 0, 0.00000000000000000000e+00) (0, 0, 0.00000000000000000000e+00) (0, 0, 0.00000000000000000000e+00) (0, 0, 0.00000000000000000000e+00) (0, 0, 0.00000000000000000000e+00) (0, 0, 0.00000000000000000000e+00) (0, 0, 0.00000000000000000000e+00) (0, 0, 0.00000000000000000000e+00) (0, 0, 0.00000000000000000000e+00) (0, 0, 0.00000000000000000000e+00) (0, 0, 0.00000000000000000000e+00) (0, 0, 0.00000000000000000000e+00) (0, 0, 0.00000000000000000000e+00) (0, 0, 0.00000000000000000000e+00) (0, 0, 0.00000000000000000000e+00) (0, 0, 0.00000000000000000000e+00) (0, 0, 0.00000000000000000000e+00) (0, 0, 0.00000000000000000000e+00) (0, 0, 0.00000000000000000000e+00) (0, 0, 0.00000000000000000000e+00) (0, 0, 0.00000000000000000000e+00) (0, 0, 0.00000000000000000000e+00) (0, 0, 0.00000000000000000000e+00) (0, 0, 0.00000000000000000000e+00) (0, 0, 0.00000000000000000000e+00) (0, 0, 0.00000000000000000000e+00) (0, 0, 0.00000000000000000000e+00) (0, 0, 0.00000000000000000000e+00) (0, 0, 0.00000000000000000000e+00) (0, 0, 0.00000000000000000000e+00) (0, 0, 0.00000000000000000000e+00) (0, 0, 0.00000000000000000000e+00) (0, 0, 0.00000000000000000000e+00) (0, 0, 0.00000000000000000000e+00) (0, 0, 0.00000000000000000000e+00) (0, 0, 0.00000000000000000000e+00) (0, 0, 0.00000000000000000000e+00) (0, 0, 0.00000000000000000000e+00) (0, 0, 0.00000000000000000000e+00) (0, 0, 0.00000000000000000000e+00) (0, 0, 0.00000000000000000000e+00) (0, 0, 0.00000000000000000000e+00) (0, 0, 0.00000000000000000000e+00) (0, 0, 0.00000000000000000000e+00) (0, 0, 0.00000000000000000000e+00) (0, 0, 0.00000000000000000000e+00) (0, 0, 0.00000000000000000000e+00) (0, 0, 0.00000000000000000000e+00) (0, 0, 0.00000000000000000000e+00) (0, 0, 0.00000000000000000000e+00) (0, 0, 0.00000000000000000000e+00) (0, 0, 0.00000000000000000000e+00) (0, 0, 0.00000000000000000000e+00) (0, 0, 0.00000000000000000000e+00) (0, 0, 0.00000000000000000000e+00) (0, 0, 0.00000000000000000000e+00) (0, 0, 0.00000000000000000000e+00) (0, 0, 0.00000000000000000000e+00) (0, 0, 0.00000000000000000000e+00) (0, 0, 0.00000000000000000000e+00) (0, 0, 0.00000000000000000000e+00) (0, 0, 0.00000000000000000000e+00) (0, 0, 0.00000000000000000000e+00) (0, 0, 0.00000000000000000000e+00) (0, 0, 0.00000000000000000000e+00) (0, 0, 0.00000000000000000000e+00) (0, 0, 0.00000000000000000000e+00) (0, 0, 0.00000000000000000000e+00) (0, 0, 0.00000000000000000000e+00) (0, 0, 0.00000000000000000000e+00) (0, 0, 0.00000000000000000000e+00) (0, 0, 0.00000000000000000000e+00) (0, 0, 0.00000000000000000000e+00) (0, 0, 0.00000000000000000000e+00) (0, 0, 0.00000000000000000000e+00) (0, 0, 0.00000000000000000000e+00) (0, 0, 0.00000000000000000000e+00) (0, 0, 0.00000000000000000000e+00) (0, 0, 0.00000000000000000000e+00) (0, 0, 0.00000000000000000000e+00) (0, 0, 0.00000000000000000000e+00) (0, 0, 0.00000000000000000000e+00) (0, 0, 0.00000000000000000000e+00) (0, 0, 0.00000000000000000000e+00) (0, 0, 0.00000000000000000000e+00) (0, 0, 0.00000000000000000000e+00) (0, 0, 0.00000000000000000000e+00) (0, 0, 0.00000000000000000000e+00) (0, 0, 0.00000000000000000000e+00) (0, 0, 0.00000000000000000000e+00) (0, 0, 0.00000000000000000000e+00) (0, 0, 0.00000000000000000000e+00) (0, 0, 0.00000000000000000000e+00) (0, 0, 0.00000000000000000000e+00) (0, 0, 0.00000000000000000000e+00) (0, 0, 0.00000000000000000000e+00) (0, 0, 0.00000000000000000000e+00) (0, 0, 0.00000000000000000000e+00) (0, 0, 0.00000000000000000000e+00) (0, 0, 0.00000000000000000000e+00) (0, 0, 0.00000000000000000000e+00) (0, 0, 0.00000000000000000000e+00) (0, 0, 0.00000000000000000000e+00) (0, 0, 0.00000000000000000000e+00) (0, 0, 0.00000000000000000000e+00) (0, 0, 0.00000000000000000000e+00) (0, 0, 0.00000000000000000000e+00) (0, 0, 0.00000000000000000000e+00) (0, 0, 0.00000000000000000000e+00) (0, 0, 0.00000000000000000000e+00) (0, 0, 0.00000000000000000000e+00) (0, 0, 0.00000000000000000000e+00) (0, 0, 0.00000000000000000000e+00) (0, 0, 0.00000000000000000000e+00) (0, 0, 0.00000000000000000000e+00) (0, 0, 0.00000000000000000000e+00) (0, 0, 0.00000000000000000000e+00) (0, 0, 0.00000000000000000000e+00) (0, 0, 0.00000000000000000000e+00) (0, 0, 0.00000000000000000000e+00) (0, 0, 0.00000000000000000000e+00) (0, 0, 0.00000000000000000000e+00) (0, 0, 0.00000000000000000000e+00) (0, 0, 0.00000000000000000000e+00) (0, 0, 0.00000000000000000000e+00) (0, 0, 0.00000000000000000000e+00) (0, 0, 0.00000000000000000000e+00) (0, 0, 0.00000000000000000000e+00) (0, 0, 0.00000000000000000000e+00) (0, 0, 0.00000000000000000000e+00) (0, 0, 0.00000000000000000000e+00) (0, 0, 0.00000000000000000000e+00) (0, 0, 0.00000000000000000000e+00) (0, 0, 0.00000000000000000000e+00) (0, 0, 0.00000000000000000000e+00) (0, 0, 0.00000000000000000000e+00) (0, 0, 0.00000000000000000000e+00) (0, 0, 0.00000000000000000000e+00) (0, 0, 0.00000000000000000000e+00) (0, 0, 0.00000000000000000000e+00) (0, 0, 0.00000000000000000000e+00) (0, 0, 0.00000000000000000000e+00) (0, 0, 0.00000000000000000000e+00) (0, 0, 0.00000000000000000000e+00) (0, 0, 0.00000000000000000000e+00) (0, 0, 0.00000000000000000000e+00) (0, 0, 0.00000000000000000000e+00) (0, 0, 0.00000000000000000000e+00) (0, 0, 0.00000000000000000000e+00) (0, 0, 0.00000000000000000000e+00) (0, 0, 0.00000000000000000000e+00) (0, 0, 0.00000000000000000000e+00) (0, 0, 0.00000000000000000000e+00) (0, 0, 0.00000000000000000000e+00) (0, 0, 0.00000000000000000000e+00) (0, 0, 0.00000000000000000000e+00) (0, 0, 0.00000000000000000000e+00) (0, 0, 0.00000000000000000000e+00) (0, 0, 0.00000000000000000000e+00) (0, 0, 0.00000000000000000000e+00) (0, 0, 0.00000000000000000000e+00) (0, 0, 0.00000000000000000000e+00) (0, 0, 0.00000000000000000000e+00) (0, 0, 0.00000000000000000000e+00) (0, 0, 0.00000000000000000000e+00) (0, 0, 0.00000000000000000000e+00) (0, 0, 0.00000000000000000000e+00) (0, 0, 0.00000000000000000000e+00) (0, 0, 0.00000000000000000000e+00) (0, 0, 0.00000000000000000000e+00) (0, 0, 0.00000000000000000000e+00) (0, 0, 0.00000000000000000000e+00) (0, 0, 0.00000000000000000000e+00) (0, 0, 0.00000000000000000000e+00) (0, 0, 0.00000000000000000000e+00) (0, 0, 0.00000000000000000000e+00) (0, 0, 0.00000000000000000000e+00) (0, 0, 0.00000000000000000000e+00) (0, 0, 0.00000000000000000000e+00) (0, 0, 0.00000000000000000000e+00) (0, 0, 0.00000000000000000000e+00) (0, 0, 0.00000000000000000000e+00) (0, 0, 0.00000000000000000000e+00) (0, 0, 0.00000000000000000000e+00) (0, 0, 0.00000000000000000000e+00) (0, 0, 0.00000000000000000000e+00) (0, 0, 0.00000000000000000000e+00) (0, 0, 0.00000000000000000000e+00) (0, 0, 0.00000000000000000000e+00) (0, 0, 0.00000000000000000000e+00) (0, 0, 0.00000000000000000000e+00) (0, 0, 0.00000000000000000000e+00) (0, 0, 0.00000000000000000000e+00) (0, 0, 0.00000000000000000000e+00) (0, 0, 0.00000000000000000000e+00) (0, 0, 0.00000000000000000000e+00) (0, 0, 0.00000000000000000000e+00) (0, 0, 0.00000000000000000000e+00) (0, 0, 0.00000000000000000000e+00) (0, 0, 0.00000000000000000000e+00) (0, 0, 0.00000000000000000000e+00) (0, 0, 0.00000000000000000000e+00) (0, 0, 0.00000000000000000000e+00) (0, 0, 0.00000000000000000000e+00) (0, 0, 0.00000000000000000000e+00) (0, 0, 0.00000000000000000000e+00) (0, 0, 0.00000000000000000000e+00) (0, 0, 0.00000000000000000000e+00) (0, 0, 0.00000000000000000000e+00) (0, 0, 0.00000000000000000000e+00) (0, 0, 0.00000000000000000000e+00) (0, 0, 0.00000000000000000000e+00) (0, 0, 0.00000000000000000000e+00) (0, 0, 0.00000000000000000000e+00) (0, 0, 0.00000000000000000000e+00) (0, 0, 0.00000000000000000000e+00) (0, 0, 0.00000000000000000000e+00) (0, 0, 0.00000000000000000000e+00) (0, 0, 0.00000000000000000000e+00) (0, 0, 0.00000000000000000000e+00) (0, 0, 0.00000000000000000000e+00) (0, 0, 0.00000000000000000000e+00) (0, 0, 0.00000000000000000000e+00) (0, 0, 0.00000000000000000000e+00) (0, 0, 0.00000000000000000000e+00) (0, 0, 0.00000000000000000000e+00) (0, 0, 0.00000000000000000000e+00) (0, 0, 0.00000000000000000000e+00) (0, 0, 0.00000000000000000000e+00) (0, 0, 0.00000000000000000000e+00) (0, 0, 0.00000000000000000000e+00) (0, 0, 0.00000000000000000000e+00) (0, 0, 0.00000000000000000000e+00) (0, 0, 0.00000000000000000000e+00) (0, 0, 0.00000000000000000000e+00) (0, 0, 0.00000000000000000000e+00) (0, 0, 0.00000000000000000000e+00) (0, 0, 0.00000000000000000000e+00) (0, 0, 0.00000000000000000000e+00) (0, 0, 0.00000000000000000000e+00) (0, 0, 0.00000000000000000000e+00) (0, 0, 0.00000000000000000000e+00) (0, 0, 0.00000000000000000000e+00) (0, 0, 0.00000000000000000000e+00) (0, 0, 0.00000000000000000000e+00) (0, 0, 0.00000000000000000000e+00) (0, 0, 0.00000000000000000000e+00) (0, 0, 0.00000000000000000000e+00) (0, 0, 0.00000000000000000000e+00) (0, 0, 0.00000000000000000000e+00) (0, 0, 0.00000000000000000000e+00) (0, 0, 0.00000000000000000000e+00) (0, 0, 0.00000000000000000000e+00) (0, 0, 0.00000000000000000000e+00) (0, 0, 0.00000000000000000000e+00) (0, 0, 0.00000000000000000000e+00) (0, 0, 0.00000000000000000000e+00) (0, 0, 0.00000000000000000000e+00) (0, 0, 0.00000000000000000000e+00) (0, 0, 0.00000000000000000000e+00) (0, 0, 0.00000000000000000000e+00) (0, 0, 0.00000000000000000000e+00) (0, 0, 0.00000000000000000000e+00) (0, 0, 0.00000000000000000000e+00) (0, 0, 0.00000000000000000000e+00) (0, 0, 0.00000000000000000000e+00) (0, 0, 0.00000000000000000000e+00) (0, 0, 0.00000000000000000000e+00) (0, 0, 0.00000000000000000000e+00) (0, 0, 0.00000000000000000000e+00) (0, 0, 0.00000000000000000000e+00) (0, 0, 0.00000000000000000000e+00) (0, 0, 0.00000000000000000000e+00) (0, 0, 0.00000000000000000000e+00) (0, 0, 0.00000000000000000000e+00) (0, 0, 0.00000000000000000000e+00) (0, 0, 0.00000000000000000000e+00) (0, 0, 0.00000000000000000000e+00) (0, 0, 0.00000000000000000000e+00) (0, 0, 0.00000000000000000000e+00) (381, 4, 5.00000000000000000000e-01) (381, 4, 5.00000000000000000000e-01) (381, 4, 5.00000000000000000000e-01) (381, 4, 5.00000000000000000000e-01) (381, 4, 5.00000000000000000000e-01) (381, 4, 5.00000000000000000000e-01) (381, 4, 5.00000000000000000000e-01) (381, 4, 5.00000000000000000000e-01) (381, 4, 5.00000000000000000000e-01) (381, 4, 5.00000000000000000000e-01) (381, 4, 5.00000000000000000000e-01) (381, 4, 5.00000000000000000000e-01) (381, 4, 5.00000000000000000000e-01) (381, 4, 5.00000000000000000000e-01) (381, 4, 5.00000000000000000000e-01) (381, 4, 5.00000000000000000000e-01) (381, 4, 5.00000000000000000000e-01) (381, 4, 5.00000000000000000000e-01) (381, 4, 5.00000000000000000000e-01) (381, 4, 5.00000000000000000000e-01) (381, 4, 5.00000000000000000000e-01) (381, 4, 5.00000000000000000000e-01) (381, 4, 5.00000000000000000000e-01) (381, 4, 5.00000000000000000000e-01) (381, 4, 5.00000000000000000000e-01) (381, 4, 5.00000000000000000000e-01) (381, 4, 5.00000000000000000000e-01) (381, 4, 5.00000000000000000000e-01) (381, 4, 5.00000000000000000000e-01) (381, 4, 5.00000000000000000000e-01) (381, 4, 5.00000000000000000000e-01) (381, 4, 5.00000000000000000000e-01) (381, 4, 5.00000000000000000000e-01) (381, 4, 5.00000000000000000000e-01) (381, 4, 5.00000000000000000000e-01) (381, 4, 5.00000000000000000000e-01) (381, 4, 5.00000000000000000000e-01) (381, 4, 5.00000000000000000000e-01) (381, 4, 5.00000000000000000000e-01) (381, 4, 5.00000000000000000000e-01) (381, 4, 5.00000000000000000000e-01) (381, 4, 5.00000000000000000000e-01) (381, 4, 5.00000000000000000000e-01) (381, 4, 5.00000000000000000000e-01) (381, 4, 5.00000000000000000000e-01) (381, 4, 5.00000000000000000000e-01) (381, 4, 5.00000000000000000000e-01) (381, 4, 5.00000000000000000000e-01) (381, 4, 5.00000000000000000000e-01) (381, 4, 5.00000000000000000000e-01) (381, 4, 5.00000000000000000000e-01) (381, 4, 5.00000000000000000000e-01) (381, 4, 5.00000000000000000000e-01) (381, 4, 5.00000000000000000000e-01) (381, 4, 5.00000000000000000000e-01) (381, 4, 5.00000000000000000000e-01) (381, 4, 5.00000000000000000000e-01) (381, 4, 5.00000000000000000000e-01) (381, 4, 5.00000000000000000000e-01) (381, 4, 5.00000000000000000000e-01) (0, 0, 0.00000000000000000000e+00) (61, 4, 5.00000000000000000000e-01) (61, 4, 5.00000000000000000000e-01) (61, 4, 5.00000000000000000000e-01) (61, 4, 5.00000000000000000000e-01) (0, 0, 0.00000000000000000000e+00) 
connections (connected_to_neuron, weight)=(0, -6.95834503173828125000e+01) (1, -6.78858261108398437500e+01) (2, 4.02472953796386718750e+01) (3, 2.34963989257812500000e+02) (4, 4.14960861206054687500e+01) (5, -2.00587558746337890625e+01) (6, -1.15856666564941406250e+02) (7, 3.07281005859375000000e+02) (8, -4.36793899536132812500e+01) (9, -1.14724822998046875000e+02) (10, -1.98647750854492187500e+02) (11, -1.88494216918945312500e+02) (12, -8.21385345458984375000e+01) (13, 1.72554950714111328125e+01) (14, 1.24523513793945312500e+02) (15, 4.74476013183593750000e+01) (16, 8.06823577880859375000e+01) (17, 1.05077953338623046875e+01) (18, -2.36556594848632812500e+02) (19, -1.40896392822265625000e+02) (20, -5.73935852050781250000e+01) (21, -5.17437171936035156250e+01) (22, -2.64536952972412109375e+00) (23, 1.00211250305175781250e+02) (24, 5.20073776245117187500e+01) (25, 1.53350143432617187500e+02) (26, -3.95289015769958496094e+00) (27, 3.19557678222656250000e+02) (28, -3.79968070983886718750e+01) (29, -2.34297531127929687500e+02) (30, -1.51766311645507812500e+02) (31, -2.62209655761718750000e+02) (32, -1.15793128967285156250e+02) (33, -1.35760087966918945312e+01) (34, 1.33280471801757812500e+02) (35, 1.03118400573730468750e+02) (36, 1.14035934448242187500e+02) (37, 1.63751811981201171875e+01) (38, -1.92575698852539062500e+02) (39, -2.36413345336914062500e+02) (40, 5.98153266906738281250e+01) (41, -7.29739837646484375000e+01) (42, -9.01467666625976562500e+01) (43, 1.58826919555664062500e+02) (44, 1.77513046264648437500e+01) (45, 2.28607025146484375000e+01) (46, -2.82787494659423828125e+01) (47, 2.52675933837890625000e+02) (48, 5.53173942565917968750e+01) (49, -2.81324951171875000000e+02) (50, -9.42772598266601562500e+01) (51, -2.53219177246093750000e+02) (52, -3.39289398193359375000e+01) (53, -7.29985046386718750000e+00) (54, 8.37015609741210937500e+01) (55, 1.53136764526367187500e+02) (56, 6.68443527221679687500e+01) (57, 2.90224971771240234375e+01) (58, -1.65758087158203125000e+02) (59, -1.86263992309570312500e+02) (60, 4.91310539245605468750e+01) (61, -1.13450065612792968750e+02) (62, -5.52743568420410156250e+01) (63, 1.19419502258300781250e+02) (64, -2.48906173706054687500e+01) (65, -1.14785537719726562500e+02) (66, 5.99817123413085937500e+01) (67, 1.55835693359375000000e+02) (68, 4.18169403076171875000e+01) (69, -2.19085693359375000000e+02) (70, -7.85422039031982421875e+00) (71, -1.51899139404296875000e+02) (72, -3.69447059631347656250e+01) (73, -5.26094245910644531250e+01) (74, 4.60361824035644531250e+01) (75, 2.21509689331054687500e+02) (76, 9.03501052856445312500e+01) (77, 2.88655261993408203125e+01) (78, -1.48940368652343750000e+02) (79, -1.37177154541015625000e+02) (80, 1.41217895507812500000e+02) (81, -1.28308822631835937500e+02) (82, 7.44029388427734375000e+01) (83, 6.45517120361328125000e+01) (84, -1.19091835021972656250e+02) (85, 1.01314573287963867188e+01) (86, -2.35154247283935546875e+00) (87, 3.19987220764160156250e+01) (88, -4.59185905456542968750e+01) (89, -2.30720123291015625000e+02) (90, -2.00463104248046875000e+01) (91, -4.88327751159667968750e+01) (92, -3.91739425659179687500e+01) (93, -5.30089340209960937500e+01) (94, 2.23658504486083984375e+01) (95, 2.28137542724609375000e+02) (96, 6.10276412963867187500e+01) (97, 5.47514677047729492188e-01) (98, -1.43272430419921875000e+02) (99, -4.11131477355957031250e+01) (100, 2.27342041015625000000e+02) (101, -1.17847160339355468750e+02) (102, -1.75733432769775390625e+01) (103, 5.59684600830078125000e+01) (104, -1.03524826049804687500e+02) (105, 6.59682769775390625000e+01) (106, 2.66469783782958984375e+01) (107, -2.07596466064453125000e+02) (108, -4.74444084167480468750e+01) (109, -1.55238403320312500000e+02) (110, -2.06247806549072265625e+01) (111, -5.03666496276855468750e+01) (112, 1.39502840042114257812e+01) (113, 6.83445892333984375000e+01) (114, -8.80133972167968750000e+01) (115, 1.11979446411132812500e+02) (116, 8.49144973754882812500e+01) (117, 1.00402283668518066406e+00) (118, -7.85583724975585937500e+01) (119, 1.89646320343017578125e+01) (120, 2.22723236083984375000e+02) (121, -5.80745925903320312500e+01) (122, -9.19789962768554687500e+01) (123, 1.21463844299316406250e+02) (124, -1.38757247924804687500e+02) (125, 1.48396331787109375000e+02) (126, -4.12820701599121093750e+01) (127, -3.16801025390625000000e+02) (128, 4.84317779541015625000e+01) (129, -3.10476322174072265625e+01) (130, 3.37261962890625000000e+00) (131, -1.54088500976562500000e+02) (132, 8.84231414794921875000e+01) (133, 2.94195861816406250000e+01) (134, -8.22429122924804687500e+01) (135, -2.04008827209472656250e+01) (136, 2.70298442840576171875e+01) (137, 4.22487068176269531250e+01) (138, -9.15855865478515625000e+01) (139, 1.85209560394287109375e+01) (140, 3.53331756591796875000e+02) (141, -9.86265716552734375000e+01) (142, -1.43537261962890625000e+02) (143, 1.48168243408203125000e+02) (144, -9.96174545288085937500e+01) (145, 2.98249816894531250000e+02) (146, 7.53634338378906250000e+01) (147, -6.88157226562500000000e+02) (148, -1.96164379119873046875e+01) (149, -2.04329185485839843750e+01) (150, 8.62263870239257812500e+01) (151, -9.33740386962890625000e+01) (152, 5.76503334045410156250e+01) (153, -4.66897344589233398438e+00) (154, -9.34378967285156250000e+01) (155, -1.06707366943359375000e+02) (156, -1.25231163024902343750e+02) (157, 1.30305938720703125000e+02) (158, -1.34591278076171875000e+02) (159, 5.47897453308105468750e+01) (160, 4.54635681152343750000e+02) (161, 5.17267227172851562500e+01) (162, -2.45340820312500000000e+02) (163, 1.11112907409667968750e+02) (164, -1.36656936645507812500e+02) (165, 3.96637420654296875000e+02) (166, 9.45571136474609375000e+01) (167, -9.44238037109375000000e+02) (168, -1.89255008697509765625e+01) (169, -1.17391716003417968750e+02) (170, 1.13362586975097656250e+02) (171, 8.76478118896484375000e+01) (172, 5.85465736389160156250e+01) (173, -4.32145576477050781250e+01) (174, -2.40452972412109375000e+02) (175, -1.35957412719726562500e+02) (176, -9.49655838012695312500e+01) (177, 1.48045181274414062500e+02) (178, -2.76457794189453125000e+02) (179, -3.52301979064941406250e+01) (180, 5.55236267089843750000e+02) (181, 7.42951202392578125000e+01) (182, -4.01573883056640625000e+02) (183, -1.88600372314453125000e+02) (184, -1.63362915039062500000e+02) (185, 3.07731414794921875000e+02) (186, 1.55037719726562500000e+02) (187, -1.32677026367187500000e+03) (188, -7.24596252441406250000e+01) (189, 7.35914230346679687500e+01) (190, 2.89634338378906250000e+02) (191, 1.80312759399414062500e+02) (192, 1.35785934448242187500e+02) (193, 4.62113151550292968750e+01) (194, -6.84837951660156250000e+02) (195, -3.60379394531250000000e+02) (196, -1.21787567138671875000e+02) (197, 1.15223823547363281250e+02) (198, -8.60648422241210937500e+01) (199, -1.14643802642822265625e+01) (200, 5.89949340820312500000e+02) (201, 1.29202056884765625000e+02) (202, -2.89262237548828125000e+02) (203, -4.19539703369140625000e+02) (204, -2.65357036590576171875e+01) (205, 3.25310943603515625000e+02) (206, 2.29208190917968750000e+02) (207, -8.24091735839843750000e+02) (208, -6.64373064041137695312e+00) (209, 1.22354225158691406250e+02) (210, 3.11385711669921875000e+02) (211, 2.82747070312500000000e+02) (212, 1.86687164306640625000e+02) (213, 2.90134765625000000000e+02) (214, -1.32316394042968750000e+03) (215, -3.81939514160156250000e+02) (216, -1.59803863525390625000e+02) (217, 1.14842903137207031250e+02) (218, 8.42047042846679687500e+01) (219, -1.70468063354492187500e+01) (220, 4.33889648437500000000e+02) (221, 2.67004821777343750000e+02) (222, -1.17857742309570312500e+02) (223, -3.07731414794921875000e+02) (224, -5.18916244506835937500e+01) (225, 2.25044677734375000000e+02) (226, 2.37267990112304687500e+02) (227, -2.83138641357421875000e+02) (228, -3.27534561157226562500e+01) (229, 1.84043182373046875000e+02) (230, 3.40298309326171875000e+02) (231, 2.99008087158203125000e+02) (232, 2.53504684448242187500e+02) (233, 1.67542053222656250000e+02) (234, -1.42431286621093750000e+03) (235, -4.45035156250000000000e+02) (236, -2.10468688964843750000e+02) (237, 1.28517257690429687500e+02) (238, 8.16948165893554687500e+01) (239, -1.99132202148437500000e+02) (240, 4.18979248046875000000e+02) (241, 2.68117309570312500000e+02) (242, -8.60661087036132812500e+01) (243, -5.78796447753906250000e+02) (244, 3.68124425411224365234e-01) (245, 6.27215232849121093750e+01) (246, 1.68171646118164062500e+02) (247, -1.64905838012695312500e+02) (248, -7.10336990356445312500e+01) (249, 1.30153823852539062500e+02) (250, 2.36632232666015625000e+02) (251, 3.08550567626953125000e+02) (252, 2.41228561401367187500e+02) (253, 1.30939437866210937500e+02) (254, -9.58996398925781250000e+02) (255, -2.93650543212890625000e+02) (256, -1.28343124389648437500e+02) (257, 1.01512359619140625000e+02) (258, 1.17651123046875000000e+02) (259, -2.24985412597656250000e+02) (260, 4.48344116210937500000e+02) (261, 2.25659912109375000000e+02) (262, -2.71118850708007812500e+01) (263, -4.73515045166015625000e+02) (264, -6.29831008911132812500e+01) (265, -8.65411834716796875000e+01) (266, 8.71320495605468750000e+01) (267, -9.21309814453125000000e+01) (268, -3.50583419799804687500e+01) (269, 6.76228408813476562500e+01) (270, 3.60407531738281250000e+02) (271, 2.49689285278320312500e+02) (272, 1.78648162841796875000e+02) (273, 9.29968414306640625000e+01) (274, -5.75695434570312500000e+02) (275, -4.03112915039062500000e+02) (276, -2.07291244506835937500e+02) (277, 4.60537834167480468750e+01) (278, 1.16885505676269531250e+02) (279, -2.78800598144531250000e+02) (280, 3.92291503906250000000e+02) (281, 1.75226913452148437500e+02) (282, -5.66838788986206054688e+00) (283, -3.99088562011718750000e+02) (284, -1.38594741821289062500e+02) (285, -4.97974014282226562500e+01) (286, 5.77878990173339843750e+01) (287, -2.02991683959960937500e+02) (288, 1.50115957260131835938e+01) (289, 6.60764770507812500000e+01) (290, 3.11358001708984375000e+02) (291, 1.06015464782714843750e+02) (292, 2.71872436523437500000e+02) (293, -6.86994934082031250000e+01) (294, -3.16414855957031250000e+02) (295, -4.46202880859375000000e+02) (296, -1.96310531616210937500e+02) (297, 7.02117996215820312500e+01) (298, 1.49928039550781250000e+02) (299, -2.29268020629882812500e+02) (300, 4.12927032470703125000e+02) (301, 1.06367591857910156250e+02) (302, -5.33941574096679687500e+01) (303, -3.31912353515625000000e+02) (304, 1.75672779083251953125e+01) (305, -1.25718727111816406250e+02) (306, 7.66596908569335937500e+01) (307, -2.24437362670898437500e+02) (308, 9.32670021057128906250e+00) (309, 7.95528554916381835938e+00) (310, 2.81930816650390625000e+02) (311, 2.01366256713867187500e+02) (312, 1.08591941833496093750e+02) (313, -7.04609146118164062500e+01) (314, -2.14977996826171875000e+02) (315, -3.84934631347656250000e+02) (316, -2.26566497802734375000e+02) (317, -1.94691200256347656250e+01) (318, 1.84430297851562500000e+02) (319, -2.53066009521484375000e+02) (320, 2.15539382934570312500e+02) (321, 9.22745513916015625000e+01) (322, -7.58528213500976562500e+01) (323, -2.64547943115234375000e+02) (324, -3.64627952575683593750e+01) (325, -6.03486976623535156250e+01) (326, 1.08737976074218750000e+02) (327, -1.03924987792968750000e+02) (328, 3.55253753662109375000e+01) (329, 8.15400238037109375000e+01) (330, 1.58559722900390625000e+02) (331, 1.79259384155273437500e+02) (332, 1.24154693603515625000e+02) (333, -1.24768775939941406250e+02) (334, -1.46081298828125000000e+02) (335, -3.52315643310546875000e+02) (336, -1.10569244384765625000e+02) (337, -4.81568450927734375000e+01) (338, 1.77698020935058593750e+01) (339, -2.24707565307617187500e+02) (340, 1.14862380981445312500e+02) (341, 5.57449188232421875000e+01) (342, -1.82617446899414062500e+02) (343, -2.50901519775390625000e+02) (344, 9.13347244262695312500e+01) (345, -7.36419296264648437500e+01) (346, 6.00311851501464843750e+01) (347, -4.04362869262695312500e+01) (348, 3.40321960449218750000e+01) (349, 7.95168151855468750000e+01) (350, 5.92559127807617187500e+01) (351, 1.70560470581054687500e+02) (352, 2.16233692169189453125e+01) (353, -1.25163627624511718750e+02) (354, 4.04887437820434570312e+00) (355, -3.76854431152343750000e+02) (356, -1.65693344116210937500e+02) (357, -7.94442892074584960938e+00) (358, 2.36675109863281250000e+01) (359, -1.05423904418945312500e+02) (360, 3.31625137329101562500e+01) (361, 1.68267059326171875000e+01) (362, -1.74154342651367187500e+02) (363, -1.72358367919921875000e+02) (364, -3.77149620056152343750e+01) (365, -9.60365982055664062500e+01) (366, 1.33136968612670898438e+01) (367, -4.84402847290039062500e+01) (368, 1.25138006210327148438e+01) (369, -2.10091233253479003906e+00) (370, 1.32495956420898437500e+01) (371, 1.28974380493164062500e+02) (372, 6.97084426879882812500e+01) (373, 3.71038174629211425781e+00) (374, 7.33806915283203125000e+01) (375, -2.70413391113281250000e+02) (376, -1.71958984375000000000e+02) (377, 1.08230857849121093750e+01) (378, -5.94052124023437500000e+01) (379, -8.58430404663085937500e+01) (380, -1.50742346191406250000e+03) (0, 1.00990692138671875000e+02) (1, -1.54459960937500000000e+02) (2, -1.48276916503906250000e+02) (3, -1.63803863525390625000e+02) (4, 9.55373077392578125000e+01) (5, -8.62157211303710937500e+01) (6, -1.87106842041015625000e+02) (7, 9.47748947143554687500e+01) (8, 6.50714569091796875000e+01) (9, 1.09234832763671875000e+02) (10, -7.24489669799804687500e+01) (11, -7.45718002319335937500e+01) (12, 7.40891494750976562500e+01) (13, 1.32263153076171875000e+02) (14, -7.19160461425781250000e+01) (15, -2.35484695434570312500e+01) (16, -2.85926628112792968750e+01) (17, 1.21161890029907226562e+00) (18, 2.56338897705078125000e+02) (19, -4.86685867309570312500e+01) (20, -2.53376712799072265625e+01) (21, -2.76836303710937500000e+02) (22, -1.50711853027343750000e+02) (23, -1.67050918579101562500e+02) (24, 1.76831939697265625000e+02) (25, -8.87263031005859375000e+01) (26, -2.03308807373046875000e+02) (27, -1.21571685791015625000e+02) (28, 1.12167007446289062500e+02) (29, 1.79853622436523437500e+02) (30, -6.26626129150390625000e+01) (31, -2.15150360107421875000e+02) (32, 1.05881561279296875000e+02) (33, 1.07390289306640625000e+02) (34, -8.28274059295654296875e+00) (35, -1.78169326782226562500e+02) (36, 2.90970973968505859375e+01) (37, 1.24627876281738281250e+01) (38, 4.82851531982421875000e+02) (39, 7.92101211547851562500e+01) (40, -3.03695602416992187500e+01) (41, -2.64365264892578125000e+02) (42, -2.93856628417968750000e+02) (43, -3.89232879638671875000e+02) (44, 4.83314361572265625000e+02) (45, -1.10609313964843750000e+02) (46, -1.99588943481445312500e+02) (47, -4.88896301269531250000e+02) (48, 9.55893402099609375000e+01) (49, 2.11117172241210937500e+02) (50, -1.25601112365722656250e+02) (51, -2.81303283691406250000e+02) (52, 1.47045944213867187500e+02) (53, 1.47447937011718750000e+02) (54, 5.30550498962402343750e+01) (55, -1.77782608032226562500e+02) (56, -4.51479339599609375000e+01) (57, 3.02970123291015625000e+02) (58, 3.75244323730468750000e+02) (59, 2.18677581787109375000e+02) (60, 9.83286514282226562500e+01) (61, -2.39138671875000000000e+02) (62, -2.59767913818359375000e+02) (63, -4.75082061767578125000e+02) (64, 4.98815856933593750000e+02) (65, -2.02591262817382812500e+02) (66, -7.75848846435546875000e+01) (67, -5.13141723632812500000e+02) (68, 1.69968948364257812500e+01) (69, 3.28744598388671875000e+02) (70, -4.53117599487304687500e+01) (71, -4.41075927734375000000e+02) (72, 5.25075225830078125000e+01) (73, 8.96125869750976562500e+01) (74, -3.77979469299316406250e+01) (75, -1.74236541748046875000e+02) (76, -6.77462387084960937500e+00) (77, 3.02529907226562500000e+02) (78, 3.70116668701171875000e+02) (79, 2.83431701660156250000e+02) (80, 9.84188385009765625000e+01) (81, -2.71446323394775390625e+01) (82, -2.26016281127929687500e+02) (83, -5.19211791992187500000e+02) (84, 4.09011383056640625000e+02) (85, -1.05801338195800781250e+02) (86, 4.52913208007812500000e+01) (87, -4.71970642089843750000e+02) (88, -4.75337142944335937500e+01) (89, 3.09959838867187500000e+02) (90, 1.10996414184570312500e+02) (91, -4.56350372314453125000e+02) (92, 5.17259292602539062500e+01) (93, -1.78133049011230468750e+01) (94, -1.85087951660156250000e+02) (95, -5.43019676208496093750e+01) (96, 6.67033290863037109375e+00) (97, 3.15773925781250000000e+02) (98, 5.95584106445312500000e+01) (99, 1.53490081787109375000e+02) (100, 4.40549163818359375000e+01) (101, -8.11348037719726562500e+01) (102, -2.19655952453613281250e+01) (103, -1.60069534301757812500e+02) (104, 1.85762130737304687500e+02) (105, -2.27188034057617187500e+01) (106, 2.15341690063476562500e+02) (107, -5.53667419433593750000e+02) (108, -1.30509490966796875000e+02) (109, 2.45673187255859375000e+02) (110, 2.42487442016601562500e+02) (111, -5.02885406494140625000e+02) (112, 9.60715103149414062500e+00) (113, -1.81996498107910156250e+01) (114, -2.39195693969726562500e+02) (115, -5.84887084960937500000e+01) (116, -2.69683570861816406250e+01) (117, 1.56083572387695312500e+02) (118, 2.50175437927246093750e+01) (119, 4.23341789245605468750e+01) (120, 3.68936691284179687500e+01) (121, 3.04098510742187500000e+01) (122, 2.21176261901855468750e+01) (123, 2.87225280761718750000e+02) (124, 6.35761795043945312500e+01) (125, -5.68151054382324218750e+01) (126, 2.22816787719726562500e+02) (127, -7.66917846679687500000e+02) (128, -2.69346561431884765625e+01) (129, -5.56941070556640625000e+01) (130, 6.94464645385742187500e+01) (131, -3.66225738525390625000e+02) (132, -1.19370620727539062500e+02) (133, 7.68968887329101562500e+01) (134, -2.53602539062500000000e+02) (135, -1.53166465759277343750e+01) (136, 3.50694656372070312500e+01) (137, 1.44906982421875000000e+02) (138, 5.15494651794433593750e+01) (139, -2.02547744750976562500e+02) (140, 1.36360687255859375000e+02) (141, 3.43594474792480468750e+01) (142, 1.25849517822265625000e+02) (143, 4.92534820556640625000e+02) (144, -1.00869361877441406250e+02) (145, 1.26404785156250000000e+02) (146, 1.45593460083007812500e+02) (147, -9.48813232421875000000e+02) (148, 1.62120834350585937500e+02) (149, -3.86555725097656250000e+02) (150, -1.10060890197753906250e+02) (151, -9.01477508544921875000e+01) (152, -1.80887756347656250000e+02) (153, -1.18958053588867187500e+02) (154, 3.80917785644531250000e+02) (155, 2.58869903564453125000e+02) (156, -1.28880828857421875000e+02) (157, -4.86489639282226562500e+01) (158, -3.90728836059570312500e+01) (159, -7.13828491210937500000e+02) (160, 3.81105590820312500000e+02) (161, 1.76961288452148437500e+02) (162, 5.52298278808593750000e+02) (163, 1.02293182373046875000e+03) (164, -2.42603652954101562500e+02) (165, 4.99566070556640625000e+02) (166, -1.95858851075172424316e-01) (167, -3.46938659667968750000e+02) (168, 2.01113189697265625000e+02) (169, -1.51413891601562500000e+03) (170, -6.35007812500000000000e+02) (171, 2.85888336181640625000e+02) (172, -2.05086135864257812500e+02) (173, -5.08325653076171875000e+02) (174, 5.38136840820312500000e+02) (175, 6.18878295898437500000e+02) (176, 6.00379486083984375000e+01) (177, -2.66572113037109375000e+02) (178, -3.93929382324218750000e+02) (179, -1.58163049316406250000e+03) (180, 3.95083038330078125000e+02) (181, 2.18488044738769531250e+01) (182, 6.06933288574218750000e+02) (183, 6.01737792968750000000e+02) (184, -2.56134338378906250000e+02) (185, 4.74261535644531250000e+02) (186, 1.73837295532226562500e+02) (187, 2.52481307983398437500e+02) (188, 1.28533468246459960938e+01) (189, -1.34775659179687500000e+03) (190, -4.76501800537109375000e+02) (191, 4.81427154541015625000e+02) (192, -1.68105209350585937500e+02) (193, -6.38862731933593750000e+02) (194, 4.11192199707031250000e+02) (195, 1.89291854858398437500e+02) (196, -3.72192718505859375000e+02) (197, -2.81362609863281250000e+02) (198, -4.65656066894531250000e+02) (199, -1.50425610351562500000e+03) (200, 4.45484130859375000000e+02) (201, 1.36824523925781250000e+02) (202, 4.77066284179687500000e+02) (203, 4.54177001953125000000e+02) (204, -1.38063003540039062500e+02) (205, 4.73230346679687500000e+02) (206, 2.54686874389648437500e+02) (207, 4.95777801513671875000e+02) (208, 1.45155456542968750000e+02) (209, -1.21385852050781250000e+03) (210, -4.27640930175781250000e+02) (211, 4.82003295898437500000e+02) (212, -6.65259399414062500000e+01) (213, -4.50794586181640625000e+02) (214, -4.50455932617187500000e+02) (215, 2.76811706542968750000e+02) (216, -2.99277343750000000000e+02) (217, -2.53984237670898437500e+02) (218, -1.84456726074218750000e+02) (219, -1.52154443359375000000e+03) (220, 2.36660491943359375000e+02) (221, 2.78555755615234375000e+02) (222, 1.98280731201171875000e+02) (223, -2.48722625732421875000e+02) (224, -7.85511398315429687500e+01) (225, -1.46980895996093750000e+02) (226, 2.59725830078125000000e+02) (227, 3.24988677978515625000e+02) (228, 1.13855247497558593750e+02) (229, -5.68448303222656250000e+02) (230, 1.24762901306152343750e+02) (231, 3.61246002197265625000e+02) (232, -7.03386840820312500000e+01) (233, -4.64479942321777343750e+01) (234, -4.14328186035156250000e+02) (235, -1.18944137573242187500e+02) (236, -1.44424392700195312500e+02) (237, -3.61441383361816406250e+01) (238, -5.62730369567871093750e+01) (239, -9.70061706542968750000e+02) (240, 2.15192169189453125000e+02) (241, 2.52438507080078125000e+02) (242, -3.36169204711914062500e+01) (243, -6.67558044433593750000e+02) (244, -8.65365905761718750000e+01) (245, -2.08586608886718750000e+02) (246, 1.73343925476074218750e+01) (247, -2.92483596801757812500e+01) (248, -1.20482872009277343750e+02) (249, -1.35967224121093750000e+02) (250, 1.23417572021484375000e+02) (251, 2.28257766723632812500e+02) (252, 1.35455596923828125000e+02) (253, 2.87319915771484375000e+02) (254, -9.35537033081054687500e+01) (255, -2.17740264892578125000e+02) (256, -9.02539367675781250000e+01) (257, 2.72723388671875000000e+01) (258, 1.09055641174316406250e+02) (259, -5.27200927734375000000e+02) (260, 1.50834930419921875000e+02) (261, 9.54232101440429687500e+01) (262, -1.23094039916992187500e+02) (263, -4.92595458984375000000e+02) (264, -1.31544250488281250000e+02) (265, -6.79988098144531250000e+01) (266, -7.31064300537109375000e+01) (267, -2.65117767333984375000e+02) (268, -3.70539236068725585938e+00) (269, -9.87653427124023437500e+01) (270, 1.81897247314453125000e+02) (271, 4.50692291259765625000e+01) (272, 1.20763504028320312500e+02) (273, 3.43489837646484375000e+02) (274, -1.42476501464843750000e+02) (275, -2.90114868164062500000e+02) (276, -1.99920043945312500000e+01) (277, 1.63416397094726562500e+02) (278, 1.85129638671875000000e+02) (279, -3.21131347656250000000e+02) (280, 1.86193496704101562500e+02) (281, 6.87068481445312500000e+01) (282, -2.60724792480468750000e+02) (283, -4.21458740234375000000e+02) (284, -2.18142822265625000000e+02) (285, -1.52227294921875000000e+02) (286, -5.28887176513671875000e+01) (287, -2.58515777587890625000e+02) (288, -6.12177391052246093750e+01) (289, 8.14200820922851562500e+01) (290, 1.36801757812500000000e+02) (291, 4.57594146728515625000e+01) (292, 2.06078094482421875000e+02) (293, 1.53264511108398437500e+02) (294, -3.73721984863281250000e+02) (295, -2.24819122314453125000e+02) (296, 1.26773689270019531250e+02) (297, 1.70290908813476562500e+02) (298, 2.03085739135742187500e+02) (299, -2.13567829132080078125e+01) (300, 1.81474731445312500000e+02) (301, -1.55288543701171875000e+02) (302, -3.08221496582031250000e+02) (303, -3.18098907470703125000e+02) (304, 7.30220642089843750000e+01) (305, -3.09243927001953125000e+02) (306, -7.95968399047851562500e+01) (307, 8.46600189208984375000e+01) (308, -7.34083786010742187500e+01) (309, 2.41364379882812500000e+02) (310, 1.53608840942382812500e+02) (311, -8.29462127685546875000e+01) (312, 2.04824768066406250000e+02) (313, 1.09370880126953125000e+02) (314, -3.27696014404296875000e+02) (315, -3.57379974365234375000e+02) (316, -1.80203720092773437500e+02) (317, 2.22009613037109375000e+02) (318, 1.38965560913085937500e+02) (319, 1.80385711669921875000e+02) (320, 2.50658142089843750000e+02) (321, -7.66398391723632812500e+01) (322, -1.98453735351562500000e+02) (323, -3.13284790039062500000e+02) (324, 1.99549560546875000000e+01) (325, -1.92798004150390625000e+02) (326, -5.16066646575927734375e+00) (327, 3.08118667602539062500e+01) (328, -1.49448455810546875000e+02) (329, 2.19142562866210937500e+02) (330, 1.26104843139648437500e+02) (331, -2.07534809112548828125e+01) (332, 1.20241180419921875000e+02) (333, -1.06247718811035156250e+02) (334, -2.00017990112304687500e+02) (335, -3.85683959960937500000e+02) (336, -7.53230438232421875000e+01) (337, 1.87126998901367187500e+02) (338, 2.02113250732421875000e+02) (339, 7.60844955444335937500e+01) (340, 1.58111511230468750000e+02) (341, 4.23493804931640625000e+01) (342, -6.24761009216308593750e+01) (343, -1.20854469299316406250e+02) (344, 1.21738960266113281250e+02) (345, -1.84412094116210937500e+02) (346, 2.02616058349609375000e+02) (347, -7.36427841186523437500e+01) (348, 5.18332004547119140625e+00) (349, 1.55575057983398437500e+02) (350, -9.62178878784179687500e+01) (351, 1.43818222045898437500e+02) (352, 3.37848892211914062500e+01) (353, -1.32907409667968750000e+02) (354, -1.37622161865234375000e+02) (355, -3.22911224365234375000e+02) (356, -1.13019241333007812500e+02) (357, 3.25652008056640625000e+01) (358, -6.53966293334960937500e+01) (359, 1.75571365356445312500e+01) (360, 9.12834091186523437500e+01) (361, 1.09989707946777343750e+02) (362, -1.16796493530273437500e+02) (363, -1.27794456481933593750e+02) (364, -4.46505874395370483398e-01) (365, -1.49166809082031250000e+02) (366, 4.52633743286132812500e+01) (367, -2.23677730560302734375e+00) (368, -9.84569396972656250000e+01) (369, 6.80608139038085937500e+01) (370, 6.92330551147460937500e+01) (371, 1.00573638916015625000e+02) (372, -6.43087921142578125000e+01) (373, 1.45247793197631835938e+01) (374, -8.83549041748046875000e+01) (375, -6.89238586425781250000e+01) (376, -1.14258766174316406250e+02) (377, 4.45053100585937500000e+01) (378, -9.63611755371093750000e+01) (379, 5.05651741027832031250e+01) (380, -1.91217187500000000000e+03) (0, -2.78812465667724609375e+01) (1, -9.46617355346679687500e+01) (2, 1.17320281982421875000e+02) (3, 2.78996124267578125000e+02) (4, 1.20324310302734375000e+02) (5, 7.21428070068359375000e+01) (6, -1.09230964660644531250e+02) (7, -7.24424934387207031250e+00) (8, 9.81114654541015625000e+01) (9, -2.15627250671386718750e+01) (10, -1.03769027709960937500e+02) (11, -2.32865554809570312500e+02) (12, -8.03337554931640625000e+01) (13, -1.15761779785156250000e+02) (14, 1.67063766479492187500e+02) (15, 2.05262786865234375000e+02) (16, 1.86845474243164062500e+02) (17, 8.88601608276367187500e+01) (18, 1.31574844360351562500e+02) (19, 5.83805465698242187500e+01) (20, 1.75079711914062500000e+02) (21, -4.37011299133300781250e+01) (22, 4.03420791625976562500e+01) (23, 1.30230209350585937500e+02) (24, 6.04030609130859375000e+01) (25, 1.09303909301757812500e+02) (26, -1.08096008300781250000e+01) (27, -7.85081787109375000000e+01) (28, 8.33124694824218750000e+01) (29, -3.89869766235351562500e+01) (30, -9.89513854980468750000e+01) (31, -2.01243072509765625000e+02) (32, 4.14127693176269531250e+01) (33, -5.36549034118652343750e+01) (34, 1.63624145507812500000e+02) (35, 9.12255630493164062500e+01) (36, 2.12348327636718750000e+02) (37, 1.16152259826660156250e+02) (38, 9.35457916259765625000e+01) (39, -5.55513267517089843750e+01) (40, 1.53405014038085937500e+02) (41, -6.66058044433593750000e+01) (42, 1.29966720581054687500e+02) (43, 1.02289703369140625000e+02) (44, 6.53762588500976562500e+01) (45, 2.23200149536132812500e+02) (46, -2.46973972320556640625e+01) (47, -2.27073211669921875000e+02) (48, 2.20641212463378906250e+01) (49, 3.06217365264892578125e+01) (50, -1.13675018310546875000e+02) (51, -3.45902038574218750000e+02) (52, 1.19973037719726562500e+02) (53, 5.84441757202148437500e+01) (54, 1.46449264526367187500e+02) (55, 7.69748153686523437500e+01) (56, 2.11298233032226562500e+02) (57, 1.03582122802734375000e+02) (58, 6.84262084960937500000e+01) (59, -7.03165130615234375000e+01) (60, 2.79017669677734375000e+02) (61, -8.11951522827148437500e+01) (62, 1.27210464477539062500e+01) (63, 2.02768524169921875000e+02) (64, 7.45661849975585937500e+01) (65, 2.07892410278320312500e+02) (66, 1.04818855285644531250e+02) (67, -3.26148101806640625000e+02) (68, 1.78219165802001953125e+01) (69, -5.39375686645507812500e+01) (70, -4.59866447448730468750e+01) (71, -3.06212036132812500000e+02) (72, 1.46834350585937500000e+02) (73, 5.94401054382324218750e+01) (74, -5.62644081115722656250e+01) (75, 9.70094604492187500000e+01) (76, 2.38202423095703125000e+02) (77, 1.13110534667968750000e+02) (78, 8.65206604003906250000e+01) (79, -1.73477188110351562500e+02) (80, 3.17541900634765625000e+02) (81, -3.96317329406738281250e+01) (82, 2.77331523895263671875e+01) (83, 1.50868240356445312500e+02) (84, 5.67048683166503906250e+01) (85, 1.41250335693359375000e+02) (86, 1.02692070007324218750e+02) (87, -3.23512878417968750000e+02) (88, -9.84406509399414062500e+01) (89, 9.20982971191406250000e+01) (90, 1.77946487426757812500e+02) (91, -3.76265777587890625000e+02) (92, 1.41834320068359375000e+02) (93, 1.17835823059082031250e+02) (94, -2.36321990966796875000e+02) (95, 5.03329801559448242188e+00) (96, 1.55842239379882812500e+02) (97, 1.21910278320312500000e+02) (98, 5.19229888916015625000e+01) (99, -1.04175384521484375000e+02) (100, 3.47456573486328125000e+02) (101, 5.97962112426757812500e+01) (102, 3.16465740203857421875e+01) (103, 2.21917846679687500000e+02) (104, -1.75198638439178466797e+00) (105, 3.24835723876953125000e+02) (106, 1.40127624511718750000e+02) (107, -5.90919311523437500000e+02) (108, -1.60272766113281250000e+02) (109, 1.06089057922363281250e+02) (110, 1.63922729492187500000e+02) (111, -2.20554214477539062500e+02) (112, 1.79652709960937500000e+02) (113, 9.13314514160156250000e+01) (114, -3.21491546630859375000e+02) (115, -8.05783538818359375000e+01) (116, 5.64072341918945312500e+01) (117, 1.68855575561523437500e+02) (118, -2.13942947387695312500e+01) (119, -9.81350860595703125000e+01) (120, 5.49899780273437500000e+02) (121, 1.19392395019531250000e+02) (122, 2.29250888824462890625e+01) (123, 5.28629638671875000000e+02) (124, -1.16141250610351562500e+02) (125, 3.72030029296875000000e+02) (126, 2.94723480224609375000e+02) (127, -9.57853454589843750000e+02) (128, -7.85419158935546875000e+01) (129, -1.58796644210815429688e+01) (130, 9.87235412597656250000e+01) (131, -1.13099159240722656250e+02) (132, 1.05283264160156250000e+02) (133, -3.27966232299804687500e+01) (134, -2.54483139038085937500e+02) (135, -1.35904357910156250000e+02) (136, 2.20170536041259765625e+01) (137, 1.76270812988281250000e+02) (138, -5.44950256347656250000e+01) (139, -3.78491668701171875000e+02) (140, 7.55168273925781250000e+02) (141, 7.17579879760742187500e+01) (142, -5.65923385620117187500e+01) (143, 4.51060943603515625000e+02) (144, -1.71665588378906250000e+02) (145, 3.77135009765625000000e+02) (146, 1.97930862426757812500e+02) (147, -1.76246557617187500000e+03) (148, -1.78865768432617187500e+02) (149, 1.69595623016357421875e+01) (150, 3.87705718994140625000e+02) (151, -7.48960266113281250000e+01) (152, 3.21772521972656250000e+02) (153, -4.53612747192382812500e+01) (154, -6.69206237792968750000e+01) (155, -5.15665664672851562500e+01) (156, -1.58944107055664062500e+02) (157, 2.02386734008789062500e+02) (158, -2.81210422515869140625e+01) (159, -4.80536315917968750000e+02) (160, 7.93745605468750000000e+02) (161, 9.67602615356445312500e+01) (162, -3.90963973999023437500e+01) (163, 5.37911926269531250000e+02) (164, -2.57672210693359375000e+02) (165, 5.89035766601562500000e+02) (166, 2.63855773925781250000e+02) (167, -2.14840063476562500000e+03) (168, -1.19965087890625000000e+02) (169, -2.84622802734375000000e+02) (170, 3.86837799072265625000e+02) (171, 1.45828247070312500000e+02) (172, 2.89331512451171875000e+02) (173, -2.53182723999023437500e+02) (174, -3.30675567626953125000e+02) (175, 1.05476448059082031250e+02) (176, -2.39746261596679687500e+02) (177, 1.46488479614257812500e+02) (178, -1.81991622924804687500e+02) (179, -5.72084472656250000000e+02) (180, 8.70079223632812500000e+02) (181, 3.76869689941406250000e+02) (182, -1.35573562622070312500e+02) (183, 3.79934349060058593750e+01) (184, -2.33970214843750000000e+02) (185, 7.36019042968750000000e+02) (186, 5.11064910888671875000e+02) (187, -2.51193872070312500000e+03) (188, -2.39196147918701171875e+01) (189, -3.63058532714843750000e+02) (190, 4.11504455566406250000e+02) (191, 4.84612823486328125000e+02) (192, 3.14280181884765625000e+02) (193, -1.95872604370117187500e+02) (194, -1.16669128417968750000e+03) (195, -3.19860809326171875000e+02) (196, -5.35754150390625000000e+02) (197, 1.18422111511230468750e+02) (198, -1.26248550415039062500e+02) (199, -6.83257263183593750000e+02) (200, 9.93222229003906250000e+02) (201, 4.52836029052734375000e+02) (202, 2.20312042236328125000e+02) (203, 1.64188442230224609375e+01) (204, -7.15438995361328125000e+01) (205, 7.16367248535156250000e+02) (206, 6.47979125976562500000e+02) (207, -9.63066162109375000000e+02) (208, 1.21359580993652343750e+02) (209, -2.68692779541015625000e+02) (210, 4.53642852783203125000e+02) (211, 4.55809356689453125000e+02) (212, 4.46581451416015625000e+02) (213, -4.18202056884765625000e+01) (214, -2.75012011718750000000e+03) (215, -1.33661422729492187500e+02) (216, -4.92579040527343750000e+02) (217, 3.33165321350097656250e+01) (218, 3.60167465209960937500e+01) (219, -7.47645446777343750000e+02) (220, 8.89754699707031250000e+02) (221, 3.85724304199218750000e+02) (222, 6.44519729614257812500e+01) (223, -5.30696594238281250000e+02) (224, 5.87534332275390625000e+01) (225, 2.26421188354492187500e+02) (226, 5.47777404785156250000e+02) (227, -1.42346343994140625000e+02) (228, 1.93059448242187500000e+02) (229, -1.20435152053833007812e+01) (230, 8.24898376464843750000e+02) (231, 3.55573822021484375000e+02) (232, 6.35613220214843750000e+02) (233, 1.33173812866210937500e+02) (234, -2.80726733398437500000e+03) (235, -4.12662872314453125000e+02) (236, -4.14733642578125000000e+02) (237, 1.41811447143554687500e+02) (238, 1.66326156616210937500e+02) (239, -3.66046661376953125000e+02) (240, 7.95704833984375000000e+02) (241, 3.89949554443359375000e+02) (242, -4.03749961853027343750e+01) (243, -8.69156860351562500000e+02) (244, -6.23713111877441406250e+01) (245, -5.61086616516113281250e+01) (246, 2.73209167480468750000e+02) (247, -2.24470779418945312500e+02) (248, 4.69052810668945312500e+01) (249, 2.63690093994140625000e+02) (250, 8.97966247558593750000e+02) (251, 4.82367523193359375000e+02) (252, 6.61530761718750000000e+02) (253, 3.06022888183593750000e+02) (254, -1.78299377441406250000e+03) (255, -3.91694610595703125000e+02) (256, -4.76783874511718750000e+02) (257, 1.44553283691406250000e+02) (258, 1.37348785400390625000e+02) (259, -2.67402435302734375000e+02) (260, 5.82981201171875000000e+02) (261, 3.89533233642578125000e+02) (262, 3.77015647888183593750e+01) (263, -4.35526580810546875000e+02) (264, -1.55640594482421875000e+02) (265, 8.13378982543945312500e+01) (266, 2.76294433593750000000e+02) (267, -3.53790710449218750000e+02) (268, 7.32445220947265625000e+01) (269, -7.23638763427734375000e+01) (270, 5.60197998046875000000e+02) (271, 4.19037841796875000000e+02) (272, 5.01534545898437500000e+02) (273, 7.97666931152343750000e+01) (274, -7.90983154296875000000e+02) (275, -3.04381652832031250000e+02) (276, -2.99374145507812500000e+02) (277, 1.10102329254150390625e+01) (278, 6.66548156738281250000e+01) (279, -4.96217895507812500000e+02) (280, 4.34125244140625000000e+02) (281, 2.78639770507812500000e+02) (282, 7.42562055587768554688e+00) (283, -4.19234588623046875000e+02) (284, -1.04732513427734375000e+02) (285, 4.61340293884277343750e+01) (286, 1.72351730346679687500e+02) (287, -3.21112396240234375000e+02) (288, 5.61977653503417968750e+01) (289, 5.00733871459960937500e+01) (290, 5.00370513916015625000e+02) (291, 2.94263000488281250000e+02) (292, 3.66124481201171875000e+02) (293, -2.20202045440673828125e+01) (294, -5.26613586425781250000e+02) (295, -3.06156738281250000000e+02) (296, -2.96955200195312500000e+02) (297, 7.02293930053710937500e+01) (298, 1.47740936279296875000e+02) (299, -3.29501007080078125000e+02) (300, 2.99783813476562500000e+02) (301, 1.51534164428710937500e+02) (302, -1.62770645141601562500e+02) (303, -4.79431579589843750000e+02) (304, 1.43194076538085937500e+02) (305, -1.39556259155273437500e+02) (306, 1.32140289306640625000e+02) (307, -2.43516601562500000000e+02) (308, 6.87653541564941406250e-01) (309, 2.68865509033203125000e+02) (310, 4.36085784912109375000e+02) (311, 1.65832870483398437500e+02) (312, 2.71428039550781250000e+02) (313, 6.56181335449218750000e+01) (314, -4.81935974121093750000e+02) (315, -2.92381652832031250000e+02) (316, -2.84853607177734375000e+02) (317, 1.27937072753906250000e+02) (318, 1.80403930664062500000e+02) (319, -1.38186889648437500000e+02) (320, 1.80213119506835937500e+02) (321, 1.54413116455078125000e+02) (322, -7.51767120361328125000e+01) (323, -3.14012298583984375000e+02) (324, 1.17886756896972656250e+02) (325, -4.05705451965332031250e+01) (326, 1.18070960998535156250e+02) (327, -2.07636123657226562500e+02) (328, -2.10605621337890625000e+01) (329, 1.92511901855468750000e+02) (330, 2.45006286621093750000e+02) (331, 2.29449981689453125000e+02) (332, 1.11221664428710937500e+02) (333, 6.00678291320800781250e+01) (334, -3.05154205322265625000e+02) (335, -2.91434204101562500000e+02) (336, -2.53223922729492187500e+02) (337, 8.11436614990234375000e+01) (338, 2.01619663238525390625e+01) (339, 1.07069711685180664062e+01) (340, 1.90917617797851562500e+02) (341, 1.66382675170898437500e+02) (342, 2.85048904418945312500e+01) (343, -1.86532119750976562500e+02) (344, 1.15413444519042968750e+02) (345, -6.06089363098144531250e+01) (346, 2.16919540405273437500e+02) (347, -1.89331329345703125000e+02) (348, 2.60989189147949218750e+01) (349, 4.51392478942871093750e+01) (350, 1.23165954589843750000e+02) (351, 3.45553039550781250000e+02) (352, -2.93777008056640625000e+01) (353, 3.08224201202392578125e+01) (354, -1.98587158203125000000e+02) (355, -1.69117721557617187500e+02) (356, -2.67006164550781250000e+02) (357, -4.52971801757812500000e+01) (358, -1.36862777709960937500e+02) (359, -2.47883052825927734375e+01) (360, 1.39612075805664062500e+02) (361, 6.84258880615234375000e+01) (362, -3.72776145935058593750e+01) (363, -1.57565963745117187500e+02) (364, -5.15852987766265869141e-01) (365, 1.96580104827880859375e+01) (366, 1.07662483215332031250e+02) (367, -1.61187713623046875000e+02) (368, -3.71677322387695312500e+01) (369, 7.78094100952148437500e+01) (370, 1.41149642944335937500e+02) (371, 2.01455093383789062500e+02) (372, -3.94977340698242187500e+01) (373, 1.08051856994628906250e+02) (374, -9.00731048583984375000e+01) (375, -1.64718292236328125000e+02) (376, -1.68659881591796875000e+02) (377, -4.80084381103515625000e+01) (378, -1.05791252136230468750e+02) (379, 2.13848094940185546875e+01) (380, -2.48301245117187500000e+03) (0, 7.86631469726562500000e+01) (1, -6.14198913574218750000e+01) (2, -1.07273826599121093750e+02) (3, -5.83782615661621093750e+01) (4, -2.05105895996093750000e+01) (5, -3.27996177673339843750e+01) (6, 1.52691373825073242188e+01) (7, -1.72958847045898437500e+02) (8, -5.50926895141601562500e+01) (9, -2.71716156005859375000e+01) (10, -9.59517002105712890625e+00) (11, -6.76761245727539062500e+01) (12, -2.55548725128173828125e+01) (13, -4.73430175781250000000e+01) (14, -2.03159118652343750000e+02) (15, -1.65301086425781250000e+02) (16, -1.68456390380859375000e+02) (17, -3.51574287414550781250e+01) (18, -9.98807907104492187500e+01) (19, -1.80360336303710937500e+02) (20, 1.31378927230834960938e+01) (21, -2.62930698394775390625e+01) (22, -5.94434356689453125000e+01) (23, -1.13809898376464843750e+02) (24, -1.33920440673828125000e+01) (25, -9.88786849975585937500e+01) (26, -1.44912748336791992188e+01) (27, -2.45815093994140625000e+02) (28, -3.50124588012695312500e+01) (29, 2.93496227264404296875e+01) (30, -8.08685379028320312500e+01) (31, -1.92344512939453125000e+01) (32, 1.72228336334228515625e+01) (33, -7.04455795288085937500e+01) (34, -2.02519149780273437500e+02) (35, -1.56384933471679687500e+02) (36, -1.34136230468750000000e+02) (37, -3.27133064270019531250e+01) (38, -9.85161666870117187500e+01) (39, -1.61944686889648437500e+02) (40, -7.01591415405273437500e+01) (41, -7.14502954483032226562e+00) (42, -8.14916610717773437500e+01) (43, -5.36305427551269531250e+01) (44, -6.06253318786621093750e+01) (45, -1.16756149291992187500e+02) (46, -4.18624343872070312500e+01) (47, -1.83693344116210937500e+02) (48, -4.73291053771972656250e+01) (49, 5.12314367294311523438e+00) (50, -1.06202766418457031250e+02) (51, 5.06633071899414062500e+01) (52, -3.62983779907226562500e+01) (53, -4.60873794555664062500e+01) (54, -1.85777069091796875000e+02) (55, -1.46340744018554687500e+02) (56, -1.42972961425781250000e+02) (57, -8.15453643798828125000e+01) (58, -1.02789672851562500000e+02) (59, -8.29295806884765625000e+01) (60, -9.79540023803710937500e+01) (61, -2.88114070892333984375e+01) (62, -7.36965866088867187500e+01) (63, -6.17268791198730468750e+01) (64, -6.13843116760253906250e+01) (65, -1.50374298095703125000e+02) (66, -5.84828300476074218750e+01) (67, -2.20357604980468750000e+02) (68, -2.88186359405517578125e+01) (69, 2.08299655914306640625e+01) (70, -4.75579299926757812500e+01) (71, 4.42040824890136718750e+01) (72, -5.49991836547851562500e+01) (73, -7.37062072753906250000e+01) (74, -2.11780120849609375000e+02) (75, -1.65943847656250000000e+02) (76, -1.33879257202148437500e+02) (77, -4.26360626220703125000e+01) (78, -7.17611160278320312500e+01) (79, -6.25509910583496093750e+01) (80, -1.65794174194335937500e+02) (81, -4.45693550109863281250e+01) (82, -1.06886222839355468750e+02) (83, -9.09422149658203125000e+01) (84, -5.40585613250732421875e+00) (85, -1.19924095153808593750e+02) (86, -1.34493972778320312500e+02) (87, -2.07670150756835937500e+02) (88, -2.79831695556640625000e+01) (89, 3.01899681091308593750e+01) (90, -2.92886471748352050781e+00) (91, -1.48193073272705078125e+01) (92, -3.52034187316894531250e+01) (93, -4.21158790588378906250e+01) (94, -1.94189498901367187500e+02) (95, -2.07284149169921875000e+02) (96, -4.64753303527832031250e+01) (97, -4.41168403625488281250e+01) (98, -1.03443122863769531250e+02) (99, -4.82981796264648437500e+01) (100, -1.94128845214843750000e+02) (101, -4.18474082946777343750e+01) (102, -1.17382621765136718750e+02) (103, -1.81291320800781250000e+02) (104, -5.58592271804809570312e+00) (105, -1.24745140075683593750e+02) (106, -1.13404106140136718750e+02) (107, -1.51356155395507812500e+02) (108, -2.62914638519287109375e+01) (109, -8.51390991210937500000e+01) (110, -1.06484474182128906250e+02) (111, -4.51417541503906250000e+01) (112, -1.94349174499511718750e+01) (113, -1.13093156814575195312e+01) (114, -9.28581314086914062500e+01) (115, -1.50294876098632812500e+02) (116, -1.03538642883300781250e+02) (117, -1.98152179718017578125e+01) (118, -5.44568786621093750000e+01) (119, -1.25275955200195312500e+01) (120, -1.50949783325195312500e+02) (121, -3.80172691345214843750e+01) (122, -1.92932174682617187500e+02) (123, -3.60889099121093750000e+02) (124, -3.27728309631347656250e+01) (125, -4.30340843200683593750e+01) (126, -5.75568008422851562500e+01) (127, -6.36071801185607910156e-01) (128, -4.25749473571777343750e+01) (129, -1.19774581909179687500e+02) (130, -1.05090606689453125000e+02) (131, 4.07107009887695312500e+01) (132, -4.89998130798339843750e+01) (133, -1.94444923400878906250e+01) (134, -4.86701011657714843750e+01) (135, -9.59877319335937500000e+01) (136, -1.56077438354492187500e+02) (137, -4.46257171630859375000e+01) (138, -9.47123413085937500000e+01) (139, -1.99910373687744140625e+01) (140, -2.29542816162109375000e+02) (141, 2.83273067474365234375e+01) (142, -1.30614862442016601562e+01) (143, -3.01040161132812500000e+02) (144, -2.54381408691406250000e+01) (145, -1.16312576293945312500e+02) (146, -4.78657341003417968750e+01) (147, 2.45939559936523437500e+02) (148, -2.75966110229492187500e+01) (149, -1.34367324829101562500e+02) (150, -2.14002288818359375000e+02) (151, 3.29723815917968750000e+01) (152, -9.49536056518554687500e+01) (153, 8.69393253326416015625e+00) (154, -9.68449096679687500000e+01) (155, -1.47494689941406250000e+02) (156, -1.02818656921386718750e+02) (157, -7.13572235107421875000e+01) (158, -8.75552215576171875000e+01) (159, -4.49379997253417968750e+01) (160, -2.94477844238281250000e+02) (161, -4.92758331298828125000e+01) (162, 2.09034690856933593750e+01) (163, -4.25074493408203125000e+02) (164, -6.37774181365966796875e+00) (165, -2.43097610473632812500e+02) (166, -8.51265335083007812500e+01) (167, 6.14611938476562500000e+02) (168, 1.64543838500976562500e+01) (169, 1.39451723098754882812e+01) (170, -7.80810623168945312500e+01) (171, -1.39644104003906250000e+02) (172, -5.98505210876464843750e+01) (173, 4.16006011962890625000e+01) (174, 1.73385726928710937500e+02) (175, -3.12545776367187500000e+02) (176, -1.53519287109375000000e+02) (177, -1.01028129577636718750e+02) (178, -5.60825634002685546875e+00) (179, 5.74459381103515625000e+01) (180, -3.69314697265625000000e+02) (181, -1.26217063903808593750e+02) (182, 3.32446746826171875000e+02) (183, 1.42510726928710937500e+02) (184, -1.98745689392089843750e+01) (185, -3.85712738037109375000e+02) (186, -1.43172241210937500000e+02) (187, 6.31377014160156250000e+02) (188, 1.53450765609741210938e+01) (189, -1.43613784790039062500e+02) (190, -3.55080932617187500000e+02) (191, -2.03121231079101562500e+02) (192, -1.34110824584960937500e+02) (193, -9.64322814941406250000e+01) (194, 7.55660217285156250000e+02) (195, 1.56943359375000000000e+02) (196, 9.79699630737304687500e+01) (197, -1.54057006835937500000e+02) (198, -1.56081176757812500000e+02) (199, -1.37879531860351562500e+02) (200, -4.23921844482421875000e+02) (201, -1.38774154663085937500e+02) (202, 5.72543001174926757812e+00) (203, 1.04876651763916015625e+01) (204, -5.58492622375488281250e+01) (205, -2.60166290283203125000e+02) (206, -1.35758453369140625000e+02) (207, 5.58244171142578125000e+01) (208, -4.09921455383300781250e+01) (209, -1.30021667480468750000e+02) (210, -4.21566192626953125000e+02) (211, -1.65226104736328125000e+02) (212, -2.45313049316406250000e+02) (213, -1.47407608032226562500e+02) (214, 1.03340185546875000000e+03) (215, 1.06277832031250000000e+02) (216, 1.68821380615234375000e+02) (217, -1.00530838012695312500e+02) (218, -1.77198806762695312500e+02) (219, 1.17919063568115234375e+01) (220, -3.83086273193359375000e+02) (221, -2.32977264404296875000e+02) (222, -1.02201004028320312500e+01) (223, 2.16652389526367187500e+02) (224, -4.09679679870605468750e+01) (225, 3.83779449462890625000e+01) (226, -1.57736267089843750000e+02) (227, -2.45304534912109375000e+02) (228, -6.52755737304687500000e+01) (229, -1.54527191162109375000e+02) (230, -5.12265686035156250000e+02) (231, -1.65301971435546875000e+02) (232, -2.40479385375976562500e+02) (233, -1.93081573486328125000e+02) (234, 7.46700195312500000000e+02) (235, 1.41095718383789062500e+02) (236, 6.15213165283203125000e+01) (237, -1.26861610412597656250e+02) (238, -2.01731735229492187500e+02) (239, 2.50804882049560546875e+01) (240, -3.68334777832031250000e+02) (241, -2.76318511962890625000e+02) (242, -3.84773597717285156250e+01) (243, 2.87782867431640625000e+02) (244, -5.34537582397460937500e+01) (245, 1.10753105163574218750e+02) (246, -1.25928260803222656250e+02) (247, -9.71340179443359375000e+01) (248, -6.05332679748535156250e+01) (249, -2.49232391357421875000e+02) (250, -4.41998352050781250000e+02) (251, -2.32877075195312500000e+02) (252, -2.30461349487304687500e+02) (253, -1.95283203125000000000e+02) (254, 3.14742370605468750000e+02) (255, 7.80941925048828125000e+01) (256, 9.02766418457031250000e+01) (257, -1.08088661193847656250e+02) (258, -9.56069793701171875000e+01) (259, 1.14839637279510498047e+00) (260, -3.60941223144531250000e+02) (261, -2.18150894165039062500e+02) (262, -9.01473236083984375000e+01) (263, 1.70618087768554687500e+02) (264, 1.82198352813720703125e+01) (265, -7.37702026367187500000e+01) (266, -1.67427749633789062500e+02) (267, -9.37364654541015625000e+01) (268, -6.28153076171875000000e+01) (269, -3.78939056396484375000e+01) (270, -2.09565505981445312500e+02) (271, -2.43214416503906250000e+02) (272, -1.36961288452148437500e+02) (273, -4.63688697814941406250e+01) (274, 1.49226665496826171875e+01) (275, -4.31364021301269531250e+01) (276, 5.60279960632324218750e+01) (277, -7.52863311767578125000e+01) (278, -1.50464584350585937500e+02) (279, 2.99144515991210937500e+01) (280, -3.19171630859375000000e+02) (281, -1.77447036743164062500e+02) (282, -1.14589675903320312500e+02) (283, 8.45524902343750000000e+01) (284, 4.46628303527832031250e+01) (285, -7.90608367919921875000e+01) (286, -1.22342010498046875000e+02) (287, -1.11738143920898437500e+02) (288, -8.15735092163085937500e+01) (289, -3.59794387817382812500e+01) (290, -2.29598220825195312500e+02) (291, -1.60253463745117187500e+02) (292, -8.09418869018554687500e+01) (293, -5.63628234863281250000e+01) (294, 7.65582418441772460938e+00) (295, -3.28421897888183593750e+01) (296, -2.73527870178222656250e+01) (297, -5.83472290039062500000e+01) (298, -1.52529937744140625000e+02) (299, 4.73083913326263427734e-01) (300, -2.46561019897460937500e+02) (301, -1.52369720458984375000e+02) (302, -6.12707939147949218750e+01) (303, 5.68263435363769531250e+01) (304, -4.12986030578613281250e+01) (305, -1.00028663635253906250e+02) (306, -7.62779464721679687500e+01) (307, -1.23929817199707031250e+02) (308, -3.35835800170898437500e+01) (309, -9.89804306030273437500e+01) (310, -2.40637313842773437500e+02) (311, -7.95463714599609375000e+01) (312, -9.14642257690429687500e+01) (313, -2.86712741851806640625e+01) (314, 1.64995729923248291016e-01) (315, -4.53213233947753906250e+01) (316, 2.02474079132080078125e+01) (317, -9.22537078857421875000e+01) (318, -1.98578643798828125000e+02) (319, -3.45430717468261718750e+01) (320, -1.92195465087890625000e+02) (321, -1.91816696166992187500e+02) (322, -9.76387710571289062500e+01) (323, 3.55098114013671875000e+01) (324, -2.84649085998535156250e+01) (325, -7.62412338256835937500e+01) (326, -1.41622879028320312500e+02) (327, -4.92977142333984375000e+01) (328, 5.82282524108886718750e+01) (329, -1.76373382568359375000e+02) (330, -2.01556625366210937500e+02) (331, -1.47388397216796875000e+02) (332, -7.67422180175781250000e+01) (333, -3.82914237976074218750e+01) (334, -4.58067855834960937500e+01) (335, -3.83581328392028808594e+00) (336, -9.25829029083251953125e+00) (337, -6.02555809020996093750e+01) (338, -1.19184593200683593750e+02) (339, -9.06267318725585937500e+01) (340, -1.69191619873046875000e+02) (341, -1.91430908203125000000e+02) (342, -8.49893264770507812500e+01) (343, -9.46250686645507812500e+01) (344, -5.89990568161010742188e+00) (345, -8.20019760131835937500e+01) (346, -1.76644897460937500000e+02) (347, -1.09245347976684570312e+01) (348, -2.77018947601318359375e+01) (349, -1.23240310668945312500e+02) (350, -7.83299636840820312500e+01) (351, -2.87437103271484375000e+02) (352, -5.30097007751464843750e+01) (353, -1.31407785415649414062e+01) (354, -2.49112110137939453125e+01) (355, -2.24829978942871093750e+01) (356, -1.49827404022216796875e+01) (357, -2.26453304290771484375e+01) (358, -1.40012407302856445312e+01) (359, -1.29934371948242187500e+02) (360, -1.19607238769531250000e+02) (361, -2.06809906005859375000e+02) (362, -2.71116867065429687500e+01) (363, -5.01901473999023437500e+01) (364, 2.20771522521972656250e+01) (365, -1.07969512939453125000e+02) (366, -1.29241714477539062500e+02) (367, -8.34031143188476562500e+01) (368, -1.23247947692871093750e+01) (369, -1.59786392211914062500e+02) (370, -1.85110916137695312500e+02) (371, -1.45841812133789062500e+02) (372, -6.68796386718750000000e+01) (373, -5.04396896362304687500e+01) (374, -1.16635147094726562500e+02) (375, -2.64769153594970703125e+01) (376, -1.69040756225585937500e+01) (377, 1.48276576995849609375e+01) (378, -1.49032878875732421875e+01) (379, -1.21420669555664062500e+02) (380, -2.92705444335937500000e+02) (0, -9.13727493286132812500e+01) (1, -1.46731521606445312500e+02) (2, -3.83641754150390625000e+02) (3, -2.32497528076171875000e+02) (4, 9.20820312500000000000e+01) (5, -2.75960784912109375000e+02) (6, 6.83061294555664062500e+01) (7, -4.33143341064453125000e+02) (8, -6.22521781921386718750e+01) (9, 2.81846252441406250000e+02) (10, -1.60812255859375000000e+02) (11, -3.69834976196289062500e+01) (12, -8.86734619140625000000e+01) (13, -1.31484771728515625000e+02) (14, -6.09166931152343750000e+02) (15, -2.72014984130859375000e+02) (16, -2.38783721923828125000e+02) (17, 7.51063766479492187500e+01) (18, -6.50245742797851562500e+01) (19, -2.12646255493164062500e+02) (20, -5.75112571716308593750e+01) (21, -1.65516647338867187500e+02) (22, -2.80726318359375000000e+02) (23, -3.41596954345703125000e+02) (24, 1.47105209350585937500e+02) (25, -2.29998107910156250000e+02) (26, -1.19591430664062500000e+02) (27, -4.65061523437500000000e+02) (28, -1.11241882324218750000e+02) (29, 1.36233673095703125000e+02) (30, -2.21177719116210937500e+02) (31, -1.10831245422363281250e+02) (32, 5.69654655456542968750e+01) (33, -7.16946487426757812500e+01) (34, -6.32208984375000000000e+02) (35, -4.09174987792968750000e+02) (36, -2.96828979492187500000e+02) (37, 1.33719528198242187500e+02) (38, 4.47875289916992187500e+01) (39, -6.56459274291992187500e+01) (40, -5.19775390625000000000e+01) (41, -1.05817977905273437500e+02) (42, -3.05098846435546875000e+02) (43, -4.36420379638671875000e+02) (44, 9.38704223632812500000e+01) (45, -2.44080490112304687500e+02) (46, -1.86755355834960937500e+02) (47, -6.58542480468750000000e+02) (48, -1.50829269409179687500e+02) (49, 2.12362213134765625000e+02) (50, -4.17714805603027343750e+01) (51, -5.50016021728515625000e+01) (52, 8.12300262451171875000e+01) (53, -3.08853683471679687500e+01) (54, -7.09012695312500000000e+02) (55, -4.77159027099609375000e+02) (56, -2.31136230468750000000e+02) (57, 9.68108978271484375000e+01) (58, -6.12024765014648437500e+01) (59, 3.24232826232910156250e+01) (60, -7.28143005371093750000e+01) (61, -1.31087570190429687500e+02) (62, -4.00507965087890625000e+02) (63, -6.08453430175781250000e+02) (64, 1.51800018310546875000e+02) (65, -3.14214294433593750000e+02) (66, -2.04327575683593750000e+02) (67, -9.86653686523437500000e+02) (68, -1.47089614868164062500e+02) (69, 3.07811920166015625000e+02) (70, -2.16374797821044921875e+01) (71, -1.22401382446289062500e+02) (72, -7.51818895339965820312e-01) (73, 1.47861495971679687500e+02) (74, -5.43422973632812500000e+02) (75, -4.95867736816406250000e+02) (76, -3.28930847167968750000e+02) (77, 1.55932769775390625000e+02) (78, -3.67196121215820312500e+01) (79, 5.23794288635253906250e+01) (80, -7.29964447021484375000e+01) (81, -1.21044181823730468750e+02) (82, -4.74833221435546875000e+02) (83, -6.22831298828125000000e+02) (84, 2.03644042968750000000e+02) (85, -2.52788040161132812500e+02) (86, -1.32977142333984375000e+02) (87, -1.07916662597656250000e+03) (88, -1.09008949279785156250e+02) (89, 1.29097702026367187500e+02) (90, 2.11590057373046875000e+02) (91, -1.76867004394531250000e+02) (92, -4.58055610656738281250e+01) (93, 7.27086257934570312500e+01) (94, -5.62423339843750000000e+02) (95, -6.05918273925781250000e+02) (96, -2.93258666992187500000e+02) (97, 7.64745407104492187500e+01) (98, -2.06920486450195312500e+02) (99, 1.76280075073242187500e+02) (100, -6.72221527099609375000e+01) (101, -2.06884292602539062500e+02) (102, -4.50829162597656250000e+02) (103, -6.18877990722656250000e+02) (104, 1.30528167724609375000e+02) (105, -3.03718627929687500000e+02) (106, -1.71491409301757812500e+02) (107, -8.19227966308593750000e+02) (108, -2.52757053375244140625e+01) (109, -5.10043258666992187500e+01) (110, 2.50639400482177734375e+01) (111, -1.66748474121093750000e+02) (112, -7.61913452148437500000e+01) (113, -1.25639474391937255859e+00) (114, -4.31695770263671875000e+02) (115, -4.49175567626953125000e+02) (116, -2.97051727294921875000e+02) (117, 3.41233940124511718750e+01) (118, -1.57768737792968750000e+02) (119, -5.19610290527343750000e+01) (120, -1.84170257568359375000e+02) (121, -6.06164474487304687500e+01) (122, -3.59161743164062500000e+02) (123, -7.57612792968750000000e+02) (124, -5.39790763854980468750e+01) (125, -2.11387893676757812500e+02) (126, -9.16737518310546875000e+01) (127, -1.52437606811523437500e+02) (128, -1.15134460449218750000e+02) (129, -3.74455047607421875000e+02) (130, -1.23236991882324218750e+02) (131, -4.74619827270507812500e+01) (132, -2.29250732421875000000e+02) (133, -1.77211883544921875000e+02) (134, 1.86301361083984375000e+02) (135, -4.37693359375000000000e+02) (136, -4.04936798095703125000e+02) (137, -1.16563873291015625000e+02) (138, -2.43745040893554687500e+02) (139, -2.84217529296875000000e+02) (140, -5.53819458007812500000e+02) (141, -1.11614707946777343750e+02) (142, 2.42517120361328125000e+02) (143, -1.65326095581054687500e+02) (144, -2.42966812133789062500e+02) (145, -1.77357604980468750000e+02) (146, -2.51422882080078125000e+01) (147, 7.18391906738281250000e+02) (148, -4.12985000610351562500e+01) (149, -8.07575378417968750000e+02) (150, -6.48192443847656250000e+02) (151, 5.10020446777343750000e+01) (152, -3.17824676513671875000e+02) (153, -4.31497009277343750000e+02) (154, 6.15091674804687500000e+02) (155, -1.41891891479492187500e+02) (156, -2.88554260253906250000e+02) (157, -4.40080322265625000000e+02) (158, -3.58263671875000000000e+02) (159, -7.31891540527343750000e+02) (160, -5.33396118164062500000e+02) (161, -2.25939422607421875000e+02) (162, 4.86855041503906250000e+02) (163, 1.85904922485351562500e+01) (164, -3.15966308593750000000e+02) (165, -5.82988281250000000000e+02) (166, -1.26705825805664062500e+02) (167, 1.59916284179687500000e+03) (168, -4.03910560607910156250e+01) (169, -9.86850402832031250000e+02) (170, -5.31739685058593750000e+02) (171, -1.47711288452148437500e+02) (172, -3.19703216552734375000e+02) (173, -4.83330047607421875000e+02) (174, 1.68581066894531250000e+03) (175, -5.23585090637207031250e+01) (176, -2.44476867675781250000e+02) (177, -5.31204040527343750000e+02) (178, -4.12500335693359375000e+02) (179, -9.78215637207031250000e+02) (180, -8.67231689453125000000e+02) (181, -1.06558265686035156250e+02) (182, 1.57809216308593750000e+03) (183, 1.51045739746093750000e+03) (184, -3.28935302734375000000e+02) (185, -6.42679504394531250000e+02) (186, -2.12316299438476562500e+02) (187, 2.56376977539062500000e+03) (188, 7.87446136474609375000e+01) (189, -1.64603112792968750000e+03) (190, -1.48985571289062500000e+03) (191, -3.06512603759765625000e+02) (192, -6.08423461914062500000e+02) (193, -1.02317272949218750000e+03) (194, 3.20613256835937500000e+03) (195, 9.33149414062500000000e+02) (196, 2.73442199707031250000e+02) (197, -7.14410949707031250000e+02) (198, -9.98374328613281250000e+02) (199, -1.77489526367187500000e+03) (200, -8.55538574218750000000e+02) (201, -1.60300003051757812500e+02) (202, 5.63352722167968750000e+02) (203, 8.15622253417968750000e+02) (204, -4.29029327392578125000e+02) (205, -3.53759368896484375000e+02) (206, -3.29536468505859375000e+02) (207, 1.06432983398437500000e+03) (208, -3.16255607604980468750e+01) (209, -1.31428698730468750000e+03) (210, -1.39705346679687500000e+03) (211, -1.91140319824218750000e+02) (212, -6.40879821777343750000e+02) (213, -8.40552795410156250000e+02) (214, 2.94279125976562500000e+03) (215, 5.77345825195312500000e+02) (216, 3.22584136962890625000e+02) (217, -4.52445312500000000000e+02) (218, -8.66898803710937500000e+02) (219, -1.34260241699218750000e+03) (220, -8.01251953125000000000e+02) (221, -3.51873718261718750000e+02) (222, 1.77968505859375000000e+02) (223, 7.68485412597656250000e+02) (224, -4.02582458496093750000e+02) (225, 3.27331207275390625000e+02) (226, -3.32264862060546875000e+02) (227, -1.41185592651367187500e+02) (228, -1.83908081054687500000e+02) (229, -9.91716491699218750000e+02) (230, -1.35807604980468750000e+03) (231, -2.64248474121093750000e+02) (232, -5.80547729492187500000e+02) (233, -6.46196166992187500000e+02) (234, 2.16511401367187500000e+03) (235, 1.34711212158203125000e+02) (236, 1.15727409362792968750e+02) (237, -2.97760650634765625000e+02) (238, -7.04707946777343750000e+02) (239, -7.50552185058593750000e+02) (240, -8.77748352050781250000e+02) (241, -5.58095642089843750000e+02) (242, -2.00918533325195312500e+02) (243, 4.45466827392578125000e+02) (244, -2.56057189941406250000e+02) (245, 2.56261596679687500000e+02) (246, -9.28061523437500000000e+01) (247, -4.56069458007812500000e+02) (248, -1.56094726562500000000e+02) (249, -6.21963623046875000000e+02) (250, -1.05023266601562500000e+03) (251, -4.22034637451171875000e+02) (252, -4.61337860107421875000e+02) (253, -3.94590881347656250000e+02) (254, 1.05217822265625000000e+03) (255, -9.99972305297851562500e+01) (256, 1.71320571899414062500e+02) (257, -1.43900619506835937500e+02) (258, -2.48794509887695312500e+02) (259, -4.22099334716796875000e+02) (260, -6.16013793945312500000e+02) (261, -4.54089538574218750000e+02) (262, -4.24956237792968750000e+02) (263, -1.51175701618194580078e+00) (264, -2.16784973144531250000e+02) (265, -1.46782211303710937500e+02) (266, -2.98571685791015625000e+02) (267, -8.16182800292968750000e+02) (268, -2.27968521118164062500e+02) (269, 9.11189193725585937500e+01) (270, -4.52763153076171875000e+02) (271, -6.09106628417968750000e+02) (272, -2.28316513061523437500e+02) (273, -2.16396465301513671875e+01) (274, 5.78979644775390625000e+01) (275, -3.02659667968750000000e+02) (276, 1.36346191406250000000e+02) (277, 4.73226547241210937500e+01) (278, -9.23322753906250000000e+01) (279, 9.83977737426757812500e+01) (280, -5.39626708984375000000e+02) (281, -4.12235168457031250000e+02) (282, -3.74799102783203125000e+02) (283, -3.03305568695068359375e+01) (284, 1.30139770507812500000e+02) (285, -1.75247619628906250000e+02) (286, -1.97525558471679687500e+02) (287, -7.96692260742187500000e+02) (288, -2.08890426635742187500e+02) (289, 1.52712600708007812500e+02) (290, -4.47309631347656250000e+02) (291, -7.07429687500000000000e+02) (292, -1.84655700683593750000e+02) (293, -1.65746498107910156250e+01) (294, 4.70663986206054687500e+01) (295, -3.29360504150390625000e+02) (296, -5.17545318603515625000e+01) (297, 6.13508796691894531250e+01) (298, -3.17187561035156250000e+02) (299, 1.26407676696777343750e+02) (300, -4.53295104980468750000e+02) (301, -1.71738967895507812500e+02) (302, -3.25337738037109375000e+02) (303, -1.35943099975585937500e+02) (304, 1.98815250396728515625e+01) (305, -1.29939376831054687500e+02) (306, -4.09952964782714843750e+01) (307, -8.67838867187500000000e+02) (308, -1.64655075073242187500e+02) (309, -1.03076583862304687500e+02) (310, -4.69877319335937500000e+02) (311, -5.30291564941406250000e+02) (312, -1.22212371826171875000e+02) (313, 6.37205276489257812500e+01) (314, -1.24776153564453125000e+02) (315, -1.86272491455078125000e+02) (316, -3.52938537597656250000e+01) (317, -6.07205924987792968750e+01) (318, -1.07686721801757812500e+02) (319, -5.04887428283691406250e+01) (320, -2.03389831542968750000e+02) (321, -3.52557189941406250000e+02) (322, -3.50671386718750000000e+02) (323, -1.92155593872070312500e+02) (324, 2.68710231781005859375e+01) (325, -2.42637023925781250000e+02) (326, -1.41223373413085937500e+01) (327, -4.57429901123046875000e+02) (328, -1.84727111816406250000e+02) (329, -1.12769401550292968750e+02) (330, -2.58769622802734375000e+02) (331, -5.74181274414062500000e+02) (332, -6.52194366455078125000e+01) (333, 1.36205032348632812500e+02) (334, -3.42773132324218750000e+02) (335, -4.00535369873046875000e+02) (336, -1.02876480102539062500e+02) (337, 5.83780556917190551758e-02) (338, -1.56197860717773437500e+02) (339, 5.90174674987792968750e+00) (340, -2.86771057128906250000e+02) (341, -2.92158996582031250000e+02) (342, -3.21423492431640625000e+02) (343, -2.06917053222656250000e+02) (344, 1.19385261535644531250e+02) (345, -4.59320159912109375000e+02) (346, -2.57264221191406250000e+02) (347, -3.94104766845703125000e+02) (348, -3.04637969970703125000e+02) (349, -2.83396331787109375000e+02) (350, -3.14093513488769531250e+01) (351, -5.46006408691406250000e+02) (352, 3.80920181274414062500e+01) (353, 2.35336242675781250000e+02) (354, -1.85177520751953125000e+02) (355, -1.30747711181640625000e+02) (356, -1.57635269165039062500e+02) (357, -1.77439327239990234375e+01) (358, -5.98967857360839843750e+01) (359, -1.24393280029296875000e+02) (360, -1.67794769287109375000e+02) (361, -2.98522766113281250000e+02) (362, -2.84821716308593750000e+02) (363, -1.87042221069335937500e+02) (364, 8.37209014892578125000e+01) (365, -3.33463317871093750000e+02) (366, -2.36768722534179687500e+02) (367, -2.84508148193359375000e+02) (368, -2.55991058349609375000e+02) (369, -3.32171936035156250000e+02) (370, -2.03154861450195312500e+02) (371, -3.46859893798828125000e+02) (372, -1.17460212707519531250e+02) (373, 1.00905677795410156250e+02) (374, -8.51196899414062500000e+01) (375, -1.00480712890625000000e+02) (376, -1.23789611816406250000e+02) (377, 7.49503402709960937500e+01) (378, -1.95604644775390625000e+02) (379, -2.65441406250000000000e+02) (380, -5.74012145996093750000e+02) (0, -1.72525955200195312500e+02) (1, 3.90053634643554687500e+01) (2, 4.80234222412109375000e+01) (3, -7.66557388305664062500e+01) (4, -1.53053573608398437500e+02) (5, 4.69217720031738281250e+01) (6, -3.23052482604980468750e+01) (7, -2.02029953002929687500e+02) (8, -9.15034866333007812500e+01) (9, -1.88831924438476562500e+02) (10, -1.59283111572265625000e+02) (11, -7.29631423950195312500e+01) (12, -2.58752193450927734375e+01) (13, -5.27394218444824218750e+01) (14, 1.24074714660644531250e+02) (15, -1.19336502075195312500e+02) (16, -9.34291229248046875000e+01) (17, -1.08813179016113281250e+02) (18, -3.41820297241210937500e+01) (19, -1.21099441528320312500e+02) (20, -1.50823562622070312500e+02) (21, -1.05990648269653320312e+01) (22, 5.53557052612304687500e+01) (23, 1.75354934692382812500e+02) (24, -2.31469924926757812500e+02) (25, -4.89815902709960937500e+01) (26, -1.82974052429199218750e+01) (27, -3.87923049926757812500e+01) (28, -2.16190624237060546875e+00) (29, -2.25079406738281250000e+02) (30, -3.63625183105468750000e+02) (31, 7.71515667438507080078e-01) (32, -1.48514755249023437500e+02) (33, 1.83048286437988281250e+01) (34, 1.49864517211914062500e+02) (35, 1.51822570800781250000e+02) (36, -6.89389419555664062500e+01) (37, -2.53149627685546875000e+02) (38, -7.98058776855468750000e+01) (39, -2.89019805908203125000e+02) (40, -1.10835876464843750000e+02) (41, -4.82358055114746093750e+01) (42, -3.32388877868652343750e+01) (43, 2.33468490600585937500e+02) (44, -2.52277709960937500000e+02) (45, -1.83026142120361328125e+01) (46, -7.06458902359008789062e+00) (47, 1.55128387451171875000e+02) (48, 6.61701889038085937500e+01) (49, -3.39510650634765625000e+02) (50, -3.72821136474609375000e+02) (51, 2.13215122222900390625e+01) (52, -2.02140670776367187500e+02) (53, -4.46092643737792968750e+01) (54, 2.58506164550781250000e+02) (55, 1.22848632812500000000e+02) (56, 5.83666572570800781250e+01) (57, -1.78021316528320312500e+02) (58, -2.27359588623046875000e+02) (59, -3.25806732177734375000e+02) (60, -2.23847610473632812500e+02) (61, 5.21581764221191406250e+01) (62, 1.19622261047363281250e+02) (63, 1.98623962402343750000e+02) (64, -2.37289901733398437500e+02) (65, -1.10154083251953125000e+02) (66, -1.17828540802001953125e+01) (67, 4.34645172119140625000e+02) (68, 1.30230422973632812500e+02) (69, -2.69084564208984375000e+02) (70, -4.34752288818359375000e+02) (71, 1.78885650634765625000e+02) (72, -1.81862960815429687500e+02) (73, -5.65765113830566406250e+01) (74, 1.22010711669921875000e+02) (75, -6.76633529663085937500e+01) (76, -1.26057291030883789062e+01) (77, -1.71211669921875000000e+02) (78, -7.07146072387695312500e+01) (79, -3.52488616943359375000e+02) (80, -2.05886917114257812500e+02) (81, -6.51196212768554687500e+01) (82, 7.65717315673828125000e+01) (83, 1.49296951293945312500e+02) (84, -2.08007553100585937500e+02) (85, -1.13786926269531250000e+02) (86, -3.65546989440917968750e+01) (87, 3.65874908447265625000e+02) (88, 1.93004486083984375000e+02) (89, -1.53461288452148437500e+02) (90, -2.95740173339843750000e+02) (91, 1.81453414916992187500e+02) (92, -1.77214614868164062500e+02) (93, 3.77277297973632812500e+01) (94, 2.75562103271484375000e+02) (95, -5.91731500625610351562e+00) (96, -7.93544769287109375000e+01) (97, -1.28366577148437500000e+02) (98, -1.46022811889648437500e+02) (99, -3.58386932373046875000e+02) (100, -2.68467926025390625000e+02) (101, -6.05102119445800781250e+01) (102, 4.67024650573730468750e+01) (103, -2.07317962646484375000e+01) (104, -1.27230133056640625000e+02) (105, -1.67448165893554687500e+02) (106, 1.42955360412597656250e+01) (107, 5.04328826904296875000e+02) (108, 1.57917007446289062500e+02) (109, -1.45958206176757812500e+02) (110, -3.06230865478515625000e+02) (111, 1.33609695434570312500e+02) (112, -1.00243530273437500000e+02) (113, 1.07738494873046875000e+02) (114, 1.78187835693359375000e+02) (115, -7.74603652954101562500e+01) (116, -1.10493803024291992188e+01) (117, -2.23836578369140625000e+02) (118, 6.37969627380371093750e+01) (119, -9.84702606201171875000e+01) (120, -3.11914703369140625000e+02) (121, -2.69641479492187500000e+02) (122, -3.92511558532714843750e+01) (123, -1.07424095153808593750e+02) (124, 1.31930480957031250000e+02) (125, -3.13922668457031250000e+02) (126, 2.67975025177001953125e+01) (127, 4.36006744384765625000e+02) (128, 1.61429214477539062500e+02) (129, 1.02761375427246093750e+02) (130, 3.15070095062255859375e+01) (131, -5.90195808410644531250e+01) (132, -3.20249671936035156250e+01) (133, 1.32191894531250000000e+02) (134, -3.01271545410156250000e+02) (135, -2.36034149169921875000e+02) (136, -3.90275459289550781250e+01) (137, -4.88114700317382812500e+01) (138, 1.93018737792968750000e+02) (139, 2.69558929443359375000e+02) (140, -3.57207153320312500000e+02) (141, -2.18871978759765625000e+02) (142, -3.12138244628906250000e+02) (143, -4.40957153320312500000e+02) (144, 3.61995330810546875000e+02) (145, -5.87147521972656250000e+02) (146, -3.77731323242187500000e+01) (147, 1.61720397949218750000e+02) (148, 7.16384506225585937500e+01) (149, 3.57279602050781250000e+02) (150, 6.21983871459960937500e+01) (151, -1.47205062866210937500e+02) (152, 7.44476394653320312500e+01) (153, 3.31035522460937500000e+02) (154, -4.57990325927734375000e+02) (155, -3.67149353027343750000e+02) (156, 1.53449981689453125000e+02) (157, 1.82967529296875000000e+02) (158, 2.90893432617187500000e+02) (159, 5.03924560546875000000e+02) (160, -2.88387695312500000000e+02) (161, -2.19939575195312500000e+02) (162, -7.45079467773437500000e+02) (163, -7.24262390136718750000e+02) (164, 4.28559478759765625000e+02) (165, -5.49058654785156250000e+02) (166, -2.97699157714843750000e+02) (167, -5.90074035644531250000e+02) (168, -8.40083923339843750000e+01) (169, 8.35584411621093750000e+02) (170, 4.62826934814453125000e+02) (171, -2.76784301757812500000e+02) (172, 1.10951416015625000000e+02) (173, 6.66879028320312500000e+02) (174, -1.03615917968750000000e+03) (175, -5.67510131835937500000e+02) (176, 1.77791290283203125000e+02) (177, 3.36596893310546875000e+02) (178, 5.21540649414062500000e+02) (179, 1.01490130615234375000e+03) (180, -1.66359298706054687500e+02) (181, -1.41552459716796875000e+02) (182, -1.17501367187500000000e+03) (183, -1.13656762695312500000e+03) (184, 3.45418273925781250000e+02) (185, -2.97102478027343750000e+02) (186, 2.49294242858886718750e+01) (187, -1.41476208496093750000e+03) (188, -2.93381729125976562500e+01) (189, 9.17541992187500000000e+02) (190, 4.12647521972656250000e+02) (191, -1.71852691650390625000e+02) (192, 1.49572265625000000000e+02) (193, 5.42973937988281250000e+02) (194, -1.72449401855468750000e+03) (195, -4.18678253173828125000e+02) (196, 3.08095336914062500000e+02) (197, 3.98898468017578125000e+02) (198, 8.09186279296875000000e+02) (199, 1.05428771972656250000e+03) (200, -2.00889144897460937500e+02) (201, -2.80213378906250000000e+02) (202, -5.04652343750000000000e+02) (203, -7.29481018066406250000e+02) (204, 3.79757202148437500000e+02) (205, -5.14713378906250000000e+02) (206, -1.62736984252929687500e+02) (207, -6.35788818359375000000e+02) (208, -1.62380035400390625000e+02) (209, 9.01322509765625000000e+02) (210, 4.51824066162109375000e+02) (211, -1.95067047119140625000e+02) (212, 1.28543258666992187500e+02) (213, 4.80458251953125000000e+02) (214, -1.29701525878906250000e+03) (215, -3.18113647460937500000e+02) (216, -6.35333976745605468750e+01) (217, 2.94647460937500000000e+02) (218, 6.09924011230468750000e+02) (219, 1.04502661132812500000e+03) (220, -2.83336456298828125000e+02) (221, -1.50488723754882812500e+02) (222, -2.96084381103515625000e+02) (223, -2.22828445434570312500e+02) (224, 2.57715240478515625000e+02) (225, -5.33887145996093750000e+02) (226, -1.74415664672851562500e+02) (227, -6.73183012008666992188e+00) (228, -1.15948631286621093750e+02) (229, 4.14044891357421875000e+02) (230, 3.42060050964355468750e+01) (231, -1.51583770751953125000e+02) (232, -2.36448631286621093750e+01) (233, 1.04568054199218750000e+02) (234, -4.36336578369140625000e+02) (235, 2.76932159423828125000e+02) (236, -1.29008274078369140625e+01) (237, 1.83765487670898437500e+02) (238, 3.91683074951171875000e+02) (239, 4.00446411132812500000e+02) (240, -2.30295745849609375000e+02) (241, -1.29217422485351562500e+02) (242, -6.79912471771240234375e+00) (243, -7.94993209838867187500e+01) (244, 2.03277679443359375000e+02) (245, -3.65072998046875000000e+02) (246, -2.46197143554687500000e+02) (247, 4.08217407226562500000e+02) (248, 1.71719150543212890625e+01) (249, 1.87211746215820312500e+02) (250, -1.91311508178710937500e+02) (251, -1.59064514160156250000e+02) (252, -7.29934616088867187500e+01) (253, -1.98054528236389160156e+00) (254, 6.97056274414062500000e+01) (255, 1.32793334960937500000e+02) (256, 2.78443832397460937500e+01) (257, 6.46142883300781250000e+01) (258, -8.62477416992187500000e+01) (259, 2.02060729980468750000e+02) (260, -2.09810317993164062500e+02) (261, -1.88762557983398437500e+02) (262, 1.80213912963867187500e+02) (263, 1.02949905395507812500e+02) (264, 1.36017791748046875000e+02) (265, -8.59397659301757812500e+01) (266, -7.40896148681640625000e+01) (267, 4.02918609619140625000e+02) (268, 5.57435073852539062500e+01) (269, -2.75874389648437500000e+02) (270, -3.61082092285156250000e+02) (271, -1.01537940979003906250e+02) (272, -2.50617370605468750000e+02) (273, -7.62681045532226562500e+01) (274, 2.51788925170898437500e+02) (275, 4.54137817382812500000e+02) (276, 3.56152267456054687500e+01) (277, -1.35508605957031250000e+02) (278, -1.45120275020599365234e+00) (279, -1.64520248413085937500e+02) (280, -1.75787811279296875000e+02) (281, -2.07746414184570312500e+02) (282, 2.50923645019531250000e+02) (283, 8.12776260375976562500e+01) (284, -1.67766174316406250000e+02) (285, 1.01536188125610351562e+01) (286, -1.42171936035156250000e+02) (287, 4.93966217041015625000e+02) (288, 8.50661468505859375000e+01) (289, -3.11890899658203125000e+02) (290, -4.01528747558593750000e+02) (291, 8.63495712280273437500e+01) (292, -1.51543807983398437500e+02) (293, -1.42310226440429687500e+02) (294, 2.03697189331054687500e+02) (295, 2.44561843872070312500e+02) (296, 1.02402565002441406250e+02) (297, -1.66527099609375000000e+02) (298, -7.38925647735595703125e+00) (299, -1.44321273803710937500e+02) (300, -1.82963348388671875000e+02) (301, -2.22897689819335937500e+02) (302, 2.23033447265625000000e+02) (303, -1.20520496368408203125e+01) (304, -1.75999008178710937500e+02) (305, 3.74714660644531250000e+01) (306, -1.80171035766601562500e+02) (307, 3.30772613525390625000e+02) (308, 4.37394447326660156250e+01) (309, -4.28776824951171875000e+02) (310, -2.94502777099609375000e+02) (311, 1.08383880615234375000e+02) (312, -1.47777984619140625000e+02) (313, -1.94286865234375000000e+02) (314, 3.85160919189453125000e+02) (315, 6.45535125732421875000e+01) (316, 2.09981063842773437500e+02) (317, -1.11008697509765625000e+02) (318, 7.18924026489257812500e+01) (319, -1.91505401611328125000e+02) (320, -9.27732391357421875000e+01) (321, -7.59254760742187500000e+01) (322, 1.65242675781250000000e+02) (323, 1.33775939941406250000e+02) (324, -9.58812637329101562500e+01) (325, 1.22759048461914062500e+02) (326, -1.97137680053710937500e+02) (327, 2.25989715576171875000e+02) (328, -7.02808151245117187500e+01) (329, -5.98637634277343750000e+02) (330, -3.98308471679687500000e+02) (331, 1.85299316406250000000e+02) (332, -6.10812721252441406250e+01) (333, -2.04194183349609375000e+02) (334, 1.54524673461914062500e+02) (335, 5.63120651245117187500e+01) (336, 1.65535629272460937500e+02) (337, -6.51024093627929687500e+01) (338, 4.72852134704589843750e+01) (339, -2.07995025634765625000e+02) (340, 6.44908981323242187500e+01) (341, -1.31921813964843750000e+02) (342, 4.24196624755859375000e+01) (343, -1.41999832153320312500e+02) (344, -2.72624023437500000000e+02) (345, 1.03968399047851562500e+02) (346, -1.30848907470703125000e+02) (347, 2.77398101806640625000e+02) (348, -3.93687553405761718750e+01) (349, -3.12055297851562500000e+02) (350, -1.71054885864257812500e+02) (351, -1.82505893707275390625e+01) (352, -5.22570495605468750000e+01) (353, -3.43982849121093750000e+01) (354, 3.74370269775390625000e+01) (355, -1.02403762817382812500e+02) (356, 5.98301925659179687500e+01) (357, -1.86583316326141357422e+00) (358, 8.52155761718750000000e+01) (359, -9.73027038574218750000e+01) (360, -1.16333908081054687500e+02) (361, -7.23013916015625000000e+01) (362, 1.71913218498229980469e+00) (363, -1.18424102783203125000e+02) (364, -2.67706787109375000000e+02) (365, 5.58473129272460937500e+01) (366, -5.40573844909667968750e+01) (367, 1.98058990478515625000e+02) (368, 1.51712722778320312500e+01) (369, -4.87751388549804687500e+01) (370, -1.66277984619140625000e+02) (371, -1.01290874481201171875e+01) (372, -3.24383506774902343750e+01) (373, 8.35197257995605468750e+00) (374, -9.32274246215820312500e+01) (375, -1.36200958251953125000e+02) (376, 6.10351295471191406250e+01) (377, 8.36928176879882812500e+01) (378, -5.08785934448242187500e+01) (379, -3.24412879943847656250e+01) (380, -1.72490026855468750000e+03) (0, -3.77077056884765625000e+02) (1, 4.80110778808593750000e+01) (2, 2.65116882324218750000e+02) (3, 1.92181182861328125000e+02) (4, -4.06546783447265625000e+02) (5, 1.31493087768554687500e+02) (6, -1.04982061386108398438e+01) (7, -5.32330245971679687500e+01) (8, -2.12961257934570312500e+02) (9, -2.25890563964843750000e+02) (10, -3.78345092773437500000e+02) (11, -1.02995239257812500000e+02) (12, 1.25334846496582031250e+02) (13, -2.95968627929687500000e+02) (14, 1.77074752807617187500e+02) (15, 2.68796478271484375000e+02) (16, -2.20373687744140625000e+02) (17, -1.66371978759765625000e+02) (18, -5.82801475524902343750e+01) (19, -3.45047332763671875000e+02) (20, -4.17900909423828125000e+02) (21, -3.40092582702636718750e+01) (22, 2.49366638183593750000e+02) (23, 6.49968994140625000000e+02) (24, -5.37101013183593750000e+02) (25, 2.24355377197265625000e+02) (26, 1.44832992553710937500e+02) (27, 1.12341552734375000000e+02) (28, -5.59482002258300781250e+01) (29, -5.52892028808593750000e+02) (30, -5.47525939941406250000e+02) (31, -9.47234802246093750000e+01) (32, -5.06758570671081542969e-01) (33, -1.93705612182617187500e+02) (34, 4.01711242675781250000e+02) (35, 3.08371185302734375000e+02) (36, -1.96781753540039062500e+02) (37, -3.39076324462890625000e+02) (38, -3.71621978759765625000e+02) (39, -3.96980987548828125000e+02) (40, -3.76303588867187500000e+02) (41, 7.11160507202148437500e+01) (42, 1.82895965576171875000e+02) (43, 7.07120605468750000000e+02) (44, -4.38066162109375000000e+02) (45, 1.32940017700195312500e+02) (46, 2.02031051635742187500e+02) (47, 4.27859924316406250000e+02) (48, -3.53150520324707031250e+01) (49, -9.20658264160156250000e+02) (50, -6.52778503417968750000e+02) (51, 9.04907760620117187500e+01) (52, -2.30040374755859375000e+02) (53, -2.45877517700195312500e+02) (54, 4.11440887451171875000e+02) (55, 3.79449615478515625000e+02) (56, 2.34083679199218750000e+02) (57, -3.24845336914062500000e+02) (58, -5.76160827636718750000e+02) (59, -5.51601440429687500000e+02) (60, -3.09517822265625000000e+02) (61, 1.04685684204101562500e+02) (62, 1.52332687377929687500e+02) (63, 7.24675537109375000000e+02) (64, -4.22033752441406250000e+02) (65, 2.19284381866455078125e+01) (66, 1.67613403320312500000e+02) (67, 8.30546997070312500000e+02) (68, 1.02099235534667968750e+02) (69, -1.02001000976562500000e+03) (70, -6.93412658691406250000e+02) (71, 2.95076965332031250000e+02) (72, -2.43098846435546875000e+02) (73, -4.45077239990234375000e+02) (74, 3.20903503417968750000e+02) (75, 3.32562286376953125000e+02) (76, 3.22437469482421875000e+02) (77, -3.47720001220703125000e+02) (78, -4.56109344482421875000e+02) (79, -5.56747436523437500000e+02) (80, -4.94901458740234375000e+02) (81, 1.51542190551757812500e+02) (82, 1.24454414367675781250e+02) (83, 6.91361511230468750000e+02) (84, -3.15365478515625000000e+02) (85, 1.28973587036132812500e+02) (86, 5.26298828125000000000e+01) (87, 1.00367926025390625000e+03) (88, 1.46229553222656250000e+02) (89, -7.72637817382812500000e+02) (90, -9.57361083984375000000e+02) (91, 9.42407379150390625000e+01) (92, -2.46576202392578125000e+02) (93, -2.00041763305664062500e+02) (94, 5.09914947509765625000e+02) (95, 5.02984069824218750000e+02) (96, 4.42910308837890625000e+02) (97, -3.22931091308593750000e+02) (98, -4.03219604492187500000e+02) (99, -8.12487670898437500000e+02) (100, -3.97614929199218750000e+02) (101, -1.52728134155273437500e+02) (102, 1.16544799804687500000e+02) (103, 4.00844146728515625000e+02) (104, -1.19991882324218750000e+02) (105, -1.43471588134765625000e+02) (106, 1.02157684326171875000e+02) (107, 9.12021240234375000000e+02) (108, 1.81223464965820312500e+02) (109, -2.27698623657226562500e+02) (110, -7.39269470214843750000e+02) (111, -7.23617601394653320312e+00) (112, -1.71720214843750000000e+02) (113, -4.32259254455566406250e+01) (114, 3.74631378173828125000e+02) (115, 2.47666641235351562500e+02) (116, 6.33693695068359375000e+01) (117, -3.36708648681640625000e+02) (118, -1.04972831726074218750e+02) (119, -2.60543182373046875000e+02) (120, -3.51667572021484375000e+02) (121, -3.24066070556640625000e+02) (122, -1.19169281005859375000e+02) (123, 1.77476898193359375000e+02) (124, 6.10003585815429687500e+01) (125, -2.57094207763671875000e+02) (126, -1.35895385742187500000e+02) (127, 7.67786621093750000000e+02) (128, 1.46994857788085937500e+02) (129, 1.38142898559570312500e+02) (130, -2.22284759521484375000e+02) (131, -1.69601318359375000000e+02) (132, 1.38990840911865234375e+01) (133, -4.30106163024902343750e+01) (134, 