FANN_FLO_2.1
num_layers=3
learning_rate=0.700000
connection_rate=1.000000
network_type=0
learning_momentum=0.000000
training_algorithm=0
train_error_function=1
train_stop_function=0
cascade_output_change_fraction=0.010000
quickprop_decay=-0.000100
quickprop_mu=1.750000
rprop_increase_factor=1.200000
rprop_decrease_factor=0.500000
rprop_delta_min=0.000000
rprop_delta_max=50.000000
rprop_delta_zero=0.100000
cascade_output_stagnation_epochs=12
cascade_candidate_change_fraction=0.010000
cascade_candidate_stagnation_epochs=12
cascade_max_out_epochs=150
cascade_min_out_epochs=50
cascade_max_cand_epochs=150
cascade_min_cand_epochs=50
cascade_num_candidate_groups=2
bit_fail_limit=3.49999994039535522461e-01
cascade_candidate_limit=1.00000000000000000000e+03
cascade_weight_multiplier=4.00000005960464477539e-01
cascade_activation_functions_count=10
cascade_activation_functions=3 5 7 8 10 11 14 15 16 17 
cascade_activation_steepnesses_count=4
cascade_activation_steepnesses=2.50000000000000000000e-01 5.00000000000000000000e-01 7.50000000000000000000e-01 1.00000000000000000000e+00 
layer_sizes=341 6 5 
scale_included=0
neurons (num_inputs, activation_function, activation_steepness)=(0, 0, 0.00000000000000000000e+00) (0, 0, 0.00000000000000000000e+00) (0, 0, 0.00000000000000000000e+00) (0, 0, 0.00000000000000000000e+00) (0, 0, 0.00000000000000000000e+00) (0, 0, 0.00000000000000000000e+00) (0, 0, 0.00000000000000000000e+00) (0, 0, 0.00000000000000000000e+00) (0, 0, 0.00000000000000000000e+00) (0, 0, 0.00000000000000000000e+00) (0, 0, 0.00000000000000000000e+00) (0, 0, 0.00000000000000000000e+00) (0, 0, 0.00000000000000000000e+00) (0, 0, 0.00000000000000000000e+00) (0, 0, 0.00000000000000000000e+00) (0, 0, 0.00000000000000000000e+00) (0, 0, 0.00000000000000000000e+00) (0, 0, 0.00000000000000000000e+00) (0, 0, 0.00000000000000000000e+00) (0, 0, 0.00000000000000000000e+00) (0, 0, 0.00000000000000000000e+00) (0, 0, 0.00000000000000000000e+00) (0, 0, 0.00000000000000000000e+00) (0, 0, 0.00000000000000000000e+00) (0, 0, 0.00000000000000000000e+00) (0, 0, 0.00000000000000000000e+00) (0, 0, 0.00000000000000000000e+00) (0, 0, 0.00000000000000000000e+00) (0, 0, 0.00000000000000000000e+00) (0, 0, 0.00000000000000000000e+00) (0, 0, 0.00000000000000000000e+00) (0, 0, 0.00000000000000000000e+00) (0, 0, 0.00000000000000000000e+00) (0, 0, 0.00000000000000000000e+00) (0, 0, 0.00000000000000000000e+00) (0, 0, 0.00000000000000000000e+00) (0, 0, 0.00000000000000000000e+00) (0, 0, 0.00000000000000000000e+00) (0, 0, 0.00000000000000000000e+00) (0, 0, 0.00000000000000000000e+00) (0, 0, 0.00000000000000000000e+00) (0, 0, 0.00000000000000000000e+00) (0, 0, 0.00000000000000000000e+00) (0, 0, 0.00000000000000000000e+00) (0, 0, 0.00000000000000000000e+00) (0, 0, 0.00000000000000000000e+00) (0, 0, 0.00000000000000000000e+00) (0, 0, 0.00000000000000000000e+00) (0, 0, 0.00000000000000000000e+00) (0, 0, 0.00000000000000000000e+00) (0, 0, 0.00000000000000000000e+00) (0, 0, 0.00000000000000000000e+00) (0, 0, 0.00000000000000000000e+00) (0, 0, 0.00000000000000000000e+00) (0, 0, 0.00000000000000000000e+00) (0, 0, 0.00000000000000000000e+00) (0, 0, 0.00000000000000000000e+00) (0, 0, 0.00000000000000000000e+00) (0, 0, 0.00000000000000000000e+00) (0, 0, 0.00000000000000000000e+00) (0, 0, 0.00000000000000000000e+00) (0, 0, 0.00000000000000000000e+00) (0, 0, 0.00000000000000000000e+00) (0, 0, 0.00000000000000000000e+00) (0, 0, 0.00000000000000000000e+00) (0, 0, 0.00000000000000000000e+00) (0, 0, 0.00000000000000000000e+00) (0, 0, 0.00000000000000000000e+00) (0, 0, 0.00000000000000000000e+00) (0, 0, 0.00000000000000000000e+00) (0, 0, 0.00000000000000000000e+00) (0, 0, 0.00000000000000000000e+00) (0, 0, 0.00000000000000000000e+00) (0, 0, 0.00000000000000000000e+00) (0, 0, 0.00000000000000000000e+00) (0, 0, 0.00000000000000000000e+00) (0, 0, 0.00000000000000000000e+00) (0, 0, 0.00000000000000000000e+00) (0, 0, 0.00000000000000000000e+00) (0, 0, 0.00000000000000000000e+00) (0, 0, 0.00000000000000000000e+00) (0, 0, 0.00000000000000000000e+00) (0, 0, 0.00000000000000000000e+00) (0, 0, 0.00000000000000000000e+00) (0, 0, 0.00000000000000000000e+00) (0, 0, 0.00000000000000000000e+00) (0, 0, 0.00000000000000000000e+00) (0, 0, 0.00000000000000000000e+00) (0, 0, 0.00000000000000000000e+00) (0, 0, 0.00000000000000000000e+00) (0, 0, 0.00000000000000000000e+00) (0, 0, 0.00000000000000000000e+00) (0, 0, 0.00000000000000000000e+00) (0, 0, 0.00000000000000000000e+00) (0, 0, 0.00000000000000000000e+00) (0, 0, 0.00000000000000000000e+00) (0, 0, 0.00000000000000000000e+00) (0, 0, 0.00000000000000000000e+00) (0, 0, 0.00000000000000000000e+00) (0, 0, 0.00000000000000000000e+00) (0, 0, 0.00000000000000000000e+00) (0, 0, 0.00000000000000000000e+00) (0, 0, 0.00000000000000000000e+00) (0, 0, 0.00000000000000000000e+00) (0, 0, 0.00000000000000000000e+00) (0, 0, 0.00000000000000000000e+00) (0, 0, 0.00000000000000000000e+00) (0, 0, 0.00000000000000000000e+00) (0, 0, 0.00000000000000000000e+00) (0, 0, 0.00000000000000000000e+00) (0, 0, 0.00000000000000000000e+00) (0, 0, 0.00000000000000000000e+00) (0, 0, 0.00000000000000000000e+00) (0, 0, 0.00000000000000000000e+00) (0, 0, 0.00000000000000000000e+00) (0, 0, 0.00000000000000000000e+00) (0, 0, 0.00000000000000000000e+00) (0, 0, 0.00000000000000000000e+00) (0, 0, 0.00000000000000000000e+00) (0, 0, 0.00000000000000000000e+00) (0, 0, 0.00000000000000000000e+00) (0, 0, 0.00000000000000000000e+00) (0, 0, 0.00000000000000000000e+00) (0, 0, 0.00000000000000000000e+00) (0, 0, 0.00000000000000000000e+00) (0, 0, 0.00000000000000000000e+00) (0, 0, 0.00000000000000000000e+00) (0, 0, 0.00000000000000000000e+00) (0, 0, 0.00000000000000000000e+00) (0, 0, 0.00000000000000000000e+00) (0, 0, 0.00000000000000000000e+00) (0, 0, 0.00000000000000000000e+00) (0, 0, 0.00000000000000000000e+00) (0, 0, 0.00000000000000000000e+00) (0, 0, 0.00000000000000000000e+00) (0, 0, 0.00000000000000000000e+00) (0, 0, 0.00000000000000000000e+00) (0, 0, 0.00000000000000000000e+00) (0, 0, 0.00000000000000000000e+00) (0, 0, 0.00000000000000000000e+00) (0, 0, 0.00000000000000000000e+00) (0, 0, 0.00000000000000000000e+00) (0, 0, 0.00000000000000000000e+00) (0, 0, 0.00000000000000000000e+00) (0, 0, 0.00000000000000000000e+00) (0, 0, 0.00000000000000000000e+00) (0, 0, 0.00000000000000000000e+00) (0, 0, 0.00000000000000000000e+00) (0, 0, 0.00000000000000000000e+00) (0, 0, 0.00000000000000000000e+00) (0, 0, 0.00000000000000000000e+00) (0, 0, 0.00000000000000000000e+00) (0, 0, 0.00000000000000000000e+00) (0, 0, 0.00000000000000000000e+00) (0, 0, 0.00000000000000000000e+00) (0, 0, 0.00000000000000000000e+00) (0, 0, 0.00000000000000000000e+00) (0, 0, 0.00000000000000000000e+00) (0, 0, 0.00000000000000000000e+00) (0, 0, 0.00000000000000000000e+00) (0, 0, 0.00000000000000000000e+00) (0, 0, 0.00000000000000000000e+00) (0, 0, 0.00000000000000000000e+00) (0, 0, 0.00000000000000000000e+00) (0, 0, 0.00000000000000000000e+00) (0, 0, 0.00000000000000000000e+00) (0, 0, 0.00000000000000000000e+00) (0, 0, 0.00000000000000000000e+00) (0, 0, 0.00000000000000000000e+00) (0, 0, 0.00000000000000000000e+00) (0, 0, 0.00000000000000000000e+00) (0, 0, 0.00000000000000000000e+00) (0, 0, 0.00000000000000000000e+00) (0, 0, 0.00000000000000000000e+00) (0, 0, 0.00000000000000000000e+00) (0, 0, 0.00000000000000000000e+00) (0, 0, 0.00000000000000000000e+00) (0, 0, 0.00000000000000000000e+00) (0, 0, 0.00000000000000000000e+00) (0, 0, 0.00000000000000000000e+00) (0, 0, 0.00000000000000000000e+00) (0, 0, 0.00000000000000000000e+00) (0, 0, 0.00000000000000000000e+00) (0, 0, 0.00000000000000000000e+00) (0, 0, 0.00000000000000000000e+00) (0, 0, 0.00000000000000000000e+00) (0, 0, 0.00000000000000000000e+00) (0, 0, 0.00000000000000000000e+00) (0, 0, 0.00000000000000000000e+00) (0, 0, 0.00000000000000000000e+00) (0, 0, 0.00000000000000000000e+00) (0, 0, 0.00000000000000000000e+00) (0, 0, 0.00000000000000000000e+00) (0, 0, 0.00000000000000000000e+00) (0, 0, 0.00000000000000000000e+00) (0, 0, 0.00000000000000000000e+00) (0, 0, 0.00000000000000000000e+00) (0, 0, 0.00000000000000000000e+00) (0, 0, 0.00000000000000000000e+00) (0, 0, 0.00000000000000000000e+00) (0, 0, 0.00000000000000000000e+00) (0, 0, 0.00000000000000000000e+00) (0, 0, 0.00000000000000000000e+00) (0, 0, 0.00000000000000000000e+00) (0, 0, 0.00000000000000000000e+00) (0, 0, 0.00000000000000000000e+00) (0, 0, 0.00000000000000000000e+00) (0, 0, 0.00000000000000000000e+00) (0, 0, 0.00000000000000000000e+00) (0, 0, 0.00000000000000000000e+00) (0, 0, 0.00000000000000000000e+00) (0, 0, 0.00000000000000000000e+00) (0, 0, 0.00000000000000000000e+00) (0, 0, 0.00000000000000000000e+00) (0, 0, 0.00000000000000000000e+00) (0, 0, 0.00000000000000000000e+00) (0, 0, 0.00000000000000000000e+00) (0, 0, 0.00000000000000000000e+00) (0, 0, 0.00000000000000000000e+00) (0, 0, 0.00000000000000000000e+00) (0, 0, 0.00000000000000000000e+00) (0, 0, 0.00000000000000000000e+00) (0, 0, 0.00000000000000000000e+00) (0, 0, 0.00000000000000000000e+00) (0, 0, 0.00000000000000000000e+00) (0, 0, 0.00000000000000000000e+00) (0, 0, 0.00000000000000000000e+00) (0, 0, 0.00000000000000000000e+00) (0, 0, 0.00000000000000000000e+00) (0, 0, 0.00000000000000000000e+00) (0, 0, 0.00000000000000000000e+00) (0, 0, 0.00000000000000000000e+00) (0, 0, 0.00000000000000000000e+00) (0, 0, 0.00000000000000000000e+00) (0, 0, 0.00000000000000000000e+00) (0, 0, 0.00000000000000000000e+00) (0, 0, 0.00000000000000000000e+00) (0, 0, 0.00000000000000000000e+00) (0, 0, 0.00000000000000000000e+00) (0, 0, 0.00000000000000000000e+00) (0, 0, 0.00000000000000000000e+00) (0, 0, 0.00000000000000000000e+00) (0, 0, 0.00000000000000000000e+00) (0, 0, 0.00000000000000000000e+00) (0, 0, 0.00000000000000000000e+00) (0, 0, 0.00000000000000000000e+00) (0, 0, 0.00000000000000000000e+00) (0, 0, 0.00000000000000000000e+00) (0, 0, 0.00000000000000000000e+00) (0, 0, 0.00000000000000000000e+00) (0, 0, 0.00000000000000000000e+00) (0, 0, 0.00000000000000000000e+00) (0, 0, 0.00000000000000000000e+00) (0, 0, 0.00000000000000000000e+00) (0, 0, 0.00000000000000000000e+00) (0, 0, 0.00000000000000000000e+00) (0, 0, 0.00000000000000000000e+00) (0, 0, 0.00000000000000000000e+00) (0, 0, 0.00000000000000000000e+00) (0, 0, 0.00000000000000000000e+00) (0, 0, 0.00000000000000000000e+00) (0, 0, 0.00000000000000000000e+00) (0, 0, 0.00000000000000000000e+00) (0, 0, 0.00000000000000000000e+00) (0, 0, 0.00000000000000000000e+00) (0, 0, 0.00000000000000000000e+00) (0, 0, 0.00000000000000000000e+00) (0, 0, 0.00000000000000000000e+00) (0, 0, 0.00000000000000000000e+00) (0, 0, 0.00000000000000000000e+00) (0, 0, 0.00000000000000000000e+00) (0, 0, 0.00000000000000000000e+00) (0, 0, 0.00000000000000000000e+00) (0, 0, 0.00000000000000000000e+00) (0, 0, 0.00000000000000000000e+00) (0, 0, 0.00000000000000000000e+00) (0, 0, 0.00000000000000000000e+00) (0, 0, 0.00000000000000000000e+00) (0, 0, 0.00000000000000000000e+00) (0, 0, 0.00000000000000000000e+00) (0, 0, 0.00000000000000000000e+00) (0, 0, 0.00000000000000000000e+00) (0, 0, 0.00000000000000000000e+00) (0, 0, 0.00000000000000000000e+00) (0, 0, 0.00000000000000000000e+00) (0, 0, 0.00000000000000000000e+00) (0, 0, 0.00000000000000000000e+00) (0, 0, 0.00000000000000000000e+00) (0, 0, 0.00000000000000000000e+00) (0, 0, 0.00000000000000000000e+00) (0, 0, 0.00000000000000000000e+00) (0, 0, 0.00000000000000000000e+00) (0, 0, 0.00000000000000000000e+00) (0, 0, 0.00000000000000000000e+00) (0, 0, 0.00000000000000000000e+00) (0, 0, 0.00000000000000000000e+00) (0, 0, 0.00000000000000000000e+00) (0, 0, 0.00000000000000000000e+00) (0, 0, 0.00000000000000000000e+00) (0, 0, 0.00000000000000000000e+00) (0, 0, 0.00000000000000000000e+00) (0, 0, 0.00000000000000000000e+00) (0, 0, 0.00000000000000000000e+00) (0, 0, 0.00000000000000000000e+00) (0, 0, 0.00000000000000000000e+00) (0, 0, 0.00000000000000000000e+00) (0, 0, 0.00000000000000000000e+00) (0, 0, 0.00000000000000000000e+00) (0, 0, 0.00000000000000000000e+00) (0, 0, 0.00000000000000000000e+00) (0, 0, 0.00000000000000000000e+00) (0, 0, 0.00000000000000000000e+00) (0, 0, 0.00000000000000000000e+00) (0, 0, 0.00000000000000000000e+00) (0, 0, 0.00000000000000000000e+00) (0, 0, 0.00000000000000000000e+00) (0, 0, 0.00000000000000000000e+00) (0, 0, 0.00000000000000000000e+00) (0, 0, 0.00000000000000000000e+00) (0, 0, 0.00000000000000000000e+00) (0, 0, 0.00000000000000000000e+00) (0, 0, 0.00000000000000000000e+00) (0, 0, 0.00000000000000000000e+00) (0, 0, 0.00000000000000000000e+00) (0, 0, 0.00000000000000000000e+00) (0, 0, 0.00000000000000000000e+00) (0, 0, 0.00000000000000000000e+00) (0, 0, 0.00000000000000000000e+00) (0, 0, 0.00000000000000000000e+00) (0, 0, 0.00000000000000000000e+00) (0, 0, 0.00000000000000000000e+00) (0, 0, 0.00000000000000000000e+00) (0, 0, 0.00000000000000000000e+00) (0, 0, 0.00000000000000000000e+00) (0, 0, 0.00000000000000000000e+00) (0, 0, 0.00000000000000000000e+00) (0, 0, 0.00000000000000000000e+00) (0, 0, 0.00000000000000000000e+00) (0, 0, 0.00000000000000000000e+00) (0, 0, 0.00000000000000000000e+00) (0, 0, 0.00000000000000000000e+00) (341, 4, 5.00000000000000000000e-01) (341, 4, 5.00000000000000000000e-01) (341, 4, 5.00000000000000000000e-01) (341, 4, 5.00000000000000000000e-01) (341, 4, 5.00000000000000000000e-01) (0, 0, 0.00000000000000000000e+00) (6, 4, 5.00000000000000000000e-01) (6, 4, 5.00000000000000000000e-01) (6, 4, 5.00000000000000000000e-01) (6, 4, 5.00000000000000000000e-01) (0, 0, 0.00000000000000000000e+00) 
connections (connected_to_neuron, weight)=(0, 6.25936462402343750000e+02) (1, 1.06179382324218750000e+03) (2, 2.66802642822265625000e+02) (3, 6.74835205078125000000e+02) (4, 2.78283020019531250000e+02) (5, 4.58025390625000000000e+02) (6, -4.01471740722656250000e+02) (7, 4.08698791503906250000e+02) (8, -3.16849090576171875000e+02) (9, -6.02031555175781250000e+02) (10, -1.86469009399414062500e+02) (11, -3.86719787597656250000e+02) (12, 9.30185623168945312500e+01) (13, -6.68620849609375000000e+02) (14, 8.24697448730468750000e+02) (15, 7.84541244506835937500e+01) (16, 9.55748657226562500000e+02) (17, 3.10906799316406250000e+02) (18, -9.44494689941406250000e+02) (19, -1.07760632324218750000e+03) (20, -2.36042098999023437500e+02) (21, 5.48770263671875000000e+02) (22, 6.07663146972656250000e+02) (23, 9.56645141601562500000e+02) (24, 1.01441909790039062500e+02) (25, 4.51060333251953125000e+02) (26, 1.93584350585937500000e+02) (27, -2.39521759033203125000e+02) (28, 2.34036636352539062500e+02) (29, -1.06572778320312500000e+03) (30, -6.87139770507812500000e+02) (31, -1.96257339477539062500e+02) (32, -8.56546478271484375000e+01) (33, -6.29271545410156250000e+02) (34, 6.21365234375000000000e+02) (35, 3.98251800537109375000e+02) (36, 6.24013488769531250000e+02) (37, 1.26185656738281250000e+03) (38, -6.00497192382812500000e+02) (39, -7.31152404785156250000e+02) (40, 1.19253578186035156250e+02) (41, 1.00785260009765625000e+03) (42, 1.74734277343750000000e+03) (43, 6.18103149414062500000e+02) (44, -1.88670013427734375000e+02) (45, 2.49167785644531250000e+02) (46, 6.40869201660156250000e+02) (47, -4.51296691894531250000e+02) (48, 4.16269653320312500000e+02) (49, -6.19644409179687500000e+02) (50, -1.22696862792968750000e+03) (51, 3.78210540771484375000e+02) (52, -5.01605651855468750000e+02) (53, -2.19262657165527343750e+01) (54, 4.27601867675781250000e+02) (55, 2.57652557373046875000e+02) (56, 6.33852111816406250000e+02) (57, 7.75911499023437500000e+02) (58, -1.21276940917968750000e+03) (59, 1.03792716979980468750e+02) (60, 4.24369049072265625000e+02) (61, 5.81225402832031250000e+02) (62, 1.34320068359375000000e+03) (63, 2.92709899902343750000e+02) (64, -4.29069480895996093750e+01) (65, 9.95899414062500000000e+02) (66, 8.26633728027343750000e+02) (67, -1.49290679931640625000e+02) (68, 5.90546081542968750000e+02) (69, 2.34721679687500000000e+02) (70, -1.72601028442382812500e+02) (71, 1.21827612304687500000e+03) (72, 9.41566772460937500000e+01) (73, 2.09707031250000000000e+02) (74, -8.15606811523437500000e+02) (75, 3.75266693115234375000e+02) (76, 5.93004638671875000000e+02) (77, -3.65044219970703125000e+02) (78, -9.11821517944335937500e+01) (79, -4.18415985107421875000e+02) (80, 1.26446362304687500000e+03) (81, 9.45983154296875000000e+02) (82, 7.64861267089843750000e+02) (83, -1.65284759521484375000e+02) (84, 3.10540039062500000000e+02) (85, 1.63613647460937500000e+03) (86, 3.73583251953125000000e+02) (87, -1.03641418457031250000e+03) (88, -8.41378540039062500000e+02) (89, 4.92874359130859375000e+02) (90, 4.65526641845703125000e+02) (91, 5.54754699707031250000e+02) (92, 5.23424316406250000000e+02) (93, 2.63008483886718750000e+02) (94, 4.19443550109863281250e+01) (95, 2.55920928955078125000e+02) (96, 5.68959106445312500000e+02) (97, -1.21841284179687500000e+03) (98, -2.89758209228515625000e+02) (99, -7.70418395996093750000e+01) (100, 1.50496276855468750000e+03) (101, 1.01907855224609375000e+03) (102, 7.77354553222656250000e+02) (103, 2.96453002929687500000e+02) (104, -3.03412475585937500000e+02) (105, 1.05947863769531250000e+03) (106, 9.26686462402343750000e+02) (107, -1.64231530761718750000e+03) (108, -8.95998657226562500000e+02) (109, 5.50971618652343750000e+02) (110, 7.22820190429687500000e+02) (111, -4.05867309570312500000e+01) (112, 8.22605834960937500000e+02) (113, -1.82267105102539062500e+02) (114, -4.46252655029296875000e+02) (115, -5.60706672668457031250e+01) (116, 6.54332275390625000000e+02) (117, 7.84238220214843750000e+02) (118, -1.93604049682617187500e+02) (119, -5.93419151306152343750e+01) (120, 1.81892578125000000000e+03) (121, 7.68998413085937500000e+02) (122, 6.54786743164062500000e+02) (123, -9.82151870727539062500e+01) (124, -1.47319107055664062500e+02) (125, 1.13893432617187500000e+03) (126, 9.32680664062500000000e+02) (127, -2.15980883789062500000e+03) (128, -2.14678878784179687500e+02) (129, 7.10512939453125000000e+02) (130, 5.07039964199066162109e-01) (131, -3.73803741455078125000e+02) (132, 1.74873937988281250000e+03) (133, 1.27445854187011718750e+02) (134, -7.78385253906250000000e+02) (135, -4.84062591552734375000e+02) (136, -4.91181732177734375000e+02) (137, 6.50779846191406250000e+02) (138, 1.00691253662109375000e+03) (139, -1.53293972015380859375e+01) (140, 2.55044482421875000000e+03) (141, 6.54381530761718750000e+02) (142, 2.48052463531494140625e+01) (143, 2.49878875732421875000e+02) (144, -9.23542663574218750000e+02) (145, 2.19893408203125000000e+03) (146, 9.83002441406250000000e+02) (147, -3.44965234375000000000e+03) (148, -3.06527465820312500000e+02) (149, 6.71141784667968750000e+02) (150, 2.41841476440429687500e+02) (151, -3.76801727294921875000e+02) (152, 1.33368115234375000000e+03) (153, 8.91640396118164062500e+01) (154, -1.39990441894531250000e+03) (155, -4.38624267578125000000e+02) (156, -8.82673645019531250000e+02) (157, 1.01915051269531250000e+03) (158, 5.27826904296875000000e+02) (159, 3.20887145996093750000e+02) (160, 2.22748315429687500000e+03) (161, 1.03335290527343750000e+03) (162, -2.30887283325195312500e+02) (163, -1.32414343261718750000e+03) (164, -1.53569982910156250000e+03) (165, 1.28832702636718750000e+03) (166, 1.29311706542968750000e+03) (167, -5.68540478515625000000e+03) (168, -1.24946606445312500000e+03) (169, 6.08946777343750000000e+02) (170, 4.84638763427734375000e+02) (171, -2.99515808105468750000e+02) (172, 1.85809973144531250000e+03) (173, 2.10553421020507812500e+02) (174, -1.72141821289062500000e+03) (175, -1.40784240722656250000e+03) (176, -1.71632495117187500000e+03) (177, 8.68193054199218750000e+02) (178, 2.39573226928710937500e+02) (179, -1.05421401977539062500e+02) (180, 1.88462963867187500000e+03) (181, 1.09903247070312500000e+03) (182, 2.13927017211914062500e+02) (183, -8.93377624511718750000e+02) (184, -8.46117553710937500000e+02) (185, 1.46477001953125000000e+03) (186, 8.50236816406250000000e+02) (187, -2.99471435546875000000e+03) (188, -4.57957031250000000000e+02) (189, 1.53356063842773437500e+02) (190, 1.10082946777343750000e+03) (191, 3.60713470458984375000e+02) (192, 1.75618371582031250000e+03) (193, 2.98786437988281250000e+02) (194, -3.30866064453125000000e+03) (195, -1.02293688964843750000e+03) (196, -8.10678527832031250000e+02) (197, -5.30543151855468750000e+02) (198, 4.10127929687500000000e+02) (199, -5.60409301757812500000e+02) (200, 2.14613940429687500000e+03) (201, 1.59431066894531250000e+03) (202, 5.81173583984375000000e+02) (203, -1.29993945312500000000e+03) (204, -1.85696716308593750000e+01) (205, 1.26781896972656250000e+03) (206, 1.18185803222656250000e+03) (207, -1.70836108398437500000e+03) (208, -6.33293533325195312500e+01) (209, 3.24911560058593750000e+02) (210, 1.05439135742187500000e+03) (211, 1.22034582519531250000e+03) (212, 1.82010107421875000000e+03) (213, 9.03259735107421875000e+01) (214, -4.32475439453125000000e+03) (215, -9.16233215332031250000e+02) (216, 7.10622985839843750000e+02) (217, -1.83269653320312500000e+03) (218, 2.65111450195312500000e+02) (219, -3.79604858398437500000e+02) (220, 2.17230859375000000000e+03) (221, 9.85294067382812500000e+02) (222, 5.39097167968750000000e+02) (223, -1.32021826171875000000e+03) (224, 6.07990600585937500000e+02) (225, -5.30643615722656250000e+02) (226, 7.47638916015625000000e+02) (227, -1.17543395996093750000e+03) (228, -3.12650051116943359375e+01) (229, 4.31423797607421875000e+02) (230, 1.76458605957031250000e+03) (231, 1.83655041503906250000e+03) (232, 2.39502905273437500000e+03) (233, -5.91251953125000000000e+02) (234, -4.20431689453125000000e+03) (235, -7.09900878906250000000e+02) (236, -1.93077987670898437500e+02) (237, -1.16978076171875000000e+03) (238, 2.50217147827148437500e+02) (239, 8.59656143188476562500e+01) (240, 1.27899731445312500000e+03) (241, 1.14614868164062500000e+03) (242, 4.20057586669921875000e+02) (243, -7.61142211914062500000e+02) (244, 1.49656173706054687500e+02) (245, -7.37376281738281250000e+02) (246, 1.03233532714843750000e+03) (247, -4.03891357421875000000e+02) (248, 1.32790573120117187500e+02) (249, -5.65873962402343750000e+02) (250, 1.13478247070312500000e+03) (251, 1.01360919189453125000e+03) (252, 1.78536987304687500000e+03) (253, -3.73414978027343750000e+02) (254, -2.60029541015625000000e+03) (255, 2.16819946289062500000e+02) (256, -1.06917617797851562500e+02) (257, -1.51407348632812500000e+02) (258, 1.42758529663085937500e+02) (259, -1.76870071411132812500e+02) (260, 1.36270190429687500000e+03) (261, 1.43344567871093750000e+03) (262, 5.06177551269531250000e+02) (263, -4.71756835937500000000e+02) (264, 9.40698486328125000000e+02) (265, -1.02741630554199218750e+02) (266, 5.52130554199218750000e+02) (267, -2.55497146606445312500e+02) (268, 1.89917404174804687500e+02) (269, -1.00086364746093750000e+03) (270, 1.31755834960937500000e+03) (271, 1.15942919921875000000e+03) (272, 1.29906188964843750000e+03) (273, -3.92256805419921875000e+02) (274, -1.77969763183593750000e+03) (275, -6.01729614257812500000e+02) (276, -4.33221069335937500000e+02) (277, -4.10478729248046875000e+02) (278, 1.33879241943359375000e+02) (279, 1.98122589111328125000e+02) (280, 6.29143493652343750000e+02) (281, 1.22913891601562500000e+03) (282, 8.30818725585937500000e+02) (283, -4.35657226562500000000e+02) (284, -1.92358226776123046875e+01) (285, 3.34769439697265625000e+02) (286, 3.80870475769042968750e+01) (287, -2.21523437500000000000e+01) (288, 1.08502197265625000000e+02) (289, 5.31058235168457031250e+01) (290, 1.21843237304687500000e+03) (291, 1.37963879394531250000e+03) (292, 2.41591400146484375000e+02) (293, 5.33324401855468750000e+02) (294, -7.49866760253906250000e+02) (295, -2.32969085693359375000e+02) (296, -5.00922393798828125000e+02) (297, 8.04270629882812500000e+01) (298, -1.15225318908691406250e+02) (299, -5.53369262695312500000e+02) (300, 5.84331054687500000000e+02) (301, 1.18107189941406250000e+03) (302, 4.36620605468750000000e+02) (303, -7.41660583496093750000e+02) (304, 6.16201354980468750000e+02) (305, -1.55607315063476562500e+02) (306, -1.83754592895507812500e+02) (307, 2.39511428833007812500e+02) (308, -6.61699981689453125000e+01) (309, 7.12452026367187500000e+02) (310, 6.85106445312500000000e+02) (311, 1.34273498535156250000e+03) (312, 1.47522491455078125000e+02) (313, -2.71463500976562500000e+02) (314, -1.29531347656250000000e+03) (315, -2.31241500854492187500e+02) (316, -2.90514434814453125000e+02) (317, 4.17323303222656250000e+02) (318, 5.49921302795410156250e+01) (319, 7.57462036132812500000e+02) (320, 4.84304504394531250000e+02) (321, 1.42816101074218750000e+03) (322, -2.44354232788085937500e+02) (323, -4.54625793457031250000e+02) (324, -9.26004028320312500000e+01) (325, 7.09016561508178710938e+00) (326, 5.48128417968750000000e+02) (327, 5.05354064941406250000e+02) (328, 6.50692749023437500000e+02) (329, 2.47125869750976562500e+02) (330, 1.33134567260742187500e+02) (331, 1.03581042480468750000e+03) (332, 4.19472778320312500000e+02) (333, -1.32772888183593750000e+02) (334, -6.96277709960937500000e+02) (335, -9.76332855224609375000e+01) (336, -3.07153137207031250000e+02) (337, 8.75041076660156250000e+02) (338, -3.03954376220703125000e+02) (339, 3.35653564453125000000e+02) (340, -5.75025390625000000000e+03) (0, 3.76563079833984375000e+02) (1, 1.29715461730957031250e+01) (2, 2.95926330566406250000e+02) (3, 5.68182617187500000000e+02) (4, -6.28147216796875000000e+02) (5, -5.05654258728027343750e+01) (6, 8.36649475097656250000e+02) (7, 9.32183990478515625000e+01) (8, 2.07782104492187500000e+02) (9, -3.94864349365234375000e+02) (10, -4.81525787353515625000e+02) (11, 5.52527275085449218750e+01) (12, -2.15151920318603515625e+01) (13, -2.82630401611328125000e+02) (14, 2.58699737548828125000e+02) (15, 1.28611221313476562500e+02) (16, 2.68304824829101562500e+01) (17, -3.33339385986328125000e+02) (18, -3.13410644531250000000e+02) (19, 6.12981262207031250000e+01) (20, 2.23164291381835937500e+02) (21, 3.34490722656250000000e+02) (22, -1.09152595520019531250e+02) (23, 3.82177947998046875000e+02) (24, -7.69990539550781250000e+02) (25, 1.58915084838867187500e+02) (26, 8.32603271484375000000e+02) (27, 2.40082366943359375000e+02) (28, 8.45793991088867187500e+01) (29, -4.25445159912109375000e+02) (30, -2.03944488525390625000e+02) (31, -2.93576843261718750000e+02) (32, 6.46471984863281250000e+02) (33, -9.61681604385375976562e-01) (34, 3.23447570800781250000e+02) (35, 3.29689880371093750000e+02) (36, 3.16369384765625000000e+02) (37, -4.49430572509765625000e+02) (38, -3.18916290283203125000e+02) (39, 1.15616149902343750000e+02) (40, 4.42484191894531250000e+02) (41, -4.33696708679199218750e+01) (42, -2.43416671752929687500e+02) (43, 2.45866729736328125000e+02) (44, -1.12819030761718750000e+03) (45, 8.31639343261718750000e+02) (46, 4.53588531494140625000e+02) (47, 3.66764831542968750000e+02) (48, -2.36362243652343750000e+02) (49, -4.33046630859375000000e+02) (50, -1.58363082885742187500e+02) (51, 1.05466804504394531250e+02) (52, -3.15580017089843750000e+02) (53, -1.62100875854492187500e+02) (54, 7.31390747070312500000e+02) (55, -2.02524475097656250000e+02) (56, 2.94009613037109375000e+02) (57, -8.31937438964843750000e+02) (58, -4.65513153076171875000e+01) (59, 5.90082458496093750000e+02) (60, 4.87520843505859375000e+02) (61, -3.49919708251953125000e+02) (62, -3.10727508544921875000e+02) (63, 4.34145698547363281250e+01) (64, -4.77424957275390625000e+02) (65, 3.25838928222656250000e+02) (66, -9.72926406860351562500e+01) (67, 4.50353027343750000000e+02) (68, -7.51988296508789062500e+01) (69, -2.26921367645263671875e+01) (70, 1.48972730636596679688e+01) (71, -2.23740432739257812500e+02) (72, 9.88695240020751953125e+00) (73, 3.79464477539062500000e+02) (74, 3.02299438476562500000e+02) (75, 4.60909545898437500000e+02) (76, 4.87427368164062500000e+02) (77, -6.06494262695312500000e+02) (78, 3.74048492431640625000e+02) (79, 1.37016555786132812500e+02) (80, 4.42934326171875000000e+02) (81, 2.20493698120117187500e+02) (82, -4.25298065185546875000e+02) (83, 6.23340034484863281250e+00) (84, -3.73265625000000000000e+02) (85, 2.29796768188476562500e+02) (86, -1.09309249877929687500e+02) (87, 8.63223022460937500000e+02) (88, -4.07201782226562500000e+02) (89, 4.01705902099609375000e+02) (90, -1.49330734252929687500e+02) (91, 4.41235290527343750000e+02) (92, 6.13386573791503906250e+01) (93, 4.44255981445312500000e+02) (94, 3.07415039062500000000e+02) (95, 5.50369262695312500000e+01) (96, 4.10771667480468750000e+02) (97, 4.71730834960937500000e+02) (98, 4.01139007568359375000e+02) (99, 6.86998535156250000000e+02) (100, 3.00050292968750000000e+02) (101, 9.78547363281250000000e+01) (102, -8.79473327636718750000e+02) (103, -2.20703430175781250000e+02) (104, 6.88907043457031250000e+02) (105, -6.21603660583496093750e+01) (106, -3.44219055175781250000e+02) (107, 7.27235046386718750000e+02) (108, 1.79779907226562500000e+02) (109, 2.62744995117187500000e+02) (110, -1.19277832031250000000e+02) (111, 4.99564208984375000000e+02) (112, 1.03664514160156250000e+03) (113, 1.01269714355468750000e+03) (114, -6.10457031250000000000e+02) (115, 1.50006713867187500000e+02) (116, 1.89563964843750000000e+02) (117, 1.41066662597656250000e+03) (118, 2.26313339233398437500e+02) (119, 4.17045532226562500000e+02) (120, 8.55654052734375000000e+02) (121, 2.72632110595703125000e+02) (122, -1.30898767089843750000e+03) (123, -5.57292602539062500000e+02) (124, 1.38546655273437500000e+03) (125, 2.55388488769531250000e+01) (126, 5.97135200500488281250e+01) (127, 1.68778778076171875000e+02) (128, -1.05701683044433593750e+02) (129, 6.95900512695312500000e+02) (130, 8.31712463378906250000e+02) (131, 1.08362449645996093750e+02) (132, 9.09743591308593750000e+02) (133, 7.99946655273437500000e+02) (134, -1.44136596679687500000e+03) (135, -8.65460815429687500000e+02) (136, 3.30241394042968750000e+02) (137, 1.41686279296875000000e+03) (138, 7.26293151855468750000e+02) (139, 1.05350976562500000000e+03) (140, 4.90446166992187500000e+01) (141, 3.45342063903808593750e+01) (142, -1.83781237792968750000e+03) (143, -1.33876452636718750000e+03) (144, 1.34212280273437500000e+03) (145, -4.25203887939453125000e+02) (146, -7.00172271728515625000e+01) (147, -8.45004394531250000000e+02) (148, -3.88244361877441406250e+01) (149, 7.03985473632812500000e+02) (150, 1.15050830078125000000e+03) (151, 1.38921569824218750000e+02) (152, 8.74541381835937500000e+02) (153, 6.39127258300781250000e+02) (154, -1.38883496093750000000e+03) (155, -9.64655578613281250000e+02) (156, 3.38482208251953125000e+02) (157, 1.61186413574218750000e+03) (158, 7.21521423339843750000e+02) (159, 9.04182678222656250000e+02) (160, -7.60610885620117187500e+01) (161, 2.05026092529296875000e+02) (162, -1.84139147949218750000e+03) (163, -1.75055773925781250000e+03) (164, 8.69783325195312500000e+02) (165, -4.44311096191406250000e+02) (166, -8.04233398437500000000e+01) (167, -2.35519726562500000000e+03) (168, -3.22137975692749023438e+00) (169, 7.87793273925781250000e+02) (170, 1.01934521484375000000e+03) (171, -5.64650817871093750000e+02) (172, 7.61828735351562500000e+02) (173, 3.49725280761718750000e+02) (174, -1.67783581542968750000e+03) (175, -9.69697875976562500000e+02) (176, 3.33185607910156250000e+02) (177, 8.38174865722656250000e+02) (178, 8.13828674316406250000e+02) (179, 1.08666271972656250000e+03) (180, -5.89217681884765625000e+01) (181, -1.56892016530036926270e-01) (182, -9.84570739746093750000e+02) (183, -1.43779980468750000000e+03) (184, 7.02071716308593750000e+02) (185, -2.47449035644531250000e+02) (186, -5.29542419433593750000e+02) (187, -1.13394482421875000000e+03) (188, 1.25432769775390625000e+02) (189, 1.33702355957031250000e+03) (190, 1.32587365722656250000e+03) (191, -2.75850219726562500000e+02) (192, 4.27604614257812500000e+02) (193, 4.25415466308593750000e+02) (194, -1.94038586425781250000e+03) (195, -2.32636474609375000000e+02) (196, 9.19463882446289062500e+01) (197, 8.14305053710937500000e+02) (198, 1.19067065429687500000e+03) (199, 1.27583227539062500000e+03) (200, 2.89003276824951171875e+01) (201, -2.12061401367187500000e+02) (202, -7.60011535644531250000e+02) (203, -6.75433166503906250000e+02) (204, 5.50192077636718750000e+02) (205, -3.72599456787109375000e+02) (206, -3.62909790039062500000e+02) (207, -5.51061645507812500000e+02) (208, 2.57575012207031250000e+02) (209, 8.21429687500000000000e+02) (210, 6.89997253417968750000e+02) (211, -6.36819763183593750000e+01) (212, 2.45553268432617187500e+02) (213, 6.35331039428710937500e+01) (214, -1.19205163574218750000e+03) (215, 8.05307540893554687500e+01) (216, -2.95404148101806640625e+01) (217, -3.44510040283203125000e+01) (218, 1.45109729003906250000e+03) (219, 3.28052795410156250000e+02) (220, -4.68467468261718750000e+02) (221, -2.69187683105468750000e+02) (222, -2.39211532592773437500e+02) (223, -2.91742431640625000000e+02) (224, 6.25455566406250000000e+02) (225, 2.96079193115234375000e+02) (226, -2.13382690429687500000e+02) (227, 4.44498596191406250000e+02) (228, 8.51626831054687500000e+02) (229, 5.44864318847656250000e+02) (230, 5.64085327148437500000e+02) (231, 2.77122516632080078125e+01) (232, 6.95905212402343750000e+02) (233, 1.48287841796875000000e+02) (234, -1.20066162109375000000e+03) (235, 8.16781997680664062500e+01) (236, 6.50262512207031250000e+02) (237, -3.16761077880859375000e+02) (238, 3.89749145507812500000e+02) (239, 2.73665283203125000000e+02) (240, -6.00646667480468750000e+02) (241, 3.30047576904296875000e+02) (242, 1.28421798706054687500e+02) (243, 3.54685089111328125000e+02) (244, -1.25195331573486328125e+01) (245, -1.88482238769531250000e+02) (246, 4.62946258544921875000e+02) (247, 2.72585235595703125000e+02) (248, 5.57458190917968750000e+02) (249, 1.07053894042968750000e+03) (250, 3.07453460693359375000e+02) (251, 2.71995727539062500000e+02) (252, 2.53014049530029296875e+01) (253, 4.31149383544921875000e+02) (254, -3.43550659179687500000e+02) (255, 4.96523742675781250000e+02) (256, 4.12196319580078125000e+02) (257, -4.46373168945312500000e+02) (258, -1.76969390869140625000e+02) (259, -8.87997589111328125000e+01) (260, -2.44591979980468750000e+02) (261, -1.94412109375000000000e+02) (262, 6.63879577636718750000e+02) (263, 4.86855499267578125000e+02) (264, 4.01870880126953125000e+01) (265, -4.08169433593750000000e+02) (266, 2.49197406768798828125e+01) (267, 6.83006469726562500000e+02) (268, 6.23788757324218750000e+02) (269, 7.88461975097656250000e+02) (270, 4.71749694824218750000e+02) (271, 3.33774078369140625000e+02) (272, 2.22851409912109375000e+02) (273, 5.47585876464843750000e+02) (274, -1.98813507080078125000e+02) (275, 7.34118286132812500000e+02) (276, 5.69395812988281250000e+02) (277, -6.21461364746093750000e+02) (278, -1.95636871337890625000e+02) (279, -3.97432434082031250000e+02) (280, 1.79828720092773437500e+02) (281, 1.32374572753906250000e+02) (282, 7.15403198242187500000e+02) (283, 5.89511596679687500000e+02) (284, -5.77221374511718750000e+02) (285, 1.68446153402328491211e-01) (286, -4.89438934326171875000e+02) (287, 1.94454116821289062500e+02) (288, -5.39583068847656250000e+02) (289, 3.16368774414062500000e+02) (290, 1.65531188964843750000e+02) (291, -2.41714645385742187500e+02) (292, -5.34326782226562500000e+02) (293, 7.17484741210937500000e+02) (294, 1.92805450439453125000e+02) (295, 3.64938079833984375000e+02) (296, -2.34996856689453125000e+02) (297, -1.84181259155273437500e+02) (298, 2.77280487060546875000e+02) (299, -4.71617462158203125000e+02) (300, 7.27467575073242187500e+01) (301, 5.49403747558593750000e+02) (302, 5.22679016113281250000e+02) (303, 8.18615905761718750000e+02) (304, -1.09741950988769531250e+02) (305, 1.48393524169921875000e+02) (306, 4.69319732666015625000e+02) (307, -3.08118858337402343750e+01) (308, -4.36977203369140625000e+02) (309, -1.58506790161132812500e+02) (310, -1.25413558959960937500e+02) (311, 4.59957122802734375000e+00) (312, -9.76446411132812500000e+02) (313, 3.78450714111328125000e+02) (314, -2.52537185668945312500e+02) (315, 5.38881225585937500000e+02) (316, 6.99304275512695312500e+01) (317, -3.70435485839843750000e+02) (318, -2.42005447387695312500e+02) (319, 8.99185752868652343750e+00) (320, -5.49859985351562500000e+02) (321, 1.58480789184570312500e+02) (322, 7.85320205688476562500e+01) (323, 4.08952697753906250000e+02) (324, -9.48776916503906250000e+02) (325, 1.85406936645507812500e+02) (326, -3.64014617919921875000e+02) (327, -2.96295135498046875000e+02) (328, -2.25723678588867187500e+02) (329, -3.37408523559570312500e+01) (330, 2.73033477783203125000e+02) (331, 2.61184783935546875000e+02) (332, -3.53997283935546875000e+02) (333, 4.45270395278930664062e+00) (334, -2.73936157226562500000e+02) (335, 1.59156417846679687500e+02) (336, -1.35453414916992187500e+02) (337, 2.41385055541992187500e+02) (338, -1.53172409057617187500e+02) (339, -3.03579467773437500000e+02) (340, -2.90817163085937500000e+03) (0, 3.43147155761718750000e+02) (1, 1.34967086791992187500e+02) (2, -3.63035247802734375000e+02) (3, 2.18021072387695312500e+02) (4, 2.99342498779296875000e+02) (5, 5.08079193115234375000e+02) (6, -5.77333618164062500000e+02) (7, -9.98616943359375000000e+01) (8, 5.66544982910156250000e+02) (9, 3.23353881835937500000e+02) (10, -1.78949874877929687500e+02) (11, 1.14290313720703125000e+02) (12, -1.20852470397949218750e+02) (13, 1.12159020996093750000e+03) (14, -6.86692626953125000000e+02) (15, 2.99856262207031250000e+02) (16, -1.26898971557617187500e+02) (17, -1.22985510253906250000e+03) (18, 1.29836059570312500000e+03) (19, 3.61026878356933593750e+01) (20, 4.73947052001953125000e+02) (21, 4.69561584472656250000e+02) (22, 3.22149810791015625000e+02) (23, -5.75620727539062500000e+02) (24, 4.40565277099609375000e+02) (25, -5.74817871093750000000e+02) (26, -2.61032928466796875000e+02) (27, -2.24008712768554687500e+02) (28, -2.96274963378906250000e+02) (29, 6.20249267578125000000e+02) (30, 2.46278091430664062500e+02) (31, 2.10643722534179687500e+02) (32, 6.65161804199218750000e+02) (33, 9.06851745605468750000e+02) (34, -4.42348937988281250000e+02) (35, -5.89898132324218750000e+02) (36, 3.43882507324218750000e+02) (37, -6.77970397949218750000e+02) (38, -1.63272598266601562500e+02) (39, 5.06131713867187500000e+02) (40, 1.94085483551025390625e+01) (41, 1.74389602661132812500e+02) (42, 2.74473510742187500000e+02) (43, -5.27757324218750000000e+02) (44, 4.72991333007812500000e+02) (45, -4.93181335449218750000e+02) (46, -2.82403228759765625000e+02) (47, -5.29208068847656250000e+02) (48, -3.86725891113281250000e+02) (49, 1.96102005004882812500e+02) (50, 5.62055114746093750000e+02) (51, -5.81016845703125000000e+01) (52, 9.50716613769531250000e+02) (53, 7.32808288574218750000e+02) (54, -2.90033050537109375000e+02) (55, -2.72915210723876953125e+01) (56, 3.86681594848632812500e+01) (57, -1.64904144287109375000e+02) (58, 4.61134246826171875000e+02) (59, -5.45154052734375000000e+02) (60, 3.51215759277343750000e+02) (61, 2.53855255126953125000e+02) (62, 4.54124511718750000000e+02) (63, -1.91113555908203125000e+02) (64, 5.20646362304687500000e+02) (65, -1.00363360595703125000e+03) (66, 2.07955657958984375000e+02) (67, -4.06744308471679687500e+01) (68, -9.01239013671875000000e+02) (69, 2.35609024047851562500e+02) (70, 7.88268127441406250000e+01) (71, -3.82776702880859375000e+02) (72, 9.22357055664062500000e+02) (73, -2.22523856163024902344e+00) (74, -1.31389984130859375000e+02) (75, 5.15535659790039062500e+01) (76, 1.85466903686523437500e+02) (77, 2.19475128173828125000e+02) (78, -7.30490234375000000000e+02) (79, 4.99081207275390625000e+02) (80, -1.87045791625976562500e+02) (81, 1.46579742431640625000e+01) (82, 8.55608093261718750000e+02) (83, 1.81202178955078125000e+02) (84, -3.61376983642578125000e+02) (85, -2.34185821533203125000e+02) (86, 1.54263900756835937500e+02) (87, -1.44725513458251953125e+01) (88, 1.18557418823242187500e+02) (89, -1.66724044799804687500e+02) (90, 1.20729293823242187500e+02) (91, -2.37533706665039062500e+02) (92, 7.71791763305664062500e+01) (93, 1.44062103271484375000e+02) (94, -3.71289459228515625000e+02) (95, 9.64119323730468750000e+02) (96, -2.15471374511718750000e+02) (97, -5.70024230957031250000e+02) (98, 9.06477203369140625000e+01) (99, -4.94526329040527343750e+01) (100, 1.18347801208496093750e+02) (101, 5.79528991699218750000e+02) (102, 4.50102325439453125000e+02) (103, 1.18380851745605468750e+02) (104, 6.33708251953125000000e+02) (105, 3.88453002929687500000e+02) (106, -1.85682235717773437500e+02) (107, -6.11245300292968750000e+02) (108, 5.82486755371093750000e+02) (109, -1.30648788452148437500e+02) (110, 1.11822058105468750000e+03) (111, -4.09130058288574218750e+01) (112, 1.10638195800781250000e+03) (113, 6.09665161132812500000e+02) (114, -2.77954406738281250000e+02) (115, 2.91395843505859375000e+02) (116, -1.66607151031494140625e+01) (117, 3.97586273193359375000e+02) (118, 1.56253692626953125000e+02) (119, -2.73886932373046875000e+02) (120, 5.05462036132812500000e+02) (121, -2.65846893310546875000e+02) (122, -9.01743469238281250000e+02) (123, 8.14207763671875000000e+01) (124, 4.68905090332031250000e+02) (125, 7.98403015136718750000e+02) (126, -1.93660797119140625000e+02) (127, -8.93397216796875000000e+02) (128, 1.33406280517578125000e+02) (129, 3.81142181396484375000e+02) (130, 1.45667211914062500000e+03) (131, -3.64392166137695312500e+01) (132, 1.06106628417968750000e+03) (133, 8.31127319335937500000e+02) (134, 3.43980010986328125000e+02) (135, 1.86308837890625000000e+02) (136, 8.73148498535156250000e+02) (137, 1.36783309936523437500e+02) (138, 4.35361663818359375000e+02) (139, 3.25464904785156250000e+02) (140, 4.11944030761718750000e+02) (141, 3.33819885253906250000e+02) (142, -1.36122985839843750000e+02) (143, -1.87455459594726562500e+02) (144, -4.36404907226562500000e+02) (145, 5.84745300292968750000e+02) (146, 4.33568237304687500000e+02) (147, -2.02249255371093750000e+03) (148, 4.12526824951171875000e+02) (149, 8.50955963134765625000e+01) (150, 8.06601806640625000000e+02) (151, 4.78438293457031250000e+02) (152, 1.02588244628906250000e+03) (153, 2.89885528564453125000e+02) (154, -8.31598266601562500000e+02) (155, 1.22303153991699218750e+02) (156, 3.06938537597656250000e+02) (157, 1.00301284790039062500e+02) (158, 5.31566772460937500000e+02) (159, -1.02140090942382812500e+02) (160, 1.19233680725097656250e+02) (161, -1.03067070007324218750e+02) (162, -1.06894067382812500000e+03) (163, -5.11155395507812500000e+02) (164, -7.03973449707031250000e+02) (165, 9.58205200195312500000e+02) (166, -2.72636779785156250000e+02) (167, -1.83893176269531250000e+03) (168, -1.65828750610351562500e+02) (169, 3.99929351806640625000e+02) (170, 7.69248291015625000000e+02) (171, 7.94244506835937500000e+02) (172, -3.27096588134765625000e+02) (173, 4.72544921875000000000e+02) (174, -5.13368957519531250000e+02) (175, -8.18747131347656250000e+02) (176, -6.39235229492187500000e+02) (177, 7.91397277832031250000e+02) (178, -4.66622863769531250000e+02) (179, -5.52590393066406250000e+02) (180, 5.98354125976562500000e+02) (181, 5.18549865722656250000e+02) (182, -3.16246429443359375000e+02) (183, -1.68863311767578125000e+02) (184, -2.17732025146484375000e+02) (185, 4.27974761962890625000e+02) (186, -6.73088252544403076172e-01) (187, -1.51247070312500000000e+03) (188, 4.51404357910156250000e+02) (189, 3.45292144775390625000e+02) (190, 1.02020965576171875000e+03) (191, 3.73112548828125000000e+02) (192, 1.46218640136718750000e+03) (193, 2.48610519409179687500e+02) (194, -2.50649487304687500000e+03) (195, -5.42746948242187500000e+02) (196, 1.96700073242187500000e+02) (197, 4.48515197753906250000e+02) (198, 7.19437103271484375000e+01) (199, -6.87567077636718750000e+02) (200, 6.28500976562500000000e+02) (201, 1.43184265136718750000e+02) (202, 2.00151062011718750000e+01) (203, -1.50689468383789062500e+02) (204, 2.29794952392578125000e+02) (205, 3.81666595458984375000e+02) (206, 2.02081710815429687500e+02) (207, 2.56526336669921875000e+02) (208, 7.81140991210937500000e+02) (209, 6.06934631347656250000e+02) (210, 1.70759387207031250000e+03) (211, 9.69088500976562500000e+02) (212, 1.47867443847656250000e+03) (213, 1.05454772949218750000e+03) (214, -3.60624023437500000000e+03) (215, -2.27570327758789062500e+02) (216, -2.19015563964843750000e+02) (217, -8.95126647949218750000e+02) (218, 4.05927032470703125000e+02) (219, -4.28139709472656250000e+02) (220, 6.46346618652343750000e+02) (221, 7.36696899414062500000e+02) (222, 2.54589935302734375000e+02) (223, -7.97086853027343750000e+02) (224, -3.96198387145996093750e+01) (225, 5.04621978759765625000e+02) (226, -4.48123016357421875000e+02) (227, -2.23337326049804687500e+02) (228, 3.99921875000000000000e+01) (229, 1.05274206542968750000e+03) (230, 1.19146362304687500000e+03) (231, 1.63078140258789062500e+02) (232, 1.10393383789062500000e+03) (233, 9.04315307617187500000e+02) (234, -1.82367919921875000000e+03) (235, -9.80518341064453125000e+01) (236, -5.58979125976562500000e+02) (237, -1.02443229675292968750e+02) (238, 6.58002929687500000000e+02) (239, -8.90426731109619140625e+00) (240, 8.65200195312500000000e+02) (241, -2.61928863525390625000e+02) (242, -1.87336898803710937500e+02) (243, -6.97382995605468750000e+02) (244, -2.45525588989257812500e+02) (245, 7.54456970214843750000e+02) (246, -6.71276550292968750000e+02) (247, -1.53743225097656250000e+02) (248, 4.05634613037109375000e+02) (249, 7.82810791015625000000e+02) (250, 8.90003112792968750000e+02) (251, 1.99511428833007812500e+02) (252, 4.14203857421875000000e+02) (253, 6.00748535156250000000e+02) (254, -1.23442114257812500000e+03) (255, -7.78942932128906250000e+02) (256, -1.34164718627929687500e+02) (257, -3.35620147705078125000e+02) (258, 6.44291198730468750000e+02) (259, -8.50798461914062500000e+02) (260, 5.45024353027343750000e+02) (261, -4.99956848144531250000e+02) (262, -5.91893188476562500000e+02) (263, -4.26216392517089843750e+01) (264, -2.75394805908203125000e+02) (265, 4.17211242675781250000e+02) (266, -7.13032653808593750000e+02) (267, -5.65647125244140625000e+01) (268, 7.98135192871093750000e+02) (269, 8.65453491210937500000e+02) (270, 3.66386474609375000000e+02) (271, 5.28861999511718750000e+02) (272, 3.02648437500000000000e+02) (273, 8.85894042968750000000e+02) (274, -8.73468139648437500000e+02) (275, -4.63100471496582031250e+01) (276, -5.89807189941406250000e+02) (277, -2.17512008666992187500e+02) (278, 8.89120178222656250000e+02) (279, -5.39944152832031250000e+02) (280, 6.83809570312500000000e+02) (281, 1.70528701782226562500e+02) (282, -3.52181427001953125000e+02) (283, -8.31679809570312500000e+02) (284, 1.08104199218750000000e+03) (285, -8.77515411376953125000e+01) (286, 1.16866638183593750000e+02) (287, -1.70162124633789062500e+02) (288, 8.27515502929687500000e+02) (289, 1.99772918701171875000e+02) (290, 4.48133026123046875000e+02) (291, 3.71256591796875000000e+02) (292, 1.42011413574218750000e+03) (293, -6.61671218872070312500e+01) (294, -1.21964685058593750000e+03) (295, -1.40277209472656250000e+03) (296, -1.76753997802734375000e+02) (297, -4.59370452880859375000e+02) (298, 6.23835937500000000000e+02) (299, 6.39407836914062500000e+02) (300, 2.84733619689941406250e+01) (301, 4.61886901855468750000e+02) (302, -1.24514868164062500000e+03) (303, -5.10087165832519531250e+01) (304, 2.58402130126953125000e+02) (305, 4.84754364013671875000e+02) (306, -3.82459350585937500000e+02) (307, 3.61455902099609375000e+02) (308, 5.09116325378417968750e+01) (309, 6.36513175964355468750e+01) (310, 9.78607177734375000000e+01) (311, 3.47323486328125000000e+02) (312, 1.35230981445312500000e+03) (313, 6.93870239257812500000e+02) (314, -1.26281152343750000000e+03) (315, -3.30432891845703125000e+02) (316, -2.84389495849609375000e+02) (317, 6.48152038574218750000e+02) (318, 1.93336502075195312500e+02) (319, -5.42294738769531250000e+02) (320, 2.48632232666015625000e+02) (321, 3.73019866943359375000e+02) (322, -3.80546264648437500000e+02) (323, -4.69954315185546875000e+02) (324, 6.98127807617187500000e+02) (325, -1.65037399291992187500e+02) (326, 7.38649414062500000000e+02) (327, 9.36209869384765625000e+01) (328, 1.60637161254882812500e+02) (329, 1.30368804931640625000e+02) (330, 5.18517211914062500000e+02) (331, 4.92375732421875000000e+02) (332, 5.44639221191406250000e+02) (333, 5.50033447265625000000e+02) (334, -7.21769104003906250000e+02) (335, -8.31794860839843750000e+02) (336, -2.73225402832031250000e+02) (337, -6.69472778320312500000e+02) (338, -2.99803375244140625000e+02) (339, 3.44058647155761718750e+01) (340, -4.20946386718750000000e+03) (0, -2.45473876953125000000e+02) (1, 1.25882446289062500000e+02) (2, -1.21070907592773437500e+02) (3, 2.48336013793945312500e+02) (4, -1.04930564880371093750e+02) (5, 6.18160095214843750000e+01) (6, -2.63485229492187500000e+02) (7, -1.12141777038574218750e+02) (8, 3.19052639007568359375e+01) (9, -1.07013694763183593750e+02) (10, -2.03864807128906250000e+02) (11, 8.93403472900390625000e+01) (12, 3.44365959167480468750e+01) (13, -1.26998588562011718750e+02) (14, 2.74127105712890625000e+02) (15, -1.22994941711425781250e+02) (16, -2.76847259521484375000e+02) (17, -1.48048187255859375000e+02) (18, -7.50696411132812500000e+01) (19, -2.92004577636718750000e+02) (20, -1.95226531982421875000e+02) (21, -1.87078506469726562500e+02) (22, 1.43639240264892578125e+01) (23, 2.42136169433593750000e+02) (24, -1.52118057250976562500e+02) (25, -1.97965866088867187500e+02) (26, 1.15622238159179687500e+02) (27, 1.51234893798828125000e+02) (28, 9.19317474365234375000e+01) (29, 1.81291923522949218750e+01) (30, -1.70087081909179687500e+02) (31, 8.25333480834960937500e+01) (32, -1.42838699340820312500e+02) (33, -1.33663330078125000000e+02) (34, 2.36870681762695312500e+02) (35, -1.48726135253906250000e+02) (36, -1.87573806762695312500e+02) (37, -1.62353378295898437500e+02) (38, -2.19294265747070312500e+02) (39, -3.06027008056640625000e+02) (40, -3.68069549560546875000e+02) (41, 7.03453674316406250000e+01) (42, -5.25737953186035156250e+00) (43, 1.84377639770507812500e+02) (44, -4.98910293579101562500e+01) (45, -2.58579589843750000000e+02) (46, -1.50342941284179687500e+02) (47, 1.48527130126953125000e+02) (48, 1.91086914062500000000e+02) (49, -8.92583084106445312500e+01) (50, -3.25041870117187500000e+02) (51, 1.09559535980224609375e+00) (52, -2.80166015625000000000e+02) (53, -1.62484207153320312500e+02) (54, -8.73350677490234375000e+01) (55, -7.11156082153320312500e+01) (56, -1.26927604675292968750e+02) (57, -1.00994482040405273438e+01) (58, -2.41067367553710937500e+02) (59, -2.88402038574218750000e+02) (60, -4.18286285400390625000e+02) (61, 1.67613830566406250000e+02) (62, 7.14487991333007812500e+01) (63, 1.13584251403808593750e+02) (64, -1.08096176147460937500e+02) (65, -1.55548004150390625000e+02) (66, -1.27068376541137695312e+00) (67, 3.31007690429687500000e+02) (68, 3.49175659179687500000e+02) (69, 1.70295700073242187500e+02) (70, -2.02070465087890625000e+02) (71, 2.08010101318359375000e+02) (72, -3.54907287597656250000e+02) (73, -1.37877975463867187500e+02) (74, 1.01409889221191406250e+02) (75, 8.29958038330078125000e+01) (76, -1.90354339599609375000e+02) (77, -3.38036231994628906250e+01) (78, -2.63894409179687500000e+02) (79, -1.47823928833007812500e+02) (80, -7.16062393188476562500e+01) (81, 4.30405311584472656250e+01) (82, 2.69545104980468750000e+02) (83, 1.83742141723632812500e+02) (84, 3.36870086669921875000e+02) (85, -1.08776931762695312500e+02) (86, 2.51227905273437500000e+02) (87, 5.01649688720703125000e+02) (88, 2.42413696289062500000e+02) (89, 2.22303466796875000000e+02) (90, 2.93570190429687500000e+02) (91, 1.45143112182617187500e+02) (92, -3.24687561035156250000e+02) (93, 1.50185756683349609375e+01) (94, 1.59345001220703125000e+02) (95, 4.00134185791015625000e+02) (96, 1.33168579101562500000e+02) (97, 3.62952919006347656250e+01) (98, -6.10327415466308593750e+01) (99, 2.75480175018310546875e+01) (100, -2.36019119262695312500e+02) (101, -2.18660049438476562500e+02) (102, 2.79943939208984375000e+02) (103, 1.13395446777343750000e+02) (104, 4.20401397705078125000e+02) (105, -9.22283325195312500000e+01) (106, -7.00134963989257812500e+01) (107, 3.19606903076171875000e+02) (108, 4.74942260742187500000e+02) (109, 3.38571136474609375000e+02) (110, 3.02501159667968750000e+02) (111, 1.47596664428710937500e+02) (112, -7.47803497314453125000e+01) (113, 1.37317687988281250000e+02) (114, 1.41237884521484375000e+02) (115, 7.64517517089843750000e+01) (116, 1.20332107543945312500e+02) (117, 3.79089569091796875000e+02) (118, 1.06137771606445312500e+02) (119, 3.63899291992187500000e+02) (120, -2.38347518920898437500e+02) (121, -2.48043258666992187500e+02) (122, 7.49634094238281250000e+01) (123, -1.12095726013183593750e+02) (124, 5.72182617187500000000e+02) (125, -3.18136840820312500000e+02) (126, -3.05868347167968750000e+02) (127, 4.08411743164062500000e+02) (128, 2.26750778198242187500e+02) (129, 6.07737121582031250000e+02) (130, 3.35951782226562500000e+02) (131, 2.95829162597656250000e+01) (132, 4.32806549072265625000e+01) (133, 4.34361907958984375000e+02) (134, -2.00228591918945312500e+02) (135, 1.62948028564453125000e+02) (136, 5.76935272216796875000e+01) (137, 3.80212097167968750000e+02) (138, 3.27548095703125000000e+02) (139, 5.44738891601562500000e+02) (140, -1.34380004882812500000e+02) (141, -7.12672119140625000000e+01) (142, -3.68052520751953125000e+02) (143, -5.82759704589843750000e+02) (144, 2.60411621093750000000e+02) (145, -1.66620452880859375000e+02) (146, -3.44787384033203125000e+02) (147, -5.55953693389892578125e+00) (148, -4.58252944946289062500e+01) (149, 7.57063842773437500000e+02) (150, 3.84196624755859375000e+02) (151, -1.72974945068359375000e+02) (152, 1.40349533081054687500e+02) (153, 5.25545166015625000000e+02) (154, -4.02028717041015625000e+02) (155, -6.99711380004882812500e+01) (156, -1.58904052734375000000e+02) (157, 5.53679870605468750000e+02) (158, 4.68205352783203125000e+02) (159, 8.69603881835937500000e+02) (160, -1.78229690551757812500e+02) (161, -1.69631713867187500000e+02) (162, -4.20006256103515625000e+02) (163, -7.87437805175781250000e+02) (164, 2.20607162475585937500e+02) (165, -7.76204101562500000000e+02) (166, -2.39668655395507812500e+01) (167, -3.10918395996093750000e+02) (168, 6.87722549438476562500e+01) (169, 7.82574279785156250000e+02) (170, 2.98333160400390625000e+02) (171, -2.66142333984375000000e+02) (172, 5.16655158996582031250e+00) (173, 4.36958526611328125000e+02) (174, -7.41292419433593750000e+02) (175, -3.00085327148437500000e+02) (176, -3.96895935058593750000e+02) (177, 5.77948913574218750000e+02) (178, 2.46379364013671875000e+02) (179, 6.73507446289062500000e+02) (180, -1.44306610107421875000e+02) (181, 3.41156921386718750000e+01) (182, -1.25552680969238281250e+02) (183, -9.82387924194335937500e+01) (184, 3.91232421875000000000e+02) (185, -2.90712310791015625000e+02) (186, -1.79523117065429687500e+02) (187, -3.58159515380859375000e+02) (188, -1.75922027587890625000e+02) (189, 5.19049133300781250000e+02) (190, 3.43975769042968750000e+02) (191, -2.34350021362304687500e+02) (192, -8.04601974487304687500e+01) (193, 6.19898010253906250000e+02) (194, -2.79886901855468750000e+02) (195, -2.09251937866210937500e+02) (196, -1.96026718139648437500e+02) (197, 5.48568725585937500000e+02) (198, 2.31434570312500000000e+02) (199, 7.08264404296875000000e+02) (200, 3.40943527221679687500e+01) (201, 5.63428382873535156250e+01) (202, 2.79683265686035156250e+01) (203, 8.74603652954101562500e+01) (204, 4.69201171875000000000e+02) (205, 1.50518870353698730469e+00) (206, -9.15198135375976562500e+01) (207, 4.78577613830566406250e+01) (208, -3.14385437011718750000e+02) (209, 6.17510009765625000000e+02) (210, 3.37273345947265625000e+02) (211, -2.75028045654296875000e+02) (212, -3.65499973297119140625e+00) (213, 2.50983505249023437500e+02) (214, 2.96512512207031250000e+02) (215, 7.79807128906250000000e+01) (216, -7.08559570312500000000e+01) (217, 1.00152661132812500000e+03) (218, -1.09555770874023437500e+02) (219, 6.02994750976562500000e+02) (220, 2.52187385559082031250e+01) (221, -1.98276901245117187500e+02) (222, 1.25195274353027343750e+01) (223, 2.32641860961914062500e+02) (224, 1.95590087890625000000e+02) (225, -2.43105049133300781250e+01) (226, -1.12859275817871093750e+02) (227, -2.92492126464843750000e+02) (228, -2.30453090667724609375e+01) (229, 4.07468994140625000000e+02) (230, 6.67991333007812500000e+01) (231, -2.01012039184570312500e+02) (232, -1.67394199371337890625e+01) (233, 1.56638229370117187500e+02) (234, 3.15161468505859375000e+02) (235, 1.83381698608398437500e+02) (236, -2.13899047851562500000e+02) (237, 2.49785934448242187500e+02) (238, -1.47491409301757812500e+02) (239, 4.22983123779296875000e+02) (240, -5.16980514526367187500e+01) (241, -1.24456153869628906250e+02) (242, 1.45247238159179687500e+02) (243, 8.04036636352539062500e+01) (244, 1.00276153564453125000e+02) (245, 6.76962051391601562500e+01) (246, -1.17034797668457031250e+02) (247, 2.98244689941406250000e+02) (248, -1.92649719238281250000e+02) (249, 9.35525970458984375000e+01) (250, -2.32781860351562500000e+02) (251, -1.43753738403320312500e+02) (252, -3.43507919311523437500e+01) (253, -5.46057472229003906250e+01) (254, 2.14390548706054687500e+02) (255, -2.46207160949707031250e+01) (256, -2.21752517700195312500e+02) (257, -2.79300994873046875000e+01) (258, 4.72425117492675781250e+01) (259, 2.16689620971679687500e+02) (260, 5.17658615112304687500e+01) (261, 2.01759872436523437500e+02) (262, -4.94665451049804687500e+01) (263, 3.01329803466796875000e+02) (264, -1.40903335571289062500e+02) (265, 1.87274475097656250000e+02) (266, 8.76689910888671875000e+01) (267, 1.11706115722656250000e+02) (268, 2.31356754302978515625e+01) (269, -1.36010269165039062500e+02) (270, -1.97220626831054687500e+02) (271, -4.60447044372558593750e+01) (272, -4.26583709716796875000e+01) (273, -8.08277664184570312500e+01) (274, 3.46693572998046875000e+02) (275, 2.74335845947265625000e+02) (276, 5.45362625122070312500e+01) (277, 2.54290962219238281250e+01) (278, -5.08216476440429687500e+01) (279, 2.14507400512695312500e+02) (280, -1.86882217407226562500e+02) (281, 2.08156524658203125000e+02) (282, 2.15059326171875000000e+02) (283, -4.59277191162109375000e+01) (284, -1.53484512329101562500e+02) (285, 1.09652656555175781250e+02) (286, 2.00003646850585937500e+02) (287, 1.69138473510742187500e+02) (288, 2.97451690673828125000e+02) (289, -1.87122787475585937500e+02) (290, -4.43403892517089843750e+01) (291, 7.41667175292968750000e+01) (292, 1.39173843383789062500e+02) (293, -2.35717056274414062500e+02) (294, 1.45300949096679687500e+02) (295, 1.24952598571777343750e+02) (296, 2.31964859008789062500e+02) (297, 2.02787303924560546875e+01) (298, 3.04070644378662109375e+01) (299, 1.08532615661621093750e+02) (300, -2.58108978271484375000e+02) (301, -5.91302490234375000000e+01) (302, -1.73372680664062500000e+02) (303, -1.53221801757812500000e+02) (304, -1.08922676086425781250e+02) (305, -8.04402465820312500000e+01) (306, -3.59999023437500000000e+02) (307, 2.18536483764648437500e+02) (308, -7.87155456542968750000e+01) (309, -7.29855804443359375000e+01) (310, -1.56331817626953125000e+02) (311, 1.36598770141601562500e+02) (312, 6.85089111328125000000e+01) (313, -2.49931381225585937500e+02) (314, -6.22489776611328125000e+01) (315, 1.57388839721679687500e+02) (316, 1.68642440795898437500e+02) (317, -1.74510055541992187500e+02) (318, -1.04015586853027343750e+02) (319, -1.72728454589843750000e+02) (320, -1.21820922851562500000e+02) (321, -7.33333206176757812500e+01) (322, -1.60560241699218750000e+02) (323, -1.11365333557128906250e+02) (324, -5.89240264892578125000e+01) (325, -2.60875610351562500000e+02) (326, -5.79542961120605468750e+01) (327, 1.82765380859375000000e+02) (328, -1.06663732528686523438e+01) (329, 1.22221145629882812500e+01) (330, -2.17474975585937500000e+02) (331, 3.80363769531250000000e+01) (332, -1.70792598724365234375e+01) (333, -2.45979568481445312500e+02) (334, -8.03769760131835937500e+01) (335, -3.25270271301269531250e+01) (336, 1.23570304870605468750e+02) (337, -2.65895355224609375000e+02) (338, -1.25990638732910156250e+02) (339, -1.41038879394531250000e+02) (340, -1.13161242675781250000e+03) (0, -2.69517761230468750000e+02) (1, -1.76586944580078125000e+02) (2, -3.93384826660156250000e+02) (3, -4.11793670654296875000e+02) (4, 9.31774826049804687500e+01) (5, -5.64422546386718750000e+02) (6, 1.54173934936523437500e+02) (7, -6.23687194824218750000e+02) (8, -8.86068542480468750000e+02) (9, -1.56861584472656250000e+03) (10, -7.23207824707031250000e+02) (11, -9.79446945190429687500e+01) (12, -6.71506652832031250000e+02) (13, -2.46449096679687500000e+02) (14, 4.87129058837890625000e+01) (15, 1.85960021972656250000e+02) (16, -1.01333959960937500000e+03) (17, 2.79225219726562500000e+02) (18, -2.67306945800781250000e+02) (19, -1.12111499023437500000e+03) (20, -4.10834320068359375000e+02) (21, 1.59181747436523437500e+01) (22, -7.25415344238281250000e+02) (23, -2.55813995361328125000e+02) (24, -1.17183886718750000000e+03) (25, -3.12208435058593750000e+02) (26, -1.71791259765625000000e+02) (27, -2.29889831542968750000e+02) (28, -3.51813354492187500000e+02) (29, -1.27597021484375000000e+03) (30, -6.48631042480468750000e+02) (31, 1.18588714599609375000e+01) (32, 5.93918640136718750000e+02) (33, -4.50424011230468750000e+02) (34, 3.91690917968750000000e+02) (35, -1.83910705566406250000e+02) (36, -2.40620193481445312500e+02) (37, -5.34189643859863281250e+01) (38, -1.91650192260742187500e+02) (39, -2.97473144531250000000e+02) (40, -3.49420623779296875000e+02) (41, -2.24868606567382812500e+02) (42, -1.11366772460937500000e+03) (43, -7.51897460937500000000e+02) (44, -7.47390686035156250000e+02) (45, 5.05995674133300781250e+01) (46, 3.22583465576171875000e+02) (47, -3.92763549804687500000e+02) (48, -1.35044357299804687500e+02) (49, -8.70916442871093750000e+02) (50, -3.11667385101318359375e+01) (51, 1.83857467651367187500e+02) (52, -1.08084729003906250000e+03) (53, -2.95263000488281250000e+02) (54, 1.68495483398437500000e+01) (55, -4.41604797363281250000e+02) (56, -9.34968505859375000000e+02) (57, -6.51670227050781250000e+02) (58, -4.68846069335937500000e+02) (59, -1.86427947998046875000e+02) (60, -2.33116363525390625000e+02) (61, -2.65838531494140625000e+02) (62, -4.66073974609375000000e+02) (63, -6.33528259277343750000e+02) (64, -4.40839782714843750000e+02) (65, -3.00879608154296875000e+02) (66, -5.44503173828125000000e+02) (67, -1.76289871215820312500e+02) (68, -1.03298151493072509766e+00) (69, -4.74040222167968750000e+02) (70, -7.88845214843750000000e+01) (71, 3.03193328857421875000e+02) (72, -5.29515563964843750000e+02) (73, -1.80517913818359375000e+02) (74, -8.56919250488281250000e+02) (75, 1.96122665405273437500e+01) (76, -1.02645715332031250000e+03) (77, 1.00426521301269531250e+02) (78, -1.04698083496093750000e+03) (79, -3.06713165283203125000e+02) (80, -5.94847961425781250000e+02) (81, -6.45715270996093750000e+02) (82, -1.20922106933593750000e+03) (83, -8.64620056152343750000e+02) (84, -4.60417663574218750000e+02) (85, -3.31161346435546875000e+01) (86, -1.09753128051757812500e+02) (87, 1.09883659362792968750e+02) (88, -5.67011184692382812500e+01) (89, -4.68859344482421875000e+02) (90, -3.34237915039062500000e+02) (91, -3.36298675537109375000e+02) (92, -4.47619079589843750000e+02) (93, -1.71008386230468750000e+03) (94, -2.28657348632812500000e+02) (95, -2.06113769531250000000e+02) (96, -1.20697741699218750000e+03) (97, -6.90648132324218750000e+02) (98, -1.56380383300781250000e+03) (99, -5.54061889648437500000e+02) (100, -3.52771087646484375000e+02) (101, -2.60056335449218750000e+02) (102, -1.00702569580078125000e+03) (103, -7.17366699218750000000e+02) (104, -1.25751007080078125000e+02) (105, -3.39499145507812500000e+02) (106, -5.97911926269531250000e+02) (107, -5.11901435852050781250e+01) (108, -5.62222473144531250000e+02) (109, -1.34150805664062500000e+03) (110, -4.05269958496093750000e+02) (111, -5.56577636718750000000e+02) (112, -6.47996459960937500000e+02) (113, -7.33094787597656250000e+02) (114, 2.67901306152343750000e+02) (115, -9.80618774414062500000e+02) (116, -2.06210253906250000000e+03) (117, -1.45334033203125000000e+03) (118, -1.36606481933593750000e+03) (119, -6.54455688476562500000e+02) (120, -4.53306823730468750000e+02) (121, -8.51892761230468750000e+02) (122, -3.82859436035156250000e+02) (123, -7.91662536621093750000e+02) (124, -8.80448547363281250000e+02) (125, -3.48024566650390625000e+02) (126, -1.18670532226562500000e+03) (127, 8.86088623046875000000e+02) (128, -6.04820800781250000000e+02) (129, -7.38558044433593750000e+02) (130, -7.44408935546875000000e+02) (131, -5.19869079589843750000e+02) (132, -4.03991882324218750000e+02) (133, -2.99091003417968750000e+02) (134, -8.91389953613281250000e+02) (135, -1.15267810058593750000e+03) (136, -5.27375976562500000000e+02) (137, -3.54701513671875000000e+03) (138, -7.78854064941406250000e+02) (139, -2.96848510742187500000e+02) (140, -5.45058044433593750000e+02) (141, -2.11632019042968750000e+02) (142, -3.82657775878906250000e+02) (143, -1.29737182617187500000e+03) (144, -4.93665435791015625000e+02) (145, -1.13715713500976562500e+02) (146, -2.63776931762695312500e+01) (147, 9.20370910644531250000e+02) (148, 5.31757019042968750000e+02) (149, -4.00257263183593750000e+02) (150, -5.29507812500000000000e+02) (151, -5.66826965332031250000e+02) (152, -2.01730163574218750000e+02) (153, -2.74535949707031250000e+02) (154, 2.66790161132812500000e+02) (155, -1.51192126464843750000e+03) (156, -1.13814160156250000000e+03) (157, -2.14130224609375000000e+03) (158, -5.51183532714843750000e+02) (159, -1.35416168212890625000e+02) (160, -2.97760162353515625000e+02) (161, 7.93412414550781250000e+02) (162, 7.84721313476562500000e+02) (163, 4.78721801757812500000e+02) (164, -1.73239151000976562500e+02) (165, 2.97601898193359375000e+02) (166, -1.19233200073242187500e+02) (167, 1.23310290527343750000e+03) (168, -4.29967193603515625000e+01) (169, -4.31016052246093750000e+02) (170, -2.72023956298828125000e+02) (171, 6.96345748901367187500e+01) (172, -6.69520854949951171875e+00) (173, 4.38884796142578125000e+02) (174, 2.38176660156250000000e+03) (175, 3.22380004882812500000e+02) (176, 7.30312683105468750000e+02) (177, -1.84758520507812500000e+03) (178, 1.42107284545898437500e+02) (179, -3.21205749511718750000e+02) (180, -7.82315429687500000000e+02) (181, 3.44049041748046875000e+02) (182, 6.10009193420410156250e+01) (183, 2.30577526092529296875e+01) (184, -1.54225402832031250000e+02) (185, -3.94921630859375000000e+02) (186, -1.57249084472656250000e+03) (187, -1.39783435058593750000e+03) (188, 5.19363708496093750000e+02) (189, -6.65754333496093750000e+02) (190, -7.40721252441406250000e+02) (191, -2.61051300048828125000e+02) (192, -3.49063491821289062500e+01) (193, -6.60831970214843750000e+02) (194, 2.78883178710937500000e+03) (195, -5.80137145996093750000e+02) (196, 1.24503646850585937500e+02) (197, -9.66701660156250000000e+02) (198, -1.07585888671875000000e+03) (199, -3.63231292724609375000e+02) (200, -1.36607873535156250000e+03) (201, -7.47285339355468750000e+02) (202, -8.60109375000000000000e+02) (203, 2.92813377380371093750e+01) (204, 3.06763763427734375000e+02) (205, 1.12058860778808593750e+02) (206, -1.07773864746093750000e+03) (207, -1.01746514892578125000e+03) (208, -8.31628875732421875000e+01) (209, -4.08884552001953125000e+02) (210, -1.58243151855468750000e+03) (211, -3.00206146240234375000e+02) (212, -4.63570678710937500000e+02) (213, -1.04078942871093750000e+03) (214, 1.10805761718750000000e+03) (215, -3.23753326416015625000e+02) (216, -2.96687866210937500000e+02) (217, -1.59079345703125000000e+02) (218, -1.10669897460937500000e+03) (219, -1.23660205078125000000e+03) (220, -9.37960937500000000000e+02) (221, -1.01585968017578125000e+03) (222, -2.63420806884765625000e+02) (223, -2.37782394409179687500e+02) (224, -2.56028045654296875000e+02) (225, 3.69168548583984375000e+02) (226, -1.36980529785156250000e+03) (227, -1.15957470703125000000e+03) (228, -1.01480566406250000000e+03) (229, -5.72485656738281250000e+02) (230, -1.29834326171875000000e+03) (231, -6.99058776855468750000e+02) (232, -5.65671806335449218750e+01) (233, -2.22600390625000000000e+03) (234, 2.55018806457519531250e+00) (235, -4.80105255126953125000e+02) (236, -5.52461433410644531250e+01) (237, -6.73496704101562500000e+02) (238, -6.23868896484375000000e+02) (239, -7.43993774414062500000e+02) (240, -1.01747961425781250000e+03) (241, -7.83382751464843750000e+02) (242, -3.33263977050781250000e+02) (243, -2.49530181884765625000e+02) (244, 1.42598358154296875000e+02) (245, 3.05881835937500000000e+02) (246, -2.94659515380859375000e+02) (247, -8.74971679687500000000e+02) (248, -9.89004760742187500000e+02) (249, 1.45126998901367187500e+02) (250, -1.01063476562500000000e+03) (251, -5.01081726074218750000e+02) (252, -4.65294708251953125000e+02) (253, -4.24995086669921875000e+02) (254, -4.17473724365234375000e+02) (255, -2.59146118164062500000e+02) (256, 1.87477111816406250000e+02) (257, 3.76833648681640625000e+02) (258, -9.78861328125000000000e+02) (259, -3.32080017089843750000e+02) (260, -1.22493872070312500000e+03) (261, -1.12530554199218750000e+03) (262, -5.81761047363281250000e+02) (263, -5.01523513793945312500e+01) (264, 2.67216247558593750000e+02) (265, 1.04554471969604492188e+01) (266, -1.75961246490478515625e+01) (267, -1.16047131347656250000e+03) (268, -6.22387237548828125000e+01) (269, -7.34466308593750000000e+02) (270, -9.18980163574218750000e+02) (271, -1.22981399536132812500e+02) (272, -1.32580114746093750000e+03) (273, -3.10878631591796875000e+02) (274, -1.53199739456176757812e+01) (275, -8.09884643554687500000e+02) (276, -1.99454467773437500000e+02) (277, -3.52410552978515625000e+02) (278, -1.05878515625000000000e+03) (279, -5.27864746093750000000e+02) (280, -7.36655700683593750000e+02) (281, -6.93066787719726562500e+01) (282, 2.37751296997070312500e+02) (283, -3.86617858886718750000e+02) (284, 2.86998107910156250000e+02) (285, 9.97858200073242187500e+01) (286, -6.05787597656250000000e+02) (287, -8.71588317871093750000e+02) (288, -3.12949279785156250000e+02) (289, 9.08348846435546875000e+00) (290, -8.63517395019531250000e+02) (291, 1.87633056640625000000e+02) (292, -5.23100036621093750000e+02) (293, -6.53957458496093750000e+02) (294, -2.39171676635742187500e+02) (295, -2.57595092773437500000e+02) (296, -6.27576980590820312500e+01) (297, -1.26297155761718750000e+03) (298, -8.62105834960937500000e+02) (299, -5.50558410644531250000e+02) (300, -5.17275573730468750000e+02) (301, -6.47234153747558593750e+00) (302, 1.06586723327636718750e+02) (303, -5.29122131347656250000e+02) (304, 4.89740051269531250000e+02) (305, -4.05549545288085937500e+01) (306, -6.24073913574218750000e+02) (307, -9.20041046142578125000e+01) (308, 4.40457397460937500000e+02) (309, 4.39572998046875000000e+02) (310, -9.02825805664062500000e+02) (311, -3.95659667968750000000e+02) (312, -9.44132507324218750000e+02) (313, -3.12121551513671875000e+02) (314, -6.10155578613281250000e+02) (315, 1.19241813659667968750e+02) (316, -2.81827728271484375000e+02) (317, 1.72702941894531250000e+02) (318, -9.23157470703125000000e+02) (319, -2.61199005126953125000e+02) (320, -1.07580993652343750000e+03) (321, 5.36452198028564453125e+00) (322, -5.28312561035156250000e+02) (323, -3.14377868652343750000e+02) (324, 5.07192268371582031250e+01) (325, -1.69024391174316406250e+01) (326, -3.61261505126953125000e+02) (327, 2.61275299072265625000e+02) (328, 2.49031906127929687500e+02) (329, -2.45835617065429687500e+02) (330, 4.53991432189941406250e+01) (331, -3.87062103271484375000e+02) (332, -5.35508117675781250000e+02) (333, 1.01789230346679687500e+02) (334, -3.14647491455078125000e+02) (335, -3.41615966796875000000e+02) (336, 1.66100616455078125000e+02) (337, -3.03792938232421875000e+02) (338, -3.70161834716796875000e+02) (339, -3.10942810058593750000e+02) (340, 4.18247314453125000000e+03) (341, 3.86794185638427734375e+00) (342, -3.92423242330551147461e-01) (343, 2.11728334426879882812e+00) (344, -4.11598086357116699219e-02) (345, -2.77550339698791503906e+00) (346, -6.22910201549530029297e-01) (341, -2.69809556007385253906e+00) (342, 1.85027062892913818359e+00) (343, 8.32695662975311279297e-01) (344, 1.67686867713928222656e+00) (345, -1.10102474689483642578e+00) (346, -3.62011885643005371094e+00) (341, -1.80915558338165283203e+00) (342, -2.15300679206848144531e+00) (343, -1.61881422996520996094e+00) (344, -1.39975488185882568359e+00) (345, -1.66636407375335693359e+00) (346, -8.35055172443389892578e-01) (341, -1.85257065296173095703e+00) (342, -1.75339269638061523438e+00) (343, -2.00177502632141113281e+00) (344, -9.06218945980072021484e-01) (345, 2.02750730514526367188e+00) (346, -6.74641311168670654297e-01) 
